solver_type L2R_L2LOSS_SVC_DUAL
nr_class 7
label 2 1 8 7 6 12 14
nr_feature 228
bias 1.000000000000000
w
-0.05924413355516964 -0.04195774054305114 0.1948624710161144 0.005738345461812955 -0.02939345166339408 -0.07090190254699509 -0.01072532069128423 
0 0 0 0 0 0 0 
0 0 0 0 0 0 0 
0 0 0 0 0 0 0 
0 1.530103000964634 -0.1137411291750520 -1.381974315834504 0 -0.02331928338016951 0 
0.04304791074294664 -0.1386779260744707 0.5054673708901994 -0.2650728809829113 -0.1295884776750147 -0.02372128268634939 0 
0 0 0 0 0 0 0 
0 0 0 0 0 0 0 
0 0 0 0 0 0 0 
0 0 0 0 0 0 0 
0 0 0 0 0 0 0 
0 0 0 0 0 0 0 
0 0 -0.2107352444777276 0.4933512125149647 -0.04472110100120014 0 0 
0 0 0 0 0 0 0 
0 0 0 0 0 0 0 
0 0 0 0 0 0 0 
0 0 0 0 0 0 0 
-0.1834479487691139 0.1352072252288076 0.1446573004473121 -0.07367342342596760 0.2317161387052726 0.04324700901403704 -0.1427541547642909 
-0.3016473953951737 0.1959991099500462 0.09524452186385834 -0.05562539590340813 0.3823509068490115 -0.05928265954416498 -0.1639594897890723 
-0.3307819045926707 0.2619130659218877 0.3698788627165138 -0.2299591149419896 0 -1.734723475976807e-18 0 
0 0 0 0 0 0 0 
0 0 0 0 0 0 0 
0 0 0 0 0 0 0 
0 0 0 0 0 0 0 
0 0 0 0 0 0 0 
0 0 0 0 0 0 0 
0 0 0 0 0 0 0 
-0.4145608059272919 -0.6320780147480367 1.259009506653678 -0.4145234365103582 -0.1060815585585057 -0.02363937145507464 -0.02820889894706570 
0 0 0 0 0 0 0 
0 0 0 0 0 0 0 
0 0 0 0 0 0 0 
0 0 0 0 0 0 0 
0 0 0 0 0 0 0 
0 0 0 0 0 0 0 
0 -2.081668171172169e-17 -0.1442783846313013 0.1885152038901105 -0.07824495227768230 -0.05713088687078972 8.673617379884035e-19 
0 0.3909972273181119 0.02004710710311720 -0.2203408092124959 0 -0.04681787574993721 0 
0 0 -0.09211968897317527 0 0 0 -0.009745068248606643 
0.2191030597961852 -0.05129368879381441 -0.2911521356482293 0.06394498859117193 -0.1089236600539071 0.1575012597793323 4.336808689942018e-19 
-0.2793655277485702 -0.1778621082537993 -0.1296152050123227 0.04032167177116064 -0.03191042040250085 -0.05432148296295677 0.6716324232479467 
-0.3282806616439959 5.724587470723463e-17 -0.3818892361063681 0.3086410666874526 -0.04575155905389916 0.04055182915847058 6.938893903907228e-18 
0 0 0 0 0 0 0 
0 0 0 0 0 0 0 
-5.204170427930421e-18 -0.2242170409783360 -0.1496584073814086 0.5039595506004522 -0.006977283422359894 0 0 
-0.1142362226722086 0.3046356045461808 -0.3268108228482128 -0.5017664831794951 -0.09022211403418215 0.5512225477829028 0 
1.126544724016375 -0.3653320575037746 -0.1463334479051223 -0.5894917418108385 -0.1305011585260612 0 0 
0 0 0 0 0 0 0 
-0.1561444198890164 -0.4220391781780979 -0.2783045512827060 0.3527143899776239 0.1156479912935964 -0.05769141483878401 0 
0 0.2441906793505642 -0.2724923697392936 0.2925387827977219 0 0 -7.646551438271381e-05 
0 0 0 0 0 0 0 
-0.1246301050215819 -0.1461801220265756 0.2871451976734302 0.1379516612745024 -0.2327439046218626 -0.2573197654763588 0 
0 1.011744168482313 -0.2171266160936397 -0.5875586037504197 0 0 -0.1445307658763923 
-0.1561649895852148 -0.6263898175959156 -0.03080875376511141 0.03410603810817214 0.2645377893308369 -0.05586598622875165 -7.806255641895632e-18 
0 -0.2436491062963760 -0.1733161836123282 0.6541248886378955 -0.2623178507348652 0 -0.04403245200979630 
0.1374070773962647 -0.2377438845176478 -0.06901950676318863 0.4586994173898082 -0.06380886985142556 -0.1761182536190189 -0.08936468643479731 
0.1450481592918814 0.1566852410133414 -0.2161039487910091 0.003776907473529809 -0.02615928171085778 -0.04399368182678836 -0.1593830537067300 
0.004540076540815067 -0.3010148977196387 0.1700890981500192 0.1683156199138489 0.1563303206886728 0.03490519861184267 -0.3676932445913055 
0.2853333001121834 -0.3792372867900690 0.05498839346624241 0.01706592011737806 -0.1195887357844902 0.06904912068897330 0.1856545338523269 
0.09827745648655753 -0.01546095909047038 -0.03852739805935874 0.1541495186045785 -0.1145376276981720 -0.2782535747068546 0.03113182717488867 
0.1627079461006741 -0.2471129090392732 -0.09437783642070763 0.3328137850929324 0.09882831788264600 0.007589845850945726 -7.329206686002010e-17 
0 0 0 0 0 0 0 
0 0 0 0 0 0 0 
0 0 0 0 0 0 0 
0 0 0 0 0 0 0 
0 0 0 0 0 0 0 
0 0 0 0 0 0 0 
0 0 0 0 0 0 0 
0 0 0 0 0 0 0 
0 0 0 0 0 0 0 
0 0 0 0 0 0 0 
0 0 0 0 0 0 0 
0 0 0 0 0 0 0 
0 0 0 0 0 0 0 
0 0 0 0 0 0 0 
0 0 0 0 0 0 0 
0 0 0 0 0 0 0 
0 0 0 0 0 0 0 
0 0 0 0 0 0 0 
0 0 0 0 0 0 0 
0 0 0 0 0 0 0 
0 0 0 0 0 0 0 
0 0 0 0 0 0 0 
0 0 0 0 0 0 0 
0 0 0 0 0 0 0 
0 0 0 0 0 0 0 
0 0 0 0 0 0 0 
0 0 0 0 0 0 0 
0 0 0 0 0 0 0 
0 0 0 0 0 0 0 
0 0 0 0 0 0 0 
0 0 0 0 0 0 0 
0 0 0 0 0 0 0 
0 0 0 0 0 0 0 
0 0 0 0 0 0 0 
0 0 0 0 0 0 0 
0 0 0 0 0 0 0 
0 0 0 0 0 0 0 
0 0 0 0 0 0 0 
0 0 0 0 0 0 0 
0 0 0 0 0 0 0 
0 0 0 0 0 0 0 
0 0 0 0 0 0 0 
0 0 0 0 0 0 0 
0 0 0 0 0 0 0 
0 0 0 0 0 0 0 
0 0 0 0 0 0 0 
0 0 0 0 0 0 0 
0 0 0 0 0 0 0 
0 0 0 0 0 0 0 
0 0 0 0 0 0 0 
0 0 0 0 0 0 0 
0 0 0 0 0 0 0 
0 0 0 0 0 0 0 
0 0 0 0 0 0 0 
0 0 0 0 0 0 0 
0 0 0 0 0 0 0 
0 0 0 0 0 0 0 
0 0 0 0 0 0 0 
0 0 0 0 0 0 0 
0 0 0 0 0 0 0 
0 0 0 0 0 0 0 
0 0 0 0 0 0 0 
0 0 0 0 0 0 0 
0 0 0 0 0 0 0 
-0.2050209317298890 -0.1245846346653055 0.1859329269507779 -0.07701692520794673 0.1084427994365562 0.007075984477575945 0.07048473123231663 
0.1407276567455412 -0.1142142411795832 0.04322712309773184 -0.07378998218409594 0.03645007614504038 -0.02782448430260701 -0.1601879169290470 
-0.007879342133106523 -0.2801677308859525 0.07263881079783958 0.09417983304000799 -0.2244786134102998 -0.1346752484191568 4.336808689942018e-18 
-0.05909324490127133 -0.1740051284482702 0.09946868981878050 -0.03373599811196650 -0.1224390103354930 -0.02730502269371168 0.08589469564543736 
0.1517096458968265 -0.003417341125218215 -0.2274640992193538 0.1160321290254466 0.09686598583443500 -0.07090190254699504 -0.1210466374495756 
-0.1722962421236705 0.4013036250800408 -0.5728759896430076 0.06259136776795665 9.107298248878237e-18 -9.107298248878237e-18 -0.1189907898506298 
0.04304791074294664 -0.1386779260744707 0.5054673708901994 -0.2650728809829113 -0.1295884776750147 -0.02372128268634939 0 
-3.469446951953614e-18 -0.07062056784768639 -0.1137411291750520 0.4820786565166007 -0.03123174375706292 -0.02331928338016951 0 
-0.1176898568135012 0.4856125297729842 -0.2676747402236927 -0.4145234365103573 -0.1060815585585057 -0.02363937145507464 -0.02820889894706570 
0 0 0 0 0 0 0 
0 0 0 0 0 0 0 
0 0 0 0 0 0 0 
0 0 0 0 0 0 0 
0 0 0 0 0 0 0 
0 0 0 0 0 0 0 
0 0 0 0 0 0 0 
0 0 0 0 0 0 0 
0 0 0 0 0 0 0 
0 0 0 0 0 0 0 
0 0 0 0 0 0 0 
0 0 0 0 0 0 0 
0 0 0 0 0 0 0 
0 0 0 0 0 0 0 
0 0 0 0 0 0 0 
0.2264944043161230 0.01877141537346522 0.2750210367057753 0.1092572366472657 0.3720605423203476 0.3243106110064846 0.2720548162985644 
0.2264944043161230 0.01877141537346522 0.2750210367057753 0.1092572366472657 0.3720605423203476 0.3243106110064846 0.2720548162985644 
0 0 0 0 0 0 0 
0 0 0 0 0 0 0 
-0.1253721385090476 0.2941064614526362 0.1310363074994132 -0.5948127744648818 -0.1664051752942458 -0.1266925213951543 0.05109495128689327 
0.1670395903689461 -0.7039335536910715 0.3813981198296693 0.1348593295115641 2.279535067650773e-17 -0.01715139385118047 -6.938893903907228e-18 
0.1579032235092333 0.1413660880669517 -0.06394949258278698 -0.07531812171297848 -0.3466653081329886 0.007308221821737173 -0.05368007386100328 
0.03813343488549172 0.3613675188768089 -0.2001719557638017 -0.09784892234549183 -0.1317589198082896 0.05993927198770866 -0.09287142599382882 
-0.1943955677823434 -0.1957692471171222 -0.04354155398960360 0.2729801042221608 -0.1567606521314336 -0.1233512166746863 -0.09674529817406980 
-0.2921405225820911 -0.3458611066168988 -0.3212093843136510 0.5371232340863955 0.1435480940281153 -0.02590377198992885 -0.06600845949098080 
0.02233757579368380 0.4299524236552323 -0.1585830773850178 -0.2862400859440302 0.2859814190184953 -0.09845920090498578 -0.01384451006557286 
-0.5678146645478311 0.5313010205831170 0.08732605314034173 -0.2470679977113258 -0.2200441349107086 -0.01592226585796553 -0.1650350146569248 
-0.2718863495893567 -0.4055433315078351 0.3115518854469056 0.3315670484042810 0.2843947252232625 0.001071107906078959 0.02528377569695836 
1.043147637652654 -0.8225622319996406 -0.6247846889175724 -0.3596279718087191 -0.2394631986808218 -0.08604915116398748 8.673617379884035e-19 
-0.08185836462800808 0.1655582955663335 -0.05775885973305630 0.1317178862726819 -0.06913621220733007 0.001617877658962207 -0.3676932445913056 
-0.08669935239841531 -0.1128557430318333 0.07304741491565848 0.1976532685415394 -0.1756480662147932 -0.04870268163709825 0.2353896672527107 
-0.02992527976461086 0.09286126467414477 -0.02104296698293309 0.09025386743547430 -0.02104444394480139 -0.1763254979124788 0 
-0.2314580310405490 0.5324693103422631 -0.04335987457512516 -0.2537533377811971 0.06888078841485235 0 -3.469446951953614e-18 
-0.1358663312450110 -0.5686915974215302 -0.09597138226913521 0.6459908115410478 -0.1510698153409187 -0.2804079778330301 -0.06202913012990778 
-0.09727999184580212 0.5693599399599968 -0.04341987563729976 -0.5265650456968107 -0.2813683983088112 -0.05432148296295689 0.06137771100512243 
-0.2675377861766255 0.2883755243613482 -0.3717555318357284 -0.1207207939911369 0.06174319012158359 -0.001546000267823744 1.734723475976807e-18 
0.2741897049513193 -0.3078152822732815 0.2361257530363891 -0.1079622085003580 -0.001365518792195536 0.01196485005732107 -0.2714033971737756 
-0.2264944043161230 -0.01877141537346522 -0.2750210367057753 -0.1092572366472657 -0.3720605423203476 -0.3243106110064846 -0.2720548162985644 
-0.04057956868038585 0.09036653266507307 -0.1579388203540154 -0.2676756063242650 -0.01857985892782124 -0.3680570580971553 -0.1362617762785797 
-0.1859148356357397 -0.1091379480385393 -0.1170822163517609 0.1584183696770018 -0.3534806833925228 0.04374644709066704 -0.1357930400199824 
0 0 0 0 0 0 0 
0 0 0 0 0 0 0 
-0.07370995588128533 0.1039294820380367 0.02902992651728183 -0.07761690685331432 0.02246392682006490 -0.003879311676876683 0.06552334816138260 
0.001836823437712354 -0.2524160503575788 -0.1683588097477635 -0.005714558129746312 0.1474659937899831 0.3364197054400586 -0.2582666914024141 
0 0 0 0 0 0 0 
0 0 0 0 0 0 0 
0 0.2607806652601786 -0.3559801580566400 0 0 0 0 
-0.4633936001226050 -0.6822069153363907 -0.2931935489325907 0.6457067793025040 0.6968753435217034 0 0 
0 0.1148606298737020 -0.1012700525917062 0 0 0 0 
0.07309758017241705 -0.1264323637323077 0.02843307797940112 0.1319061079439987 -0.1107766807828302 0.1150754807114146 -0.08654030249667147 
-0.2475247373370516 0.4921352442622751 0.01277149175448435 -0.5464128106076228 -0.5523756504228421 -0.03846268327905187 -0.09630114975341086 
-0.1039028478850947 0.1264381522445020 -0.6787136006006879 0.6686311282585805 -0.08623070843864085 -0.002050134909844871 -0.06085983242816958 
-1.224387297443287 0.6998248547221428 -0.1420013485846092 -0.3848168888455841 -0.05322119970504927 0 0 
0.5141371489380041 -0.1515589444957267 0.008921231086170378 -0.3403392071316875 -0.01301915263406179 -0.002289016395968661 0 
0.1319663133739224 0.5575925521303632 -0.3283945072672019 -0.4311740597915328 8.673617379884035e-19 -0.05432148296295677 -0.2582666914024140 
-0.1956038261042035 -0.8573921947957193 0.4159143912490622 -0.1555615559004166 -0.2303436047247851 0 1.086721044171399 
0.5980353913189984 -0.02564607557556392 -0.2426258736959494 -0.1423260496411003 -0.2041652443883842 -0.1099621345884765 -0.02104097774884442 
0.4481145940416699 -0.4819059810330578 0.1374656496098949 -0.2004729518619365 -0.1264317684202858 -0.08966068480532985 0 
-0.01742247165776047 0.5268232828406595 -0.3214581387122669 -0.2862697305897485 0 0 0 
0 0.6496158737938366 -0.3155681804041974 -0.2142837295957351 0 0 0 
-0.02391664327172684 -1.422324625669757 1.090788688862652 -0.8273987215812413 0.8164313153002426 0 0 
0 0 0 0 0 0 0 
1.089454393431133 -0.3274482647323562 -0.1961232394256626 -0.4604693404296027 0 -0.08671370164622905 -0.4731767702243380 
0 0.2783309341802880 -0.1860994083306554 -0.01287230630861473 0 0 -0.07980094670151311 
-0.02264435546840590 0.1603219632811425 -0.1907586195617866 0.1403856727834540 -0.05286035885345641 -0.1246273656921742 -0.1094337177046124 
0 0.2638101584176104 -0.1987936941684630 -0.08829015561440678 0 0 0 
-0.2172848292100093 0.01564452979418773 -0.3505593435394120 0.5882541451452500 0 0 0 
-0.05859734644528258 0.1475834213783608 -0.1045452392292115 0.1247663809608310 -0.1203316338764492 -0.002134098487074587 0 
0 -0.3118351563572699 0.2649513061770466 0.09346385097070464 0 0 0 
0.8206097733100963 -0.1408035109971732 -0.3487362489398990 -0.4826944718459122 -0.3190482740367274 0 0 
-0.1721402550379212 -0.07531511285413775 0.1184990899877723 0.1726175977395528 -0.1113838253180899 0 0 
-1.358456781569829 0.5625172237743825 -0.3610083517676784 0.3638850449053042 -0.2271368191634893 -0.2536640055016659 0 
0 0.5585858726613641 -0.5125989629702858 0 0 0 0 
0 0 0 0 0 0 0 
0.7240553025212233 -0.3482232563601172 -0.2867809096895903 0.1483353777956474 -0.002904502577321697 -0.1089882353241381 -0.1131834848890849 
0.2695140837418786 -0.1063242977970895 -0.07865199255450206 0.05325126236290993 0.1518935523965592 -0.1280076210469844 -0.02887341680649808 
-0.1721832681378397 0.2573721501032028 -0.3470444000928775 0.09913989773155038 0 0 -0.1065501288360587 
0 0 0 0 0 0 0 
0 0 0 0 0 0 0 
0 0 0 0 0 0 0 
0 0 0 0 0 0 0 
0 0 0 0 0 0 0 
0 0 0 0 0 0 0 
-0.2180710248595602 0.1401042256241201 -0.3184608354522610 0.2572982354013818 0.1509248634739291 1.734723475976807e-18 1.734723475976807e-18 
-0.1625725404492169 0.1398071462149280 -0.05376156527395398 -0.04986326285118138 -0.5238384868944151 -0.01733619448571652 -0.02395186717807275 
6.938893903907228e-18 0.4772194361287041 -0.1771340906570183 -0.3487715631824999 8.673617379884035e-19 -3.469446951953614e-18 0 
-0.3605030130242826 -0.03126929681456733 0.1083958632223002 -0.05131512956795145 -0.2677421951838701 -0.03846268327905184 -0.02013605115310554 
-0.1249338812601835 0.004683232561542038 0.06776017035053797 -0.1021942262184822 0.1088892739006694 -0.3434870489256880 -0.04678554048053790 
0.6905289867098459 -0.3865446206478717 0.1463561581267077 0.007569526556593598 -0.2764831017592807 0 0 
0.2549333600585036 0.01924337876725030 0.01749355269081395 -0.2883209454660704 -0.5242442951926551 -0.1099621345884764 -0.02947252148205695 
-0.5366923733789865 -0.3286810447391013 0.1934268531037481 -0.1868329815224694 0.4402594732996854 -0.1089882353241381 -0.01468965243920159 
-0.2108100541733735 -0.01959362792209577 0.07651495509119849 0.09339173719625765 -0.6061686465857734 -0.1633097182870948 0.06607951589644293 
0.1354749804731976 0.001707254887229135 -0.02726913956884036 -0.01389498890203460 -0.3346913431441708 -0.03846268327905184 -0.01468965243920159 
0.3669339231232668 0.5698494717102487 -0.2725285363964501 -0.5491975534112191 -0.01338092280496605 0 0 
0.5639887278855510 0.1191125344919087 -0.3128715580887463 -0.5299537011882572 -0.02149867482497665 -0.01733619448571652 0 
-0.5057640819794991 0.5513415704028664 -0.1365317900862791 -0.2263373106072789 0.4321483235984328 3.469446951953614e-18 -0.01468965243920159 
-0.4314710417139610 -0.09219975231440286 0.4332155411194187 -0.1166695773603013 -0.03982795679256478 0 0 
