solver_type L2R_L2LOSS_SVC_DUAL
nr_class 10
label 5 2 8 6 1 14 11 12 7 13
nr_feature 94
bias 1.000000000000000
w
-0.02152833714579816 0.09387125262197100 -0.3062901586665075 -0.1324459794358102 0.2410541979909778 0.09367726846173234 0.02427084718177308 0.05432081631375582 0.1557648508260990 -0.03060423278130240 
-0.02457073502099716 0.1922291721320613 -0.5926511469617084 -0.3205866127087351 0.5646274637521985 0.05736347857473619 0.04320152522710963 0.05261953912193464 0.3416427015881960 -0.1392353465305121 
-0.2247477060157645 -0.2498276431558887 0.1291451068330742 -0.1726339587006541 -0.2565467370897043 -0.2168893388767519 -0.2203932650514240 -0.1970740889082464 -0.3271274815144284 -0.2308406189353811 
-0.2157723025631488 -0.2214952290267000 0.03579468862022933 -0.1385731577285995 -0.2206434817529347 -0.3074920931397441 -0.2457108477735652 -0.2385792032533915 -0.2322463854349552 -0.2066968216512842 
-0.04790823214271195 -0.08666859551018839 0.2447338851647152 -0.2054191215572234 0.01793813270413262 0.007632676256046365 -0.09191362606933613 -0.03756230080268829 -0.2209856181943173 -0.07783370713803917 
-0.05701407676523684 -0.04897527938088475 0.05743780693008602 -0.07489129167437983 -0.1260687228530746 -0.1392393919692392 0.09619034551534729 -0.1282208846338983 -0.009053039723407954 -0.1188950252651801 
-0.06605180270003130 -0.06299843056574965 -0.002744107992707245 0.02532078230030482 -0.04661653145561116 -0.03274644854529694 -0.03511671181349085 -0.4129786834869252 -0.1999205935440775 0.08591066162901748 
-0.06925120856007450 -0.1474967962952967 0.2275456489833888 -0.1063867014143516 -0.04421464169903829 -0.4758222136090435 -0.07888599053241166 -0.003681820469745292 -0.07786940124996096 -0.1062081355748611 
-0.06766549258778132 0.01086707936700260 0.08231347335905220 -0.05934713168632230 -0.2127267344669827 -0.1520907440788366 -0.2171762632092287 0.03331816466043062 -0.02717216581033029 -0.2102488917312783 
-0.07638741158657128 -0.1054736087935178 -0.4549518465595935 0.1798321739734817 -0.08808024139499857 0.2480857750531299 -0.06563667152180869 0.07734758138600867 0.08663561314405717 0.02991344229714383 
-0.05624178423650727 -0.03057724100395765 0.01060493556836058 -0.07031582637076474 0.02257852032293483 0.01979891487674694 -0.07356519519406325 0.03612465118518060 -0.1110086615713458 -0.04017578480347192 
-0.05745148537159005 -0.1041098264519593 0.1328556595749011 -0.1066372802633799 0.03724836742413039 -0.1039762624218272 0.005452833323125578 -0.1300786280507880 -0.1274181999436346 -0.04640546823445185 
-0.07423043108989605 -0.04569288252386056 -0.05730468783796504 0.002008991789732918 -0.03459781085201049 -0.2528803992764412 -0.1064588010098052 -0.1255880399942728 0.1297211604754485 -0.1492359843123474 
-0.05348975926189734 -0.1133097038501447 0.08041925507958880 -0.07082797950761921 -0.3046777337441711 -0.1154959805491672 -0.1068693047462034 0.1029649447741339 -0.1491101434867786 -0.004621993322779242 
-0.05047424701375858 -0.07020046633314966 -0.05599722348238526 -0.02782805207727642 0.05650327568096449 -0.006023751742448512 0.004762750647781634 -0.07797552286410382 -0.08413133146331818 -0.05588593885032719 
-0.07028194625966697 0.02393290404973676 -0.1453869903809791 -0.02609033039968784 -0.01659026486452423 0.07876659119041965 -0.1573164642953392 -0.07746764839359449 0.01757925067116936 -0.1603715910266190 
-0.07142008903309913 -0.06628763419573763 0.1523348199201460 -0.05286373895717925 -0.09191257284261029 -0.07769369266716783 0.03808553743472352 -0.05959092971112226 -0.2147000405623461 -0.08771734187920083 
-0.06317205054900576 -0.09565526287747647 0.05801896257999578 -0.02896872701384737 -0.1231634796444183 -0.04707793654986102 -0.1437606641792736 -0.06791746792188920 -0.1313145626399221 0.06670087703905876 
-0.1091477322832787 -0.2270124193574014 0.3270353867921357 -0.01259209579115864 -0.3776070260482476 -0.3033317173110184 -0.1653820292093674 -0.2209812242326403 -0.06860428392255184 -0.003934786357315023 
-0.1230026358535477 -0.1353805544887556 -0.2060453375767383 -0.09718215611819628 0.2441740914539644 -0.06810269669457286 -0.02711312330293706 -0.1282056419182289 -0.1580262265189197 -0.1511728892527681 
-0.09533435379313444 -0.01259205449841300 -0.2827658571812604 -0.09545445711408880 0.007728847727915569 0.1110844649707648 -0.1748298897355749 0.1970631024830501 -0.3289030041594162 -0.2163318113663781 
-0.1130352866489524 -0.09633784383802006 0.3267156034191615 -0.1059784074058133 -0.3514861319762710 -0.2640314829816672 -0.09877907057711400 -0.2835295284938184 -0.003840352348496889 -0.06609795361020660 
-0.4405200085789099 -0.4713228721825861 0.1649397954533008 -0.3112071164292543 -0.4771902188426338 -0.5243814320164993 -0.4661041128249905 -0.4356532921616448 -0.5593738669493553 -0.4375374405866579 
-0.1019504923104536 -0.0005483941044054523 -0.1452038139842894 -0.1516591309302272 0.09195796490948262 0.03562291353188344 -0.1388962070971134 0.03588241698632479 0.05273057335406147 -0.1246466637374714 
-0.1107584996047270 0.07425736022911195 -0.3098706947503166 0.005386230791516587 0.1021256303516661 0.1243696901009750 -0.2096374303615053 0.06825054328838984 -0.3411492770149238 -0.1109203410828164 
-0.1213975880422511 -0.02850223568336910 -0.4405756034078682 0.2120899983114917 -0.1041040770345669 -0.4354201372365245 0.02805376363853090 -0.1258277864494481 -0.04298470348931538 0.04735083612899407 
-0.1064134286214804 -0.5165296026239278 1.060589907595777 -0.3770242146020294 -0.5671697370692232 -0.2489538984128272 -0.1456242390048999 -0.4139584659869027 -0.2279704597992067 -0.2493212718953706 
-0.01052326873553189 -0.05880066198691403 0.1188381588258591 0.06128245582747748 -0.1086084644851245 0.07559919847194904 -0.001991691606180912 -0.01125638034569776 -0.08129642832450660 -0.004812686027272394 
-0.01587501360631162 0.3128320374630813 -0.2254845499876660 0.02259716568675708 -0.1063420209688885 0.08103179227543850 -0.1935612316056640 -0.1342056469373559 0.08247453093620640 -0.02006636487386504 
-0.01223020389973313 -0.1905182631003835 -0.09582354799969672 0.07133318121267343 0.02854673936921827 -0.02530987779912957 -0.1699353816668617 -0.02263745241309650 0.2524633060480700 -0.1382227578973129 
-0.01087282973208485 -0.1787091362568350 -0.04014914801603409 -0.02790297851418346 0.2352126988936565 0.07979669139343112 -0.1382796995898325 0.04863535588763793 -0.1095924800916674 -0.2596188002830162 
-0.01282656665596741 -0.05279031410818095 0.1436990253696202 -0.07038246716314103 -0.04023240583773480 -0.01359030157901449 -0.07071474969353606 -0.01169261455204310 0.03545545912381379 0.008889084667994594 
-0.01184229329988536 -0.2922318337125795 0.2104856187536971 -0.05525372232061390 -0.1961506037269230 -0.2159394212557373 -0.08975906753098771 0.06922626016121931 0.1745289321987482 -0.1493067984725299 
-0.01211856890727433 0.05241580228779831 -0.003323448557403123 -0.06294163899026178 -0.1777660822447178 0.1498810986947854 -0.003666366037082068 -0.2612478318292505 -0.2674858860471030 0.1690336474102561 
-0.01113567775807474 0.06502612219291701 -0.1700237573785400 0.004783090248902333 -0.009455562953365788 0.1900420857756739 -0.1566373314041522 0.007785227953594417 -0.1611932436554632 0.06962586692763492 
-0.01269111591891606 -0.04332698339836465 0.08593932880130832 -0.01338887427479252 0.08728417973887626 -0.1282638583577782 -0.01675844880185954 -0.09232685647883633 0.07797288817873659 -0.07546172361514583 
-0.005763122376086849 0.03893039866312478 0.05822100026057822 0.02532611152434485 -0.03161284316618642 -0.1462994226914183 -0.05720007711822071 -0.1715634173328847 0.03560547599604597 -0.08933561972618632 
0 -0.2338506037010351 -0.8088983237494690 -0.1322900015863895 -0.2611221229165571 1.417140269520451 -0.02650250067754197 -0.1116319024054810 -0.1221774059699547 -0.05002087661112199 
-0.008789498877442868 0.1585923485673094 -0.05816672471522441 -0.2662365100562451 -0.3691988792708647 -0.1464561588018898 0.009998929322228630 0.07452057705654651 -0.1284691707082854 0.07465067021514056 
-0.008774761376743033 0.1092865291880586 -0.06213755613002961 -0.07931139220403022 0.1164206244814575 -0.05160495623630934 -0.01626289986696291 -0.03940671018344602 -0.03291052456591746 -0.03266490370231494 
0 0 0 0 0 0 0 0 0 0 
0 0.3046637704502199 -0.5240370466695452 -0.2738570642138826 -0.1637428477887563 0.7296329658644659 -0.01002302908337389 -0.09478578502368232 -0.1097153977250906 -0.08658105464012172 
-0.001097086245211320 0.1535555833270476 -0.3760292652827787 -0.1917625434331673 -0.2337066714256519 0.3074373331405000 0.1621770647927914 -0.03625451156249054 -0.08722188060767104 0.1391946318477333 
-0.005200098483751464 -0.05648540581682561 0.09864538676592771 -0.2269787048176558 -0.3073086423196230 -0.1319518996347644 -0.03330698586052017 0.2875426466604347 -0.06331415304021074 -0.06009048880476219 
-0.009722302398261170 -0.02996423571432326 -0.03049583221601512 0.01013909364364589 -0.07287741483473045 -0.09875315454773817 -0.02588703375018659 0.01289922650113751 0.1350163255421980 -0.06880355615053360 
0 0 0 0 0 0 0 0 0 0 
-0.002489573102882598 -0.1007814116437487 0.02611136138090642 -0.08482177507924071 0.2386295130923050 -0.09057501799221808 -0.003093865925912055 -0.06610014953248973 -0.06524196984322733 -0.02174001969261526 
-0.005258782954051056 -0.05642533701739053 0.01272993907410880 -0.07492524408710466 -0.1226834637770514 -0.01890505582823292 -0.01280822435871684 0.1749282222041222 -0.03217987547441751 -0.02951123913098162 
-0.01111702177193654 -0.1486339173742927 0.1259657018271249 0.1095628397696982 -0.006957076127287486 -0.2839664461056513 -0.1523132028610287 -0.2610585929020129 -0.2138712964971536 -0.02697705028612033 
-0.008707200138905061 -0.06654973963468712 1.415484577883961 -0.6072048662953950 -0.3000868411265453 -0.02960479782643859 -0.1694960858155517 -0.07323341200633360 -0.08535504109920979 -0.1415320806792751 
-0.008801808297516946 -0.03818294559298677 0.1018888320228199 0.04632700706031254 0.01600084986982186 0.03378244148931950 -0.08816425379994129 -0.05995432608706257 -0.2134934334081777 -0.1106414100701638 
-0.008771184058159891 0.06389464912305066 -0.04766650120642119 -0.02474201101874107 -0.04855735532507863 -0.01804094095565052 -0.07281595267499076 -0.07101569656266034 -0.08992580830459367 0.07796895228195719 
0 0 0 0 0 0 0 0 0 0 
-0.005726425653489567 -0.03617849675714344 0.2446937636397957 -0.2029135015397998 -0.05874755847033304 0 -0.06905286982785122 -0.02787236990297520 -0.04813683904377515 -0.08883982908892753 
-0.001985047255278815 -0.01386027695796600 -0.01576004296382627 0.1401985475992982 -0.004354185461585302 -0.07272292424386215 -4.336808689942018e-19 -0.03125591638205003 -0.1040089559621386 -0.05548886506416692 
0 -0.1167084385129190 0.5840691034960065 -0.01892357988204816 -0.2173593617378822 -0.09212389098819723 -0.02103525089089547 -0.08833801945178082 -0.08230671439442160 -0.009521918292290148 
0 0 0 0 0 0 0 0 0 0 
0 0 0 0 0 0 0 0 0 0 
0 0 0 0 0 0 0 0 0 0 
0 0 0 0 0 0 0 0 0 0 
-0.01466683670639033 -0.1355879584703859 0.2099150866956250 -0.3724712719330163 0.3552079734499201 -0.03165501128582604 -0.09912679486820658 -0.06071552060282175 -0.1458346620270347 -0.1606890043355952 
-0.009722302398261170 -0.02996423571432326 -0.03049583221601512 0.01013909364364589 -0.07287741483473045 -0.09875315454773817 -0.02588703375018659 0.01289922650113751 0.1350163255421980 -0.06880355615053360 
-0.005763122376086849 0.03893039866312478 0.05822100026057822 0.02532611152434485 -0.03161284316618642 -0.1462994226914183 -0.05720007711822071 -0.1715634173328847 0.03560547599604597 -0.08933561972618632 
-0.01463585458851161 -0.08172197953187306 0.06120069515840731 -0.1727227572179494 0.3602389223604391 6.938893903907228e-18 0 -0.09534618685880601 -0.08060908017693141 -0.05692354582934581 
-0.01489924511059555 -0.007920396358307706 0.1477134233809939 -0.06027001882169415 -0.02622205787138204 -0.1396020522168774 -0.04386627018843439 0.07839608354895780 0.001148541653472498 -0.1134532878027914 
-0.005726425653489567 -0.03617849675714344 0.2446937636397957 -0.2029135015397998 -0.05874755847033304 0 -0.06905286982785122 -0.02787236990297520 -0.04813683904377515 -0.08883982908892753 
-0.008789498877442868 0.1585923485673094 -0.05816672471522441 -0.2662365100562451 -0.3691988792708647 -0.1464561588018898 0.009998929322228630 0.07452057705654651 -0.1284691707082854 0.07465067021514056 
-0.001097086245211320 0.1535555833270476 -0.3760292652827787 -0.1917625434331673 -0.2337066714256519 0.3074373331405000 0.1621770647927914 -0.03625451156249054 -0.08722188060767104 0.1391946318477333 
-0.005710632402410744 0.6930243226661748 -0.2348141678586936 -0.1409676971638135 -0.2261168047099390 -0.08821241634833553 -0.01383280066002772 -0.06088310777972779 -0.3005193475915732 -0.1363366737355637 
0 0 0 0 0 0 0 0 0 0 
0 0 0 0 0 0 0 0 0 0 
0 0 0 0 0 0 0 0 0 0 
-0.008639766370489228 -0.1426437623450862 0.2163664759642078 -0.2280756500718009 -0.1076074390367163 0.5393614930670420 -0.004797206503563428 -0.06481961269549175 -0.4197342144634693 -0.02989892492194322 
0 0 0 0 0 0 0 0 0 0 
-0.008801808297516946 -0.03818294559298677 0.1018888320228199 0.04632700706031254 0.01600084986982186 0.03378244148931950 -0.08816425379994129 -0.05995432608706257 -0.2134934334081777 -0.1106414100701638 
0 0 0 0 0 0 0 0 0 0 
-0.005200098483751464 -0.05648540581682561 0.09864538676592771 -0.2269787048176558 -0.3073086423196230 -0.1319518996347644 -0.03330698586052017 0.2875426466604347 -0.06331415304021074 -0.06009048880476219 
0 0 0 0 0 0 0 0 0 0 
-0.002489573102882598 -0.1007814116437487 0.02611136138090642 -0.08482177507924071 0.2386295130923050 -0.09057501799221808 -0.003093865925912055 -0.06610014953248973 -0.06524196984322733 -0.02174001969261526 
-0.005258782954051056 -0.05642533701739053 0.01272993907410880 -0.07492524408710466 -0.1226834637770514 -0.01890505582823292 -0.01280822435871684 0.1749282222041222 -0.03217987547441751 -0.02951123913098162 
-0.0002711319591221686 -0.03702662292310259 0.3035947060964123 -0.1062383408233784 0 -0.002540261926830387 0 -0.05873761820445090 0 -0.1118345003693327 
-0.008771184058159891 0.06389464912305066 -0.04766650120642119 -0.02474201101874107 -0.04855735532507863 -0.01804094095565052 -0.07281595267499076 -0.07101569656266034 -0.08992580830459367 0.07796895228195719 
0 0 0 0 0 0 0 0 0 0 
-0.02014241425301907 0.4908418857629601 0.1597916767132108 -0.3799697343959173 -0.09881863202416236 0 -0.1387624696964396 8.673617379884035e-19 -0.01846481684128337 -0.1708925678930552 
-0.001985047255278815 -0.01386027695796600 -0.01576004296382627 0.1401985475992982 -0.004354185461585302 -0.07272292424386215 -4.336808689942018e-19 -0.03125591638205003 -0.1040089559621386 -0.05548886506416692 
0 0 0 0 0 0 0 0 0 0 
-0.008774761376743033 0.1092865291880586 -0.06213755613002961 -0.07931139220403022 0.1164206244814575 -0.05160495623630934 -0.01626289986696291 -0.03940671018344602 -0.03291052456591746 -0.03266490370231494 
-0.01492157608609539 -0.1678816228500257 -0.06654798894602543 0.07027773300649778 0.07228629449578111 0.2008137949446232 -0.09913950544900750 -0.08848962969762958 0.1062765006311838 -0.1737711976755896 
0 0 0 0 0 0 0 0 0 0 
0 0 0 0 0 0 0 0 0 0 
0 0 0 0 0 0 0 0 0 0 
0 0 0 0 0 0 0 0 0 0 
0 0 0 0 0 0 0 0 0 0 
0 0 0 0 0 0 0 0 0 0 
0 0 0 0 0 0 0 0 0 0 
