solver_type L2R_L2LOSS_SVC_DUAL
nr_class 10
label 6 13 8 11 14 1 7 2 12 5
nr_feature 233
bias 1.000000000000000
w
0.1172002539432404 0.1387387506843971 -0.2958271960155457 0.2385274839592809 0.02508729855952621 0.1633642555191825 -0.3650568468464599 0.09344786230001513 0.1143734314758226 -0.09917691031093614 
-0.7902967539659504 0.5947212889209564 0.4473088389939526 -1.387778780781446e-17 -0.2628355974320918 0 -0.4141041268214485 -0.1383525318257304 -0.1300574599996607 0 
0 0 0 0 0 0 0 0 0 0 
0 0 0 0 0 0 0 0 0 0 
0.5818602899891048 -0.07932995712439089 0.04277778915861871 -0.03749275337270736 -0.1638703458297631 -0.5041579481433776 -0.1205804252730799 -0.01848219639835649 2.428612866367530e-17 0 
-0.2804545220328428 0 0.6732962992727053 0 -0.007269235262721813 -0.2830716001346217 0 0 0 0 
0 0 0 0 0 0 0 0 0 0 
0 0 0 0 0 0 0 0 0 0 
0 0 0 0 0 0 0 0 0 0 
0 0 0 0 0 0 0 0 0 0 
0 0 0 0 0 0 0 0 0 0 
0 0 0 0 0 0 0 0 0 0 
-0.3043337699748287 -0.1361187235591319 -0.8165425144182241 -0.03331963610812835 1.225393329357555 0 0 0 0 0 
0 0 0 0 0 0 0 0 0 0 
0 0 0 0 0 0 0 0 0 0 
0 0 0 0 0 0 0 0 0 0 
0.5035314047920356 -0.05262723209910224 -0.4730582434587942 -0.2486208907738846 0.8549748309379591 -0.1781258918888488 -0.4928973507150092 -0.01634592976968629 -0.1268455705789110 0 
0.1201026153076161 0.06145368414613749 0.08959203733512647 0.1343086526733954 0.01364201759688351 -0.1947785343372491 -0.04309493629206321 0.1561086906869648 -0.1527349044272164 -0.009566739861456371 
-0.06481835889557910 0.1473036078332903 0.1186469637918418 0.01503385933024253 -0.1114418168089376 0.01940586075560890 -0.1397186255138930 0.1356590193257105 -0.1381135155818865 0.01356152868620677 
-0.3720081215332953 -0.2642086946030924 0.1464558586752272 -0.02562627831081475 -2.775557561562891e-17 0.4356794326775487 3.469446951953614e-18 0.6294798535422818 -0.07726062066418067 0 
0 0 0 0 0 0 0 0 0 0 
0 0 0 0 0 0 0 0 0 0 
0 0 0 0 0 0 0 0 0 0 
0 0 0 0 0 0 0 0 0 0 
0 0 0 0 0 0 0 0 0 0 
0 0 0 0 0 0 0 0 0 0 
0 0 0 0 0 0 0 0 0 0 
-0.1936192484328442 -2.081668171172169e-17 0.2394208191714657 0 0.2710937459141781 -0.2043655859213607 -0.3899064930191805 -0.2340320145609699 -0.1200345751060339 0 
0 0 0 0 0 0 0 0 0 0 
0 0 0 0 0 0 0 0 0 0 
0 0 0 0 0 0 0 0 0 0 
0 0 0 0 0 0 0 0 0 0 
0 0 0 0 0 0 0 0 0 0 
0 0 0 0 0 0 0 0 0 0 
0 0 -0.6164463479080865 0 0 -0.08096572137864386 0.9477437235460462 -0.06579433128482667 0 0 
-0.2574955046656409 -0.2216723480077466 0.04035597420991305 -0.05283803189243813 -0.4765030465431928 0.2319649783178552 0.5137126662272749 -0.1967970472453847 -0.2408495103641464 0 
-0.03342383961178428 -0.05528404109371606 0.5423706004902686 0 0 -0.02006256283987604 0 0 -0.07123916859012266 0 
-0.1840859797596893 0 -0.1988043599067828 0 0.1254481268176799 -0.2434936508311097 -0.5428872056076128 0.5013745552058310 0 0 
-0.08413427729978487 -0.02988875370676845 0.2570384495843541 -0.09931535815244162 -0.3251225402057418 -0.6669534208699635 0.4058798072505284 -0.08666102395344541 0.4420987816833338 0 
0 0 -0.5405374830077478 0 0 -0.1837707371165763 0.8522654228124662 -0.07715356248586093 0 0 
0 0 0.4621531308698477 0 0 -0.2377002891856288 -0.2980601961446138 -0.1723328885366562 0 0 
0 0 -1.022039576104288 0 0 1.134457415242641 -0.01133080735029030 -0.1852495006769564 0 0 
-0.3570977697193408 -0.1045270039356207 0.3274254147263664 -0.01665036726387596 0 0.1799107609308946 -0.05240043879613832 -0.1499285053094711 -0.03266886191752837 0 
-0.2744888524299610 0 0.2041074235817021 0 0 0 -0.09816609887044865 0 0 0 
0 0 0 0 0 0 0 0 0 0 
0 0 0 0 0 0 0 0 0 0 
-0.1076366526818881 -0.07628560341703927 0.2388944215101103 0 -0.09739576496948171 0.07995509040733473 0.1049591418172002 -0.1622245265964162 -2.059984127722458e-18 0 
0.2685768169395271 0.1685841858137501 0.001347378918420072 -0.3176050057709191 -0.06062595791510425 -0.3423586950428772 -0.2432998146073038 -0.1376003146052156 -0.1005018212803808 0 
0 0 0 0 0 0 0 0 0 0 
-0.1102130055240499 0 0.5704442364224269 0 -0.2685562385669006 0 -0.3478264239254120 0 0 0 
-0.1434861538401824 -0.06493355463095137 0.7343433060134117 -0.1827913459788572 -0.1013187411751723 -0.2676456462427200 -0.1918596842382184 -0.04521961806735199 0 0 
0.2447704152255900 -0.2713608652075796 -0.02717365968039770 0 -0.07691224842826308 0.5411682203856427 -0.1691910350201146 -0.07187871499049793 -0.07708109334460427 4.336808689942018e-19 
0 0 0 0 0 0 0 0 0 0 
0.4414147641610093 -0.3685045764072569 -0.3996091483727087 0.3204364768095219 -0.1286831672990143 0.009773418871978970 0.2142856872924095 -0.0001648580854645143 -0.1464525525171289 -0.08455130022374936 
0.4457605933190988 0.1250215572839588 -0.1686661643152227 -0.02397124013214873 -0.1772108381030120 0.04122455919162454 0.1675371237486713 -0.1667879076247763 0.1488829471127418 0.02073841770507873 
0.2006944071458224 -0.0003250046989470605 -0.02639357916078353 -0.1164611838595849 -0.2321155682456760 -0.1034749157403396 0.1098565193899435 0.03619837851789638 0.01690470880979906 -0.09080835428703368 
0.1742999134797836 0.1466981050842704 -0.1346117464977649 -0.2554413839923584 -0.4953966659893818 -0.002671095995899682 -0.07490579710557921 0.1046373880914956 0.2056225255697659 -0.05481891308130232 
0.003752915528856829 0.1990630890976119 -0.2169541456711634 0.1817740712979566 -0.2894312836550654 0.2254274614573694 0.01660069339601831 -0.06215945180033797 0.08156324540006946 -0.1032976066226577 
0.1333275287133879 -0.3482402828806800 0.06963609831191775 -3.469446951953614e-18 0.04763486364703717 -0.1360731945898485 0.04122429869432184 -0.1428852020779134 -0.1013699804300189 -1.734723475976807e-18 
0 0 0 0 0 0 0 0 0 0 
0 0 0 0 0 0 0 0 0 0 
0.1663513225131550 -0.2943069738810146 0.2169666085471562 -0.05621469736831661 -0.5088410543482302 -0.4976906248012896 -0.07512237160113178 0.007167782240791977 0.08830761578039335 0.1049063545051181 
0.1939947969431525 0.3049661646666432 -0.2352718435514906 -0.1779891943524136 -0.3481350083302133 0.06144189769679712 -0.006241429212521393 -0.3594957598795758 -0.1652113457498933 0.1785854812373063 
0.2302526593127042 0.3151252076450689 -0.2359128195719194 -0.1219515784014004 -0.1753395141874559 -0.1321082663186096 -0.09442326217736964 -0.3723145323116266 -0.03544675928844866 0 
0.3175751921269809 0.1753865542152150 -0.3385831381798966 0.1621378566707755 -0.1681653636419368 -0.002932560845771376 -0.1235830833265987 -0.01001113452599806 -0.05024782589004097 6.071532165918825e-18 
0.1008495946859802 0.03022252220500332 0.06880547970342808 0.02208636136672380 -0.08191755286542896 0.07264906941188405 -0.01451557367132748 -0.1574445559483815 -0.04965970260393364 -0.07950027722049474 
0.3421624477852783 0 0.1176265039599493 -0.1795411833387893 0 -0.1519609865463014 -0.02752003648059936 2.602085213965211e-18 0 0 
0 0 0 0 0 0 0 0 0 0 
0.07125025980032365 0.03385259567104700 -0.1983053640996317 0.2994782481086097 -0.3358252111251357 -0.1714319579372659 0.1301442503027457 -0.9577383954464975 0.2934787183617600 0 
-0.5061641131171630 0.4011362669444587 -0.3226966211042914 0.6277800434634604 -0.1621590101573780 0.1038322766081719 -0.3708675583657538 0.06539424100284150 -0.1166493996987048 -3.605516953251668e-05 
0 0 0.1520343739616127 0 0 -0.3572893872381051 0 -0.1545479241122468 0 0 
0.08610427206955670 0.05239849657131412 -0.09470263450329189 0.05654813465011247 -0.08409258206401253 -0.1287601671437733 0.04810711055764638 -0.05435303362211003 0.2674521864815738 -0.2396141851072602 
1.069847720836716 0 -1.076246866404918 0 0 0 -0.1055146037247235 0 0 0 
-0.04314411509907611 -0.1006775449525599 0.1150582613623522 0.1131143022816256 -0.5246315357742363 -0.04897752392538918 0.2204631120669811 -0.1684281629884606 -0.3040282164738135 0 
0 0 0 0 0 0 0 0 0 0 
0 0 0 0 0 0 0 0 0 0 
0 0 0 0 0 0 0 0 0 0 
0 0 0 0 0 0 0 0 0 0 
0.009260420082575967 0.2220654306374287 0.1029672417645755 0.08721065248270075 -0.1247426960886503 -0.2057317750909637 -0.1257661413066821 -0.03886837228765523 0.07780468937576970 -0.1312764162747437 
-0.1540538784238072 0.002752732055267385 0.3947559765740762 -0.1182813189574126 -0.7262431576615406 -0.1474814556290495 -0.3217895080229845 0.07526966349741017 -0.06585254400767429 -0.03551763055798486 
-0.1178997459545762 -0.01551490606088249 0.1577963672219943 -0.09244456961772765 -0.06097322995211179 0.08533696136997075 -0.09644542237789017 -0.06990033957251578 -0.07000186683254588 -0.2054671494082584 
0.1591580209886956 -0.1428804729971590 0.2190846624798073 -0.4811687175153491 -0.4817695934082674 -0.09530287117090407 -0.02673653011651223 -0.1271636506938053 -0.08391171908963929 1.040834085586084e-17 
0 0 0 0 0 0 0 0 0 0 
0 0 0 0 0 0 0 0 0 0 
0 0 0 0 0 0 0 0 0 0 
0 0 0 0 0 0 0 0 0 0 
-0.01411628577381398 -0.1394141068833237 0.1252116224143356 0 -0.2641718148378754 0.4246482844215660 -0.1653448682666872 -0.1015322578792535 -0.3464359018933505 0 
-0.1307605814091611 0.8803459185514738 -0.5625116146819413 -0.1472001290827729 0.5603423927747745 0.3247760618596971 0.2533002798640190 0.1739200133375006 -0.4625576313158204 0 
0.1415470880605428 -0.06080154326080015 0.1181152616552633 -0.1875799875078035 -0.3679804353942403 -0.2009162256045348 -0.1752613932980664 -0.3619571535604086 0.2682547474832173 0 
0 0 0 0 0 0 0 0 0 0 
0.01288636554474986 -0.2331248919548973 0.08912086127673613 -0.1341345560527715 0.3775825071931908 -0.1505655469064346 -0.7581541730322024 0.07087541938412262 -0.3992032903937965 0 
0 0 0 0 0 0 0 0 0 0 
0 0 0 0 0 0 0 0 0 0 
0 0 -0.9082684389557991 0 0 0.5807949175659160 0 0 6.938893903907228e-18 0 
0 0 0 0 0 0 0 0 0 0 
0 0 0 0 0 0 0 0 0 0 
0 0 0 0 0 0 0 0 0 0 
0 0 0 0 0 0 0 0 0 0 
0 0 0 0 0 0 0 0 0 0 
0 0 0 0 0 0 0 0 0 0 
0 0 0 0 0 0 0 0 0 0 
0 0 0 0 0 0 0 0 0 0 
0 0 0 0 0 0 0 0 0 0 
0 0 0 0 0 0 0 0 0 0 
0 0 0 0 0 0 0 0 0 0 
0 0 0 0 0 0 0 0 0 0 
0 0 0 0 0 0 0 0 0 0 
0 0 0 0 0 0 0 0 0 0 
0 0 0 0 0 0 0 0 0 0 
0 0 0 0 0 0 0 0 0 0 
0 0 0 0 0 0 0 0 0 0 
0 0 0 0 0 0 0 0 0 0 
0 0 0 0 0 0 0 0 0 0 
0 0 0 0 0 0 0 0 0 0 
0 0 0 0 0 0 0 0 0 0 
0 0 0 0 0 0 0 0 0 0 
-0.1467533403106272 0 0.4667742879347029 0 0 -0.0008279109018183772 -3.469446951953614e-18 -0.2161021142393750 0 0 
0 0 0 0 0 0 0 0 0 0 
0 0 0 0 0 0 0 0 0 0 
0 0 0 0 0 0 0 0 0 0 
0 0 0 0 0 0 0 0 0 0 
-0.4410475765817916 0.9698604044731043 -0.8633790345800836 0.4866712207649779 0 -0.2086538121252687 0 8.673617379884035e-19 0 0 
0.1737602847804828 0.05596830334935844 -0.3063774193382568 0.2094503609169846 -0.4077309539782673 0.4154702527952245 -0.3610284625791481 -0.6232830595121913 0.1493808280919533 -0.03322798649181950 
-0.3126712931401746 0.1244982681305822 0.01457437657960783 -0.1630131588577419 0.1469852758890664 0.02801410330468869 -0.02558595229326685 0.01705181765093046 -0.06197179689922727 -0.04430762385333680 
-0.2663760139855201 -0.2017506671392249 -0.03281517149216674 -0.02390404591960904 0.3104436415869394 0.1180722617960384 0.06711478933082511 -0.02751116584506299 -0.02775116645810313 -0.1490477659643746 
-0.09032994870335033 0.1058988763256601 0.1759347644663341 0.1553141470990866 -0.04543532242601006 -0.4172988421618539 -0.2055593741063209 -0.1157244426444764 -0.2285196384823901 -0.1743094903271940 
-0.07043275394820162 0.2543006533168324 -0.1561463841880593 -0.03281954079942634 0.1120785078093936 0.07937257996456788 -0.09276875889519512 -0.07781798491843216 0.1248003492880605 0.01313108352740735 
-0.3652903737519240 -0.1415401090496656 0.1007706343860715 -0.2471534531394666 0.03302144750478706 -0.4867148000478887 0.2314459084024965 0.1786964283077105 0.1114768528082047 -0.02371150326008288 
0.5681856135547912 -0.4264048037040699 0.02536274613096743 -0.1543337592840226 -0.3794616556848450 -0.7430214910087759 -0.3155284690704301 0.1259968250313520 -0.3110886727820891 -0.02967457811826867 
0.1028925500478096 -0.07932995712439092 -0.3783544964912226 -0.05414312063658325 -0.1611650814551786 0.5779326098487481 -0.1205804252730799 -0.01857380673307738 1.387778780781446e-17 0 
0 0 0.3765723736767120 0 -0.2053544245140105 -0.005767621928041648 0 -0.1836630669538346 0 0 
0.1117213281039785 -0.1273946332633699 0.1430520334519197 -5.204170427930421e-18 -0.5225272323088384 0.2620731637312554 -0.1597589400670159 -0.3715989821202312 -0.1127099222247436 0 
0 0 0 0 0 0 0 0 0 0 
0 0 0 0 0 0 0 0 0 0 
0 0 0 0 0 0 0 0 0 0 
-0.2351136264149289 0 0.3818197178586660 0 -0.1453505890630685 0.3161707700652852 -0.1654031391787809 0 -1.040834085586084e-17 0 
-0.1224931922735775 -0.1293607505096279 0.3756582466470578 1.040834085586084e-17 0 0.08735253558666609 -0.4347672243773021 -0.6974419503136293 3.577867169202165e-18 -0.07538304513664987 
-0.08276849017836989 -0.05834316102933244 -0.1354723310621604 0.003518963989889308 0.05475015311184573 0.1762408667958026 0.1079631433965365 -0.008473984297118107 0.1177728234898299 -0.01318544849341077 
-0.02349690577083136 -0.03046090616314350 -0.1078044811476181 0.003095651558289843 0.2768433587748539 0.1659141763505556 0.09977752496533301 0.01111240039059282 -0.1549779578977024 -0.2936742444744080 
-0.01085063190177408 0.7223370605662494 -0.1047530234907117 0.1389553107956902 0 -0.1999826625028682 -0.1298969066759304 -0.1729865086910574 -0.04265887820984240 0 
-0.2847040442636367 -1.734723475976807e-17 0.7217425627519873 -8.673617379884035e-19 -0.05617867713103066 -0.5549072813367464 -0.2673244495758087 -0.2469888148580795 -0.2429846978520115 0 
-0.04218678407624001 0.09408061659554406 -0.2381181223527444 0.1759249066318510 0.1968357645915940 0.09988940815164629 -0.1231779418120106 0.1577624290822030 0.1961122606606263 0.09469445394319270 
-0.05219956598744620 -0.4799200032929182 -0.09436363583793438 -0.3410216684852561 -0.1195090626501520 -0.03784076604515275 0.3121950638399781 0.1581180312409798 -0.1994753282241253 -0.1203355386650426 
-0.06184675134025319 -0.9719614681961338 0.3952687724126798 -0.1610655685641251 0.1923619573805327 -0.2680140605478228 0.09078115784149080 -0.2105220110542329 0.1799885381231940 0 
0 0 0 0 0 0 0 0 0 0 
1.734723475976807e-17 -0.3962310404732951 0.3430522065606654 -0.2915815361406078 -0.1621590101573780 0.2203285429710181 1.734723475976807e-17 0.1859367473467893 -0.07399052148886243 -3.605516953250974e-05 
0 0 0 0 0 0 0 0 0 0 
-0.1664780021499278 -0.01151447230330695 -0.3102409213191436 0.05451547044123758 0.1653204060451695 0.2794941019118170 0.1706807013882516 0.1094748037289031 0.09997114945299550 -0.1384621103021396 
-0.3425609959822211 -0.2908386360293166 -0.6265335213022966 0.1112247647362298 0.02208087789715978 0.6368642377906111 0.3734512047365666 0.2105064382202304 0.07272974285231448 -0.07251617061083830 
-0.1782638629204877 -0.2657521922281293 0.1968321898140547 -0.2353537482184979 -0.2587403210805553 -0.3186588411900717 -0.3733879502288342 -0.2673403463522555 -0.2299838315468243 -0.2199801359189358 
-0.1440370289021023 -0.2259701802795192 0.07211868670610920 -0.2846991833192585 -0.4526745225181352 -0.2686791953111958 -0.2478332717431437 -0.2058040318728655 -0.2757801632034628 -0.1879397420769138 
-0.2853798962688951 -0.1216373299830313 0.2491706897434772 -0.2673696961195368 -0.008403966604280732 0.01305191598114811 -0.3017218383733320 -0.05231798924288093 0.02373146287741573 0.08879933153249128 
-0.07579320169495568 -0.1041278432770270 0.03334306485289566 0.2496624407783677 -0.4013870975538131 -0.1693720352702082 0.06409401189722512 -0.04464959916439781 -0.3071656577981776 0 
0.01350969862125682 0.1981924368199550 0.03615367502785126 0.04813496078055662 -0.07517551607316461 -0.03198692406632074 -0.2588715378687267 -0.06663531795618201 -0.4156615335937896 -0.03114410519825066 
-0.1021752714763195 -0.04269704106678550 0.2494563369646118 -0.05211255995026567 -0.5861188304983752 -0.07871481472333379 -0.1232084162906626 -0.1655997518111163 -0.05109679505655055 -0.04347438496679440 
-0.006659879789341376 -0.4393934289823261 0.04947955194941134 -0.2581154431954861 -0.1404698781463090 -0.2178419178514109 0.01738109000836939 0.03996971457563368 0.08791087608345088 -0.1324049290911018 
0.2240052591915687 0.03094091440323733 -0.4223198911036692 -0.09216157522328690 0.4310107855045405 -0.09154601161265737 0.1277255578096287 -0.1632987832122191 0.1161673039456050 -0.2952453380614428 
-0.08980760040590088 -0.01300008042167322 0.07366744908558868 -0.1480910586081105 0.06912965977270631 -0.01092824895847786 -0.1466200891544856 -0.02061265141395751 0.04035034879175904 0.005549547789247862 
-0.2253457184508117 -0.1083861212008402 0.2136279138316173 -0.002822386889503476 -0.1540945180524058 -0.03741060013947717 -0.2186587291107614 -0.02725063631332067 -0.1917341224757162 -0.004754685238758822 
-0.004943850606917176 -0.06520227256197586 -0.006536751373714601 -0.2584130874504202 -0.4647037579668777 -0.05622162309599802 0.1791083227704977 -0.03846546738384056 -0.2194690796301921 -0.1786309855641399 
-0.03353971722808859 0.05360893936123048 0.1338040285773090 -0.08656073469017485 -0.2450727660515164 -0.3189203672743503 -0.1965417688313196 -0.2427372291951841 0.1244507993856011 0 
-0.07491136863763287 -0.1732833531208276 -0.1247524809717560 -0.08528483070722020 -0.07321735471522338 0.1854858104051103 0.06222033415919019 -0.1046310234972721 -0.01656907059171312 0.006853879210909797 
0.02902325365754665 -0.1023631451205245 -0.09491766051766157 -0.1552712145095288 0.2612247761779633 -0.05558279319939223 0.06721330695031219 -0.03338275903363019 -0.2005803563899532 -0.05156677551664485 
0.03240195393352911 -0.1046512090930809 0.09037517865552552 0.3340009635685323 -0.1552323656264382 -0.02017258598249366 -0.3399169023116664 -0.08344454697995479 0.04479471477986241 -0.06370673297834765 
-0.04498544449021472 0.008554789228368827 0.05735064831884421 -0.2657016408594445 0.1196811426357990 -0.2845158772146610 -0.1746457855982374 0.05676728417807916 -0.04665687982817839 -0.1161145779088683 
-0.0004779202406948570 0.09897873576272267 0.2932787253907684 -0.1093938689965210 -0.5782191846517255 -0.3597599236345486 -0.1250748793573720 -0.3445538711234859 -0.1685523030507591 -0.05353369889688014 
-0.02454844427190756 -0.3411577363773946 -0.1167973085258184 -0.09447118064936218 0.005524411714200126 0.1037770753997291 -0.1522231474934111 -0.06327907837766487 -0.1244503999949332 -0.1250606634362908 
-0.09876013981515669 -0.01468248999547583 -0.2914144698301071 -0.1410030463777391 0.2361476058214911 0.03298902134759936 -0.3875559613522832 0.005553779649362368 0.2103917030394608 -0.01906051344421888 
-0.1985143874948355 -0.2348608818975070 0.3838839294853300 -0.1751848355141368 -0.3748676764826655 -0.3643442096140452 0.04363276623107631 -0.07086520837333299 -0.4231529947440568 -0.2102650022184610 
-0.3223008918225864 -0.4917223725076619 0.2689508765201630 -0.5200529315377689 -0.7114148435986933 -0.5873380365012832 -0.6212212219719832 -0.4731443782251174 -0.5057639947502841 -0.4079198779958470 
0.0006624921138153388 -0.1547907057021081 -0.2058610067677853 -0.1837688306653034 0.2673297099978347 -0.002331741651976112 0.05129528477020093 0.02740154315108453 0.1064451173077037 -0.01655492451383350 
0.1849036511044231 -0.07140566654827052 -0.3319495771994150 -0.3417253673688951 0.3000012191803027 -0.05614093543348288 -0.4267239272175731 0.1842222356195748 0.008837608656894827 -0.2173259764837272 
0.3327422693415182 0.09376996241354331 -0.5125790213635693 0.1762036428659169 -0.5999114185844470 0.02679876138967011 0.03019610434694393 -0.06657481901671236 -0.3017720264663197 -0.07158921981823733 
-0.8406093043823432 -0.3592959626708141 1.319340481850937 -0.1707623763694812 -0.6788343541923866 -0.5556641208054740 -0.2759886838715579 -0.6181933379790710 -0.3192746942485656 -0.1024497571800525 
0.08553351217704469 -0.03936060679366502 0.1140865222556641 0.04648556143989350 0.08879574700537460 -0.1539066270248331 -0.1432643100993655 -0.01700382040514703 -0.01860829379506289 -0.1105086010197679 
0.08029851462866572 0.2060560734976200 -0.1528979482705536 -0.3382650458503528 0.3023364571641710 -0.1471615115919664 0.1199426620896817 0.3856717832227032 -0.3185473177469646 -0.008041107864467456 
0 0 0 0 0 0 0 0 0 0 
0 0 0 0 0 0 0 0 0 0 
0 0 -0.7041689255755879 0 0 -0.2229870141306530 1.085971059420133 -0.2583261879107986 -0.1387919191106536 0 
0 0 0 0 0 0 0 0 0 0 
-0.4449620724239723 -0.1455866286692175 0.1484098117629183 -0.08266474162489974 0 0.3884367952626635 -0.06064745362502824 -0.1886516459502578 -0.03973416902378860 0 
0.1458591229466579 -0.2490530786084342 0.009337758437603969 -0.2346869117311234 -0.2757754565015627 -0.1375298724869261 0.2236010051065746 -0.1170536920179858 -0.2960259116873849 -0.02841699604210901 
0.1691337127036823 -0.4531945169940454 0.06627273842450258 -0.2758250177631074 0.3968456990432065 0.01570469062696472 0.1240377036834489 -0.1099472778186145 -0.2578659404548952 -0.005449751258856370 
-0.2692139981775017 -0.1355525023056092 -0.3252210765151150 -0.07167738059207482 -0.2285498059613956 0.5308624372462479 -0.5291269618712358 0.02766437594249260 -0.08198150539539784 0 
0.1945794857497932 -0.4209953608050260 0.4725075040184593 3.469446951953614e-18 -0.2660908504596178 0.01369427980317676 -0.2503377985995039 -0.2453466029310449 -0.3078456495757401 -6.938893903907228e-18 
1.040834085586084e-17 0 0.4954185802574994 0 -2.168404344971009e-19 -0.1338977830111868 -0.1031661560704690 -0.1673219237843535 -0.1286302514337311 -0.07879224623719713 
-0.5343265185712004 0.0005426737122801797 0.2946027791262996 -0.09935898087249162 -0.4632675826534589 0.1028556546560109 -0.3580566582780901 -0.1526822361049464 -0.5050389193175316 -0.02769291494546423 
-0.1894900361842279 0.4229422689150720 -0.4598032505809645 0.5771717052996951 -0.02843553148360715 -0.3061757035108872 -0.2664653481328316 0.1999292980151710 -0.005999572220134115 0 
-0.6254661013066908 -0.3728925437304124 -0.7756056332489465 -0.06928800666906323 -1.387778780781446e-17 0.008679825364309762 0.2803627755558650 0.6872362458706269 -1.387778780781446e-17 -0.01898946426562953 
0 -0.2163423058516149 0.05906047813293158 0 -0.2235523816690726 -0.3171399885768767 -0.3607072376101153 0.5672311289524421 0 0 
-0.01656417543309506 0 -0.3292090968486140 0 0 0.7248206323160780 -0.4310686073730755 -0.1588332367903949 0 0 
0 0 0.4446864553880820 0 0 -0.06603018356900778 0 -0.1787809975371189 0 0 
0.04232207913635590 -0.3863233016156451 0.3197515794799527 -0.2132419518188116 -0.1048092640008991 -0.1742353188959377 -0.4118240737786483 -0.3790723916843457 0.1725881491574641 0 
0 0 0 0 0 0 0 0 0 0 
0.1152014855001840 -0.3248294398454896 0.4673776263387849 -0.05175341490861737 0.1564486758496363 -0.2781566364649168 -0.4006574880219239 -0.3099010559846882 -0.2499985139686594 0 
0 0 0 0 0 0 0 0 0 0 
-0.1196428491611723 -0.2191192062413699 0.1708534260744398 -0.07589831929683222 -0.4114534178087064 -0.1202158793515269 -0.5977835004933065 -0.04022774932918678 0.1046434352635692 -0.07969353668650580 
-0.06935432770421747 0 0.2340837353953511 0 -0.1111355250703607 0 0 -0.1308915580870328 0 0 
-0.02781934981388339 -0.1210293646990664 -0.2676267614950578 0 -0.3586133561338543 0.7599052710927094 -0.09470657447810245 -0.1612894211357650 1.734723475976807e-18 0 
0.1858428853462058 -0.07010271249088341 0.1105061418214866 -0.07290636766017047 -0.09423629576009093 -0.4609682693239542 -0.1291571577291650 0.09005462125153407 -0.2652182385552484 0 
-0.3671886921937997 -0.1578254432673801 0.8275161748196743 -0.005404695060571040 -0.1307962471901839 -0.1656215534771890 1.561251128379126e-17 -0.2296244683542446 -0.1595378646988501 0 
-0.1548938474547364 0.04439755844417470 -0.3852726008066497 -0.2024540007043165 -6.938893903907228e-18 -0.001567650076463350 -1.734723475976807e-18 0.4049435391991894 0 -1.734723475976807e-18 
0.2521791527973715 -0.3240777616271567 -0.8155237555073914 -0.1025296820443911 0.1869132064999879 0.4576964848713605 0.1220650948819782 0.1634094983130414 -0.1046969562660032 -0.05613450090257252 
-0.2677935326452008 0.5453147449142934 -0.1848072469064592 -0.3427164353058065 0 -0.4194226926031746 -0.06845942165659175 0.9299649140020555 -0.1185600233728000 -0.02367365803591148 
0.5589669276193354 -0.4703519099162576 0.4375349667875714 -0.004463593956278705 -0.2553893012518499 3.469446951953614e-18 -0.1701468083533835 -0.2178452714853703 -0.3074302623204405 0 
0 0 0 0 0 0 0 0 0 0 
-0.1444448206692563 -0.09977249918848237 0.09038183643540618 6.938893903907228e-18 -0.2017174763774512 0.005748609264884956 0.1879308217598673 -0.08602188447911588 -0.3782356972117393 -6.938893903907228e-18 
-0.1167358409760227 -0.06366924896522422 -0.1529306500577209 -0.2757029262940439 0.6096552645294300 0.1177874492783799 0.1585781340994235 -0.4213080874246906 0.2696013753947802 -0.02769321185403660 
1.734723475976807e-17 -0.09990462614725928 0.3899987700589467 0 0 0.2064340383338207 -0.2657560666323443 -0.3794503528660953 -0.2852168010311698 -0.02781338667040782 
0 0 0 0 0 0 0 0 0 0 
0 0 0 0 0 0 0 0 0 0 
0 0 0 0 0 0 0 0 0 0 
0 0 0 0 0 0 0 0 0 0 
0 0 0 0 0 0 0 0 0 0 
0 0 0 0 0 0 0 0 0 0 
0.1285906494003668 -0.9708714516930326 -0.1254673595634535 0.4012576564890003 0.6130518024798575 -0.1825650421686951 0.1388944138381387 -0.06089692790802943 0.3788582310524556 -0.07969353668650579 
-0.1532164132426110 -0.05242755146609433 0.3825611809163995 -0.05175341490861737 -0.4497798939276422 0.09797851283487320 -0.2513536968761081 -1.010156350486834 -0.5818382533971241 -0.02367365803591149 
-3.469446951953614e-18 -0.06431492714314174 -0.02846702594358844 0 -0.3444287230079922 0.8067916213768367 0 -0.4053600448857248 0 0 
-0.04306714147727456 -0.06431492714314173 -0.3708313793917279 0 -0.3444287230079922 -0.01544517298230776 -0.1945252252869877 0.6862879530412471 -0.1669548853592133 0 
0.02426465369755355 0.2968850192533805 -0.1511973789194067 0.1690811984783027 -0.2938582039148726 -0.02889449044598063 -0.1238801227443799 0.2457947658651176 -0.3502710408193192 -0.05789737669237192 
0 0 -0.8536869988312079 0 0 -0.2820489573937454 0 0.9944875407319709 0 0 
-0.04493530396208875 -0.1982184850567843 0.009144789356995156 -0.1276517342054495 -0.9207295174630751 0.07140743784479646 -0.3096956869866815 0.2397645336995775 -0.5354608618237058 -0.09868300095213532 
-0.01340123898511813 -0.06431492714314163 -0.08933618624098935 1.214306433183765e-17 1.160992066411406 -0.1576935560799464 -0.4688109154910563 -0.4053600448857249 -0.09639225785841325 0 
-0.4336481675234431 0.1782063068325953 -0.3020517406013333 -0.2069175946605951 0.01806447975688850 -0.08249223560004830 0.1543961636049126 0.2846477828711194 0.3502210057937006 -0.01373523197490198 
-0.02909099580557389 0.2141418549701135 -0.03759291834522497 0.1127818522176859 -0.5136238142151150 0.07578261598761467 -0.1893304640737372 -0.1300875909192108 0.05888235444997499 -0.1253319702328376 
0 0 0 0 0 0 0 0 0 0 
0.1038261280667185 -0.2220791734776675 0.3519271512923180 -0.09406883769915413 8.673617379884035e-19 -0.7522858164100897 -0.4372414007787248 -0.01248764677676619 -0.1332264068016168 0 
-0.4471564635319592 -0.1847615871021428 0.2160068349010064 -0.1425698791535933 -3.469446951953614e-18 -0.05937541465937540 -0.1621320700566270 0.1911182719727220 -0.1384687693164221 1.040834085586084e-17 
0.3689151057824997 -0.1983530340426614 -0.3872347699821243 -0.1804968102784799 -0.1307962471901839 0.2914470419112218 -0.04746631319254535 0.3334701128481787 -0.01998786687732208 0 
0 0 0 0 0 0 0 0 0 0 
0 0 0 0 0 0 0 0 0 0 
0 0 0 0 0 0 0 0 0 0 
0 0 0 0 0 0 0 0 0 0 
0 0 0 0 0 0 0 0 0 0 
