solver_type L2R_L2LOSS_SVC_DUAL
nr_class 10
label 6 11 1 7 5 8 2 14 13 12
nr_feature 278
bias 1.000000000000000
w
0.2070080762488499 0.03559991901959278 0.09052071260327757 -0.2248113039775625 -0.2356913610394052 0.3499457835159091 0.003874016041243093 -0.4098574615774795 -0.3298353792003423 -0.3264273495368891 
-0.2655775606904677 0 -0.07831751933147710 -0.1692806657683441 0 0 0.2916630768392655 0 0 0 
0 0 0 0 0 0 0 0 0 0 
0 0 0 0 0 0 0 0 0 0 
0.03165839218590238 -0.08687015873108134 -0.5005489725519556 0.9829664739310309 -0.6099342243773940 -0.3276754009109194 -0.1021603233505024 -0.004772160466737534 -0.09686843137281166 -0.07127013502250919 
0 0 0 0 0 0 0 0 0 0 
0 0 0 0 0 0 0 0 0 0 
0 0 0 0 0 0 0 0 0 0 
0 0 0 0 0 0 0 0 0 0 
0 0 0 0 0 0 0 0 0 0 
0 0 0 0 0 0 0 0 0 0 
0 0 0 0 0 0 0 0 0 0 
0 0 0 0 0 0 0 0 0 0 
0 0 0 0 0 0 0 0 0 0 
0 0 0 0 0 0 0 0 0 0 
0 0 0 0 0 0 0 0 0 0 
0 0 0 0 0 0 0 0 0 0 
0.1216413613967852 0.02407639084941487 -0.1728960519200067 0.02463506221316544 -0.4033358486642176 0.4069702393391467 0.1744084364031712 0.1456892983911415 -0.3282820886761041 0.1539643974968176 
0.1009428886670422 0.03543143947183071 0.1030934893594271 0.01430695684626330 -0.3964608811404819 0.3668351991906501 -0.02911589779302521 -0.4289461964341824 -0.2959616504736518 0.07898558259953346 
0.02361674062839710 0.3300317329972566 0.09915598414537077 -0.1001241638134776 -0.4309807298618793 -5.204170427930421e-18 0.1360336070031780 -0.006650597163070824 -0.08367460942018531 -0.01951198551225081 
0 0 0 0 0 0 0 0 0 0 
0 0 0 0 0 0 0 0 0 0 
0 0 0 0 0 0 0 0 0 0 
0 0 0 0 0 0 0 0 0 0 
0 0 0 0 0 0 0 0 0 0 
0 0 0 0 0 0 0 0 0 0 
0 0 0 0 0 0 0 0 0 0 
0.1654422438119762 0 0.2397319255843237 0.09608537802503960 -0.1531960461556944 -0.1490024264553014 -0.4219594181528143 0 0 0 
0 0 0 0 0 0 0 0 0 0 
0 0 0 0 0 0 0 0 0 0 
0 0 0 0 0 0 0 0 0 0 
0 0 0 0 0 0 0 0 0 0 
0 0 0 0 0 0 0 0 0 0 
0 0 0 0 0 0 0 0 0 0 
0 0 0 0 0 0 0 0 0 0 
-0.2203464789026314 1.734723475976807e-18 -0.02317052577887666 -0.05594016848236975 -0.09353168469749039 0.8532296627064397 -0.2260587106824289 -0.002549034590035303 0 0 
0 0 0 0 0 0 0 0 0 0 
0 0 0 0 0 0 0 0 0 0 
0 0 -0.2088988470435001 -0.1230826374695268 -0.05909167704989100 0 0.4886510768687019 0 0 0 
0 0 0 0 0 0 0 0 0 0 
-0.5514921837180042 0 -0.2266902887182603 0.6408601537281239 0 -0.02222019268769494 -0.02511582186885053 0 0 0 
0 0 0 0 0 0 0 0 0 0 
-0.3608080158919091 -0.09806356170487486 0.1111806317987923 0.2674996704455944 -0.1226938456852695 -0.2024777931118497 -0.08517128096347293 -2.081668171172169e-17 -0.06994335656341810 -0.005772410521670740 
-0.1090001506405828 -0.02242523207484663 0.6066006317428985 -0.3417937591177703 -0.3406770907004698 -0.2164457227472839 0.1506745592647009 0 0 0 
-0.09702092534672861 0 0 0 0 -0.9129100306770822 0.9334323005157461 0 0 0 
0 0 0 0 0 0 0 0 0 0 
-0.2328877245751586 -0.1535666043297533 0 -0.09287816003604046 0.9764355626709599 -0.07698997823481453 -0.3212539887337342 -0.01879843415054352 0 0 
-0.07346465757742030 -0.3513437952414517 -0.4344512489720629 -0.4163205377666221 1.177028267350047 -0.1731011260687648 -0.3436330099549991 -0.09704709795784712 -0.08525534635495426 0 
0 0 0 0 0 0 0 0 0 0 
0.5901233991312189 -0.1443357921947044 0.3702830986481087 -0.2662840266850615 0.2330863998323483 -0.09713308688921625 -0.7438599578787319 -0.08173409477913951 4.163336342344337e-17 -0.04790206299017281 
-6.331740687315346e-17 0 0.1525158468050245 -0.2112445024932538 0.4356263164172141 -1.387778780781446e-17 -0.2927108283871225 0 -0.09659076102985292 -0.01389748420946016 
0.3705169591874772 0 -0.1679763000387139 -0.4118290674163691 0.4093848366243492 -0.2048594320569087 -0.1653372753399582 -0.1107514379950107 -0.06313543348616418 6.938893903907228e-18 
0 0 0 0 0 0 0 0 0 0 
-0.09692148825629082 0.09397706388389995 -0.1209476663091171 0.1134571598054437 -0.1156799353624820 0.05284802844372550 0.1648872120585990 -0.2322908545179383 0.6331615481924733 -0.002992589902577607 
0.09860122319193565 -0.07188805752139638 -0.01386695451840034 -0.01788592028422386 -0.1465872376742321 -0.02214396488297139 0.1209444040313980 0.2038453217113699 0.1312493823227300 0.2004052334268826 
-0.004588340486241844 -0.2179212410215037 0.1260103731702601 0.06584994581483328 -0.2710288208150050 -0.1384943366427638 -0.05523347579374039 0.3353996641512625 0.2890737166520201 -0.01911252311460119 
0.04101236338420762 -0.2353513893216099 -0.006821389483320707 -0.1019619941127459 -0.2109201256406686 0.03359807266469914 0.2234991015978902 0.4047663291889574 -0.08353139313499527 -0.3365520610238174 
0.1036982712488583 0.01046078407695473 0.009661026549439697 -0.1817067733633939 -0.06036379599387558 0.04239156406469305 0.1257715100101690 0.08465019008801332 0.1288719520740384 -0.2289755854802639 
-0.03192695102797927 0.3908570095424281 -0.1557849057663718 0.08937550407320259 0.05316587640925968 0.08535510138555488 -0.01261448821635595 -0.3044783558060310 -0.1967280247472522 0.1976629731554475 
0 0 0 0 0 0 0 0 0 0 
0 0 0 0 0 0 0 0 0 0 
-0.2378636458254682 -0.2081455824154467 0.3961128368276612 0.1085780036401226 -0.1158142843181484 -0.1116108710541766 -0.09886047893119841 0.2436031357424503 -0.2171895860103000 -0.3726037466435213 
-0.2505104003685956 -0.1312903265315869 -0.02857872306898655 0.8308097612334750 -0.09394965477170734 -0.1335714443511627 0 -0.1719739919837642 0 0 
0 0 0 0 0 0 0 0 0 0 
0 0 0 0 0 0 0 0 0 0 
-0.2206631399514130 0 -0.3148394503883958 -0.7628077376367339 0.2870791239568010 0.7622165616479962 -0.2602516490612238 3.469446951953614e-18 -1.040834085586084e-17 2.081668171172169e-17 
-0.2567683976853987 3.469446951953614e-18 -0.08867733425385652 -0.07828965573658023 -0.03708427928437242 0 0.1289673706875822 -1.734723475976807e-18 0 0 
0 0 0 0 0 0 0 0 0 0 
0 0 0 0 0 0 0 0 0 0 
0 0 0 0 0 0 0 0 0 0 
0 0 0 0 0 0 0 0 0 0 
0 0 0 0 0 0 0 0 0 0 
0 0 0 0 0 0 0 0 0 0 
-0.07144328317035135 -0.1331553781231424 -0.5936448088242772 -0.1116171876910299 0 -0.1469949840708808 1.095674859494919 0 0 0 
0 0 0 0 0 0 0 0 0 0 
0 0 0 0 0 0 0 0 0 0 
0 0 0 0 0 0 0 0 0 0 
0.1229661883321913 0 -0.8753111712426571 -0.008634879369684925 0.2399982035768547 -0.1074787517712640 0.5887807521796569 0 0 -0.1165806369319065 
-0.04685010206009855 0.2329931935782185 -0.06213518858448865 0.1318428437567822 0.2580804336959364 -0.01807691189259204 -0.09481461999580394 0.3282110883265318 0.1799856214783517 -0.1863465346166616 
-0.007389391760255289 0.07545809821516025 -0.2708841918719032 0.1393394815479681 0.2242407348978737 -0.007610417645834155 0.1507142790344803 0.1884170138335380 -0.3465209534106970 -0.2415395128277666 
-0.03898061859617625 0 -0.1588895313638552 -0.09546538043984674 0.7717729547302080 -0.1050129228424785 -0.2488179450786482 0 0 -0.1074368323498313 
0 0 0 0 0 0 0 0 0 0 
0 0 0 0 0 0 0 0 0 0 
0 0 0 0 0 0 0 0 0 0 
0 0 0 0 0 0 0 0 0 0 
0 0 0 0 0 0 0 0 0 0 
0 0 0 0 0 0 0 0 0 0 
0 0 0 0 0 0 0 0 0 0 
-0.03234169592949956 0 0.6378571908531484 -0.2158851607359557 -0.2534441185966622 -0.01068263813203026 -0.4486786484693188 -0.07608775447495823 1.734723475976807e-18 -8.673617379884035e-19 
0 0 0 0 0 0 0 0 0 0 
0 0 0 0 0 0 0 0 0 0 
0 0 0 0 0 0 0 0 0 0 
0 0 0 0 0 0 0 0 0 0 
0 0 0 0 0 0 0 0 0 0 
0 0 0 0 0 0 0 0 0 0 
0 0 0 0 0 0 0 0 0 0 
0 0 0 0 0 0 0 0 0 0 
0 0 0 0 0 0 0 0 0 0 
0 0 0 0 0 0 0 0 0 0 
0 0 0 0 0 0 0 0 0 0 
0 0 0 0 0 0 0 0 0 0 
-0.1116806988711035 0 0.9008456182192353 -0.1919538168395347 -0.1588096378870172 -0.05296378227347309 -0.1956963598494384 0 0 0 
0 0 0 0 0 0 0 0 0 0 
-0.3211376146143322 0 1.043304193388224 -0.1315805979364992 0 -0.1212552312641362 -0.7227203318269876 0 0 0 
-0.2100378028475984 -5.204170427930421e-18 0.3464702764990577 -0.1119944206722418 0.2815432503573748 0.2439661517821714 -0.3704582028120533 -0.2509125707343388 8.673617379884035e-19 0 
0.3130733440262068 -0.08814734897637758 0.3294651080229873 -0.07276367880130882 -0.1008603796238293 9.540979117872439e-18 -0.6304268411763876 0 0 0 
0 0 0 0 0 0 0 0 0 0 
-0.07220792280182470 -0.08505054003283345 -0.4214889829316354 0 -0.09073768454941435 0 0.7823283234155970 0 0 0 
0.8577884356120400 -0.01933000727361239 -0.6664212247781943 6.505213034913027e-18 0 -0.1189024006572358 -0.1210296577760263 -6.938893903907228e-18 0 0 
0 0 0 0 0 0 0 0 0 0 
0.2309841952482633 -0.08088321189855084 0.6994246697928854 -0.7086436270475429 -1.152604426396187 -0.06071119421022642 -0.4204430297176774 -0.4495108580041983 8.673617379884035e-18 0 
-0.07671837936721766 -0.1635606708060521 -0.5871610738772839 -0.02887480029161445 0 -0.009121768789271248 0.8024839508354836 0 0 0 
0.6785642037240437 -0.2184094397320540 0.1114064373863629 -0.1391014496092718 -0.2503364492209248 -0.2770851407914907 -0.5389836540330815 0 -0.05248676373811408 0 
-0.1612131848099478 -0.01265543259968296 -0.2970588490344840 0 0 -0.004694084223496772 0.5480398135659422 0 0 0 
-0.07352555913903275 0.3354405775880486 0.06709203585080661 0.1075477780680049 -0.1657893844833881 -0.05737174872728804 0.04335978903881447 -0.5426143505981272 -0.1581357574559240 -0.06800107008688265 
-0.03737641792566335 -0.01592839278993900 -0.1059804731767668 0.1635081743348831 -0.02293776860845726 0.08700677253546199 0.09163161899958572 0.07415702460701236 -0.1697738543677946 0.2003537074904297 
0.05059950214345472 0.2270427875889574 -0.2964407094628958 0.2533884228945420 0.08852699162476176 -0.006010434689058033 0.02340654751330416 0.2296903460927903 0.1135444874804198 -0.05129718643602256 
-0.08937677125453418 0.3318456953768194 0.2735024394706006 0.1820555160954127 -0.1388032309984827 -0.09982979856028977 -0.2599270792721253 -0.1378241029618297 0.1107363711504498 0.1406614797783392 
0.004963472224630008 -0.3056844197722579 -0.1245004889583855 0.1481421201402808 -0.1001219007304466 -0.02344959225602860 0.1124531029498345 0.007660761040433778 0.2198421419300251 0.3450261454574555 
-0.1326268723630850 -0.2018710936955143 -0.1150855545180518 0.1722929151923069 0.1646054610749505 0.02696479218204699 0.03288291380309066 0.03365933720718625 -0.2274515822748887 0.01636818653083734 
0 0 0 0 0 0 0 0 0 0 
0 0 0 0 0 0 0 0 0 0 
0.04543162545696346 -0.06952029621140510 0.08039908001495650 -0.04655020070100653 0.1566167815416242 -0.009297683356359937 -0.1463706779262997 -0.2847944733061342 0.1760860362519963 -0.03389691685627107 
0.1580787890895372 -0.04628707715904068 0.07522381898463493 0.05662969671035543 -0.07319898704204365 0.1165639585303638 -0.2870799216520962 -0.2099427557551338 -0.3913526715594652 -0.1595935991520340 
0.03325491829072149 0.02400330651272026 0.04513628928562367 0.07224488174052360 -0.1079624555191421 0.05613119387612138 -0.1718366360330496 -0.2724724940016468 -0.2034796995531119 0.2371964182607126 
-0.009874872131548370 -0.09829642940831257 0.2768689190206071 0.1434705560585934 0.01635526713129930 -0.2857595095327655 -0.4477056107714580 -0.1328420574574146 -0.008901614494141825 0.0007936572457750795 
-0.2022069401110158 0.05309344438183533 0.2931010631580977 0.3319774893736424 0.04892274685358909 -0.3655178834619959 -0.4337356193843607 0.06569434391041314 0.06852696090944470 -0.1220949924305865 
0.3971930971406957 -0.1837176186773726 -0.3131876059038355 0.2924262507828949 -0.5647015047314136 -0.2982968276317987 -0.1910288890600702 0.08760516423507710 -0.01224285052119253 -0.3264273495368892 
0.03490418465317757 -0.1948965838817522 -0.3309773031978935 0.4019750956720697 0.06919994354185574 -0.1453515679059910 -0.07924450203673034 -0.04697488016740588 0 -3.469446951953614e-18 
-0.2854465146922316 1.387778780781446e-17 0.02865464910672756 0.09152809838793331 0.4204001419516887 -0.01703949639345928 -0.1545028447387537 0 -3.469446951953614e-18 -0.07127013502250928 
-0.1939652313251864 -0.01523053406792220 0.1332213841236709 -1.387778780781446e-17 -0.02126515158441984 0.7359927189200691 -0.6658108385211565 -0.01459224267115690 0 0 
0.1654422438119762 0 0.2397319255843237 0.09608537802503960 -0.1531960461556944 -0.1490024264553014 -0.4219594181528143 0 0 0 
0 0 0 0 0 0 0 0 0 0 
0 0 0 0 0 0 0 0 0 0 
0 0 0 0 0 0 0 0 0 0 
-0.1350495974676551 0.02076520641769927 -0.007673405324640200 -0.03234368716095860 0.008953758128947907 -0.07841240305533900 0.1978141364660172 0.05402264072273028 -0.1700241693343446 -0.08338181433093343 
-0.2461580463426122 -0.03420032286872807 0.1087709369839625 -0.1101590386811113 -0.005201943674381945 -0.03389896365749279 0.1758601935149322 0.2068488304504070 -0.07206986258570768 -0.1379889907761609 
-0.1159393613642994 -0.006966837539429958 0.1501564344109432 -0.04578691817527977 -0.04204176494744502 -0.007564748785654550 0.04130630292315420 -0.4208143746460004 -0.3607340370136802 -0.1922749428232066 
-0.1749292196310529 -0.01334628038597451 -0.1216647170220202 -0.1596064476125677 -0.07153520900764493 0.1400226451135665 0.2672580153144751 -0.3849353216382419 0.08392351144280844 0.2466929997339595 
0.1470931155139324 -0.2962929313918244 -0.4588023338622554 -0.004014409461479020 0.3132837126769006 0.05227577097587593 0.2240603545118875 -0.06766311963225642 -0.02854531772754508 -6.938893903907228e-18 
0.3711505235992680 -0.1312903265315869 -0.4419474079938860 0.4203626404686152 -0.2146276264012481 -0.1388678741488350 -0.7708766378029007 0.2761316572909897 -1.734723475976807e-18 -0.2744432524391882 
-0.2567683976853988 3.469446951953614e-18 0.2411620591108851 -0.1293842587664662 -0.1008328537327465 -0.3552524699375889 0.4113941991683383 0 -3.469446951953614e-18 -1.301042606982605e-17 
-0.06973951446349738 0 0.7180855187534287 -0.1191602549801395 0 -0.09504215010200995 -0.3870742188749469 -0.1110274799799427 0 0 
0.2905679398105619 0 -0.3897040350815528 -0.2400150015346718 -0.2534441185966622 0.1644603535427469 -0.1701275217026300 -0.07608775447495822 -2.168404344971009e-19 0 
0 0 0 0 0 0 0 0 0 0 
0 0 0 0 0 0 0 0 0 0 
0 0 0 0 0 0 0 0 0 0 
-0.05408913438452380 -0.05082327323586650 -0.005429239315196940 0.04439552547075324 0.05407764033800425 0.05505530683284592 -0.04581787960674206 0.08693519141166080 -0.04239927787410375 -0.002818448260659833 
-0.1650769768935260 0.04866593710646740 -0.1646515316987524 0.1829139826141572 0.8799841472913068 0.1100993883648335 -0.4736224216643739 0.05374518404821161 -0.05550506096693128 -0.09097771646341928 
-0.2082743934289191 -0.04567766686879405 -0.1444547883258054 0.005348310691378146 -0.06256482416489972 0.01514527096004027 0.2564912329446982 -0.4180866025488035 -0.2495988248324162 -0.2057608040431443 
0.3602765979061962 -0.06618760324510892 0.1956914552321793 -0.2501614548840802 -0.3183280812493095 -0.1125695149698299 -0.5137567453243987 -0.03805689839423570 -0.1736478929994161 -0.1744088947937857 
0.01089180823800637 0.3255865755483851 -0.3387117852642695 0.03678536216294080 0.1173561513735495 0.04217136033229314 -0.07597114937155561 -0.09375572159372168 0.3756114604447540 -0.02214872278986651 
-0.05977062161575575 0.01361161715322912 0.05622701828544036 -0.07733804463616290 0.06127658096632800 -0.03584386740730037 -0.02010618688747460 -0.04723652466528176 -0.6021113447235408 -0.1304234321795732 
-0.05308184010695445 -0.3645027146315279 0.1121402683743692 -0.1801838696855424 -0.1602210127918071 -0.04146241726264671 0.04589301851097199 0.3000735561923618 -0.3841283467909943 0.005110523814861490 
-0.04408267500514389 -0.3792161304964191 -0.1334081328731646 0.02916777904907221 0.08963759087982134 -0.1873616001370068 0.1663891877365779 -0.08882756536427855 0.2435529076559214 -0.07119874507493233 
-0.1957314340181915 0.05505443024038929 0.05089901454610642 0.01627454139832976 -0.09260245056796472 -0.03235907157028573 0.1306754659095113 -0.1376351655333117 0.2428721660272255 0.1574340744309083 
-0.1278354120518121 -0.1588813081651135 0.05612237212170607 0.004612639194944660 0.1527595923033948 -0.03607361089515492 -0.06426577813062703 -0.3955106997598560 -0.1403778640879383 -0.1482099572557502 
0.1492431399450614 -0.1001901538669459 -0.04517034353613439 -0.4890815223920632 -0.3833773884551114 -0.2055674175815838 0.2460873549077149 -0.09880273526719341 -0.1216696091777436 -0.1828067392692802 
-0.02757047667583082 -0.03676199914671586 -0.06254196610926907 0.06558910899598090 -0.05260722977904721 0.04288159775543345 -0.1697837827513976 0.1815892025361774 -0.005024714912140719 0.1779401135453990 
-0.005533163959317552 -0.02250334481544341 0.003424364119883422 0.08681833431128574 0.01773879854491409 -0.05834997295168629 -0.1215394149578237 -0.3102505100471246 -0.1215220287670916 -0.01259451497525501 
0.1217212343706903 -0.4530352381845839 -0.1713297723490020 0.01594484455411789 -0.005090094172110572 -0.04084305326825326 0.03158745042105762 -0.1901912636007096 -0.1040530316686875 -0.1286391942349767 
-0.1478532730725849 0.3162995093191379 -0.1266538068638418 -0.07911502577838243 -0.01228222594369557 0.06802086869761778 -0.02769772773553613 0.2834674657066272 -0.01254038165277514 -0.3492310841371918 
-0.1519446065869655 -0.006258957440178642 0.1445322025915231 -0.02487575478994815 -0.08258749805262616 -0.1223482518111108 0.09522672176493419 0.006173618524809577 -0.04226224495209303 0.2021453756915236 
-0.1746039425522960 0.03493497744333095 0.1410330033846849 -0.06404571685775938 -0.1377340280870924 -0.07603767869142396 -0.01532966163406392 -0.08272096032502467 0.1200610124471423 -0.06394140369322418 
-0.04428951073956260 -0.3437729688977903 0.07222481570634869 -0.08638815877298481 -0.1671574401283333 -0.04178396494666021 -0.01769093101248869 -0.05411311119102348 0.01809675192977125 -0.01451544492724024 
0.02363316038856118 0.09046748343482146 -0.1373131486507266 -0.02318446639251331 -0.2581183435293316 -0.1416161564941838 0.1557729924268130 -0.07995695072166281 -0.4424749536408770 -0.07520578577434950 
0.06582590724476092 -0.02624709688129814 -0.09821472014624343 -0.1665089221619118 0.2021981774337570 -0.04701120219568843 -0.01687144050447343 -0.1420760415898788 0.09704569167660297 0.04589498030486820 
-0.05801300500044543 0.07252390136656146 0.1260658681332457 0.001482345021812461 -0.07555158944673912 -0.07038654774434361 -0.1734432222598755 -0.1008075428336257 0.08415732498220156 0.05919249579298064 
0.03886396155868763 -0.002362715777705426 -0.1800669665203138 -0.007624465204023781 0.09009937925317377 0.03386651496815225 0.02613772039480047 -0.1770992660822325 -0.3653913492195655 0.1477937017291080 
-0.04118912893047555 -0.2868750729877653 -0.1253458019321326 -0.07383799153667897 -0.01918220104971594 -0.009310804950590750 0.03103936610761095 0.1132489508361775 -0.05894435339374662 -0.5406145440676717 
-0.1009817309492935 -0.1146345118283030 0.01059105734857735 0.008303561850998111 -0.2596845438390973 0.01972527547219258 0.06329646196163138 -0.1605097818418302 -0.1754300325674378 0.01058686726865864 
0.006510259004799893 -0.1361042376778893 0.1073946851451365 0.02674773871393007 -0.2439185471278493 -0.03630167385743931 -0.08488351121065000 -0.07718477602292977 -0.1092489626798905 -0.05813767738698768 
0.09518819266697391 -0.05203789058772206 0.001066250795159093 -0.1690025737848004 0.3879898866577836 -0.2225248416277766 -0.2414367361532372 0.4386092210912032 -0.2115139586929239 -0.1713867141776610 
-0.1164764056441180 -0.07157598706352032 -0.1364958024480028 0.008603589352572443 0.003705618547708504 0.04326596766341444 0.1249857696694857 -0.1943459011161154 0.1112070179069950 0.02169981063069264 
-0.02157368580492168 -0.1848439791339615 0.2514027232701908 -0.001741785785123272 0.05825137915987368 -0.2533105648955163 -0.3298908186369350 0.01412754845537735 -0.09224771477136186 -0.1640346135442182 
0.03474966289033412 -0.1369341729998497 -0.002252167719532136 0.05769823891723391 -0.2520595368998339 0.05989862309165878 -0.09261549009384570 -0.3878865631374637 -0.01347676896640077 0.2064024420057025 
-0.08718885019453855 0.2347992869914024 -0.4333236964166687 -0.3507161451688722 -0.05973030205286582 0.03696737409872827 0.5501591479818735 -0.1563346693355134 -0.05673945544744947 -0.2865261154317144 
0.08326537901933923 -0.1334990493716860 -0.3664258047605484 -0.2786081936184729 0.04609271231864957 0.03282500136767100 0.3219992121122492 0.03103898371404503 -0.3917782155365016 -0.4786499180360936 
-0.1110438100480493 -0.2092028271538638 0.1468484793917058 -0.07545655479337533 -0.1668192418792086 -0.01995120090357624 -0.1675880833141557 -0.1345163746106757 -0.1000896512078815 0.04899203710045468 
-0.1106127521319065 -0.05603241655325680 0.1207840622619253 0.05677989050984894 -0.06182120564140571 -0.3380874263153204 -0.2432282359190987 -0.1830397269734712 -0.1444376196905957 -0.06825943806018986 
-0.05138137487014333 -0.06259719922104005 -0.1028236869182272 -0.1228225180020674 -0.1828983103523132 -0.02706621420351162 0.07843193063932608 -0.2370078040371673 0.08885561121650935 0.05652131836030231 
0.1074204738745320 -0.2667764519586623 -0.1020184964852153 -0.07291734482425738 -0.09130969849354628 0.07381201011134556 -0.1872084935154220 -0.3749961667096847 0.3106811341912941 -0.1101557995383233 
-0.1720594682786210 0.2929110990094479 -0.09867917722816671 -0.1271739319906080 -0.05875270933513882 -0.1521180823493234 0.1882976622256183 -0.003837478721032806 -0.3660840784894635 -0.3292090333171219 
-0.1196674521155651 -0.1963089066348661 -0.1239157720039675 -0.2368081126284717 -0.2675531935956451 -0.2204106173039203 0.3597950130772643 -0.2637627887886153 -0.2282419846773092 0.2522491290510852 
-0.005466111511108618 -0.2911572327157677 0.1229964956922118 0.01679201353927292 0.05216955587005286 -0.05356315051283962 -0.3712693582691322 0.1190715123120629 -0.2638049462429879 -0.2542802968311713 
-0.1897725580307674 -0.4613314922998401 -0.2016169500251316 -0.4201073759040840 -0.3654460455542748 -0.3522798400547372 -0.01038517648167833 -0.5235249219072703 -0.5474498752184676 -0.4413960006355296 
-0.1897725580307674 -0.4613314922998401 -0.2016169500251316 -0.4201073759040840 -0.3654460455542748 -0.3522798400547372 -0.01038517648167833 -0.5235249219072703 -0.5474498752184676 -0.4413960006355296 
0.1480456939571715 -0.06928623671093520 -0.1238388430030071 -0.005281629595108735 0.2759536752229920 -0.01815730161824881 -0.1191230467799242 0.1712549271699000 -0.1169139416741174 -0.2714075372346735 
0.09362525265134879 -0.06502483771494011 -0.05053711803802096 -0.04142689206668836 -0.1024093317278345 -0.1054499567535473 0.07372247070022472 -0.0007659668531664601 -0.02310157812041672 0.06125651473538209 
0.01127786061714192 0.1978770909322807 0.06992822981598604 0.005553656974242347 -0.09190459010767300 0.01999836387290195 -0.1132699270149911 0.1240021952941869 -0.01950148725216680 -0.1481615816367164 
0.4120757349304625 -0.08776272316354439 0.2929815475823721 -0.1423640707440226 0.1388408601863791 -0.04850048916920390 -0.8525826644560477 -0.1559989808572476 -0.04056503483678978 0.04260654702639321 
0.1520456987988275 -0.01981767427048859 -0.6726886856571335 -0.1399182238304232 -0.2986505507438657 0.01060067789593703 0.3749228800624256 0.4639906857382582 0.7557010151462988 0.1806530225800032 
0.01804086874202048 0.1346844344703351 -0.1287576784902670 -0.1174165633068335 -0.1545092567199936 0.09158652375043773 -0.2918655864790463 -0.2139169573443181 0.8672674118844624 -0.09646442771627835 
-0.08488638054860885 -0.06891962188470628 0.1726414007655366 -0.08286650765343884 0.02200795367374791 0.2540561712580113 -0.1708148538570068 0.1767355204958440 -0.08995733148858374 -0.01495689369739042 
-0.3674024556301723 -0.03783246542196789 -0.1890838475011866 0.1834217137805604 -0.03317735811807628 0.09386259350870203 0.1125763850141979 -0.04127311531011141 0 -0.01397725805111008 
0.2101112286043890 0.2429418020814937 -0.1702477132315837 0.4095668509484865 0.3933456426751626 -0.1105896769506714 -0.7271832514281737 0.2052538643290849 -0.1886442682827548 -0.2685898601601365 
-0.02513482418841725 0.2495162253214261 0.07713929180864149 0.1210116168865160 0.2763464326227305 -0.1213412801398236 -0.2761422176976277 0.2439335215018802 0.2227661928137750 -0.2457835608799629 
0.003262858091540989 0.1050106642432076 -0.05424911619544198 -0.02519967153905993 0.6398580507489580 0.04855244769628792 -0.5109921179555936 0.1202851186989064 0.3010715227364595 0.1190269016714732 
0.3194166076980367 0 -0.9302342306784819 -0.02462226135667573 -0.5789821094754041 -0.1939953178987602 0.3530451720650395 -0.07085385970381780 0 0.5108571417546027 
0.2417683681433217 0.2970837517271415 0.3109355975494741 -0.05404690492740374 0.3590979268493042 -0.05867833610696126 -0.7608130954783248 0.1829183916119619 -0.09769424460121284 -0.1814934503123565 
0.06364267494701234 -0.2981443928838356 -0.7896025807918821 -0.1162646549200384 0.2296885676104390 -0.4305611329089513 0.4418802672064085 3.469446951953614e-18 -0.2107498825106539 0.5825782894837710 
0.0001267371585893598 0.2178573272620335 0.1520456371944191 -0.02785769283278351 -0.03154558495809735 -0.06186006720391237 -0.01965983982377118 -0.3835783261010449 -0.2887776750994793 0.01845537972850682 
-0.01505512655793577 -0.1058145777183154 -0.3944614538871781 -0.2522466115934359 -0.5272306737893595 1.068743632709351 -0.4315119103011076 -0.08235450235575331 0.09158996963855454 -0.1389303585821368 
0 0 0 0 0 0 0 0 0 0 
0.05234154614787599 0 0.4037892979436766 -0.1346940699043046 0 -0.1167948648247818 -0.5678457689882557 -0.04678710986695365 3.469446951953614e-18 1.734723475976807e-18 
-0.2528767860437950 -0.006870532026787658 0.9598372309037031 -0.3291512326192249 0 -0.05862993132886558 -0.6067258687195046 -0.05703803097210785 0 -0.09665871799492380 
-0.04471119098459527 0 -0.8157692244819972 -0.04358270204689994 0 0 1.041923539522667 0 0 0 
0.3646740777328800 3.469446951953614e-18 0.08817320048920978 -0.4693778495944650 -0.3227655442185901 -0.3200225399066652 -0.4456934664980052 -1.040834085586084e-17 -0.2285190157688687 -0.1049345759523807 
0 0 0 0 0 0 0 0 0 0 
0.02414380814317044 -0.05365822031845758 -0.1748076543065611 0.3897422946836544 9.540979117872439e-18 -0.1711025010916134 -0.09818615472447206 -0.1890048887855910 0 -0.06984937532315269 
-0.06947109825197115 -0.08088321189855083 -0.6201795529399377 1.024278638793313 -0.1191640495004626 -0.3099737777897016 -0.4677739543351094 0.3424068690418526 -1.734723475976807e-18 -0.1488991076355782 
0.05460001855331309 -0.1102008024360057 -0.08738518625174371 0.05802245035175543 -0.06728159585175454 -0.04316633661945746 0.1209158915602809 0.07054885771986988 -0.1110966268521946 -0.1488955675857988 
0.1506898728633965 0.02994990899009373 0.2017817071770282 -0.004755591472104471 -0.2586205028145066 -0.001008948047121937 -0.1567731122113716 -0.06963538952561256 0.02459689410009969 -0.04824531141727761 
-0.05443640675215886 -0.1465171513043229 -0.1219663728283272 0.09991274818238496 0.1424800666076929 0.1619988169377344 -0.02948343986755113 -0.1988507153822983 -0.08349279516438968 -0.2329565660588211 
-0.1355864814562228 -0.2141036511581031 0.4823955574336316 -0.1105720219772394 -0.4712080014103074 -0.3176100876390030 -0.1748457383290835 -0.7586845956208397 0.3598369040959811 -0.1713867141776607 
0 0 0 0 0 0 0 0 0 0 
0 0 0 0 0 0 0 0 0 0 
-0.2182982910183397 0 0.6842811816842915 0.3758865739680714 -0.5328616590691324 -0.05504754128184303 -0.5391604006850623 0 0 0 
-0.5043692686552536 -0.04558502702250061 0.2174253389913081 -0.2942512383274131 0.6890559616233416 -0.1999570648261924 0.08150989544400664 -0.01398390170425778 -0.01107620750824700 -0.1866207483091105 
-0.005432124309350602 -0.07649052321661630 -1.058581943733705 0.6915462547374684 0.3937558785900908 -0.1999679338533025 -0.2453024499544907 0 -0.1173203423911685 0 
0.04879168338317428 0.01910074795105588 -0.1008623628051763 0.06684896405770169 0.04897495326832382 0.03352282895666951 -0.04587249558792403 -0.02239430818233680 -0.4911921293596291 -0.03029601091884878 
0.09524523276962318 -0.2663817440968751 0.01999564555511697 0.1193435730286221 -0.1986484387412693 -0.01354205613932148 -0.2626195057121743 0.1732981763416959 -0.1416823706266756 0.2370290452151408 
0.3357949678900399 -0.05380447821505467 -0.02864511713413415 -0.05066502418254446 0.09827162331591993 0.1009587852063073 -0.3470241977311410 -0.3420019563737742 -0.05121601703359863 -0.4519276793678255 
0.2197368345559758 -0.1492856673722672 -0.1383439341297931 0.05064874421450247 0.02829715430189768 0.1261934448009207 -0.1551160290406018 0.1313638698340571 -0.1628828970089835 0.1248706056173113 
-0.06195800385917930 -0.2066622590367865 0.2819975202542316 -0.4948940099447611 0.4618617135092033 -0.04982416483825193 -0.4076992519386268 3.469446951953614e-18 -0.08296213030453477 0.2903005681328317 
-0.4126023805278320 0.04022440059065238 -0.1444000292380369 0.02032653016254204 0.001971753268974780 -0.7070397970755760 0.4788084004147084 -0.2938391666350498 0.1978818778115796 -0.2417519740340648 
-0.5232918331623753 0.4686004182005628 0.4913681879686489 -0.2042252311289982 -0.007341110444111808 -0.2875481236116673 -0.6320041423798866 0.7116607961968257 -0.1191291096089577 -0.2198880820864140 
-0.4004939615836111 -0.1234659292650597 0.3303924462729048 0.01321533469286019 -0.1177323700011849 0.04921779136405242 0.05321115491173765 -0.1673323425877917 -0.4000703831685755 -0.2783674141240108 
-0.05229864505711919 -0.1338458428079292 0.5109489967009768 0.1878707629533460 -0.03084538838880120 -0.1889958702219627 -0.6390649996808253 -0.01394187583429413 -0.1291805156943775 -0.1195803115733617 
0.3226004436980002 0 -0.1298813481732133 -0.07695759444946415 -0.4737761586041285 -0.2088949196536693 -0.4246286459282321 0 0 0 
0 0 0 0 0 0 0 0 0 0 
0.1213101707077045 0.1390470361068520 0.1272964721116056 -0.02632318956726885 -0.1663567096929744 0.08622887890292752 -0.2536970708107184 -0.04702412218493002 -0.4883363734515995 -0.006152581093061598 
-0.03803541384195881 -0.06004579572201275 0.4880748689878325 -0.1656459638953778 0.3297547159617826 -0.1293229002855334 -0.5141119026336456 4.336808689942018e-19 -0.02249227267591952 0 
-0.2119633144756082 -0.1591228106261176 -0.05521015497580646 0.07774378265147525 0.09260469699602197 -0.02605999892189441 0.1912993864087635 -0.1828465277547568 -0.02232382094305980 -0.1080168637256395 
-0.4386688629431879 -0.2081455824154471 0.02990586781959623 -0.2703449027257955 -0.1154555964509567 -0.09882418083574311 0.5336897850864967 -0.06905984450793023 0 -0.05498918599938665 
-0.2750788561219379 -0.1348506700309306 -0.02595903977241600 -0.02964807315076567 0.05588268401425981 -0.4408127144055616 0.2395536208429043 -0.1577024743290859 -0.1905242601958544 0.2105399753883925 
-0.08761237546113611 0 -0.4843313000502314 1.309109222246736 -0.6701102203489602 0 0 -0.1082304899189175 0 0 
0.2880059601613020 -0.05632464010719176 -0.2596111086027986 -0.5420730842855899 -0.8656557907475935 0.1821965406068352 0.4815297543642436 -0.01369580213985292 0 0 
0.1469588229630027 -0.08570898051303222 0.02781449587798567 -0.01934026803345536 -0.9127962205310653 -0.05714454847401626 0.06368938855303102 -0.1155969410669819 -1.040834085586084e-17 -0.1859132990756651 
0.3354902546198039 -0.07004993515018805 -0.3381330335031189 0.1311968423646034 0.1711975106775673 -0.1865202743398874 -0.1030665348837069 -0.08675164945440453 -0.05124359847637992 3.469446951953614e-18 
-0.1580563159835420 -0.05065933812040607 0.3709958090406826 -0.2619806177189848 -0.1999962890584306 0.2842264926993995 -0.2236376924237123 -0.3347087498352163 -0.4489101699211329 -0.005848769607304777 
0.2207454890827991 -0.3965026886106826 0.05472898900331427 0.07696617772135148 -0.2280525073848726 0.03889668086286517 -0.2691500564650307 -0.1389178216350824 -0.1198822454663824 -0.1044247451584406 
-0.01311800593915065 -0.1569005615828765 -0.7858538197297462 -0.05298849978566218 0.1734618376222393 0.02711526944514795 0.6121238642926874 -0.08666057094689864 -0.006827542056147848 -0.1249715567180637 
0.04404558722179535 -0.1890859703032026 0.5293276328978826 -0.2800895839814592 -0.1785829551072972 -0.1133530541328800 -0.6013253652793774 0 0 -1.301042606982605e-17 
0 0 0 0 0 0 0 0 0 0 
-0.6277883336158636 -0.2579443518981686 0.5528773090429836 -0.3333306121223747 -0.06244392710147331 -0.1714605908727149 -0.04212174818479129 -0.2042642023932019 -0.1106795606457156 -0.3028420587639258 
0.1195267453973826 -0.6130370814533699 -0.02503442584806290 -0.07932263617459273 -0.04259745889569992 0.08537673064291416 -0.006993003764530687 -0.3147390759466681 -0.3404656949502525 -0.3723135155675824 
-0.03106603176986850 -0.2014827298146368 -0.6198691297304553 -0.5653722503816112 0.5581731211922252 0.1883614320690838 0.2751938136614573 -0.02568051892118926 0 -0.003384375730213721 
0 0 0 0 0 0 0 0 0 0 
0 0 0 0 0 0 0 0 0 0 
0 0 0 0 0 0 0 0 0 0 
0 0 0 0 0 0 0 0 0 0 
0 0 0 0 0 0 0 0 0 0 
0 0 0 0 0 0 0 0 0 0 
-0.03741207296562114 0.2247233497761006 0.1211697017324648 0.06222433205711606 0.03639798450179522 -0.02107409286241516 -0.1304563624003738 -0.01484443566896004 -0.05669232859967827 -0.1000848237105003 
-0.09095737409914673 -0.1227224184261035 -0.02308300654898580 0.02207016804003483 -0.08213971836637327 -0.03799128843120427 0.1486501204312892 -0.1057643894069502 -0.1089206199986136 -0.1249715567180637 
-0.01880354082374219 -0.009294628199635424 -0.01726187466379969 0.1824801069994875 0.1230356279483403 0.3114402780526228 -0.5085401754978970 -0.3206896491149276 -0.006827542056147835 -0.1126261857640977 
-0.03663561524584333 -0.05426463920847699 -0.2533769370310620 0.007276551423770469 -0.3225360459302804 -0.005954875282416922 0.5905627855736043 -0.3206896491149276 -0.03300595317603684 -0.1126261857640977 
0.07221234613840086 -0.007965547582132563 0.02566822360879315 -0.003853037757531917 0.03851748181854905 -0.06891446872981820 -0.1575910325573339 0.1074948419288410 -0.6251021922511555 -0.03817943951597451 
-0.02235243448781051 0 -0.2225298535503921 -0.1481340092136838 0 6.938893903907228e-18 0.1503781514567534 0 0 0 
0.1823843803344125 -0.4786893762354084 0.02053331154712748 -0.07738320705666099 0.04688942612997538 -0.2060909049617137 -0.1027914326091045 -0.1744457221091308 -0.3277689585332096 0.1812342646487453 
-0.1353722604121059 -0.009294628199635445 0.3979070868822948 -0.3775679375741876 0.3953027495001463 -0.2975606415473663 -0.01823151440507752 -0.3206896491149276 -0.02447406795560201 -0.1218851913059837 
-0.06666361592992692 -0.02667924309549951 0.01318126126796874 0.01155006755946746 -0.02200101803265853 -0.07474508256152024 0.04445861401986939 -0.1233733784357024 0.01829652947207077 -0.07203347639875050 
0.05902309052488760 0.09354633467997739 -0.1649854090714447 -0.01310197199231198 -0.04042044648741307 0.07732462609796555 0.1216548108413783 0.04943866110463351 -0.2772307792808879 0.1325485197544805 
0.4067451521461654 -0.008352329086877809 0.2596402731862579 0.2540221987510865 -0.7872938493566375 -0.3595899465032398 -0.4896042556548168 -0.002417198430792759 0 9.974659986866641e-18 
-0.1703384543099166 -0.01027820643774833 0.5451055057383487 -0.3342095210347725 -0.2547746905943095 -0.2814508335807054 -0.1982315027722831 -0.2273290116909311 0 -0.02579039990717205 
-0.05041740554575439 -0.2328125033687433 -0.009399054416854642 0.01794644583766711 0.1960076875882837 0.3043546440970193 -0.3180804133296188 -0.2391156270327416 -0.02617841111988902 -0.2012607638354149 
-0.02472214923858468 -0.2286730079702337 -0.1775123357289248 -0.1715311212196973 -0.2497584350790778 -0.3524249902245904 0.4160318451584299 0.3640787576051872 0 -0.2253344400477309 
0.02680635227368966 -0.2153577970579237 -0.2974394749847721 -0.1529670431425684 0.7685921938208472 -0.1247604439494187 -0.2741743115676493 -0.08467912370816663 -0.4521256368405872 -0.06920772896830514 
-0.02376379717106554 -0.1759946062716409 -0.02345450335298251 0.2472353939637129 -0.8870380920023787 0.03653316349899520 -0.1095118297321353 -0.07272715890358372 -0.1989787887915882 -0.1939099575655336 
0.3451303119081683 -0.1953805037307099 -0.2626204955470424 -0.05465006905187610 0.5204065046725735 -0.3476036538158377 -0.6339598148819855 0.4824859634926622 -3.469446951953614e-18 0 
0 0 0 0 0 0 0 0 0 0 
0.01741042618387035 -2.428612866367530e-17 0.06556527492846950 0.1796239720350134 -0.003304764746810148 0.03479975813640764 -0.1631582233310815 -0.5710824993844951 -0.1122058722690991 0.3650285347856087 
0 0 0 0 0 0 0 0 0 0 
-0.3418971144974552 -0.1656327720871134 0.1275650015399242 -0.2467962572634329 -0.6101975368921634 -0.1737378850202720 0.2172432806405923 0 -0.02529222151017586 -0.04173546207970885 
0.2195308267549671 0.6645794340713164 -0.1119278251615246 0.2734077391149227 -0.8857026391350854 -3.469446951953614e-18 -0.4411901737815293 -0.01908065786456303 -0.09625779010931926 0 
0 0 0 0 0 0 0 0 0 0 
-0.03930158680788559 0.4527781425251036 -0.06987113955565312 -0.1447299617676948 -0.7041202571099426 0.1896561866586186 -0.4672913671513592 -3.469446951953614e-18 0.1539234296416464 0.2312344676949705 
0 0 0 0 0 0 0 0 0 0 
