solver_type L2R_L2LOSS_SVC_DUAL
nr_class 10
label 6 3 2 1 5 9 4 7 8 10
nr_feature 268
bias 1.000000000000000
w
0.2377876137196371 -0.2076697038728947 -0.08632802819619721 0.04290283403770822 -0.1148964763255855 -0.2186307213699958 0.2284674154096896 0.05617454319213353 -0.2914043825313070 -0.4798568572451334 
0 0 0.1405058376186540 0 -0.2115135171151294 0 -0.1885642694039587 0 0 0 
0 0 0 0 0 0 0 0 0 0 
0 0 0 0 0 0 0 0 0 0 
-0.3714358960748397 -0.5940093516294582 -0.1169895161446855 -0.5904101331873037 1.102046287509977 -0.06910319264891572 0.002999906701887024 -0.01087704065482043 -0.09115022412802210 -0.05018163188215612 
0 0 0 0 0 0 0 0 0 0 
0 0 0 0 0 0 0 0 0 0 
0 0 0 0 0 0 0 0 0 0 
0 0 0 0 0 0 0 0 0 0 
0 0 0 0 0 0 0 0 0 0 
0 -0.5193832295924631 0.7458539313622816 -0.05939736948022695 -0.2027897007808587 0 0 0 0 0 
0 0 0 0 0 0 0 0 0 0 
0 0 0 0 0 0 0 0 0 0 
0 0 0 0 0 0 0 0 0 0 
0 0 0 0 0 0 0 0 0 0 
0 0 0 0 0 0 0 0 0 0 
0 0 0 0 0 0 0 0 0 0 
0.2851717588102442 -0.3604484998045955 -0.01247461232436384 -0.09325041721753552 0.1097664440425122 -0.1845294081375861 0.09937895591548647 0.04281093377169124 0.1703814678545116 0.07032427342914072 
0.2164210619282672 -0.3570312483962058 -0.1891399505855880 0.1964141852044311 0.08620069645745639 -0.1833471374352786 0.07615403704413304 0.07069618449988443 0.1009593121185033 -0.3167181032914596 
-0.02536438357661319 -0.3986761057050235 -0.005538590856778408 0.06774862540349841 -0.01997343514269180 -0.01959983280789050 -0.01051839756861728 0.4354531427426652 3.469446951953614e-18 1.561251128379126e-17 
0 0 0 0 0 0 0 0 0 0 
0 0 0 0 0 0 0 0 0 0 
0 0 0 0 0 0 0 0 0 0 
0 0 0 0 0 0 0 0 0 0 
0 0 0 0 0 0 0 0 0 0 
0 0 0 0 0 0 0 0 0 0 
0 0 0 0 0 0 0 0 0 0 
-0.1578220880819787 -0.2241653645435205 -0.4267532728071141 0.2033117418154500 0.2590487424920329 0 0.1168119311337359 0 0 0 
0 0 0 0 0 0 0 0 0 0 
0 0 0 0 0 0 0 0 0 0 
0 0 0 0 0 0 0 0 0 0 
0 0 0 0 0 0 0 0 0 0 
0 0 0 0 0 0 0 0 0 0 
0 0 0 0 0 0 0 0 0 0 
0 0 0 0 0 0 0 0 0 0 
0.7489201169784587 -0.06958318626864277 -0.2204019608633976 0.1875802273081662 -0.07452917774730386 0 -0.2476362294883205 1.734723475976807e-18 0 0 
0 0 0 0 0 0 0 0 0 0 
0 0 0.5788685006392204 -0.3393953670166074 -0.2414856806607407 0 -0.1072252234532224 0 0 0 
0 0 0.4552628675351703 -0.2928069477678451 -0.1085407873868210 0 0 0 0 0 
0 0 0 0 0 0 0 0 0 0 
-0.04864931541067123 0 0.1173620784065571 -0.1175828376532058 0.6186526270454897 0 -0.6224878311675852 0 0 0 
0 0 0 0 0 0 0 0 0 0 
-0.1517120149997144 0.06900981632487554 -0.03922046134890125 0.3138295643839951 0.09070611097840611 -0.005028731094996890 -0.5159840013262604 -0.2225938883166672 -0.06330214670245430 0 
-0.1287776158531951 -0.3049538274820915 0.03988624333647278 0.6111927020052599 -0.3064574216429191 0 -0.09039472768610868 -0.01061132123970765 0 -0.03606296412871966 
-0.2224375333656262 -0.1728398796291468 0.7658422694975306 -0.07023547040400999 -0.08265313201653890 0 -0.2135160005124485 0 0 0 
0 0 0 0 0 0 0 0 0 0 
-0.1554083391362334 0.8199987526242408 -0.3677802131948716 0 -0.1322385883860265 0 -0.2614201324024937 -0.1152764977229039 0 0 
-0.2289664052646435 1.210603363419244 -0.3434079597679930 -0.3572349896851182 -0.2660945362914327 -0.1786773227784214 -0.1279690878868920 -0.3104282356058425 0 -0.03386104149625158 
0 0 0 0 0 0 0 0 0 0 
-0.09871662748318942 0.2275274852917699 -0.8519824745940046 0.2366301682494525 -0.3389101383492059 -3.469446951953614e-18 0.8395768053882273 -0.1932340307496333 -0.02529236628255141 0 
-4.336808689942018e-19 0.4525405582782067 -0.5916937434096177 -0.01550864360604237 -0.1863545801760244 -0.02589017100435907 0.6054674365313424 0 -0.08882452733777599 0 
-0.1640373736195813 0.4277517152297702 -0.1238706234671054 -0.1058030189013802 -0.3205275749965153 -0.1569003795457309 0.3089772357841188 0 0 -0.02142309826169952 
0 0 0 0 0 0 0 0 0 0 
0.01295442505477898 -0.08274536235258641 0.1103113475066209 -0.03100915573601571 0.1186057914365013 0.4391820247189237 -0.1203503017599655 0.01832716484386565 -0.02407778298212998 -0.1935999743922083 
-0.07729171972512124 -0.1097039708295925 0.1117606747147009 0.01908167486374715 -0.02098501763786579 0.03304062686961337 0.07063150687421443 -0.04594786866331353 0.1974016452760672 0.2125809919409224 
-0.1149813109746524 -0.2487844580454399 -0.06493783637128480 0.2474976023491454 0.05117245874852194 0.1766163855357120 -0.1138160415661910 -0.2716627097156084 -0.04027659280779475 0.2879236812953402 
0.01451550440812263 0.03197993686998816 0.1680211624895235 -0.05367534316790980 -0.1018238123792932 0.04237997561780750 0.05459893010650457 -0.1767913213347565 -0.2844527856457010 0.2537267604846860 
0.02859227729776364 -0.03817842348267824 0.1453772508912201 0.007984066170080437 -0.1705885117708259 0.2118448190790658 0.04197928835538366 0.05491332797762948 -0.1857347117437399 0.07023218815808134 
0.01989008717083265 0.04036869331400497 0.02032314990340715 -0.06621669131992053 0.06281656000772974 -0.3873995451275940 -0.06229876296275022 0.2246961312791032 0.1778669171304379 -0.2888334773094562 
0 0 0 0 0 0 0 0 0 0 
0 0 0 0 0 0 0 0 0 0 
-0.02585539921108394 -0.09417940594338073 -0.1465370078982460 0.3485637958637296 0.1052588833791862 -0.3794070729446986 -0.2133993326247448 -0.3075430142917032 -0.3602942715452035 0.08424592995545313 
-0.1898308010751516 -0.1353947960688035 -0.2226394169696047 0 0.8796672914445305 0 -0.1394391441278010 -0.08471608565191560 0 -0.06495641538321513 
0 0 0 0 0 0 0 0 0 0 
0 0 0 0 0 0 0 0 0 0 
0.7656194348651386 0.2194884196641180 -0.2669345304809324 -0.2178276860308732 -0.8278901446585367 -0.07027977442067349 -0.1897675816980892 0 -0.07713388029910657 -0.005045692027781405 
-3.469446951953614e-18 -0.03065265195166114 -0.02138592392893218 0.1670312748904571 -0.08803403847370475 0 -0.2064744232665632 0 0 6.938893903907228e-18 
0 0 0 0 0 0 0 0 0 0 
0 0 0 0 0 0 0 0 0 0 
0 0 0 0 0 0 0 0 0 0 
0 0 0 0 0 0 0 0 0 0 
0.01696238819234730 -0.02575870222498135 -0.4803480035003597 0.9595949739067391 -1.387778780781446e-17 -3.469446951953614e-18 -0.08967951294420207 -0.1646368200484188 0 -1.734723475976807e-18 
0 0 0 0 0 0 0 0 0 0 
-0.1695949881437358 0 1.069575551948333 -0.5754732408196286 -0.1392253641397436 0 -0.05116586409505355 -0.07824322485548775 0 0 
0 0 0 0 0 0 0 0 0 0 
0 0 0 0 0 0 0 0 0 0 
0 0 0 0 0 0 0 0 0 0 
-0.004882013122789769 0.02409734248154266 0.4939023266470750 -0.8088896126383069 -0.004853884658639129 0 0.1100488152950784 -1.734723475976807e-18 -0.1165834407021508 0 
0.07483164590732350 0.1788541893428335 -0.09868727005062027 -0.04963643154243086 0.08953023519356078 0.06585132283069234 -0.03960277654475403 0.2953089224465568 -0.2178706893875054 0.2687324178025153 
0.1093581784048475 0.1330665832970916 0.1298693169202186 -0.2472070174940760 0.08509619901270808 -0.3419308225150501 -0.006801278523202954 0.1282669775837275 -0.2692303725419748 0.2407893002728300 
-0.05084554986738946 1.217625480693856 -0.3301649637954542 -0.5310270712724884 -0.1116635330627044 0 -0.1609529967199512 0 -0.1070625394766782 0 
0 0 0 0 0 0 0 0 0 0 
0 0 0 0 0 0 0 0 0 0 
0 0 0 0 0 0 0 0 0 0 
0 0 0 0 0 0 0 0 0 0 
0 0 0 0 0 0 0 0 0 0 
0 0 0 0 0 0 0 0 0 0 
0 0 0 0 0 0 0 0 0 0 
0.03876584410060757 -0.2934133888009962 -0.5238293312939477 0.6966801264540550 -0.2020241894236444 0 -0.08620917450380003 -0.04910172124049293 0 -0.05757469564321992 
0 0 0 0 0 0 0 0 0 0 
0 0 0 0 0 0 0 0 0 0 
0 0 0 0 0 0 0 0 0 0 
0 0 0 0 0 0 0 0 0 0 
0 0 0 0 0 0 0 0 0 0 
0 0 0 0 0 0 0 0 0 0 
0 0 0 0 0 0 0 0 0 0 
-0.1783082672848540 0 0.5523689551275602 0 -0.02279374461337265 0 -0.1374712416377765 0 0 0 
0 0 0 0 0 0 0 0 0 0 
0 0 0 0 0 0 0 0 0 0 
0 0 0 0 0 0 0 0 0 0 
0 0 0 0 0 0 0 0 0 0 
-0.09642037716398587 -0.1176519224003895 -0.2637512609515705 0.8986267890815208 -0.1404247293939706 0 -0.1029254614453838 0 0 0 
0 0 0 0 0 0 0 0 0 0 
-0.09474549742418317 2.428612866367530e-17 -0.8068983899643121 1.184034162637485 -0.1110791890719572 0 -0.3280491139274441 0 0 0 
0.1604498314403739 0.3378723900191496 -0.1069108313182811 -0.01412372593252314 -0.06381651627796447 0 -0.1439140908275273 3.469446951953614e-18 0 -0.2298495113551133 
0 -0.09311508287470936 0.1979562798971128 -0.3093273731549115 -0.1410433943347837 0 0.3000506844625069 -0.1071555932554762 0 0 
0 0 0 0 0 0 0 0 0 0 
0 -0.05366983453801513 0.7189860064702405 -0.3499730032656326 0 0 -0.09817003460450682 0 0 0 
-0.2722857026874190 -1.734723475976807e-18 0.1634022361000790 -0.5444753899708650 -0.02685304810307648 0 0.5963577450337199 0 0 0 
0 0 0 0 0 0 0 0 0 0 
0.2768616015199122 -1.108604974603754 -0.5524590484247981 0.2191065263487039 -0.6627366309990637 -0.001717600163488905 0.3853022522904816 -0.1827088752804615 0 -0.3496146047472961 
-0.1856063375292135 -0.03276476672124586 0.7181188354199104 -0.5837610231521079 -0.05556916670733585 0 -0.06929636497175003 -0.1532274719543659 0 0 
-0.3519219902785440 -0.2407461877301216 -0.5408122926092863 0.1350682998272871 -0.1199510936786714 -0.01019145226301473 0.6784798809361890 -0.2002395254727203 0 3.469446951953614e-18 
-0.04115731460599310 0 0.5041849944534855 -0.2391199021546870 0 0 -0.1688734987308009 0 0 0 
-0.05155343892370848 -0.1786625473067268 0.008009640318563027 0.05748578012641299 0.1275181639634399 -0.08222278733837530 -0.05524254259695952 0.3548178192386643 -0.08356103765687824 -0.7032048303578695 
0.01361808975172281 -0.03592466082579236 -0.05877031153109960 -0.006873630684383335 0.1773266976745087 0.2641169021319450 0.01319966892986203 -0.1338850493132916 0.2536872598888594 0.1185877669412670 
0.04996880785348316 0.01267778358440534 -0.01409216539880521 -0.2350768162303538 0.2592929731152663 -0.02329226115370905 0.06635371320663400 0.2964231203507120 -0.05899687471961528 0.1572044292193269 
-0.1104418485134856 -0.08336625847222459 -0.1771745584411159 0.1383798104360220 0.2413606241549679 0.06757169850469709 -0.04564403143641548 0.2960287796167287 0.1892040052569365 -0.08854781507008862 
-0.08074114446845210 -0.1436416400540013 -0.03987948936175634 0.001974414208932179 0.1814372776350897 0.1667071012092612 0.03948007661803489 -0.1974237267460307 0.3905187240734838 0.08626461758476002 
0.01640707006627979 0.1354723411515605 0.05375672258599396 -0.1521070227902554 0.1701239519367778 -0.1812478640072320 -0.09333192948586687 -0.1663159968222989 0.009416939327872697 0.01721985010951734 
0 0 0 0 0 0 0 0 0 0 
0.07272258311887758 -0.02575870222498138 0.6944371003503718 -1.094037829494746 -1.387778780781446e-17 0 0.4376822686243121 -0.1646368200484188 0 0 
-0.01112422798773951 0.1527971036421414 -0.1116154620751400 0.08518537035712960 -0.02631176749577862 0.1212165406241269 0.01132411265651973 -0.06687068811604878 -0.01370008652254602 -0.2375725788851489 
0.08926524112690265 -0.1004441149243262 -0.2612773512623974 -0.06784543342470371 0.09254001851383780 -0.1794486762150455 0.2172473712320977 -0.01811863829595210 -0.1499739488258895 -0.2168719521894007 
0.02438833076902393 -0.1092957657006276 -0.2042006534236004 -0.06212428713836126 0.1427689448555885 -0.2231593969630374 0.1099652237260161 0.04958078772862938 0.2463772004730009 -0.2780017524570683 
-0.2009621368785214 -0.04028055823232781 -0.2959618484131914 0.1523461045666817 0.1340680233415610 0.01759111747432787 0.02285222411315654 -0.08488354680852855 -0.02708842209525683 -0.2292879733790912 
-0.2574534279981975 0.003650668860759394 -0.2994694630380219 0.1354196491932926 0.2752947567440149 0.04092883083308103 -0.1179572250381381 0.05013542207385803 -0.1516487066654137 0.09104323822871378 
-0.3011730028169524 -0.5571732491989718 -0.05508402509464185 -0.3606070970641576 0.3092462969077111 -0.1330011677010677 0.3470982767783180 -0.1956476807609648 -0.2744220765403767 0.1162016968421326 
-0.1531266489531071 0.05864251444505265 -0.1258664503101130 -0.3037248729605402 0.4243819774569409 -0.04895331755790169 0.01240127633753202 -0.2304903656584987 0 -7.372574772901430e-18 
-0.05920145380036249 0.6347969236098546 -0.6589719227739224 0.4330885218017549 -0.1523556266159294 -3.469446951953614e-18 -0.2096944342808340 -0.01087704065482044 -0.06289768073407050 -1.734723475976807e-18 
0.6347374084352302 -0.07412334459813597 -0.6387480286719273 0.1156692522795452 -1.734723475976807e-18 0 -0.1674408732325197 -0.01405042332000197 0 -0.008832509744195572 
-0.1578220880819787 -0.2241653645435205 -0.4267532728071141 0.2033117418154500 0.2590487424920329 0 0.1168119311337359 0 0 0 
0 0 0 0 0 0 0 0 0 0 
0 0 0 0 0 0 0 0 0 0 
0 0 0 0 0 0 0 0 0 0 
-0.02763312179870902 -0.003998955947234597 0.2006965079026771 -0.3086768543510776 -0.05555402683308189 -0.1013276059971091 -0.02031765033587060 -0.06708706431249581 -0.07413197152784559 0.02394784809239589 
0.04538903244418741 0.05811456935201312 0.2847823836772010 -0.3667485882874971 -0.1303523025891921 0.01263111045950295 -0.1144401359117131 -0.06933050048603309 -0.1311209324386502 0.1600398414383578 
-0.07729178155532292 -0.08094568582968900 0.08166120520014930 -0.1258858584229476 -0.02722920853046428 -0.4048677541038351 0.004772256267038992 -0.07670405490770424 -0.1907546905043759 -0.4046926729394179 
0.1482263021783529 -0.09923316138261803 0.1962027015866326 -0.3579229866907152 -0.1001721525453574 -0.03247836048820514 -0.07305857958309460 -0.07323891361206225 0.2104092873724993 -0.3935075273323299 
-0.03515263457847119 0.3044655343866689 0.1870864129674639 -0.7014221456447691 0.04998123510876280 1.387778780781446e-17 0.2919659952924716 -0.1988099655339927 -1.734723475976807e-18 0.05436947799833223 
-0.1898308010751514 -0.1353947960688036 0.09798063938321816 -0.6220697542858040 0.3153665908191925 4.336808689942018e-18 0.3251398142755808 -0.08471608565191557 -0.1851739903844771 0.1435009222168761 
-0.2632845271130740 -0.1837451082165687 0.4219372724950090 -0.1752519991043226 -0.08803403847370474 2.602085213965211e-18 -0.07720310595888383 0 -0.07713388029910662 -0.005045692027781405 
-0.03313308615408243 -1.734723475976807e-18 -0.3424764090906751 0.5286910676179343 -0.09781994497512125 0 -0.2264567114114797 0 0 -0.04678675450212324 
0.1240854225731988 -0.2934133888009964 -0.1519063892695605 -0.5404999881246817 -0.2675325220681792 3.469446951953614e-18 0.2629704813559095 -0.04910172124049293 0 -0.05757469564321995 
0 0 0 0 0 0 0 0 0 0 
0 0 0 0 0 0 0 0 0 0 
0 0 0 0 0 0 0 0 0 0 
0.04634050126119976 0.04894924277503231 -0.03368417814097359 0.002356794197225557 0.03476492074568287 -0.05625857110133094 -0.06223372052086926 -0.1099150098967426 -0.005245330406664864 0.07357271684023374 
0.1152993971407155 0.8430480834865244 -0.4217771051464485 -0.1839104431640923 0.1714358019074451 -0.03630721337884547 -0.1483457289945206 -0.008983444783829860 -0.08799407955012752 0.04014145753845930 
0.02273995926223393 -0.1050716240329690 0.2720752746230860 -0.1522314795691907 -0.05347316638401156 -0.2752948967295585 -0.1810629874877009 -0.05762925693816059 -0.1737446042905881 -0.2988459571119384 
-0.09734015241083033 -0.1944238042012960 -0.4920057208628521 0.1258975054641445 -0.06838759792177285 -0.1109445046183516 0.3757592424481163 -0.05942769720724168 -0.2042577200635421 -0.06249740962539259 
0.007213594641185907 0.08148169909708503 -0.1143726214968717 -0.1365205955100350 0.002721283001523396 0.3349615825540915 -0.05425965454591729 0.3100154936248596 -0.1287652754194165 -0.1032592157282648 
-0.02441267972790646 0.05627227208168072 -0.03587305976404057 0.09271946917407711 -0.1323238313475053 -0.5719858186383061 -0.07465890121085239 0.002330414809212462 -0.1039666909856862 -0.03182488685439512 
-0.03107624771767985 -0.1768503233088366 0.04395153618358413 0.06760816890008880 -0.1349825849080986 -0.3691947929775251 -0.04780211106944551 -0.3239214216002118 0.01288706745242094 0.2271387320621553 
-0.2274349008148463 0.03576773562415380 0.1395850407035821 -0.1229177101596219 0.008777654316143906 0.2310314435104055 -0.05049311319363562 -0.3473363680740014 -0.05253698933027604 -0.1261646296927193 
-0.03103735143010553 -0.1055682455420617 0.1454956205829615 0.06709164834835987 -0.02367812684342279 0.2353843767696008 -0.2046200328806465 0.02161734968926676 0.2024780348551314 -0.1302958857483605 
-0.08935495069784402 0.1953015191428501 -0.09748183773625996 0.1266516637940876 0.004763864704605877 -0.3584140097115737 -0.1273862128044067 -0.1592955865067597 -0.1558168261797451 -0.3466713580552724 
-0.2000288213068730 -0.6088953679479182 0.09473707157871988 0.08634657497658343 -0.4780508538276036 -0.1466019070710596 0.1637211250943293 -0.1857519617732490 -0.1989957165088840 -0.1423191828001028 
-0.01293953521390967 -0.08557475406049744 -0.09888691789592466 -0.04802146435811411 0.06741023181591896 0.02043097875134660 -0.05389156198800955 -0.08549047177629690 0.1443348619097763 0.1526316423998537 
-0.05437847979026014 0.06254211688373920 -0.06712857093595218 -0.03273084346956187 0.09460791076634502 -0.05762267176176118 -0.02497192967958256 -0.01620597032912996 -0.01720073882901961 -0.3500812675453695 
-0.04867130904420425 0.03773780975529484 0.02755719421586770 -0.1197420553198248 -0.01064246915482960 -0.03829595903096263 0.09874421829984395 -0.2829483481407908 -0.1152538166064768 -0.09740962272060845 
0.1547224065997354 0.03491026034714898 -0.02924525614111670 -0.2176927505690457 -0.05088556078443428 0.06426879073144486 -0.1245786999869532 0.2976286815383101 -0.3364117732094784 0.2468711307875187 
-0.1306970887445917 -0.04441387440286169 0.1293043868841171 0.1468358815936874 -0.02854949360714620 -0.009807832037079654 -0.1687744968753057 -0.02228782870836513 0.2314378316418731 0.01122940523506828 
-0.04937164407991793 -0.1609836462108057 -0.06064869559367363 0.2105505556674955 -0.07101640713796281 0.09867246020674712 -0.1740051078929060 -0.005174204092400244 -0.04490966724015131 -0.09570853074366030 
-0.06513104878443116 -0.1505165593256302 -0.03421683593286971 0.1076601654656129 -0.08257840876947939 0.09929933901738955 -0.03850737808038483 -0.2185457038112963 0.01961939010594832 -0.08131991621653617 
-0.09517990698041512 0.0006019827647161930 0.2252713047958428 -0.3144246703907461 0.005032255006366429 -0.4081379237323924 -0.005749222942828218 -0.03635449434303872 -0.2546410089652157 -0.1926728251001410 
-0.08392465977047248 0.1840416959441913 0.01015523482268431 -0.07748420873777012 -0.1380837957851027 0.1312858163522767 0.02552261266511784 -0.04062209337188648 0.1006889774359363 -0.1293812184972596 
-0.09009739220097882 -0.3133993698636322 -0.1209159848293467 0.2306303495258768 -0.02404905604798560 0.06692103266881855 -0.1147093825175903 0.01639074473552428 0.05413210483730583 0.002887863580176633 
-0.02729846161064387 0.06925958604784137 0.008541898890220744 -0.2019329247988009 0.004205013126194914 -0.3016399756333958 0.1132813714254914 0.08113608183220472 0.1834636631223713 -0.1540378263386426 
0.02965533522891309 -0.03739597963893521 -0.06933085218340637 -0.01335226008385243 -0.09485597047917493 -0.2124433590090890 -0.04297045059698596 -0.2511818166453873 -0.5062596370781517 0.1244832006171515 
0.1107527708929979 -0.2512917164165413 0.1899291572980579 -0.1189682671496688 0.02784838861326999 -0.1945342955919059 -0.1153996160993685 -0.1875822684409413 -0.01073013847432531 -0.1806013360823941 
0.03679991064512889 -0.2227784419913246 -0.1195752453624791 0.1403165796635678 0.03547331187370240 -0.1708551639119374 -0.01351409548037733 -0.1042078303715930 -0.05525606436191659 -0.06544054219762792 
-0.4903708939174391 0.07024007013424040 -0.1862736440360698 0.1558816086396312 -0.1834501974440213 0.06889529812591023 0.02608126702640509 -0.1626088789194257 -0.2463803712788922 0.2392851937756795 
-0.02000189542924514 0.1291125408169305 0.1408598138226010 -0.1928995559777301 0.01804615025241097 0.1528462305336411 -0.08709315599395244 -0.05274406153004563 0.09252462529995409 -0.06409902697823239 
-0.1031991305655120 -0.01230612336743360 -0.5127225231511815 0.4997378190783161 -0.02920254388157579 -0.2915198502728615 -0.04420348024204233 -0.08520537734972858 -0.1746106849730495 0.01473883164328644 
-0.003044712729858094 -0.1321428670998966 -0.1398099072409283 -0.01626013125429244 0.08542670246161432 0.04803321104963600 0.05043955892508661 -0.1237605256614875 0.2326616913245253 -0.2914311556712459 
0.08771617290597870 0.01077424764178018 0.5864484186394519 -0.5261610463520067 -0.3554881819625449 -0.1389080400621280 -0.05344803607583996 0.2617574565769438 -0.2861152353182510 -0.1782012171883763 
0.04256009694779064 -0.01934484971830619 0.2196315797774010 -0.4475431066106685 -0.1115173463038270 -0.2887663034257719 0.1376966787039908 -0.1927068660675254 -0.3050777121268606 -0.09551975721941089 
-0.01204397443456209 -0.1987029114494923 -0.1236614688295796 0.2055414057661577 -0.1366620946233993 -0.1470519277659227 -0.1478091206830615 -0.1889506502519378 -0.09427014530324279 -0.08153088557470542 
-0.3542082769139334 -0.03357442448730783 -0.2488666964232578 0.1827154981902275 0.04117177578204372 -0.07448820832248423 -0.1175661433923539 -0.009662845066298883 -0.01470453274667485 -0.2005488260457737 
-0.05765562379724624 -0.1567701046271394 0.1117526554448872 0.0009332093021008079 -0.1943387049419608 -0.01573617061546823 -0.1094589725686601 -0.06303112431051677 -0.03385378760517793 -0.1481497838590244 
0.03604604421269932 -0.1893652865036838 -0.2921383360043466 0.04780200443361724 -0.1039976330773440 0.2698199062251618 0.1161637768156410 -0.2288682060258672 -0.05112575005460796 -0.4502577821427271 
-0.1507371726016842 -0.05137225370591942 0.2942947637156308 -0.1736540274712698 -0.07914977679136724 -0.3622105144408344 -0.1800357523479995 0.2009175981504884 -0.3798390698858576 -0.03886681761374815 
-0.2919802067309011 -0.2503639057315770 0.2684907586211127 -0.03765548597986546 -0.2310208636532729 -0.2173052689551707 -0.1516751305562373 -0.1553345416440524 0.2825509879400322 -0.1876243528281927 
0.02532355692193489 0.08270915565893754 -0.3117911163629559 0.1051545156653325 0.01282190343484080 -0.2163467329588029 -0.02159045185149283 -0.2710663361768433 -0.2994923457815257 0.1509996998857550 
-0.3813477781979635 -0.4083922902822549 -0.04114393003054878 -0.05835299335218435 -0.4013463700871359 -0.5260426101296427 -0.2371375579400892 -0.4543514856962740 -0.4479061777819647 -0.5257492526989183 
-0.3813477781979635 -0.4083922902822549 -0.04114393003054878 -0.05835299335218435 -0.4013463700871359 -0.5260426101296427 -0.2371375579400892 -0.4543514856962740 -0.4479061777819647 -0.5257492526989183 
0.005543829090185397 0.2823520506873959 -0.1499062657920163 -0.1399898810984297 -0.002408331578540158 -0.1150144566355034 0.1672033644928525 -0.06272924337213315 -0.3072013994600845 0.1446368246126253 
-0.1039009329658994 -0.08874267854436568 0.04691445873236976 -0.04241326059930344 -0.07470027283896344 -0.03788555457773007 0.1226515441244400 -0.06350356643302568 0.05541378081067436 -0.05409093103888335 
0.02243531143882873 -0.06909016204947997 -0.09892802443813764 0.04516648898931899 0.01236345690138954 0.04845298278221473 0.01202046177610820 0.1695710319126162 -0.1187433306818029 0.06765530167214590 
-0.06051195501636185 0.08036011644769628 -0.8438318190271038 0.2694108612825361 -0.1231425690739667 -0.1570168246167338 0.4508948343232485 -0.09733358486903847 0.03197974962938289 -0.04678675450212314 
0.04036751062799508 -0.3036858350298727 0.3216111495139856 -0.6128883519469240 -0.1225380823068936 -0.08399813683801016 0.1053053735809291 -0.09601231394448162 0.1819592221844096 0.5068408268228161 
0.1172316024165780 -0.2106866139633657 -0.3528177980231371 0.004849367555291636 -0.1412527504045669 0.6565034594856270 0.01578610395977661 0.1273954531414247 -0.1922257428219937 -0.2378677783941528 
0.1109249850604612 -0.002409876873632119 -0.3170897618800911 0.1977546597619901 -0.1050714158162129 -0.05004959297196732 -0.06944841623547135 0.03125062159462103 -0.06962482550530302 0.1607669589001312 
0.03649254650532979 -2.602085213965211e-17 0.1597860708014035 -0.2047644160530343 0.1572637003342769 0 -0.3658985290368551 0 -0.01956994374645685 1.235990476633475e-17 
-0.09255927322059192 0.3465953348238783 -0.8138627657395450 -0.2801938929596453 0.4234063206890713 -0.009180768152204031 0.2749048222653740 0.3424933167676347 -0.06836514669483800 0.1991660697019068 
-0.1242686771396928 0.2678551962213921 -0.2301409087454149 0.03288231259405394 0.1097199867978565 0.2205257899914211 -0.01937284575766850 0.2437844579317039 -0.2844182775690439 0.2149669687515980 
0.02840740722213197 0.6368420529321492 -0.5206909223649834 -0.05519824080133987 -0.03938412603182861 0.2089555402379812 0.04653502429590994 0.1038056314168680 0.09765039649247778 0.1117729728580116 
-0.2400663109309093 -0.4546428080646086 0.1936134218522438 -0.9247032597388288 -0.09710207338549694 0.6188212666973417 0.4561827614014575 0 0.4176804383445993 -0.03648445784962656 
-0.1157854971955459 0.3115400085822947 -0.7137836565620809 0.3158487809244746 -0.005243194722117775 -0.1247531575893879 0.3098464672566212 0.2889141737799658 -0.1652556256762118 0.2861232510912720 
-0.5232430719159007 0.2127061942871131 0.4709977462827019 -0.7306772745809774 -0.04875535551307809 -0.1732405565634194 0.1130091034195704 -0.2855578421596519 0.5675763626695386 -1.734723475976807e-18 
-0.08790134496265992 -0.04071104394559851 0.04370938660485638 0.1201277228244265 -0.04903766725633588 -0.2803929517630275 -0.007859713360766910 0.2163616796297234 0.08989495733586436 -0.3557460280425980 
1.052752058823617 -0.1858067975433945 -0.4961246948151044 -0.4363986850370027 -0.2678320073667317 0.07763402982110800 0.04472441898828707 -0.1029748337122215 0.1456908685688441 -0.1156262045172657 
0 0 0 0 0 0 0 0 0 0 
-0.1901632554563993 0 -0.5626015375242513 0.3912628639917634 -0.07361795619350255 0 0.06834262468840137 0 0 -0.03156666870988835 
0 0 0 0 0 0 0 0 0 0 
0 0 1.211496240662738 -1.019014867041282 0 0 -0.009185815835927340 0 0 0 
-0.02959512910905498 -0.3772319286453740 -0.5037287049344830 0.02915579934531991 -0.4394157003190796 -0.1862483991224477 0.3668000642796137 -0.1146077598233076 -0.1833749648019846 -1.561251128379126e-17 
0 0 0 0 0 0 0 0 0 0 
-0.1027662357964027 -1.387778780781446e-17 -0.1174151655583174 -0.3950139959262051 0.3222618097638688 0 0.3008567319317800 -0.09270459763954567 -0.07524642327568382 -0.1558477168145620 
-0.2402521559840875 -0.1318782024042194 -0.4717943460538654 -0.6380998362161690 1.056512971077560 -0.001717600163488924 -0.06241578224388125 -0.06005013848396923 -0.1408686828424135 0.3482745484748599 
-0.02838004026433164 -0.07380543290244110 0.1124328751753871 -0.09720760837013277 0.08413575683295280 -0.08057637694113200 0.05257508851875126 -0.1658995900848070 -0.1137354939303755 0.04174356591450282 
-0.02294382417890765 -0.2253042638271250 -0.1795796237579320 0.2328584309844938 -0.002471619501891408 -0.04275985200298568 0.1333176312642602 0.07594379420822409 -0.04588223665190749 -0.08896165358142628 
0.03690305757223391 -0.2644489769346863 0.1038078774701193 0.02676342238312961 0.02413264542765101 -0.09467253155981932 -0.08019612128458048 -0.08600511542191891 -0.05520922169450744 0.1360954479619004 
-0.1137137252387283 -0.3049671886233860 -0.5845041670937641 0.7222721570670171 -0.07356263643980138 -0.1329151570059440 -0.09839008202011042 0.08366168967949035 -0.05414974121468606 -0.5696559059738805 
0 0 0 0 0 0 0 0 0 0 
0 0 0 0 0 0 0 0 0 0 
-0.1240380064773007 -0.4663525513566200 -0.5133492929165503 0.5911858269138107 0.3981177093771291 0 -0.3116789779717065 0 0 0 
-0.2481928378730337 0.6972335707335054 0.04964682396673320 0.2580763801525819 -0.2828635455622897 -0.02269556661041694 -0.5218990811136951 -0.05625214399876968 -0.1704563263998567 -0.01944266766828914 
-0.2038522901732195 0.4136867622237528 -0.2558330051996317 -1.069931836757472 0.6347194382980560 -0.02225724695501205 -0.01958828614703783 -0.04325898520669228 0 0 
-0.004923886808647803 -0.01760646690131361 0.02421083343623992 -0.1144456733378806 0.06769153584359364 -0.4464665896241535 0.07457456875671059 -0.01745762427825370 -0.02934293713890280 -0.04868272249384397 
0.09470137993686760 -0.2075255675328220 -0.2344358795344865 -0.01090417225409640 0.1126821725651347 -0.5043640646748054 0.06055806646767268 -0.4211697487949823 0.2143466798209240 0.1516463885347124 
0.07068309107957000 0.08184381689804286 -0.3067611705176901 -0.05223399213063437 -0.02528168574006627 -0.07658954994077141 0.3392903378694026 -0.1028577603385383 -0.4315960019977781 -0.3376777128257245 
0.1535095367057907 0.01641616014119900 -0.1264841449461863 -0.1238882994626608 0.02937410778479618 -0.1004068475845723 0.1772324660070572 -0.1420659168647874 0.1592928236225581 0.09500729893257019 
-0.04937485507080328 0.3978496133737873 -0.3573825415684871 0.2387941665838876 -0.4822257283082819 -0.07991197878927630 -0.07560582619741224 -0.1966724207926695 0.2715544986015553 -0.02269107658279788 
-0.6198582113679202 -0.04394607284269374 0.4704223602588306 -0.1192372113157904 0.01855518345507818 0.01638434099449386 -0.3701904503637183 -0.04913063581732258 -0.2873589021266553 -0.2513113959194406 
-0.3119731316252777 -0.02947320773092542 -0.6240639733032907 0.4540181584777807 -0.1928500990103809 1.734723475976807e-17 -0.4350455202926539 0.3805796193602632 -0.2332911347870038 0.5663133391660948 
0.01063033152156053 -0.1314352039723105 0.08782743687760589 0.3028097301022678 0.04457878233415823 -0.2260086012593070 -0.4291863230537068 -0.2158854430087144 -0.1963875282304706 -0.1865454181264114 
-0.1435308173523596 -0.1959964531940919 -0.6308903610493586 0.4763571360324359 0.3054206588160730 -0.07247094149603261 -0.08081434376650869 -0.07650446824878268 -0.09431843102191800 -0.1022037750909783 
-0.09888105259355484 -0.3449005439342803 -0.04518727160433210 -0.1362276228950874 -0.1461408192291996 0 0.1032581891489321 -0.2984065671355599 0 -0.001258955465092664 
0 0 0 0 0 0 0 0 0 0 
0.01667572269685199 -0.1612181320118448 -0.1955307594515529 0.1081403404138774 -0.05782311512891213 -0.3127541425134261 0.1579406670644075 -0.03905962284624764 -0.006100819055471917 -0.2038713336384823 
-0.09329921164013301 0.3802705327009091 -0.5554763574080007 0.5242732943856644 -0.1881851037795626 -0.03880602804084400 -0.08793498653962842 -0.009282247896993345 6.938893903907228e-18 0 
-0.06259196549105880 0.06392333258624995 0.2206455037293302 0.09988886106891648 -0.04737440850788061 -0.03892678970589867 -0.3481739464391743 0.01819120638915299 -0.08514927382645855 -0.09728225487081786 
-0.2486977605159254 -0.1964893132069976 0.4473721935107423 0.1511510827565876 -0.3707101577862859 0 -0.4455528313019878 -0.09091085985279757 -0.04914407913266683 -0.2689603503726301 
-0.4262124575721109 -0.02498593647537941 0.2409644856414459 -0.01793719745424178 0.03569813815170699 -0.2482060166953503 -0.2457250651576660 -0.1688778381722773 0.2635175906112619 -0.2473239512006884 
0 -0.6396567769709254 0 -0.5999369218391263 1.349557771373652 0 -0.1358140686540614 0 0 -0.09206967662539710 
0.1113962909025456 -0.9014153981976079 0.6205359473923622 -0.4043546715166244 -0.5597014164500722 -1.734723475976807e-18 0.1597477222915424 0 0 1.908195823574488e-17 
-0.07377171488698046 -0.8303850734141272 0.06341635196504834 0.05298894237337768 -0.007408059946650274 6.938893903907228e-18 0.1296636317330374 -0.1565392903577232 -0.08656443946586932 -0.1157729103709277 
-0.1865145942473704 0.1374946359965637 -0.1189390762838267 -0.3177746707198628 0.1576729382759248 -0.04894988266371510 0.3186163701062631 -0.07424151563578567 0 -0.08438587390009379 
0.2423296134825930 -0.2329407515392083 -0.2914014093623953 0.3079498787817050 -0.3131589823942799 -0.2889388866166296 -0.03330734886728228 -0.04659081247829254 -0.02825254339395172 -0.1948615801130577 
0.01420773261199629 -0.1872100689338974 -0.04235477218060376 -0.01458504718533106 0.01028120593661881 -0.1582530488753336 0.1553155058720718 -0.2580475992555088 -0.09957537367129013 -0.1389202951319039 
-0.06826821549404785 0.2273855075864118 0.6341981186257388 -1.391044202623968 -0.07718305759222041 -0.03117140536046933 -0.05468881212923004 -0.2175397340909161 -0.1408897753894415 -0.04990331059460524 
-0.1651547061167182 0.1153794026440355 -0.5974176408518047 0.4472835003682417 -0.8738948565821912 0 0.4223480489846735 -0.006970695007377692 -9.107298248878237e-18 0 
0 0 0 0 0 0 0 0 0 0 
-0.1637020023695438 -0.02583069319399341 0.05589189656565149 0.4243543326385464 -0.3304212667623327 -0.1787719765329434 -0.6004957981632773 -0.2337277755132330 -0.3267944049969206 -0.3316670523900012 
0.2359751516284135 -0.1092820110747416 -0.01322808641458981 -0.1084650081205035 -0.05637103829244264 -0.3435098892565489 0.09318976682250481 -0.5988969489772672 -0.4752890301708088 -0.3414367450795169 
0.05728092158414807 0.2899171179795557 0.2979679481121580 -0.5971052587155331 -0.7183759542899638 0 0.1847411434263465 -0.3618386199516682 -0.005267500495408407 -0.02281323339326250 
0 0 0 0 0 0 0 0 0 0 
0 0 0 0 0 0 0 0 0 0 
0 0 0 0 0 0 0 0 0 0 
0 0 0 0 0 0 0 0 0 0 
0 0 0 0 0 0 0 0 0 0 
0 0 0 0 0 0 0 0 0 0 
-0.01981495580278760 -0.03000839226504785 -0.08941365261121166 -0.01401552701473286 -0.01866087361840258 -0.01808160591947812 0.1118896488314193 0.2001421545380800 -0.1632334137395821 -0.07689478866353060 
0.09264005250619867 -0.1118498740537802 0.1936784154392666 -0.1429279946412398 0.06334986124528354 -0.4000537053093189 -0.1117078044762682 -0.2799984023631215 -0.1472848054956728 -0.3025606265437317 
0.3095799303327996 0.1321213177149009 0.1717226882338772 0.08133832082839070 -0.2011755658997118 -0.01308979944099118 -0.09587656782300022 -0.3778137937580347 -0.09859780074044686 -0.2424481863120836 
0.003990943198380832 -0.5363364730268099 -0.1447864763755424 0.2087158667625629 0.1121051863601861 -0.01952270198038319 -0.07447697691707074 -0.3342970147354864 -0.09859780074044688 -0.3931125044454018 
-0.08811735604564591 0.1130823543030763 -0.08384832476494306 0.02741585710288267 -0.03145607433125390 -0.4084064987678457 0.01458809590396809 0.04590968968606615 -0.03129306139810901 0.1891664819486483 
-0.1651547061167180 -0.03634404718412544 -0.1620667272471261 0.2428126513379489 0.9067355024869080 0 -0.4292058656286180 -0.006970695007377664 0 0 
-0.1847202740867292 0.1086014370482222 -0.1535364266145403 0.07708915863618906 -0.08091520889021653 -0.3025981512000788 0.1865690997312973 -0.4819817496398217 0.2129695132369088 0.005296475694140264 
-0.3672577545579677 0.3572688960639801 -0.007447592783035589 0.05063032753111310 -0.2401812038843683 -0.01308979944099119 -0.07517400550110641 0.6246168689311262 -0.1182314205331255 0.2519583884910052 
-0.1636679787495883 0.05837515529532360 0.03165938312398402 0.03155119886960987 -0.0006056591319166466 0.09961008937985041 -0.06141285852329135 0.1336339784193834 -0.08686077196765150 -0.07374105041497407 
0.06879938428077981 -0.02798185887822445 0.09062061313261809 -0.1766056356318142 -0.01349571392754446 -0.1442861829578077 0.06765774237169370 0.1590691020066326 0.1159013925073815 0.009104402964238029 
-0.3533451923909328 -0.8294073922030284 -0.3989526467752478 0.2144841369162335 0.2317639216529527 8.673617379884035e-19 0.4361760966851437 -0.03878480080272818 1.734723475976807e-17 -8.673617379884035e-19 
0.09912382832210380 0.2389045324281142 -0.2469425729640480 0.1828260075022548 0.1232825432341681 3.469446951953614e-18 -0.4656997747278834 -0.06678366714995429 0 -0.07579636133350946 
0.08658414417070215 0.1033789418660360 -0.2644857418062043 0.1337230410960883 0.08959690485681514 -1.387778780781446e-17 -0.02068621063133253 -0.3076888150325533 -0.1877139287408406 -0.2449015466839608 
-0.3748908720840500 -0.3734639334931409 0.3407243623843045 0.04766716768562156 0.04269123252185980 -3.469446951953614e-18 -0.1581140435490781 -0.2716821169806893 -0.2633523691651284 -0.1951515684131714 
-0.1281174412370551 0.7604998134034363 -0.3063026458356657 -0.3061330034812135 -0.1314664874637591 -0.3785524988531476 0.04630086198961179 -0.2183590025481068 -0.05411730587298472 -0.07884816710822806 
