solver_type L2R_L2LOSS_SVC_DUAL
nr_class 10
label 3 2 6 4 1 10 7 8 5 9
nr_feature 233
bias 1.000000000000000
w
-0.07679877599640234 0.09525020072346152 -0.3104325802729003 0.1220742298719066 0.1818538448241260 0.001239000657717619 0.2504366386404918 0.1426870797609854 -0.3283855872040990 0.1628126172890932 
0 -0.2693940002884778 0.4579994654636305 -0.6706836418174635 0 -0.1588209445813744 -0.03030859805196126 -0.1004300180289465 -0.4429855088350868 0.5284760804411132 
0 0 0 0 0 0 0 0 0 0 
0 0 0 0 0 0 0 0 0 0 
0 -0.09682602316095819 0.1287142780784610 0.5304322507173449 -0.5706448740926360 -0.05089444229225355 -0.02168751853726162 1.734723475976807e-18 -0.09670574977359958 -0.05651481520397952 
0 0 0.6975045482129870 -0.2093940868406436 -0.3602589631988470 -0.07536603040356997 0 0 0 0 
0 0 0 0 0 0 0 0 0 0 
0 0 0 0 0 0 0 0 0 0 
0 0 0 0 0 0 0 0 0 0 
0 0 0 0 0 0 0 0 0 0 
0 0.9553902868398213 -0.4334494331053059 -0.3292067121097436 -0.2808119993151915 0.6767151451405484 0 -0.3938827576476970 0.3198764042046010 -0.09903895998065096 
0 0 0 0 0 0 0 0 0 0 
0 0 -0.8484846736793881 -0.2147945054481612 0 1.218143729271184 0 0 0 -0.02733314380561851 
0 0 0 0 0 0 0 0 0 0 
0 0 0 0 0 0 0 0 0 0 
0 0 0 0 0 0 0 0 0 0 
0 -0.09427560123103687 -0.1906765404491885 0.2608594914420056 -0.2361712771687500 0.9056774632371277 -0.1792321046253338 -0.03106096605949871 -0.4923160377004009 -0.1787547448844799 
0.01212203072780998 0.1536242104449393 0.05632643650835902 0.1245270207210511 -0.2008974020060920 -0.001821143751307542 0.1658913321436265 -0.1200193549615340 -0.04145467386454160 0.07066044914451154 
0.04617971828978089 0.1092199163833956 0.1106324523463431 -0.05152324600211099 0.03177915299261501 -0.03004432197440223 0.03768981603733242 -0.1317435589507503 -0.1605004983559241 0.1526116927090386 
0 0.4887589485690740 -0.1797211863055371 -0.4371559093974938 0.9774590711502152 -0.09331635427107693 -0.1168935868307486 -0.04553136286252738 -0.009415814470028620 -0.1030819976562995 
0 0 0 0 0 0 0 0 0 0 
0 0 0 0 0 0 0 0 0 0 
0 0 0 0 0 0 0 0 0 0 
0 0 0 0 0 0 0 0 0 0 
0 0 0 0 0 0 0 0 0 0 
0 0 0 0 0 0 0 0 0 0 
0 0 0 0 0 0 0 0 0 0 
0 -0.2531180052057230 0.2867609742576480 -0.2130884209855708 -0.02518096060832416 0.1994675579812310 1.734723475976807e-18 -0.1131651029862081 -0.4632475175929880 -0.04688869042136312 
0 0 0 0 0 0 0 0 0 0 
0 0 0 0 0 0 0 0 0 0 
0 0 0 0 0 0 0 0 0 0 
0 0 0 0 0 0 0 0 0 0 
0 0 0 0 0 0 0 0 0 0 
0 0 0 0 0 0 0 0 0 0 
0 -0.04162835064451479 -0.6926363290501948 0 0 0 0 0 0.9088110558514382 0 
0 -0.2231527895473300 -0.03928263868676718 -0.01927738626406687 0.1989916228458951 -0.4822302030231550 -0.04007956821026179 -0.2253544766767390 0.5317452932196509 -0.1365297717407954 
0 0 0.4505294142893795 -0.01812606226849951 0 0 0 -0.08701268350070082 0 -0.06249023277653857 
0 0.6335582179490948 -0.2677147508691259 -0.1503876364307305 -0.1581718209703576 0.03600469077890924 0 0 -0.5960789323317052 0 
0 -0.04070036738360264 0.2391425415863828 -0.07981412048673207 -0.5567390196040047 -0.3870183814078372 -0.1208469909280549 0.4548785485364918 0.4168223558924385 -0.02128886200422782 
0 -0.06218800411163440 -0.5971478883455180 0 -0.1246786756220444 0 0 0 0.7990752584523398 0 
0 -0.1672347242488182 0.5111554010140512 0 -0.3564351933597076 0 0 0 -0.2568626834475915 0 
0 -0.1857552559278659 -0.9724858240620894 0 0.9981063788497272 0 0 0 0 0 
0 -0.4132131468276265 0.4009698744076896 -0.3500596163041637 0.1524822104440317 0 -0.01893354902191255 0 -0.1020924644711344 -0.07936517052330326 
0 -0.05160222242311846 0.4337995500707009 -0.2571573831020968 -0.01954381098218450 0 0 0 -0.1730813195740691 0 
0 -0.4488598590428902 0.6746292619866402 0 0 -0.1323502416386359 0 0 -0.2210424940689474 0 
0 0 0 0 0 0 0 0 0 0 
0 -0.1625874736964112 0.2396702278671297 -0.1528466757923102 -0.03407387337068660 -0.1893262113383869 0 6.938893903907228e-18 0.2582250309872154 -0.02633537440651901 
0 -0.1571656834496952 -0.08753575135233677 0.2807534190772541 -0.3726450952215955 -0.009840971618076785 -0.2825214230558777 -0.1065004342926133 -0.2088941770123810 0.1753848733486929 
0 0 0 0 0 0 0 0 0 0 
0 0 0.5157411608190973 -0.1387461715379015 0 -0.2512809707050230 0 0 -0.2935656321374999 0 
0 -0.03022479511554614 0.6810836851177627 -0.06667301073304266 -0.2143324428875823 -0.1280988133527992 -0.2091211203116048 0 -0.1596479810740387 -0.06147618425771217 
-3.469446951953614e-18 -3.469446951953614e-18 -0.07292411076524763 0.2601964800741464 0.4908792643268623 -0.1706448678421232 0 0 -0.2260154454769492 -0.3785835601956535 
0 0 0 0 0 0 0 0 0 0 
-0.05610704441551166 0.01721479149716093 -0.3715066932318269 0.4491208842856084 -0.05628636915879760 -0.2270473766760838 0.2902895767683703 -0.1440639937709294 0.1924682196835915 -0.3524738651349987 
0.01710985980460174 -0.1474988898606942 -0.2155172262560560 0.4205511172226918 0.04798449661964908 -0.1458708267658012 -0.05628377547632508 0.1442130504934814 0.1825736016133950 0.1318626553029585 
-0.1674068956395973 0.02307260182526030 -0.08146072517434111 0.2177672808095964 -0.07056977826671906 -0.2834856455637822 -0.07355764081817005 0.03750550420714855 0.08995370357436669 0.02337788136632598 
-0.1010731706236527 0.1402932768909234 -0.1486208214721058 0.1650033269653546 -0.07300516531912135 -0.4697866923923859 -0.2652746308774657 0.2511220968744958 -0.06557338891555525 0.2132538299362877 
-0.1186026591393150 -0.04516565570396779 -0.2514578669784094 0.01191374146663059 0.2366705356342264 -0.3123884447733510 0.1327659760669768 0.07766669039255576 0.03135671777362273 0.1818289524102960 
1.344410693882026e-17 -0.09152084954928477 0.03261334915529690 0.1853420715957377 -0.2362511618468073 -0.1029094751266243 1.040834085586084e-17 -0.1019757035665143 0.01562261836600881 -0.5260879451709237 
0 0 0 0 0 0 0 0 0 0 
0 0 -0.8201745114707627 -0.05423279535018096 0 -0.07672673110705208 0 0 1.206030190890488 -0.09903895998065097 
0.08071849267277316 0.02304386781045440 0.1998562194981909 0.2032424449827439 -0.5748353628691723 -0.5424849939770667 -0.07999821570075002 0.1200897526513989 -0.09492428648007382 -0.2990538014196288 
0.3909485821773541 -0.2921602878611720 -0.2498006157815161 0.2247034309281597 0.04318122639511251 -0.2991131492368936 -0.1636533443327804 -0.1712013362345133 -0.01705734687893161 0.2963878292256300 
0 -0.2745017814754313 -0.2514683120802307 0.2524420885849900 -0.4450976618365790 -0.2261016460523278 -0.1271552687460429 -0.03265605580537931 -0.08304947888008252 0.3304471933823293 
-0.02607357076372937 0.02155929930712656 -0.2910122556233984 0.2716838130436794 -0.02974328535446168 -0.1416239110981933 0.1489336752885870 -0.06705960195662239 -0.1108148068501477 0.1709725279648636 
-0.1267688619950052 -0.1984997025757969 0.1045921538162916 0.1060232439562231 -0.07938357222999691 -0.08604329241669730 0.08106764929959534 -0.03955499484415490 0.03037580195324565 0.05822488249118053 
0 -0.01834026721620794 0.08873357106807012 0.3741055055566838 -0.1883226758173741 0 -0.1620680806270153 0 -0.04143051357208066 -3.469446951953614e-18 
0 0 0 0 0 0 0 0 0 0 
-0.1016433444767941 -0.7078186411053984 -0.2350119762524037 0.1459556118288006 -0.1765160040654026 -0.4035479015732465 0.3575679130931095 0.3750756749941983 0.1458328139973008 0.05662395055580047 
-0.06248335043438615 0.1084955842495204 -0.3327727412106663 -0.4881165548052914 0.01615976599498203 -0.1629758787917758 0.6444821417710991 -0.04984742998894259 -0.3128238815561805 0.4234686071795505 
0 -0.2855166498557196 0.1069158718026128 0 -0.2331565224247114 0 0 0 0 0 
-0.2237147605982018 -0.07095789914842254 -0.08657654813218760 0.1177109499586543 -0.1465776397588000 -0.1110175660037032 0.06203565829181670 0.2330696363218257 0.01543096816774792 0.03580535711978840 
0 0 -1.082073136750540 0.9730965504266926 0 0 0 0 -0.06652756169148302 0 
-0.05319557765640523 -0.1546189471469197 0.1750798249643477 -0.1117079736049330 -0.1885841178211792 -0.4533571828594126 0.1039037647050347 -0.3165639220265878 0.1788132697639439 0.01277792471333654 
0 0 0 0 0 0 0 0 0 0 
0 0 0 0 0 0 0 0 0 0 
0 0 0 0 0 0 0 0 0 0 
0 0 0 0 0 0 0 0 0 0 
-0.1345729654345093 -0.001321283406167315 0.08301290040439410 0.04389975507672195 -0.3066072445365586 -0.1695990194978792 0.06945340004668366 0.04176217009629143 -0.1503730225814717 0.2148197718701135 
-0.1091992899472641 0.08307875846442653 0.3320434182005944 -0.1040176247102162 -0.1442653058619935 -0.4368932194435457 -0.1200187864223054 -0.1474952266928040 -0.3347826908796151 0.02074198290674031 
-0.3872216986735713 -0.09490341345833254 0.1985201210637571 -0.1132133954451316 -0.06369205820688960 -0.09604338207375986 -0.1167831935460390 -0.06567340083034529 -0.07340801908749683 -0.006692907088707214 
-0.01033138538514754 -0.1619782496445156 0.2487073745708898 0.1515243887513476 -0.1568648563535104 -0.4832503119617884 -0.4973863007875004 -0.1095342192807604 -0.04449800328434079 -0.1304361039073043 
0 0 0 0 0 0 0 0 0 0 
0 0 0 0 0 0 0 0 0 0 
0 0 0 0 0 0 0 0 0 0 
0 0 0 0 0 0 0 0 0 0 
1.734723475976807e-18 -0.1367340091869163 0.1783677986326624 -0.005268291073331111 0.3083313123111229 -0.5850059554817093 0 -0.1812099601922037 -0.1731586691644557 -0.09798038424092366 
0 0.3228349803255970 -0.7591835934084920 -0.07917488916944122 0.4845991542026862 0.4582173782141058 -0.06703786323634175 -0.3610790128221159 0.2550074768379029 0.8635636227188561 
0 -0.4403954292041382 0.1583974862324232 0.07965571042673887 -0.2389399475085621 -0.3267036910170540 -0.1638668802539281 0.2353375803283330 -0.1761887785500754 -0.02866785873901560 
0 0 0 0 0 0 0 0 0 0 
0 0.1560175093466811 0.02491334322827420 0.05334668010584977 -0.1253842737616656 0.3218627354346560 -0.1163339528809023 -0.3287027379426180 -0.7265335621393598 -0.2617413398997781 
0 0 0 0 0 0 0 0 0 0 
0 0 0 0 0 0 0 0 0 0 
0 0 -0.8956278466634986 0 0.4626222934698016 1.734723475976807e-18 0 0 0 0 
0 0 0 0 0 0 0 0 0 0 
0 0 0 0 0 0 0 0 0 0 
0 0 0 0 0 0 0 0 0 0 
0 0 0 0 0 0 0 0 0 0 
0 0 0 0 0 0 0 0 0 0 
0 0 0 0 0 0 0 0 0 0 
0 0 0 0 0 0 0 0 0 0 
0 0 0 0 0 0 0 0 0 0 
0 0 0 0 0 0 0 0 0 0 
0 0 0 0 0 0 0 0 0 0 
0 0 0 0 0 0 0 0 0 0 
0 0 0 0 0 0 0 0 0 0 
0 0 0 0 0 0 0 0 0 0 
0 0 0 0 0 0 0 0 0 0 
0 0 0 0 0 0 0 0 0 0 
0 0 0 0 0 0 0 0 0 0 
0 0 0 0 0 0 0 0 0 0 
0 0 0 0 0 0 0 0 0 0 
0 0 0 0 0 0 0 0 0 0 
0 0 0 0 0 0 0 0 0 0 
0 0 0 0 0 0 0 0 0 0 
0 0 0 0 0 0 0 0 0 0 
0 -0.2197990520123892 0.5405118225501930 -0.1717238283528793 -0.1766953421323236 -0.04802836693594756 0 0 -6.938893903907228e-18 0 
0 0 0 0 0 0 0 0 0 0 
0 0 0 0 0 0 0 0 0 0 
0 0 0 0 0 0 0 0 0 0 
0 0 0 0 0 0 0 0 0 0 
0 -0.08877405138235599 -0.8253977045415014 -0.3014340095916092 -0.1996018453984151 0 0.5363809337293852 -0.01060661055452780 0 0.7038559919150416 
0 -0.5247706483997886 -0.2649808001868394 0.1656498362519679 0.4324810028684665 -0.1448866516615165 0.1986561656173932 0.1387498341951408 -0.3697549437834247 0.08063328281264119 
0.03108403341256236 -0.1006443103710137 0.2281168084201382 -0.3056229024482399 0.03965534502266335 -0.02645950403997197 -0.1664281310834182 -0.04644366137992868 0.01634453763130198 0.09653843723531647 
-0.1861620325200921 -0.1142180438269418 0.1586517548040526 -0.2453306589675208 0.08987250921495390 0.1261697966864896 -0.009546913267691009 0.01432345232893212 0.1089188936476084 -0.2237267809831160 
-0.2812662254689394 -0.2172486050360958 0.3661171930596051 -0.1477611011280715 -0.4844726724521997 -0.2571215429757218 0.1324899880483428 -0.2858716635963021 -0.08172578288565449 0.03175810994060454 
0.06856606358058598 -0.1979331105476540 0.04872515462593355 -0.1126500558701143 0.08647241728941163 -0.06611777512485266 -0.02089367455263861 0.1131806243871917 -0.05080516314554281 0.1870176023342057 
-0.03986977949861341 0.1256299704104350 0.2661160738290548 -0.3423694715454553 -0.6207225848401623 -0.1745030162088951 -0.2259540400236670 0.1323042169309663 0.3240047669098525 -0.08135715979245922 
-0.03692899649778902 0.06771024694497632 0.1755294934337755 0.5532351635453625 -0.6888305094482542 -0.3272193305480375 -0.2067133286499328 -0.3095953804275763 -0.3617805908296028 -0.3909313554518394 
-5.204170427930421e-18 -0.09682602316095822 -0.2817157966683687 -0.002570446057575199 0.7825508382381772 -0.2507339138594780 -0.04062106755917419 -0.07242589079595647 -0.09670574977359950 -0.1034035056253426 
0 -0.3247518404042150 0.5178527242546844 0 0 -0.4407616235200738 0 0 0 0 
0 -0.5182663656564894 0.2028241048971690 0.1037553534873248 0.1649833516633135 -0.6201176942296656 1.734723475976807e-18 -0.03813914048682635 -0.1297101540376376 -0.1309085938527684 
0 0 0 0 0 0 0 0 0 0 
0 0 0 0 0 0 0 0 0 0 
0 0 0 0 0 0 0 0 0 0 
0 8.673617379884035e-19 0.3930319237722433 -0.3520498311477119 0.3457196396949169 -0.1775095810212208 0 0 -0.2237258070622469 0 
-0.1274936599286028 -0.5054276106789619 0.2989224821532431 -0.1946628224303886 0.1711493907992341 -0.07672673110705210 0 6.071532165918825e-18 -0.4169159609995085 -0.1182294035237685 
0.02658121825074122 -0.01802659748448200 -0.1330532963488663 -0.08038702428996478 0.2450882322149439 0.09749587671667831 0.005493567777308992 0.1182781740622358 0.1061224013059388 -0.06264657902482358 
-0.3584968292313105 0.004009029609943347 -0.1176785570647751 -0.04073469289226569 0.2418961484220689 0.2493441176895938 0.005512526902343677 -0.1127203549234780 0.09051725302136346 -0.04239601409981031 
0 -0.09212050374104369 -0.1094826046983006 -0.2307856880460651 -0.2358824054767826 0 0.1399217613936264 -0.04984742998894264 -0.1009832484633223 0.7268659522512040 
-8.673617379884035e-19 -0.3041957491196831 0.7266306907696705 -0.1967486760425514 -0.5573981170717838 -0.1754796891610049 0 -0.1486852220062851 -0.2649464225705531 0 
0.08502922954191261 0.1992361453153159 -0.2893619165618682 -0.04506431691656020 0.1830092956037011 0.1113416419096854 0.1234611261166469 0.2186549859172354 -0.1671586953516755 0.08056593338433820 
-0.1989574234727163 0.1501534600086035 -0.03313301209243272 -0.09632679437550543 -0.01452839276629851 -0.1527830958455256 -0.3442369858702254 -0.2602723133888566 0.3061863749531111 -0.4687075491892542 
0 -0.2393060543533319 0.4169398663954739 -0.05027983428942148 -0.2161743151876080 0.1315136871970509 -0.1658873524714651 0.1801368080474542 0.1070000304981229 -0.9699179392034531 
0 0 0 0 0 0 0 0 0 0 
-0.06248335043438618 0.2639797897205774 0.3155104631507292 -0.06325039370188880 0.2100990443446207 -0.1629758787917758 -0.2644626196536554 6.938893903907228e-18 3.469446951953614e-18 -0.2364810181005210 
0 0 0 0 0 0 0 0 0 0 
-0.2677048624053070 0.09110195036376684 -0.3068015739024722 -0.1295646758522395 0.2933330790391437 0.1688563168486192 0.05139671047863824 0.1096198941107158 0.1742669610833548 0.009514253367783950 
-0.1656394095403794 0.1672034610232261 -0.6040700010106401 -0.3039931510167223 0.6484783289824668 0.05290906570489060 0.1249158568019369 0.07735537881017808 0.3989192112201551 -0.2610863179636980 
-0.2137568506605052 -0.2182470199005208 0.1428690180653617 -0.1742785817154724 -0.3392690404483014 -0.2566272063618098 -0.2515837645280171 -0.2168282643048126 -0.3665672655892696 -0.2829390763490034 
-0.2308200863317816 -0.1474822263955406 0.01334856305986320 -0.1561146895559432 -0.2912222648638017 -0.4086675660695188 -0.2860834025601633 -0.2758391787346907 -0.2247683810986119 -0.2330352098657458 
0.1211663856826474 -0.01738125684402574 0.2362044205913559 -0.3045691797277665 -0.01573619016568081 -0.06319785422848495 -0.2854837824692221 0.01100909634885725 -0.2851607765968988 -0.1153873455218734 
6.505213034913027e-19 -0.09403350516815291 -0.02122755644502397 0.1255385717572919 -0.1332417633597302 -0.2272873029403327 0.2579281481011597 -0.3787607074728731 0.01423171621841660 -0.1575925716133462 
-0.08559432806364639 0.0006181245054321094 0.03905637578108652 -0.06523394292150930 -0.03032499058360838 -0.1413896838876837 0.004669724235091840 -0.3558577344843061 -0.2494346624680474 0.2006126947214626 
-1.474514954580286e-17 -0.1611608257465590 0.2340583670071446 -0.1070788957481539 -0.09374532439830308 -0.4779901753181013 -0.01189160025390574 -0.03057932474531524 -0.1153276113541640 -0.05252574764114060 
-0.2077996931636217 0.06130424971886080 0.03158248592689941 -0.03658687027920397 -0.2777737435848127 -0.1343463510145811 -0.2509268302394695 0.08412170142629760 0.05885980675414551 -0.3847606077745721 
-0.3421542451525010 -0.1453666013998971 -0.4307501967174687 0.1776996643304153 -0.06028091329962800 0.3563077891044474 -0.1014140017810156 0.1266542361620932 0.1279101549909626 0.01943181026896780 
0.06980494370483549 -0.009709431361720072 0.06729368498123206 -0.1201626186824845 -0.01938837992033285 0.02260880585340995 -0.1505488246808166 0.05074528972574306 -0.1424142742322906 -0.02575251865424453 
0.05331906345523509 -0.03983039137263496 0.1957329083000561 -0.2442139813709136 -0.04007630982329412 -0.1325973899558181 0.01527628902027193 -0.2060300478419710 -0.2422179157920466 -0.1365073812753546 
-0.2626612336873019 -0.05262045840151167 -0.03914315084809148 -0.03899441908318514 -0.07051986349984521 -0.3197364069688494 -0.2112845253758739 -0.2055442552732702 0.1954827414348508 -0.02439158344115672 
0 -0.1716985084427268 0.1790477217514102 -0.08064662171879533 -0.1186196426462984 -0.2205867929146705 -0.07448376939478393 0.07334952659923297 -0.1775103653911267 -0.07378960660031399 
0.04579547323154519 -0.07861482818922708 -0.1519284163824586 -0.05364020589182643 0.1526767529435643 -0.1145974196001798 -0.1383081542089550 0.01088442145502429 0.06801361844574819 -0.1281705071101887 
-0.07430662189241685 -0.01153990697063753 -0.1371732054691031 0.05651850134175533 -0.05990787027980266 0.09513399374019817 -0.1614409164435772 -0.1979892335811627 0.06952871879799830 -0.1342111838686695 
0 -0.08149709453314677 0.09871530803981732 0.01790480366090432 -0.08119309238971156 -0.07464060986825116 0.2914367597145425 0.03522240625532775 -0.3308603008589995 -0.09161071808023695 
-0.2067236180993477 0.07007194161382067 0.01096641573359253 0.01267865179064831 -0.4128512796167086 0.1017298531362419 -0.2588628503998053 -0.002560260652683992 -0.1737721433242974 0.07270669416117251 
-0.06944786580638847 -0.3288671838992974 0.2417965481283826 -0.02227438957252691 -0.3442379584923777 -0.5375411019658609 -0.2696284729429690 -0.1667885608634401 -0.1015346865926580 0.1387312478569576 
-0.1044482214025453 -0.05462098167859271 -0.1213944866483892 -0.01377169878668518 0.09261107619582809 -0.01110225018353645 -0.05553790607239928 -0.1298030118475577 -0.1656778534474948 -0.3429602633831860 
8.673617379884035e-19 0.03826396179158439 -0.2614320394120860 -0.1157232065263389 -0.01283889284753118 0.2288810681078545 -0.08973978558769377 0.2183759345460045 -0.3665672774785043 -0.07104491688420658 
-0.2706808497833511 -0.02050504250975866 0.2972475590573179 -0.1786239763858607 -0.3660255301680155 -0.3455324883897901 -0.1227610024851158 -0.4144518048745061 0.04244417083078188 -0.2407003538043145 
-0.4445769369922853 -0.3657292462960792 0.1562175811252211 -0.3303932712714069 -0.6304913053120952 -0.6652947724313325 -0.5376671670881830 -0.4926674430395071 -0.5913356466878672 -0.5159742862147488 
-0.08422629642077730 -0.08461441151303394 0.02277662391911184 -0.2810503111862340 -0.01367665552187202 0.2118549218765767 -0.1808639876022257 0.05462918119604931 0.1175535498373738 -0.2152790486842596 
-0.1315117093303393 0.05826395120306355 -0.1454474751646881 -0.03752448724194187 -0.3686178323472814 0.2913640578239209 -0.3604654793469202 0.1619032171476026 -0.3067173881413425 -0.09729724309194696 
-0.1541717215764913 -0.1397959909696848 -0.4284865889828665 0.3085420513899623 0.1678889092231046 -0.6018169268316618 0.1705218394004040 -0.3403610599047242 -0.03519686105706955 0.1232441636469269 
-0.07466720966467850 -0.1995827950164067 0.7073750213536669 -0.3203605242331950 -0.4160857266660453 -0.5666968253001657 -0.1668595395394363 -0.3688387814784295 -0.3669749473268393 -0.3266421580854675 
-0.2202815124316364 -0.03074784770726599 0.1432704802050140 0.09084911915464963 -0.2035565635128510 0.08379953683705756 0.007623034906721362 0.001733133962633771 -0.1647306569331350 0.01024700749093846 
3.469446951953614e-18 0.3862283771038104 -0.1879465177768591 0.09873859249134060 -0.1383240827111292 0.1583421693850462 -0.2216394755521767 -0.2718269904177889 0.08676902420347711 0.2217350653459949 
0 0 0 0 0 0 0 0 0 0 
0 0 0 0 0 0 0 0 0 0 
-0.01540191534723214 -0.2786145791125268 -0.5369185615853838 0 -0.3664006404552969 0 0 -0.1078575868612927 1.091888138746325 0 
0 0 0 0 0 0 0 0 0 0 
0 -0.2076544050918870 0.1817038981546432 -0.4011709077986882 0.5036393270331185 -0.07466392554823771 -0.06650000748907210 -0.1707870926691028 -0.09763064017858639 -0.1808083001008218 
-0.05610704441551159 -0.07331654445238284 0.02153927745347807 0.1811760389960677 -0.2214784439273538 -0.6346058209123642 -0.2784187362916150 -0.2850732385784345 0.1957789784957307 -0.2576068046552936 
-0.05463251166017826 -0.04616130615473627 0.1596793996722190 0.08173693206625995 -0.08230900421251929 0.3853021517906963 -0.3720306241636128 -0.2850692997364370 0.1288973936249691 -0.5596529175332949 
0 0.04641436430171091 -0.3188635941112341 -0.3115694467340299 0.5595412269044728 -0.07333335475676257 -0.02395923930487065 -0.04714088570633129 -0.5673735394093881 -0.2268462355908719 
0 -0.2746521952993106 0.5887913261242959 0.1353617757600224 0.09999384578145600 -0.2764671046683389 0 -0.3584166583949081 -0.3224214332680976 -0.5004742976973757 
-0.1781951988979932 -0.1693876286107405 0.5475340894500873 0 -0.2108825399611133 0 0 -0.1399583456025965 -0.2026317086865122 0 
-0.04306798593551584 -0.1888179260618878 0.3552548233005374 -0.4995608624564057 0.1364800169056669 -0.5868787503941731 -0.08154643004844570 -0.5030596261464481 -0.4728927729852724 -0.005389737124112701 
0 0.1904910818322361 -0.3971539557115861 -0.1936582001376190 -0.4835442126932796 1.734723475976807e-18 0.5598440672307902 -0.02122846103260667 -0.1878606705103488 0.5229445850060563 
-0.06780350250299794 0.6367804915003661 -0.7005853752499445 -0.5797087143080457 -0.1194237048597484 -0.1323502416386359 -0.02334384058044415 3.469446951953614e-18 0.2501282605649709 -0.3940334979577722 
0 0.4512758834408803 0.3176667309085219 -0.07527538299711768 -0.3574132799209102 0 0 -0.1558183827734830 -0.2065580161849654 -0.3157901614073225 
0 -0.3290819588451580 -0.1304955126918773 0 0.8405102486858143 0 0 -0.06036774880394046 -0.4482389803014135 0 
0 -0.05610450567013262 0.4232550493956843 0 -0.06966068543393754 0 0 0 0 0 
0 -0.01342617592662865 0.2052201748822063 -0.03222766870614446 -0.1416726241018227 -0.3737081465875784 -0.2066652263910748 0.1848783189335907 -0.4294878625760905 -0.3455393371409521 
0 0 0 0 0 0 0 0 0 0 
0 -0.3340538266534118 0.5742696503299550 -0.04681128983879437 -0.2043452896037882 0.1866984969905187 -0.3247340778149197 -0.2940842964484076 -0.4579670850823031 -0.3139914687468818 
0 0 0 0 0 0 0 0 0 0 
-0.1305772104853450 -0.07505499942153775 0.04998182712841329 -0.1902544918978585 -0.06108983249841832 -0.6009167200382326 0.4547827616595568 0.01768468827595680 -0.6423666564117412 -0.1950670461049431 
0 -0.003865751578290597 0.1307722914054717 -0.09000917945378670 0 -0.2614080297772133 0 0 0 0 
0 -0.01044676705920797 -0.2346302977009889 -0.09835861975773229 0.6311996842501783 -0.3199074858609602 0 0 -0.1038377016352243 0 
-0.01575739321041459 0.1356737842425176 0.1867958604672706 0.1923264171723839 -0.6695474833409212 -0.1572635529583454 -0.03060743309243327 -0.2967690049608533 -0.06038332585793760 -0.2483379830024349 
0 -0.3037130851800359 1.051942059633253 -0.3868091569371331 -0.4226775715591469 -0.2567712125342156 0 -0.1446177567545088 3.469446951953614e-18 -0.1265938793173167 
0 0.4446664726776566 -0.1801159320882391 -0.1544891965940811 -0.1002681791761946 -0.06224877169937739 -0.2898782160944274 -0.06445128650939741 0 -0.06136995608008600 
-0.06064183294471196 0.1408892319678750 -0.5772897766055279 0.2535731605013473 0.3763969110264041 0.04049119452141145 -0.07247862734820064 -0.5728357197367876 0.09412966971490166 -0.2278099282313702 
0 0.8135603182595070 -0.2129339949112124 -0.2212118198956492 -0.3868580619021392 0 -0.3264544587408620 -0.1065733572658150 -0.02608954572832746 0.2925656326994039 
0 -0.3129083805640283 0.5124338373515779 0.5335229894137762 3.469446951953614e-18 -0.3623139778834046 -0.009929812293545595 -0.3662629793741096 -0.2259060941775807 -0.6055450476451540 
0 0 0 0 0 0 0 0 0 0 
6.938893903907228e-18 0.05538476620939589 0.1252343906820873 -0.2792871617196183 0.08966832748453235 -0.3287500913917170 1.214306433183765e-17 -0.3801182584926618 0.08047629485581090 -0.3151115135683299 
0 -0.4300351154442801 -0.09788831737173301 -0.006513418754399848 0.05203201053892821 0.6227935467945285 -0.2743260483751720 0.08897997734235846 0.1689403781653406 -0.1001373715168231 
0 -0.4449186997739758 0.7148871157092541 -0.4285851168513147 0.1906808453989927 -0.07031111185768310 0 -0.3543643923062731 -0.3248948558409109 -0.5509717515914033 
0 0 0 0 0 0 0 0 0 0 
0 0 0 0 0 0 0 0 0 0 
0 0 0 0 0 0 0 0 0 0 
0 0 0 0 0 0 0 0 0 0 
0 0 0 0 0 0 0 0 0 0 
0 0 0 0 0 0 0 0 0 0 
-0.1305772104853450 0.1496670877388077 -0.1468558684264088 -0.01806510434528703 -0.3345922234955605 0.5809203273701254 0.3697451873917074 0.3686940311250726 0.01878831538233686 -0.2684083938859340 
-4.336808689942018e-18 -0.9140136105712866 0.4071810107333055 -0.1984994000454838 0.1198541895612043 -0.6268550489391740 -0.02420316117146051 -0.6150661087762654 -0.6881993800752888 0.1599917709782982 
0 -0.6568493674716664 0.2265419790566489 -6.938893903907228e-18 0.5425157900336286 -0.2467269645826322 0 0 0 -0.4711286029296208 
0 0.6519062944169778 -0.3577836209581770 -0.06884983742047210 0.05260998727967158 -0.2467269645826323 -1.734723475976807e-18 -0.02567469144025019 -0.2205741628527798 -0.4711286029296208 
-0.02557918704536039 0.1781508099806242 -0.1249617543648142 -0.001700583430664530 -0.003515528345427675 -0.5487391076738373 0.2341818149932660 -0.3358101924064508 0.003180374605758393 0.2893661766095497 
0 0 -0.8240709130373176 -3.989863994746656e-17 -0.2200379873658561 -0.1498042761973584 0 1.434361526710914 -0.4269859510885788 0 
-0.1983807129883429 0.3429806890101518 -0.001897726857803254 -0.1687582416024028 0.0008438547414705384 -1.050228200240180 -0.4240320780548179 -0.4247247727018623 -0.1831023192317734 -0.6690107171123172 
3.469446951953614e-18 -0.05657762560699232 -0.3878603213028101 -0.2961384262963123 -0.1173057365088066 1.178852439324657 -0.02420316117146054 1.734723475976807e-18 -0.4348071328950224 0.7785068754424539 
-0.01540191534723214 0.3018805532195851 -0.4471829328570611 -0.3910672931059308 -0.06314823183077223 0.3327469798446717 -0.2131949414936712 0.4026836340142364 0.2319293171179785 0.3103944015625237 
-0.2167641621652883 -0.09479292574615611 -0.006730578697989015 -0.04350890004943165 -0.009462531028678197 -0.3843096590838073 0.09381498278125922 0.1059711278942268 -0.2850067536974944 0.1845403774473965 
0 0 0 0 0 0 0 0 0 0 
0 -0.2089154238646304 0.1248673616403374 0.1597647767735301 0.01883098574124716 3.469446951953614e-18 -3.469446951953614e-18 -0.05060742433820359 -0.1803949112050814 -0.1565651368711120 
3.469446951953614e-18 0.02692059947886015 -0.1507058389235468 -0.4849218069923741 0.03807060116993122 0.4023620119800960 -0.1166995030156509 0.1630756233814261 0.2377733855460250 0.1868872055057972 
0 0.1797501295275496 -0.6011484703925775 0.5767505329493818 0.6348086632776512 -0.02595596777370169 -0.2122748146755471 -0.1890481860982775 -0.1779304950517835 -0.2313277997468583 
-0.1944349984570629 0.04705037660467615 -0.1201885133845573 0.3204950140332221 0.04325384554355038 0.1836208227641092 0.01856959959236921 -0.01493974756548250 -0.1396433303658417 0.1585602440248988 
0.2065529736505176 -0.2799529368489944 -0.09712992588801987 0.1863706834512681 0.3331469709903462 0.4420497258225893 -0.2692772687538616 -0.1429616342822750 -0.1788126172807409 0.1069425281433223 
0.1571944267731367 0.06891179598653870 -0.2806491475377690 0.3083246257912615 0.3498508805182202 0.1356816225372157 -0.2871754307735505 -0.07496906228797467 -0.2852879664760963 -0.2185213073087504 
0.2634136575822776 -0.1485335408964982 -0.1189913481566519 0.4104444053036143 0.2406339389872855 0.2879763534699555 -0.06451313040094706 -0.1450143129842817 -0.1330922197126267 -0.08093175660691691 
0 -0.1586688394963915 0.007889883540399212 -0.1272414210794245 0.7625691592670011 0.2119014355436004 -0.03060743309243328 -0.2864235585264865 -0.4814751339029161 -0.07861886307620464 
