solver_type L2R_L2LOSS_SVC_DUAL
nr_class 10
label 1 4 3 5 2 6 7 8 10 9
nr_feature 268
bias 1.000000000000000
w
0.04744877811315507 0.2280370000589946 -0.2228742417242045 -0.1341861611987663 -0.05435126643647423 0.2297665068779339 0.05903263237946386 -0.2907300042494739 -0.4924401394306212 -0.2147415062619762 
0 -0.1523023828804968 0 -0.1992935693088696 0.09864247459726548 0 0 0 0 0 
0 0 0 0 0 0 0 0 0 0 
0 0 0 0 0 0 0 0 0 0 
-0.4576230481440605 0.002514059065842954 -0.5427083185960635 1.037653680857957 -0.1388924426338506 -0.3769134746789798 -0.02652057516906214 -0.08766658907966390 -0.06791891680753893 -0.07221068177332060 
0 0 0 0 0 0 0 0 0 0 
0 0 0 0 0 0 0 0 0 0 
0 0 0 0 0 0 0 0 0 0 
0 0 0 0 0 0 0 0 0 0 
0 0 0 0 0 0 0 0 0 0 
0 0 0 0 0 0 0 0 0 0 
0 0 0 0 0 0 0 0 0 0 
0 0 0 0 0 0 0 0 0 0 
0 0 0 0 0 0 0 0 0 0 
0 0 0 0 0 0 0 0 0 0 
0 0 0 0 0 0 0 0 0 0 
0 0 0 0 0 0 0 0 0 0 
-0.09888403102297065 0.1087487212319712 -0.3677054274818649 0.08329105589579273 0.02740798874909842 0.2769791662834371 0.04646669034802605 0.1693578604020925 0.04792718021960245 -0.2022710969723328 
0.1815115636924208 0.08513743849479813 -0.3616530798598759 0.06610226416220995 -0.1442910087019947 0.2103527184095369 0.06007780273602336 0.1007101751532453 -0.2878912175215911 -0.1974599552840440 
0.1243091911527956 -0.009693569618208255 -0.4091061523443459 -0.03741261761605368 0.03101640249065138 -0.04536627737222274 0.3673445530109096 6.938893903907228e-18 -0.003212036821811812 -0.006704303075515060 
0 0 0 0 0 0 0 0 0 0 
0 0 0 0 0 0 0 0 0 0 
0 0 0 0 0 0 0 0 0 0 
0 0 0 0 0 0 0 0 0 0 
0 0 0 0 0 0 0 0 0 0 
0 0 0 0 0 0 0 0 0 0 
0 0 0 0 0 0 0 0 0 0 
0.2375078865094853 0.1457657849290145 -0.1209030671184377 0.1071917893904338 -0.4224219501349971 -0.1289173389562116 -3.469446951953614e-18 0 0 0 
0 0 0 0 0 0 0 0 0 0 
0 0 0 0 0 0 0 0 0 0 
0 0 0 0 0 0 0 0 0 0 
0 0 0 0 0 0 0 0 0 0 
0 0 0 0 0 0 0 0 0 0 
0 0 0 0 0 0 0 0 0 0 
0 0 0 0 0 0 0 0 0 0 
0.1477843842229804 -0.2571572257580323 -0.08978043768639817 -0.09496316756668531 -0.1478713238792021 0.7315065639515798 0 0 1.734723475976807e-18 8.673617379884035e-19 
0 0 0 0 0 0 0 0 0 0 
-0.3641058065562732 -0.1165779492173982 0 -0.1961728802748469 0.5644429015350615 0 0 -0.02291841163280061 0 0 
-0.2182063258882556 0 0 -0.1836709037223749 0.6715488780586655 0 0 0 0 0 
0 0 0 0 0 0 0 0 0 0 
-0.2090936861887409 -0.5912067588135178 0 0.6391199851835103 -0.01584813770678717 -0.04568552028193183 0 0 0 -8.673617379884035e-19 
0 0 0 0 0 0 0 0 0 0 
0.06809324805679408 -0.5046464130214208 -0.1157357532020323 0.2672390959291199 0.1191649444886343 -0.1288128335580491 -0.2271715548002275 -0.06769454138707941 8.673617379884035e-19 -0.009755138440897102 
0.6463914736058074 -0.1399635987398070 -0.4006110689586844 -0.3548874489905768 0.1639366155105731 -0.1530534708699175 -0.01136116951549811 0 0 0 
-0.1295794020022549 -0.1996484693148307 -0.1604701492411252 -0.01815216688938388 0.7559951293025020 -0.2154906705897036 0 0 0 0 
0 0 0 0 0 0 0 0 0 0 
0 -0.2310394703476051 0.9002835224870659 -0.09965536286122356 -0.4468562333526815 -0.09568294212306305 -0.1430042465478949 0 -0.003663593062392422 0 
-0.3459069910141112 -0.1437999414903400 1.189019449132077 -0.2906102587070986 -0.3056705034852469 -0.2350040579299134 -0.3454459128403574 0 -0.07895641724042124 -0.1657554924728238 
0 0 0 0 0 0 0 0 0 0 
0.2381240945795052 0.8445060507140797 0.1701955577740663 -0.3638596030035521 -0.8174641694041676 -0.1024206298077995 -0.2152790567888057 -0.02479153577092811 -6.938893903907228e-18 -5.204170427930421e-18 
-0.02023951879433963 0.5834629723582930 0.3545001478618818 -0.1892675501879301 -0.5066187466024633 1.387778780781446e-17 0 -0.08122159074171110 0 -0.06785505450357750 
-0.08051985770299662 0.3019006995204090 0.4027537463855563 -0.3581845943842449 -0.1408999208850990 -0.1711769088884847 0 0 -0.04250854125417415 -0.1384716343593661 
0 0 0 0 0 0 0 0 0 0 
-0.06086723676357416 -0.1247175569433939 -0.09031888377073097 0.1317529577932122 0.1385065751003638 0.02761727623684309 0.07849295763385729 -0.009423083834400645 -0.1680144969162726 0.4548911168329982 
0.03446268987210032 0.05524862391033964 -0.1423638178222334 -0.01957904358138593 0.1458561366338392 -0.09589564344381767 -0.06683706716802575 0.2051844208902245 0.1952991228675951 0.03965183106392468 
0.2096141436771678 -0.09563876209696615 -0.2092972838004936 0.05365652473496224 -0.04622352654070969 -0.1045747700116777 -0.2563611168645101 -0.02505435829277126 0.2772356127358379 0.1810155158578879 
-0.001477714619014507 0.01148350030251759 -0.1697233831262517 -0.1357643148470106 0.2620398103574827 0.009205245650786337 -0.2028659859913498 -0.2918668805849907 0.3226271312934188 0.02876907960634501 
0.01842963055313835 0.03628403359086037 -0.04609670344797626 -0.1853412633631897 0.1670031678869619 0.01777621549267729 0.04573671160239686 -0.1878426736472265 0.05814839526005119 0.2147037376004408 
-0.08603250324698865 -0.06698468457535825 0.03357320899097039 0.07690377865568938 0.03025014837774424 0.03132422957996225 0.3632731728991438 0.1777636349455459 -0.2830572863759971 -0.3753376027929669 
0 0 0 0 0 0 0 0 0 0 
0 0 0 0 0 0 0 0 0 0 
0.3507534760046348 -0.2211627739729225 -0.1085740415915908 0.1248089912721666 -0.1584006607761038 -0.01895999376084733 -0.2684619625906147 -0.3549731861313547 0.04720213848502360 -0.3595537198016325 
0 -0.1694052859589371 -0.1405952893038844 0.8807780091772146 -0.1994208806665832 -0.1928884661910762 -0.1258853017287774 0 -0.08707447542779080 0 
0 0 0 0 0 0 0 0 0 0 
0 0 0 0 0 0 0 0 0 0 
-0.2666430993314494 -0.1873553780929112 0.2483286016821367 -0.7865091030767699 -0.2351109321268453 0.7592804579048849 -8.673617379884035e-18 -0.06927610694280276 5.204170427930421e-18 -0.04118403342043528 
0.2358654954012249 -0.2134013568084164 -0.1609172524989877 -0.06738754309241281 -0.05518666618804836 1.387778780781446e-17 0 3.469446951953614e-18 -1.734723475976807e-17 0 
0 0 0 0 0 0 0 0 0 0 
0 0 0 0 0 0 0 0 0 0 
0 0 0 0 0 0 0 0 0 0 
0 0 0 0 0 0 0 0 0 0 
0.6693064320671344 0.002901246888269288 -0.01530390250964537 6.938893903907228e-18 -0.1866882215453560 -0.2584650760297319 -0.1723072695151395 0 0 0 
0 0 0 0 0 0 0 0 0 0 
-0.5594138909899152 -0.06530042775873536 0 -0.1425046695197329 1.049048446341244 -0.1617585300497769 -0.1289360713047364 0 0 0 
0 0 0 0 0 0 0 0 0 0 
0 0 0 0 0 0 0 0 0 0 
0 0 0 0 0 0 0 0 0 0 
-0.9121285034660552 0.1175332887945316 0.08411323202735793 -2.602085213965211e-18 0.5333780973725611 -0.009697397030667455 6.505213034913027e-19 -0.1100186406971388 0 0 
-0.1195045321259103 -0.04295196253253411 0.2259143201303412 0.1167229578897988 -0.07277261408847831 0.06691397635162795 0.2451445680047051 -0.2089166356009252 0.2999213081952444 0.1044596073092660 
-0.3197295431394266 -0.01005928676192636 0.1829975953121424 0.1146594979556599 0.1551877567738610 0.1023767038702651 0.08981977571643746 -0.2611097675041103 0.2708900512850729 -0.3187447136791928 
-0.5809764516749121 -0.1710226455202341 1.221920392646579 -0.09190638612125555 -0.3038374295594049 -0.04936454717981582 0 -0.1011486358893021 0 0 
0 0 0 0 0 0 0 0 0 0 
0 0 0 0 0 0 0 0 0 0 
0 0 0 0 0 0 0 0 0 0 
0 0 0 0 0 0 0 0 0 0 
0 0 0 0 0 0 0 0 0 0 
0 0 0 0 0 0 0 0 0 0 
0 0 0 0 0 0 0 0 0 0 
0.6362417274317664 -0.08231744612708958 -0.2722360116628796 -0.2195839141980179 -0.4402676401545519 0.02028963813433214 -0.05481496345803550 0 -0.06164061268413325 0 
0 0 0 0 0 0 0 0 0 0 
0 0 0 0 0 0 0 0 0 0 
0 0 0 0 0 0 0 0 0 0 
0 0 0 0 0 0 0 0 0 0 
0 0 0 0 0 0 0 0 0 0 
0 0 0 0 0 0 0 0 0 0 
0 0 0 0 0 0 0 0 0 0 
-0.06410189138715962 -0.1341142256063293 0 -0.01525517129310090 0.5564204138511399 -0.1240122399040279 0 0 0 0 
0 0 0 0 0 0 0 0 0 0 
0 0 0 0 0 0 0 0 0 0 
0 0 0 0 0 0 0 0 0 0 
0 0 0 0 0 0 0 0 0 0 
0.9046407484836863 -0.1031834954544320 -0.1133828172044849 -0.1478223522523146 -0.2722102949549780 -0.07316368527783150 0 0 0 0 
0 0 0 0 0 0 0 0 0 0 
1.094915247415685 -0.2914909333170682 -8.673617379884035e-19 -0.1316202993260895 -0.7561797073576172 -0.07603857033683680 0 0 0 0 
0.3070945186693406 -0.1610176427379805 0.2826183473981926 -0.08318731851752253 -0.3998379742874642 0.1190968767207632 8.673617379884035e-19 1.734723475976807e-18 -0.2345198618204059 0 
-0.2341065876994510 0.2914432548494323 -0.1276288001128774 -0.1549772300091720 0.1590193806920817 1.387778780781446e-17 -0.06337601559657853 0 -3.469446951953614e-18 0 
0 0 0 0 0 0 0 0 0 0 
-0.3246112457882953 -0.1004062382379122 -0.05417349199358625 0 0.6839759117419973 0 0 0 0 0 
-0.5867121235991829 0.5934482986044656 0 -0.03013326255399841 0.1802752223907084 -0.2245831476762050 0 0 0 0 
0 0 0 0 0 0 0 0 0 0 
0.3555439411575498 0.3707242775555460 -1.132413138231557 -0.6896201631623070 -0.4130743782132809 0.2742141633191152 -0.1752981889542648 0 -0.3607957770274717 -0.01638091678298064 
-0.5625962814783209 -0.08621982735135023 0 -0.04569962174517826 0.6909582435112471 -0.07085918108795071 -0.1813714392282694 0 -0.01284032692255780 0 
0.1668642023490676 0.6698656707636563 -0.2336681287348169 -0.1296862718889615 -0.5613079057892674 -0.3346355258350543 -0.2116674380461137 0 -1.387778780781446e-17 -0.04936976907213839 
-0.2629101125357557 -0.1622114974633773 0 0 0.5067696201992485 -0.02245326733858092 0 0 0 0 
0.1008046890271637 -0.06211628501020206 -0.1681669604750425 0.1174755010196746 -0.02942428476976475 -0.03322123359012256 0.3152052513576634 -0.08806460503881600 -0.6647897324369129 -0.09531238985930085 
-0.05616347040300246 0.01227923719812761 -0.03644166677156203 0.1835497908836650 -0.04202678510440371 0.04658256908138699 0.06981070370581341 0.2453226378265146 0.1006182991164694 0.2476614325407410 
-0.3156417565342585 0.08510104274019993 0.06419407941281749 0.2537092110669320 0.01921618819221259 0.06505008910919202 0.2364493308160817 -0.05262978858970168 0.2010511262979830 0.008390327295882244 
0.3897165434310526 -0.06250792131073160 -0.1780735200028152 0.2102641339618047 -0.4187364036973583 -0.1267057023700244 0.2898469334061286 0.1712010911836859 -0.1177687573856563 0.01927206081077203 
-0.03293091215891648 0.04614793855352287 -0.1266530449120107 0.1687287392645358 -0.02552966072169351 -0.06032401151684433 -0.1514855870172621 0.3874762937756048 0.08202631661362382 0.1671034636639136 
-0.1324356570345329 -0.09348752456491444 0.1591193618470619 0.1671067003650770 0.02416510226006736 0.01885948465481896 -0.1870944906429446 0.005943765778405852 0.01129510065719578 -0.1978725339801165 
0 0 0 0 0 0 0 0 0 0 
-0.7929684454334364 0.5028142012021195 -0.01530390250964537 1.387778780781446e-17 0.7615933539677112 -0.2584650760297320 -0.1723072695151395 0 0 0 
0.07455628466652307 0.01500070477526866 0.1483689922599640 -0.02493738316178684 -0.1156513073255633 -0.002108925581236767 -0.07270804288180718 -0.01347933499943320 -0.2300725211672107 0.1368222331389105 
0.01547133772792734 0.2165581500994550 -0.08133901817192105 0.05734274596267881 -0.3069823803509279 0.09317469837812395 -0.01017009978267611 -0.1433964203783592 -0.2279150985715684 -0.1880123162658906 
0.01910386773874089 0.09326357744497571 -0.1233267244241165 0.1261658527507255 -0.2155929109039524 0.006946272747181427 0.04239999157278820 0.2491681887478416 -0.2611435348021515 -0.2310168547579770 
0.2275642511245707 0.02076850852347896 0.0006243070520783912 0.1018032389842903 -0.3502225819734742 -0.1927047462704271 -0.09136148005471745 -0.02190601999138381 -0.2049613329759852 0.01063324824096184 
0.1916288295935666 -0.1107648185470297 0.05277054840665801 0.2655425441029516 -0.3592275155516002 -0.2501762367821729 0.05197047012351925 -0.1441621089878366 0.07097971562783528 0.05645874862899775 
-0.2869331410698864 0.3424683730557788 -0.5387129516663250 0.3011614786883292 -0.1152514200104610 -0.3100657485197734 -0.2682425373053867 -0.2882306281405324 0.1055323700067790 -0.1299329435062278 
-0.2349852805180637 0.004275624245286311 0.09160962252931586 0.4163434379473452 -0.1694748797541378 -0.1674614750518852 -0.1614961481218224 -3.469446951953614e-18 -0.003859014801542676 -0.04966106731508559 
0.06991711152408923 -0.1940815743679640 0.3724586286250552 0.05266191316624284 -0.2948571687351732 -0.05711953110600383 -0.02652057516906211 -0.06110724487244496 -3.469446951953614e-18 -3.469446951953614e-18 
0.1343763597828478 -0.1497138943157877 -0.05220348078140958 6.938893903907228e-18 -0.6286256505311264 0.6418574895321569 -0.01100178633855250 0 -0.005058307537676977 0 
0.2375078865094853 0.1457657849290145 -0.1209030671184377 0.1071917893904338 -0.4224219501349971 -0.1289173389562116 -3.469446951953614e-18 0 0 0 
0 0 0 0 0 0 0 0 0 0 
0 0 0 0 0 0 0 0 0 0 
0 0 0 0 0 0 0 0 0 0 
-0.2345682994367455 -0.02581428569382848 -0.01575724419334689 -0.04278179734313801 0.1816547521304262 -0.09272462369772863 -0.07565639753557331 -0.07432152506109961 0.009607722152543467 -0.1066944787585260 
-0.1989177215779086 -0.1362259860538020 -9.204612611086896e-05 -0.1102948262591332 0.2028492054002331 -0.01902405216004418 -0.03606617128747964 -0.1334520422927980 0.1254259106516271 -0.02998219361328305 
-0.04872250148520728 0.01539956643899955 -0.1017090314050877 -0.03645869791608273 0.06435513408729454 -0.1130419314689483 -0.08201156619818877 -0.1931338454018154 -0.4244474573229049 -0.3849422245479082 
-0.3267210401516267 -0.05357259541951567 -0.09347018878946592 -0.1132078553869482 0.2043114867468531 0.1132392743948477 -0.09658899818106140 0.2198481791998236 -0.3901152263268675 -0.009912288055505734 
-0.6477761903683662 0.3030747629923073 0.3263812384745523 0.06470913623612620 0.1086821434159047 -0.04416414162136399 -0.1757060362019352 1.040834085586084e-17 0.09975421681306243 -6.938893903907228e-18 
-0.6530831027309444 0.3543556254845869 -0.1405952893038842 0.3336202118039951 0.07669911574092925 -0.1928884661910762 -0.1258853017287773 -0.1858582373312487 0.1356424513030335 7.806255641895632e-18 
-0.1455417138169793 -0.08294493887063087 -0.1168474650525300 -0.1351945545830127 0.3820765831885764 -0.2871984170239911 0 -0.06927610694280271 -1.734723475976807e-18 6.071532165918825e-18 
0.4765731897097926 -0.2089571797328660 -6.938893903907228e-18 -0.09524875220083001 -0.2770307663935659 -0.07970993422436123 0 0 -0.02065220764067564 0 
-0.4383887713427160 0.2673623053745091 -0.2722360116628794 -0.2632326382512823 -0.1710915956020574 0.09258059993392773 -0.05481496345803550 0 -0.06164061268413323 -3.469446951953614e-18 
0 0 0 0 0 0 0 0 0 0 
0 0 0 0 0 0 0 0 0 0 
0 0 0 0 0 0 0 0 0 0 
0.004068141232130251 -0.05772099165012684 0.05567930239730121 0.02536265113525953 -0.03941922890414017 0.04878499897607655 -0.05749092242309186 -0.005506197435122179 0.07383387054292788 -0.06134401105069316 
-0.1739007909014647 -0.1360933580934073 0.8495822585043384 0.1476909945721047 -0.4362817182416302 0.1152398436734016 0.04013582973520460 -0.08704476235643127 0.05044511941820513 -0.03548022746632709 
-0.1586742790904064 -0.1857489319558648 -0.09160284262506373 -0.05229781015454082 0.2888166464610141 0.01579312576750463 -0.02507106943571725 -0.1801579035250961 -0.2896579971381922 -0.2942391473270621 
0.1177808603557170 0.3803179931382131 -0.2720694404511134 -0.07310938478172391 -0.5081659511086408 -0.1009747769456803 -0.08891316313718750 -0.1967789655195897 -0.05026805364895595 -0.1150946791324252 
-0.1608592643921606 -0.04916755680359373 0.09910295531541476 0.0006669336694368286 -0.1017021340974580 0.02583428084411965 0.2983453131365102 -0.1069722157229536 -0.1141840781630520 0.3295443955996905 
0.07890828844565882 -0.07488270959326430 0.05508655362847455 -0.1262495027014086 -0.01221227977834607 -0.02677918130881558 0.009463418380026324 -0.1009535281941908 -0.04122139416649952 -0.5349136956299871 
0.07506184529869968 -0.04517043747288548 -0.1573438072679530 -0.1349978172586453 0.03094364191210898 -0.02414333809988407 -0.3477047220226434 0.02536163178207365 0.2137008060225918 -0.3758522744770991 
-0.1289370261983050 -0.05010413886336050 0.05847327644116461 0.009898150021249304 0.1418450848867161 -0.2216347023270038 -0.3485627885971331 -0.05725431499713235 -0.1091815500037941 0.2206797283421487 
0.05786053767256676 -0.2055321170895005 -0.09066883059003139 -0.02200034269467237 0.1488769350497800 -0.03256202395925319 0.02802084660023346 0.1805617183469533 -0.1356129359564145 0.2383444876495152 
0.1224619329545689 -0.1262404497451778 0.1851876984675335 0.003065772278594088 -0.09213588629353779 -0.08071734265199873 -0.1727045353587517 -0.1495893495253132 -0.3690579098929875 -0.3765163921699067 
0.02461878014317584 0.1724344382396365 -0.5737796941737812 -0.4828850764802970 0.1510170255282722 -0.1906704937826997 -0.1179311615885446 -0.1942959903941713 -0.1357712388171284 -0.1301858269562442 
-0.03594736724873811 -0.05537077758779417 -0.08747734152197326 0.07273847698991649 -0.1096548453953758 -0.006103714866715104 -0.08936184762798965 0.1500607727628536 0.1364660141330829 0.03796302169793786 
-0.02444350382240880 -0.02463401076876530 0.07222999743437669 0.09372333543728877 -0.08530141869835345 -0.05904912435420244 -0.01427174738829023 -0.008407634823074606 -0.3243676848469421 -0.06598903286094669 
-0.1446983719530160 0.09422905351008970 0.02383377491338322 -0.008150912994603956 0.04428805437464822 -0.04019210948183839 -0.3301339591924741 -0.1093765481810633 -0.08533555160073697 -0.06601758853978704 
-0.2125794290428492 -0.1217979425085919 0.02348606466443362 -0.04375153578101847 -0.03458225548885117 0.1422856317139186 0.2853535812756800 -0.3444340920017769 0.2410096954149173 0.07270973711508551 
0.1517289210610363 -0.1689082097796508 -0.04250263533307706 -0.03282983335018742 0.1147712692983687 -0.1300194626054714 -0.03537249519553898 0.2198492643326060 0.01063147255547873 -0.003495103261362638 
0.1775083789525090 -0.1596856869552074 -0.1478556760162752 -0.05884485783609891 -0.07069871441241737 -0.02438478030631105 0.02696777255965455 -0.05940923185880352 -0.07882513424597570 0.07887025968015426 
0.1197275369809207 -0.03996042386289667 -0.1572717324476679 -0.09128274157001945 -0.03841039362203616 -0.05847987441513725 -0.3395445539148341 0.008751663715623243 -0.09100327939994382 0.08165212920450238 
-0.2750478955259361 -0.05136335691427133 -0.1225051145278250 -0.04720806046391650 0.3571099656581571 -0.1711412965874839 0.01264445123275956 -0.1608439241165799 -0.1209972251955505 -0.3557965320965632 
-0.07252521471884942 0.01415195535833088 0.1477995306899140 -0.1323717902111061 0.01623662436380350 -0.07651535237791590 -0.02346785252187637 0.09124554156169874 -0.1062700165039523 0.1086737258323131 
0.1683423516304042 -0.05709555447902708 -0.1027088217521676 -0.002533737817105251 -0.2219093097016060 -0.05925003576040632 0.05233786668532164 0.05844225563897620 -0.1040992800303571 0.07195872459188668 
-0.1848975457646395 0.09507411783797956 0.009917554010657387 0.01679739526356804 0.009590098170287432 -0.03375370867689935 0.06110657058096713 0.1550589311291957 -0.1562338655757968 -0.2943103803291729 
-0.05196664946264160 -0.03140894962516586 -0.02639787550573573 -0.08264598126562733 -0.06351632713101632 0.05905843209514784 -0.2644664196979025 -0.5294388139000483 0.1310035978972606 -0.2225791118583430 
-0.08440050998544749 -0.1113581333449682 -0.2540893730123730 0.01367886237591605 0.1623360495980828 0.09261871899227636 -0.1459482478066873 -0.01997460718255624 -0.1507071524219099 -0.1301674419342518 
0.09778695944038614 -0.006842593796426906 -0.2395679394667745 0.04063152150586558 -0.09444478017199909 0.03248014856778292 -0.08792002429053047 -0.06083607989565192 -0.04309084091383338 -0.1116926714875105 
0.2462040819903742 0.03339795604961725 0.1660651911042983 -0.1973905069186919 -0.3376859620857038 -0.4450927717662012 -0.05121424860664658 -0.1618070103572868 0.1639209909193921 -0.2037110946786543 
-0.09290913652349102 -0.1077022831226696 0.04846921770689700 0.01345400162707891 0.08237716102818320 -0.02227166584270221 -0.03421410888169309 0.06020119563731788 -0.09696825156895617 0.1360051078269739 
0.1950964884573094 -0.01711553999313066 0.08357886466292361 -0.007235750656712369 -0.2449488884576572 -0.09183627813608419 -0.1865086041164878 -0.1723348208489904 0.05857050437647467 -0.2114932012557027 
0.03738463355047304 0.03071207141358335 -0.1955263723317577 0.08961400717169024 -0.1631598533064182 -0.005424881492876578 -0.1228240174105363 0.2122610468825064 -0.3079693690044600 0.06969689327418807 
-0.5180215548378376 -0.05137937584625942 -0.007951724212329854 -0.3508419090054531 0.5839282167206895 0.07506011364879478 0.1542070860366701 -0.2937033020652773 -0.1501810844410220 -0.08016877672026249 
-0.4196224102377400 0.1413174974027724 0.0004595955827483506 -0.1926436890787778 0.2443764181996317 0.05575545449214134 -0.1195134133819828 -0.2858416453918908 -0.1144226269443796 -0.2871906507672112 
0.1626758644494345 -0.1386481116831421 -0.1827409898741951 -0.1012388644164373 -0.1344625121449677 0.02239563033853628 -0.2671752268976330 -0.1021949459244430 -0.07272719544712433 -0.1593116075568839 
0.1561452622829576 -0.1221508022036747 -0.05984302971055758 0.06346083218660387 -0.2375549753044746 -0.3923670260403134 -0.03494820492114774 -0.01598999554285766 -0.1964104571512199 -0.06712726271662375 
-0.01805775440288855 -0.1108064821562126 -0.1568977115471010 -0.1676680525916994 0.1160430125749893 -0.05025067481937391 -0.05278531987514858 -0.03216699097074798 -0.1428649235115961 -0.01790166393450260 
0.05084194687762343 0.1157768730617330 -0.2035108175536054 -0.1152093481903412 -0.3007122934006118 0.03791856344495424 -0.1994635957153780 -0.04598312552542271 -0.4590783667421893 0.2608029760137944 
-0.2039497365216384 -0.1714670623841614 -0.02584674637496471 -0.07153635373411839 0.3061643830782306 -0.1420141084125245 0.1089731007403797 -0.3776279173282194 -0.02634301445166879 -0.3716565977695051 
-0.05913612038623606 -0.1540607634134124 -0.2507409436447814 -0.2295437154018673 0.2895171365359590 -0.2793159682977601 -0.1573898843626644 0.2817721922956958 -0.1958463724862624 -0.2121498313653689 
0.09338487212201718 -0.02053694590441585 0.08107637202424420 0.01819964342601972 -0.3065672828883977 0.01894489723631791 -0.2265417857382452 -0.2943547272719862 0.1548425506258014 -0.2085277318541443 
-0.1188590379082312 -0.2302878986402540 -0.3990221355491149 -0.3980897739003039 -0.01159805667482522 -0.3644666160290168 -0.4744221650759177 -0.4361935778299314 -0.5264252030543130 -0.5315311849752260 
-0.1188590379082312 -0.2302878986402540 -0.3990221355491149 -0.3980897739003039 -0.01159805667482522 -0.3644666160290168 -0.4744221650759177 -0.4361935778299314 -0.5264252030543130 -0.5315311849752260 
-0.1379694804020257 0.1682080386860415 0.2705916116852247 -0.003370780259573410 -0.1438171391418332 0.01042472101768097 -0.05318770148723487 -0.2912300045214881 0.1445398886976664 -0.1231441287902222 
-0.04107960712224088 0.1203897627462645 -0.08332281438414393 -0.06840539752921938 0.05126212211842488 -0.1121076998266711 -0.08482989889754178 0.05823641478163384 -0.05444974181060254 -0.04379912719519601 
0.08693464409596580 -0.003638600898334313 -0.07993358915765203 0.003965946594011418 -0.1289989551880632 0.02345744232515052 0.2031052895481799 -0.1155494716625365 0.09193740928075755 0.02824332347547899 
0.2617413234140676 0.4543905247784829 0.07504577245912376 -0.1334027764675847 -0.8191809381441002 -0.06208654389031066 -0.05997845848459019 0.03561879729182189 -0.02065220764067551 -0.1587289136495101 
-0.6166331321252905 0.1305863549235013 -0.3074169777618269 -0.1407829797734543 0.3348344946566003 0.04109948012622910 -0.1018102779021800 0.1736800109627676 0.4961725538812183 -0.08997457689348916 
-0.08626070988192219 0.03151298803269567 -0.1635857856124711 -0.1672355464559839 -0.2642337495474816 0.1124179804799384 0.1098245349086368 -0.1930843801314719 -0.2593848461432359 0.6925265861323473 
0.1617716394731618 -0.05695327504537572 0.04943860816393625 -0.07860902068157818 -0.2194376146769242 0.1263846473060185 -0.05001297365450480 -0.04477331054606942 0.1459018762563299 -0.04567622521670444 
-0.2261525937792761 -0.3630404311240798 0 0.1573272177489058 0.1708607676876671 0.04527472808849335 0 -0.01905431413495075 -1.301042606982605e-18 8.673617379884035e-19 
-0.2793640502981662 0.2645060904668217 0.3410160448103851 0.4385321184674436 -0.8113890533542618 -0.09484128122960442 0.3256635028866749 -0.1922226174122091 0.1787908850726024 -0.02171595962477965 
0.02189113677146528 -0.01520731147043746 0.2738152318086650 0.1014597542359671 -0.2151957411925632 -0.1305476583882085 0.2389917195771650 -0.2779509654005422 0.2139873062706489 0.2190305694849515 
-0.05019813153669214 0.04537597744308797 0.6339771157388657 -0.04725222448832712 -0.5121785046075602 0.03497329415364811 0.1048528507678312 0.1029525792961655 0.1112214138569792 0.2196892006420828 
-0.9584938747444604 0.4543363039509513 -0.5542794914937647 -0.09986794431082217 0.2158216783380559 -0.2409247994523723 -0.006426490649215601 0.4486390576650929 -0.05277122321579788 0.6438217155138636 
0.3057394929275122 0.3054021919057984 0.3367019160496566 -0.01871097112748110 -0.7242529014493901 -0.1169601821576233 0.2774856885029337 -0.1629098122973460 0.2422843890392681 -0.1181580874623423 
-0.7555478046047095 0.1399142922272025 0.2299649608015797 -0.04460595133856817 0.4332137973596691 -0.5134259544552633 -0.3163325970327012 0.5987594316264071 2.981555974335137e-18 -0.1697097947246793 
0.1065065414172407 -0.004334026131539256 -0.05211354281650632 -0.06295864104635127 0.06588953009864915 -0.09255489014846190 0.2085060732218140 0.08967243298848240 -0.3233632877622706 -0.2858356562237853 
-0.4427085734390104 0.06220951513417437 -0.1839389486904479 -0.2548276342550888 -0.4743532139581496 1.034942828782409 -0.09251702786613195 0.1438797877770890 -0.1147387378963623 0.07847348515881988 
0 0 0 0 0 0 0 0 0 0 
0.4164486862541198 0.07478705305316653 0 -0.1027291807286283 -0.5775391184149243 -0.1645362855325745 0 0 -0.03180915625920002 -3.469446951953614e-18 
0 0 0 0 0 0 0 0 0 0 
-0.8109346183844571 -0.04860644687959379 0 -0.01099692221168574 1.044773826121500 0 0 0 0 0 
0.05651449421793570 0.3647784670881610 -0.3391516659757642 -0.4489649739928481 -0.4882383976721430 -0.04107473502273294 -0.03592458699425273 -0.1975931201533892 1.734723475976807e-18 -0.2375488966332844 
0 0 0 0 0 0 0 0 0 0 
-0.2693124268152050 0.2845260688012722 -3.035766082959412e-18 0.3156559383667625 -0.2179083890540783 -0.09658668276030011 -0.07689536793076661 -0.07312531388668561 -0.1951626837764782 0 
-0.5685126805221057 -0.06094830557398717 -0.1512699548103332 0.9903584865234438 -0.4645551302712003 -0.2830689313915801 -0.04499908404655199 -0.1428915462995513 0.3412717574455235 -0.01495193176525408 
-0.1006773621351216 0.05778546260692399 -0.06683531202143031 0.07915880793913037 0.1139564848969948 -0.03048322652362376 -0.1780963898088936 -0.1202041066700506 0.04444202805488719 -0.07412530354426619 
0.2257455363795016 0.1303554988951271 -0.2310979138089685 -0.0001259814181600312 -0.1662201236708870 -0.01930667763610899 0.03440967327047089 -0.04784067872611286 -0.07653989450655578 -0.03598088835722220 
-0.08322974377398251 0.02748619302723816 0.1161882312672175 0.1257928170859152 -0.2019739789711956 0.1679050868528531 -0.1012344710319921 -0.2012226347179225 -0.01290814772400243 -0.1466223362365821 
0.2669782011783849 -0.05572611301413802 -0.2794352165952889 -0.07508770578951858 -0.09209092376056932 -0.2624362669857095 -0.1230643142604233 -0.1618070103572867 -0.4658291757968566 0.2744805118998145 
0 0 0 0 0 0 0 0 0 0 
0 0 0 0 0 0 0 0 0 0 
0.6138475665659677 -0.3098193980989493 -0.4974280287471170 0.3722228721998619 -0.5047922510163640 -0.1276164495233693 0 0 0 0 
0.2368758616396475 -0.5022660897128499 0.6989939887077118 -0.2817510385501560 0.06618450267548273 -0.2504474840847542 -0.05898925579379015 -0.1734465366251992 -0.03888820314790570 -0.02423218235780024 
-1.106572945364793 -0.01834582160746696 0.4319231979573612 0.6405666825710833 -0.2419248921857936 -0.2054105777512129 -0.05089352099618906 0 0 -0.02396488192067384 
-0.1384803743786582 0.08060948709720392 -0.004078018599180819 0.06423487546201147 0.02932359957448891 -0.004135350968567191 -0.01146705259736412 -0.02997464071744003 -0.03338117028717868 -0.4503603951334003 
0.01895309762785523 0.05963003678640631 -0.1872562126531279 0.1330322787930604 -0.2887144852631439 0.1008499027259753 -0.4311219390276115 0.2115960264306987 0.07717617865773833 -0.4937723272114384 
-0.06478238523038765 0.3398245046774788 0.05771331019669950 -0.02881189222373946 -0.3094772608514240 0.07463484974886359 -0.1038772751178281 -0.4322847275269373 -0.3027390284813253 -0.09680306155131803 
-0.1383540469070612 0.1789173346716305 0.02656701718183318 0.01971981751885517 -0.09230830655215269 0.1533782024169020 -0.2142544016062695 0.1592546840014809 0.08391283949068545 -0.08238157880016254 
0.2724001428093740 -0.07462081204430045 0.4012482168487975 -0.5166826711321539 -0.4061127820119819 -0.04512815513989495 -0.2071176173387891 0.2702189034509478 -0.03678276497098398 -0.07062576215256458 
-0.1296649043341556 -0.3767786302781616 -0.05131376651129663 0.02301331609381855 0.4694794386271912 -0.6253588205773848 -0.04064489185307953 -0.2471412164159169 -0.2630537423219863 0.01821241234508777 
0.4628893922627178 -0.4693561617779272 -0.002103099765955303 -0.2011126375313992 -0.6194866100572467 -0.3251494149759188 0.3900448075739258 -0.2076627162315295 0.5305017419942827 5.204170427930421e-18 
0.3171894461731003 -0.4237721170586246 -0.1550954135739623 0.03315373443888487 0.06716190384413873 0.01318130274307753 -0.1707351272540745 -0.2243597389376129 -0.1855915419507734 -0.2120557194265575 
0.4846232291107001 -0.07144602146581244 -0.1457645932241160 0.2960012239970318 -0.6553140541766529 -0.1538850225705392 -0.07141641547956510 -0.1001648645201107 -0.08992862898896252 -0.07327898203785757 
-0.1692619586671178 0.1162764056377581 -0.2959957705164726 -0.1479826141973685 -0.02529040511906129 -0.1107060121501744 -0.2646089719434283 0 -0.002006775997378716 0 
0 0 0 0 0 0 0 0 0 0 
0.1303033665674813 0.1583178103666778 -0.1509502602997540 -0.06865556568553030 -0.2287939362825460 0.02487166923288343 -0.002429224076780444 -0.003584001743452738 -0.06622070994589742 -0.5037470710327790 
0.5044689415493505 -0.08691633830623095 0.4045132675445942 -0.2006330318948632 -0.5259701285722945 -0.09261370371009375 -0.03167272683606665 0 0 -0.04233534462268264 
0.1044294380586445 -0.3531542947206354 0.06555875363042820 -0.04673343473222877 0.2176500866664765 -0.06980123959491990 0.03094171367575212 -0.08971214940365847 -0.1107956701929617 -0.04234201620040227 
0.1537311535137040 -0.4435391576337192 -0.1982179998589086 -0.3621827913101891 0.4356094610602859 -0.2367943427417044 -0.1094132147906842 -0.04916164032691706 -0.2173295099401194 0 
-0.03358455565217041 -0.2624013914718842 0.03048870692981368 -0.03435007080073007 0.2696602292966954 -0.4222205517831673 -0.1594770154989107 0.2563714569679946 -0.3036897184143886 -0.2422904621740900 
-0.4643472133259015 -0.1408782099072011 -0.6857087724618312 1.338299679098239 0 0 0 0 -0.09548180049452107 0 
-0.4420921842252462 0.1638050518904622 -0.8780682607204384 -0.5607522405484799 0.6350383884672007 0.1216924675983682 -0.1110788526882855 0 5.204170427930421e-18 0 
0.08378986368285389 0.1180700287381181 -0.8117576876051180 -0.01241896587109710 0.01551415929555434 -0.1105915937641386 -0.1300960318467629 -0.1236634929271976 -0.1077873326482264 -0.001274952183112713 
-0.3471589473644471 0.3242479554644311 0.1597692542860539 0.1524779438615704 -0.1151300444897953 -0.1754077209670639 -0.07254687742644086 0 -0.08006513212681482 -0.04764040240058021 
0.3754769474778164 -0.02774591313440086 -0.2380242597334852 -0.3027669346619848 -0.2938173728139570 0.2439556740113016 -0.03752469848281664 -0.02655934420721899 -0.2090814541116154 -0.4978442585376694 
0.02283951369965123 0.1610584445623544 -0.1762807222384770 0.01455253543897764 -0.09624180817261285 0.02065682656555627 -0.3141962901928617 -0.09366449962545424 -0.1173871428083926 -0.1244458806666050 
-0.9066775295577324 -0.04733461232754731 0.2517826372741860 -0.06996824444952371 0.6216446257377448 -0.07028900836663027 -0.1273630962817196 -0.1319695548437489 -0.06399957214144031 -0.02690817852525489 
0.4641981230014572 0.4221638097874014 0.03932170044833788 -0.8214281930423186 -0.6072929899620072 -0.1630690054410590 -0.1742656448242273 -1.734723475976807e-18 0 0 
0 0 0 0 0 0 0 0 0 0 
0.4236486158666424 -0.5969554099932950 -0.01598076187522640 -0.3372992147179366 0.05798374694266979 -0.1491421680456388 -0.2322290074801466 -0.3053854343628979 -0.3386451759799433 -0.1601016382800467 
-0.1255358932783344 0.09978475653619522 -0.1049351354154049 -0.05613873451562158 -0.01658383438063427 0.2460773115525303 -0.5864073846245443 -0.4919017456443416 -0.3684742405497259 -0.3384910640170847 
-0.6243738800703509 0.1887668168405914 0.2939045814259431 -0.6564997657458592 0.3100170996012638 0.05102155865515557 -0.2814969506475636 0 -0.01256360314519830 1.734723475976807e-18 
0 0 0 0 0 0 0 0 0 0 
0 0 0 0 0 0 0 0 0 0 
0 0 0 0 0 0 0 0 0 0 
0 0 0 0 0 0 0 0 0 0 
0 0 0 0 0 0 0 0 0 0 
0 0 0 0 0 0 0 0 0 0 
-0.01713340857532901 0.1140021010235597 -0.04367245662101769 -0.002520334903896149 -0.07259144386511215 -0.01721349229540716 0.1979405769480269 -0.1383237383363020 -0.07937883685477044 -0.02429156542699422 
-0.1338864373976760 -0.1107184252143301 -0.1043406253326208 0.04543450672264029 0.1937788600867643 0.08927480047343798 -0.2635183536646739 -0.1319695548437490 -0.2353326742541864 -0.4325595130137449 
0.1806143879893734 -0.07216853990104116 -0.02297237507772481 -0.1719185413266817 -0.2514986870630289 0.3082822601953935 -0.2947339832818404 -0.1071873014241742 -0.2685084346761550 -0.002616613098260633 
-0.03175517889470138 -0.07994739755847793 -0.1212101553079990 -0.1112910466226985 0.3863307035906787 -0.01272099702478233 -0.2685311009943272 -0.1071873014241742 -0.2685084346761552 -0.002616613098260646 
0.07592002882570639 0.004042211249641545 0.08688401212736901 -0.02015349035072400 -0.1042017043347108 -0.09255617288389102 0.03136305499310708 -0.03475427545620220 0.1046556931341112 -0.4170757170003685 
0.3353949773700811 -0.4554815775640221 -0.2557227091939930 1.032514294586358 -0.2366586378957634 -0.1630690054410592 -0.1742656448242273 0 0 0 
0.08451913223728635 0.1798154901914197 0.1114468145604862 -0.07003455538624796 -0.1433691336402640 -0.1847832144393524 -0.4109538380907009 0.1899054901514472 0.02390196027423780 -0.3088587809778758 
0.07811589711890386 -0.07919164267884271 0.3066188410528496 -0.2256247753492311 -0.03177885353280494 -0.3660340950374831 0.5891246287552437 -0.1071873014241742 0.2843453423598679 -0.002616613098260644 
0.04242845090686914 -0.06703112776049060 0.04004276763358940 0.02623828693965638 0.008389616497869930 -0.1594384790523246 0.1152184352000451 -0.08215835499038836 -0.06532176238307716 0.08490962383935857 
-0.1877023949683799 0.07295326355895572 -0.02809994992509066 -0.02717604823082673 0.1013428419392432 0.06848812525975487 0.1478503359666162 0.1236434985167190 0.04760849483289266 -0.1308891107678014 
0.2779902264203162 0.4083525204298071 -0.8226223140773367 0.2419388432769699 -0.4595517580169735 -0.3568885066621911 -0.02337699819003263 -1.317305639569888e-17 0 1.734723475976807e-18 
0.1744267289566796 -0.4740306277347590 0.2001171739498730 0.1100040248978907 -0.2038396218166762 0.08603248482725467 -0.05570783083390062 -5.204170427930421e-18 -0.07681885641546396 3.469446951953614e-18 
0.1790988375885639 -0.02904002924023273 0.07847650657722527 0.1090493875125703 -0.3263349915781868 0.09298606281526034 -0.2962816987794944 -0.1824695717874375 -0.2367325314634753 1.734723475976807e-18 
0.02012692720150627 -0.1272836244335600 -0.3106458202996871 -0.1606228470437331 0.3838712608491063 -0.3708239472279382 -0.2918528468303046 -0.2524287667943132 -0.2685084346761552 0 
-0.3065225050542109 0.04072589106221583 0.7649685755454480 -0.1343322598607035 -0.2863667532820046 -0.1298881276099970 -0.2036108492688777 -0.06288714700449868 -0.09751426526123937 -0.3916179377543476 
