solver_type L2R_L2LOSS_SVC_DUAL
nr_class 7
label 2 1 5 6 4 8 10
nr_feature 166
bias 1.000000000000000
w
-0.1001840269854706 0.01470863046939144 0.01969390604092915 0.1064885339097355 -0.01388720587823207 -0.06410704493657846 -0.05093045237764725 
0 0 0 0 0 0 0 
0 0 0 0 0 0 0 
0 0 0 0 0 0 0 
-0.01147137265623539 1.485507848833884 -1.274081778366593 -0.1356324102977588 -0.06537107895508865 -0.05484207019021627 0 
-0.03074310086842664 -0.1618754024251815 -0.3306668266235475 0.4531965955694954 -0.09304725702271313 -0.07252793240090500 0 
0 0 0 0 0 0 0 
0 0 0 0 0 0 0 
0 0 0 0 0 0 0 
0 0 0 0 0 0 0 
0.3247810172773010 0 -0.1281479766408524 -0.2199523162929049 0 0 -0.01900128488375364 
0 0 0 0 0 0 0 
0 0 0.2931624285117638 -0.2198562826073809 0 0 0 
0 0 0 0 0 0 0 
0 0 0 0 0 0 0 
0 0 0 0 0 0 0 
0 0 0 0 0 0 0 
-0.2393609479566615 0.1688282452013684 -0.07163260872974056 0.07693283686070820 0.1984222396159584 0.008782675368492272 -0.2034974267842027 
-0.2996563447981743 0.1870200202067210 -0.08408689893066560 0.05271161952275602 0.2552676388834600 -0.08019291646344429 -0.1861813503176438 
-0.3517105080078543 0.2469745407850047 -0.3094944507466287 0.3393397819763523 6.938893903907228e-18 -0.01247321298647183 -4.336808689942018e-19 
0 0 0 0 0 0 0 
0 0 0 0 0 0 0 
0 0 0 0 0 0 0 
0 0 0 0 0 0 0 
0 0 0 0 0 0 0 
0 0 0 0 0 0 0 
0 0 0 0 0 0 0 
-0.2902781002890199 -0.4622609606053525 -0.4938882746603179 1.107513839521339 -0.1119001759204868 -0.06521997672008405 -0.08041595767958123 
0 0 0 0 0 0 0 
0 0 0 0 0 0 0 
0 0 0 0 0 0 0 
0 0 0 0 0 0 0 
0 0 0 0 0 0 0 
0 0 0 0 0 0 0 
0 -4.163336342344337e-17 0.3031949088574434 -0.1197706075034962 -0.1856884848831726 -0.08033951098339680 0 
0 0.3271306827071326 -0.1629260655274663 0.02300480127261997 -4.336808689942018e-18 -0.04141681936884552 0 
0 0 0 -0.03440987422760893 -0.03713346171596004 -0.003026784373154646 -0.01975864826445815 
-0.1608781401751218 -0.1358910983713365 0.4119476178984269 -0.1860860317356839 -0.1335433305997694 0.08497997202238317 0 
-0.1996730869429352 -0.2651146908616300 0.1587140452358904 -0.1269503666153545 -0.04292315585270319 -0.06361391510566666 0.6208174972329742 
-1.214306433183765e-17 -4.336808689942018e-19 0.3730602628073650 -0.3612902622865621 -0.1064805799570319 -0.002692537295977730 1.734723475976807e-18 
0 0 0 0 0 0 0 
0 0 0 0 0 0 0 
-0.003470272538891094 -0.2942489994216329 0.5961489099060810 -0.1337504764773575 -0.1403255469982435 0 0 
-0.3483804821688266 0.2198364593875384 -0.3295489327570508 -0.2003703338084027 -0.1286667913950529 0.5058753275573377 0 
1.099155654961594 -0.4267120535222187 -0.4926948461986592 -0.1439858196575090 -0.2153908297130065 -0.03133235852530611 0 
0 0 0 0 0 0 0 
-0.05454106456390722 -0.4979808489354087 0.3806114084730906 -0.2365980175414422 0.03130510503506717 -0.08334796441737848 1.734723475976807e-18 
0 0.4166876999260027 -0.01886148331800916 -0.2626393516400478 -6.938893903907228e-18 -0.01503640873334076 -0.02600321632795273 
0 0 0 0 0 0 0 
-0.2965219612234979 -0.1307567482746639 0.3478437125052944 0.1871903293148710 -0.1844808697489355 -0.1149156545586983 0 
6.938893903907228e-18 1.081069767107990 -0.6903888759936924 -0.2258746212045202 -0.01045823897470795 0 -0.1662838260345100 
-0.05814328446744826 -0.5903020412778929 -0.1505836729728513 -0.02325444991754810 0.3585198339195282 -0.08756244678146291 1.192622389734055e-17 
0 -0.1804865672284820 0.4015389995127497 -0.1258968398796434 -0.08418514412140413 0 -0.03988537134540006 
0.1354966955286626 -0.2789625620847194 0.3876196497019947 -0.09671763953113428 -0.04862846164551553 -0.1310967418935849 -0.1347703663323634 
0.1164000778873003 0.1148072393047293 0.02928532657008993 -0.2127224319160478 -0.02462307564277641 -0.02625479026759393 -0.1821611842154304 
-0.03304712729076506 -0.2648783624422565 0.09021717675704200 0.1270648904527273 0.09862199685002304 0.01134398959547239 -0.08775916937354028 
0.1276367078785764 -0.3677791245071663 0.1128239335309616 0.08964097424909254 -0.07064415726770966 -0.01989252406028407 0.09776523708777340 
0.04567340180004806 -0.02319820436138477 0.1517153102355381 -0.07630251846113130 -0.08075607224795624 -0.1419060963931278 -0.02207006783820768 
0.1554820544033244 -0.2247922995368634 0.1936646106022063 -0.1079115492229941 0.08673133533316470 -0.05537366642426222 -0.07824508840606442 
0 0 0 0 0 0 0 
-0.05372913257367159 0 0 0 0 0 -0.01900128488375364 
0 0 0 0 0 0 0 
0 0 0 0 0 0 0 
0 0 0 0 0 0 0 
0 0 0 0 0 0 0 
0 0 0 0 0 0 0 
0 0 0 0 0 0 0 
0 0 0 0 0 0 0 
0 0 0 0 0 0 0 
0 0 0 0 0 0 0 
0 0 0 0 0 0 0 
0 0 0 0 0 0 0 
0 0 0 0 0 0 0 
0 0 0 0 0 0 0 
0 0 0 0 0 0 0 
0 0 0 0 0 0 0 
0 0 0 0 0 0 0 
0 0 0 0 0 0 0 
0 0 0 0 0 0 0 
0 0 0 0 0 0 0 
0 0 0 0 0 0 0 
0 0 0 0 0 0 0 
0 0 0 0 0 0 0 
0 0 0 0 0 0 0 
0 0 0 0 0 0 0 
0 0 0 0 0 0 0 
0 0 0 0 0 0 0 
0 0 0 0 0 0 0 
0 0 0 0 0 0 0 
0 0 0 0 0 0 0 
0 0 0 0 0 0 0 
0 0 0 0 0 0 0 
0 0 0 0 0 0 0 
0 0 0 0 0 0 0 
0 0 0 0 0 0 0 
0 0 0 0 0 0 0 
0 0 0 0 0 0 0 
0 0 0 0 0 0 0 
0 0 0 0 0 0 0 
0 0 0 0 0 0 0 
0 0 0 0 0 0 0 
0 0 0 0 0 0 0 
0 0 0 0 0 0 0 
0 0 0 0 0 0 0 
0 0 0 0 0 0 0 
0 0 0 0 0 0 0 
0 0 0 0 0 0 0 
0 0 0 0 0 0 0 
0 0 0 0 0 0 0 
0 0 0 0 0 0 0 
0 0 0 0 0 0 0 
0 0 0 0 0 0 0 
0 0 0 0 0 0 0 
0 0 0 0 0 0 0 
0 0 0 0 0 0 0 
0 0 0 0 0 0 0 
0 0 0 0 0 0 0 
0 0 0 0 0 0 0 
0 0 0 0 0 0 0 
0 0 0 0 0 0 0 
0 0 0 0 0 0 0 
0 0 0 0 0 0 0 
-0.2041060318974787 -0.09012689049162964 -0.05293267589339614 0.09741105841407140 -0.02695959608458437 -0.04299580333487614 -0.009320441944833576 
-0.01085314893425618 -0.1185711596815327 -0.04505279743841911 0.02214365122030487 -0.01214898674739365 -0.09761396274454145 -0.1874607201805974 
-0.07224153710112070 -0.2071474506721910 0.09358977469669313 -0.008570116053838006 -0.2163194454856875 -0.1517443920478554 -0.01900128488375365 
-0.02983117479196845 -0.1415350733096137 -0.05539761380429185 0.01695678544907180 -0.1864872447900292 -0.06702895736059028 0.02761189654647143 
0.07930749047465495 0.01100454445457393 0.01942012420724715 -0.2601227227288205 0.04283346131858121 -0.06681734200734465 -0.1726153700851900 
-0.1467130109625458 0.3626208203730694 -0.003935693557662823 -0.5617255712914490 -0.03395296757811400 -0.01739897152968155 -0.1561800825162767 
-0.03074310086842664 -0.1618754024251815 -0.3306668266235475 0.4531965955694954 -0.09304725702271313 -0.07252793240090500 0 
-0.03431564189258925 -0.1401167688845111 0.4448772429577990 -0.1356324102977587 -0.1112835565928421 -0.05484207019021627 0 
-0.07766718779636962 0.4430785507105900 -0.3556620188636302 -0.3105452684559119 -0.1119001759204868 -0.06521997672008405 -0.08041595767958123 
0 0 0 0 0 0 0 
0 0 0 0 0 0 0 
0 0 0 0 0 0 0 
0 0 0 0 0 0 0 
0 0 0 0 0 0 0 
0 0 0 0 0 0 0 
0 0 0 0 0 0 0 
0 0 0 0 0 0 0 
0 0 0 0 0 0 0 
0 0 0 0 0 0 0 
0 0 0 0 0 0 0 
0 0 0 0 0 0 0 
0 0 0 0 0 0 0 
0 0 0 0 0 0 0 
0 0 0 0 0 0 0 
-0.1872022759624733 0.2524318074396301 -0.5715033049842607 0.09116773475855050 -0.1549258245295632 -0.1532648032177181 0.02894006864410573 
0.1856090756807717 -0.7144702663736051 0.05064707646176198 0.2787891578404953 -0.08573813463100168 -0.08498210275370977 -0.06581438102777992 
0.06935524688528083 0.1832798264197431 -0.08767814404213695 -0.1908661964085442 -0.2650968136985505 -0.04760913896111337 -0.1115231804448025 
-0.05303149436882357 0.3351466467319593 -0.1141465058657884 -0.2282119971517806 -0.1663652919558596 -0.02705825614861815 -0.1249870545933762 
-0.1620157549839545 -0.1657706003595717 0.1891508865695413 -0.08682260817861619 -0.1511967360728709 -0.1642836663541763 -0.1229997491869041 
-0.2733872497452674 -0.3252846158293288 0.4969668547104131 -0.3445435698194318 0.001656509730060159 -0.06809797192443612 -0.1064395973542088 
-0.05276175870196053 0.3919983720447461 -0.2491973471687404 -0.2064005192155018 0.07240052225452222 -0.09089346897632170 -0.07555678189704078 
-0.5092886429076002 0.5208144903505079 -0.2016654375985670 0.005510652856278822 -0.1799229089413881 -0.09451447151162823 -0.2626218149654246 
-0.3487608829704970 -0.4151145621340238 0.3911194776038710 0.2213447299685115 0.07433943682912775 -0.04347014714692191 -0.1061610611326685 
0.8543298273844618 -0.7300761485095506 -0.4074537625277199 -0.6435461913318910 -0.1930926061594721 -0.08061073191468345 -0.03261544056490053 
-0.1519277290637101 0.07742248318461376 0.1406772015223946 -0.06331164975915658 -0.1885625894949927 -0.09473804723032961 -0.09233062120735593 
0.05375941163950115 -0.1644532786646849 0.1053283276831237 -0.07673149087733121 -0.1864427549362782 -0.03495224937615685 0.06372352189245556 
-0.1173370466535834 0.05749245772847211 0.08572024025490613 -0.03702914435995502 -0.08890798616735349 -0.1827365115291638 -0.04880389449815284 
-0.2542091486249948 0.6112457281182445 -0.3994865312572216 -0.09312490467129028 0.01332363996709139 -0.1051672496272098 -0.09957136538396044 
-0.04669853304702351 -0.5721769293224970 0.5943611900078396 -0.2356774265675855 -0.2435574408719326 -0.2049650502354148 -0.1703249497947204 
-0.05988876287285380 0.5528429577374977 -0.6137893078906227 -0.1294898183174454 -0.2985640039274206 -0.1799304023806796 -0.03505880390704087 
-0.5134557066282328 0.2810077577795829 -0.1302304604259503 -0.4709714446310441 -0.08994891531127938 -0.1355408644724974 -0.07040300668906119 
0.1466087913516834 -0.3043426161210115 -0.1361019060104822 0.1492506913412439 -0.1171954087926340 -0.1157530912475001 -0.3025939154691843 
-0.4734342111964254 -0.04266882992642632 -0.2857604843192088 -0.6868879981748242 -0.7492657689032678 -0.6361894083360958 -0.5783806758600070 
-0.06341669949229657 0.1251469159644814 -0.1508423900278081 0.05390974546476388 0.03441614933899776 -0.02779388153564357 0.04670903703007114 
0.4163736392829360 -0.1204347114109383 -0.2406339446324273 -0.1974689601968471 -0.07476667992629754 0.1040508396453850 -0.4865313679887774 
