solver_type L2R_LR_DUAL
nr_class 3
label 3 2 1
nr_feature 372
bias 1.000000000000000
w
0.7672020919705992 -0.5246478673884383 -0.3074551079503103 
-0.01763203629919248 0.2099151942484936 -0.07972885782087440 
0 0 0 
0 0 0 
-0.08302136317582370 -0.03102909321871937 -0.01708390295369334 
0 0 0 
0 0 0 
0 0 0 
0 0 0 
0 0 0 
0 0 0 
0 0 0 
0.008962204131829287 -0.004593943266909709 -0.003632148431303220 
0 0 0 
0 0 0 
0 0 0 
-0.6370859031412592 -0.03054102845738366 0.5716976507711495 
0.6169688262864503 -0.4526774683816688 -0.3729318519712506 
0.1200001634292860 0.2444700799440914 -0.4464981657573773 
-0.4416223814406921 -0.08076340593415497 0.5453232404212445 
0 0 0 
0 0 0 
0 0 0 
0 0 0 
0 0 0 
0 0 0 
0 0 0 
0.2605082986208107 -0.2072421454444300 -0.06945173488606440 
0 0 0 
0 0 0 
0 0 0 
0 0 0 
0 0 0 
0 0 0 
0.04070020282236084 -0.02177754925771023 -0.04012509641161509 
-0.6124707750275640 -0.3369911409737835 0.8853984688925062 
0 0 0 
0.01742690540479255 -0.009163268044199563 -0.003710930727682649 
0 0 0 
0.06569741476018186 -0.002497351536687789 -0.09779544691207999 
0.01268892710247063 -0.001025343587928972 -0.02715860111694515 
0 0 0 
-0.6321881012538981 0.8163032630898213 -0.08351094047684907 
0.003337137696649322 -0.001301675471850360 -0.001567774476098607 
0 0 0 
0 0 0 
0 0 0 
-0.3767120253767944 0.4964926541380987 -0.05681264532571660 
0 0 0 
0.2315795713874273 -0.3480009126582748 -0.01656639414525922 
0.2609711110875101 -0.09786233795859887 -0.1590223443202518 
0.1753579218101675 -0.07803607995351944 -0.05503314956314092 
0 0 0 
0.08790179087023732 0.3520404260079348 -0.6505610221512251 
-0.05731261003398173 0.1437702152293656 -0.1170614483894707 
0.3356281392429046 -0.2889614898979634 -0.1092490336358657 
0.2090671371436968 -0.1556513338538454 -0.3890372434795703 
-0.05520232244233087 0.1299801612429604 -0.04390304891234156 
0.6811582699112334 -0.8741286208555276 0.1268714543015705 
0 0 0 
0 0 0 
-0.07193647980350146 -0.1620512965010441 0.1526143349264825 
-0.1552614726746579 0.1776897775959374 -0.09278800790145443 
0 0 0 
0 0 0 
0.1492413907595377 -0.1053870790756813 -0.02550493168828604 
0.1344933071117743 -0.1436350906930276 -0.06472429917898219 
0 0 0 
0 0 0 
0 0 0 
0 0 0 
0 0 0 
0 0 0 
0.005678646431537229 -0.002243270377270487 -0.002814501028171872 
0 0 0 
0 0 0 
0 0 0 
0.2907670031466701 -0.1581228147305909 -0.1496148293702132 
0.3645527004908609 -0.2304314017514603 -0.6128228884314162 
-0.6382400756310128 0.6198151303692670 0.3960026671571678 
0.2382106791749620 -0.1587359939451662 -0.1122972115904260 
0 0 0 
0 0 0 
0 0 0 
0 0 0 
0 0 0 
0 0 0 
0 0 0 
-0.1101492413292577 -0.2199069700267044 0.3579878841341993 
0 0 0 
0 0 0 
0 0 0 
0 0 0 
0 0 0 
0 0 0 
0.01682688194945883 0.1898172484450544 -0.1324195139842985 
-0.2506017633028113 0.1658047322629715 -0.001810163601429729 
0 0 0 
0 0 0 
0 0 0 
0 0 0 
0 0 0 
0 0 0 
0.2942794080288967 -0.1809469171271932 -0.08209060982161846 
0.07603791867391732 -0.07432567549658427 -0.01441659803572320 
0 0 0 
0 0 0 
0.1062796173932795 -0.03608316872516196 -0.01624408412488827 
0.4900499206165682 -0.4905847802552790 -0.04082209100059986 
0 0 0 
0.07625959791384238 -0.1017241011340474 -0.001010812966649245 
0 0 0 
-0.1256564198967630 -0.1321757434357339 0.2708129044184028 
-0.5906847544478955 0.5019535080497637 -0.002749182108657376 
0.1536790825840600 -0.1498265064033312 0.004613893487715327 
0.3651091727115747 -0.3448260827335464 -0.1124948014387576 
-0.08925144451228581 0.3574861878194038 -0.5633006977122453 
-0.2339546297674833 -0.5941489749243062 0.9951844616093418 
0.3793041891054161 -0.05076530381875637 -0.7493505874236416 
0.1068753607603917 0.1694345243716568 -0.4185464097543662 
0 0 0 
0 0 0 
-0.1309688389687679 0.01276203045766507 0.4898132127392824 
0.9436980338723479 -0.9295016078423919 -0.4149938718652284 
0.3274279672891619 -0.3755555236384981 -0.2098289516065111 
0.6742245212321204 -1.042797740235192 0.1106606220705026 
-0.1329534748489963 0.2711467870880601 -0.2965053163922175 
-0.5371132945876006 0.4946249576160902 -0.002530589868732922 
-0.02689130079579934 0.07532910151032429 -0.05913422855890647 
-0.4108376925816972 0.3950597286782147 -0.05872907177041085 
-0.1262061734790388 0.1806120648589711 -0.03187149212399207 
0.1168654176340148 -0.05953654194474090 -0.05289079695703532 
0 0 0 
0 0 0 
0 0 0 
0.3693175706589456 -0.1981946761815399 -0.4085008858617021 
0.1028054105041355 0.1102651926071861 -0.6025279173841127 
-0.1431477932343307 0.4524744649103917 -0.6283212263698342 
0.1471693872748524 -0.003015576788828103 -0.2645826630114369 
0.8598830378251376 -0.9084296966432682 -0.01492480697880497 
-0.5169665163499366 -0.2010570335399093 0.7736179846652687 
0.1314173966010309 -0.1485995164602163 -0.01677128837430906 
0 0 0 
0.02125722610882320 -0.2558582295006555 0.1936936245082999 
0 0 0 
0 0 0 
0 0 0 
0.4107824222524130 -0.4949951848927229 0.1574201280831157 
1.059942575457791 -1.229647484641256 -0.4526679267008283 
1.772964132633301 -1.351406984769969 -1.381156076296827 
0.6402259144711628 -0.5848599144219243 -0.1003506860752780 
-0.5026984996472615 0.1505810712414386 0.1046267553189688 
-0.2762088909334488 0.1434581842825340 0.09656165947244245 
1.065802140229978 -1.101892777113315 -0.6513182949051793 
-1.106179255998108 0.9929225179432124 0.6323961849241159 
-0.6119969452685512 0.5972778405971988 0.2806343821332418 
1.214572668018673 -0.5614280279312368 -1.255347633680046 
0.4015121702401304 -0.3122756535963840 -0.1458546981766649 
-0.4585912720608145 0.7422276328746805 -0.3919708690805828 
0.07917060544198870 -0.8427606614621456 0.4559356641397948 
0.2585905203114867 -0.3175330195213337 -0.01848933537879721 
-0.7296188868654369 0.3967198300283383 0.7583266818363635 
0.2162727904010517 -0.2588701626327467 -0.4212058850885865 
-0.3860025174057053 0.4739741172070288 -0.1888682327237514 
0.3016941558783782 -0.4355758807409568 -0.1818119714906913 
0.3375642580413962 -0.1082177234892705 -0.8083349188556676 
0.07446722659725565 -0.5113073072611468 0.8438029489878504 
0.9837705115239637 -0.8270375489249161 -0.7435520789216974 
-0.1307100260334436 0.09787581598580042 -0.04525339993338307 
-0.1988750131147699 0.1563684649826353 0.1054115775088225 
0.01371578443526427 0.001042273061996243 -0.7130605305579525 
-0.3898969595136695 0.1677004377656398 0.1868263813756691 
0.6752080134224306 -0.2695576543960023 -0.6649205886468927 
-0.4553613812850743 0.4903582633734714 0.3940160399875894 
1.003161060499260 -1.141558705410636 -0.5754608527468190 
-0.04811173163567048 -0.3687882966732606 0.7329070639828166 
0.1831938095645303 -0.03311637996203034 -0.3789135888229347 
-0.5476879012898095 0.4594050498581231 0.3679091458355456 
0.6748707201072792 -0.9508162244827435 -0.1546832639536330 
0.2776938044548007 -0.03467919434466122 -0.2240023996430770 
0.5770319722148017 -0.6278296932715480 -1.007829557667340 
-0.03267195313293977 -0.006496984558063751 -0.1814441599918774 
0.4900273567269602 -0.7059267119079484 -0.1413556107971408 
0.5554945746343151 -0.3234836609593544 -0.2214557592534608 
-0.03094138274126248 -0.1180127048154637 -0.4743505453860363 
0.9819085954870821 -1.153920062240819 -1.018606075428513 
0.9819085954870821 -1.153920062240819 -1.018606075428513 
-0.3985056816790961 0.3568620428622326 0.3005951888610308 
-0.3658607850427175 0.4651159184124762 0.1128222631029570 
-0.1748112862764174 0.05367713203660426 -0.001552433526630035 
0 0 0 
-1.480187077006344 1.366410038572193 -0.05192209285852016 
0 0 0 
0 0 0 
0.02959675488257763 -0.01346932079312612 -0.03584768676451825 
0.2721080095234212 -0.5288532033254717 0.2759164988167582 
0 0 0 
0 0 0 
-0.1669641631687788 0.3797013666622786 -0.07591243478299298 
0 0 0 
-1.819439247427408 1.820464241346807 -0.1670898347959875 
0.9477877464079066 -0.6849268471139420 -0.6082039752889675 
0 0 0 
0 0 0 
0.05349296720368485 -0.01786371177732065 -0.05028090208914664 
0.03221983927698297 -0.01698571334643981 -0.01720907549524706 
0 0 0 
0.7339526276183130 -0.3037485505570138 -0.3738497218906510 
0 0 0 
0.2085823917420291 -0.04472668274469836 -0.2169792296400600 
0.2365013420144470 -0.06910021177984918 -0.05648685070205836 
0.04409838407304132 -0.06241881133277292 -0.2434279812439847 
-0.4312061009914119 -0.3102943024408142 0.8126038229657923 
-0.2534381500826501 0.4633179194788242 -0.4056531713641332 
0.1803351881208238 -0.3051064981057263 0.04726798856170683 
0 0 0 
0 0 0 
0 0 0 
0 0 0 
0 0 0 
0 0 0 
0 0 0 
0.4877591283401419 -0.3903749534039349 -0.2313389910587277 
0 0 0 
0.6294213945250254 -0.5600227130228284 -0.1498576690364024 
0.3805947220141679 -0.2265131143024030 -0.1524746482692031 
0 0 0 
0 0 0 
-0.1860170544079274 0.04475837908125032 0.1378907728888075 
0.04314265200051937 -0.1151882352991438 0.07203847827443247 
-0.4768618748157633 0.6742458030693210 -0.4876950182537012 
0 0 0 
0.1538446799965711 -0.1230189906844082 -0.3090857034639766 
0.04091264399576049 -0.01018773585663884 -0.05764050840633197 
0 0 0 
0 0 0 
-0.01447767667288045 0.1621008347327320 -0.3151374644403228 
-0.6098552798029964 0.7349421391516316 -0.1250510692989884 
0 0 0 
0.3433575047221036 -0.2780545021439284 -0.1255873177599665 
0.07962174214515245 0.08180364256996580 -0.06029858450769250 
0 0 0 
0 0 0 
0 0 0 
0.004084632792659240 -0.003569248748971933 -0.002501587515888909 
-0.09045274475980752 -0.3569258658698852 0.7445464392530362 
0 0 0 
-0.4768618748157633 0.6742458030693210 -0.4876950182537012 
0.4877591283401419 -0.3903749534039349 -0.2313389910587277 
0.2369479888230923 -0.1814239360442203 -0.1733783223753827 
0.3811954694283329 -0.4606913444494813 -0.06675015593428067 
0.3433575047221036 -0.2780545021439284 -0.1255873177599665 
0.6294213945250254 -0.5600227130228284 -0.1498576690364024 
-0.1860170544079274 0.04475837908125032 0.1378907728888075 
0.3636116962867971 -0.4111810195788109 -0.09198744570228747 
0.4269041368311897 -0.3074405404055535 -0.1009499400422730 
0.2209068975979456 -0.1354855093266979 -0.1026214250721483 
0 0 0 
-0.05941261545877687 -0.4006779736676560 0.4256588116793416 
-1.071568054783849 1.122329917861547 -0.01695532837809275 
-0.01447767667288045 0.1621008347327320 -0.3151374644403228 
0.02739465293029657 -0.006986143764974890 -0.05602009350005429 
0.04314265200051937 -0.1151882352991438 0.07203847827443247 
0 0 0 
0.1538446799965711 -0.1230189906844082 -0.3090857034639766 
0.04091264399576049 -0.01018773585663884 -0.05764050840633197 
0.3016352573303636 -0.2403872756812786 -0.06653825693939966 
-0.6098552798029964 0.7349421391516316 -0.1250510692989884 
0.3909313233713998 -0.2786100249749553 -0.2448344783252185 
-0.9494268719897520 1.293813968333506 0.1278925868450079 
0.07962174214515245 0.08180364256996580 -0.06029858450769250 
0 0 0 
0.3805947220141679 -0.2265131143024030 -0.1524746482692031 
-0.4678895699192454 0.6371020643746139 -0.1405128229552008 
0.05402325651169414 -0.01335369241113034 -0.02727697655594038 
0 0 0 
0 0 0 
0 0 0 
0 0 0 
0 0 0 
0 0 0 
-1.207204632337130 0.9353734540025117 0.7620437273449215 
-0.1846286685589128 0.005462714968917547 0.3584194714845594 
0.06108620382541760 -0.4764040172221303 0.1507724018184008 
0.2302154904837829 -0.05184167976845456 -0.2326011811344659 
0.6830270350844798 -0.3501280603087389 -1.092353482591522 
0.008547010928486509 0.2721413424151037 -0.4223764185194158 
0.1323974839545196 0.3291838199545448 -0.3224136756757589 
0.6582858793695014 -0.8710122847405940 -0.1254571264384299 
-0.4256290631260519 0.4533898965290462 -0.01056620045488016 
-0.001198708298927413 -0.2886693637329727 0.4519066799588366 
0.2895792889659920 -0.2319178312555653 -0.05788656409137786 
0.2522643244539697 -0.6191626013865467 0.2410043047795468 
0.3209855746387011 -0.2024429308695601 -0.2053778535092039 
0.5778334517883001 -0.3370499211683591 -0.2302322366073147 
0.1372366429817821 -0.3902214231359406 0.1725804309987846 
-0.4581457553775272 0.8327683954714316 -0.3121968448382757 
-0.3653238916086706 -0.2943297550255659 0.6659567677123579 
0.5755015481999988 -0.1994936410474270 -0.5308467052537388 
0.8553933774991612 -0.3857822604188803 -0.6973119798723181 
-1.128936028760708 0.5391968080362183 0.8682605452736626 
0.7823893426606152 -0.6253017128284476 -0.5495050975116949 
-0.1590519179674677 -0.4144323636557613 0.5588411032340572 
0.2762540166501017 -0.6559844311753757 0.3626630508468568 
0.2613115168577940 -0.2822434742152374 -0.04468179515536691 
0.02696159747139935 -0.4065577396409440 0.6878286776548078 
-0.3720873894893634 0.1427968420462764 0.3262324473698681 
-0.8407286486552084 0.3308993100272601 0.8416917911186556 
0.2114278699674015 -0.2226059612174299 -0.08568337228057040 
0.2163231581891222 -0.3136472274523184 0.2043799014643123 
0.3705218267283369 -0.2489079954468846 -0.5195805516029705 
-0.3261790543291654 0.4558433361579805 -0.1237863027893935 
0.2864996799123609 -0.1270179805243928 -0.05889404198635644 
-0.5755787778655381 0.6624309650249299 0.2061342205823348 
-0.1042227255487383 0.2571772319751069 -0.1531185480186894 
0.1993252405190800 -0.07211189220405520 -0.1273368226731175 
0.3834127374518324 -0.1441748413978521 -0.1975974332409966 
0 0 0 
0 0 0 
0 0 0 
-0.8045692080539272 -0.05104693897769908 0.9020507684777542 
-0.2606386047352138 -0.3530114128369110 0.7281565505718997 
0.3777280564067566 0.3815450508908997 -1.365322037297741 
-0.1840951417524107 0.4787792788801940 -0.3429876936373359 
0.6250180262104833 -0.7943968588296177 -0.3702273265613746 
-0.8639318219825807 0.2527888276290147 1.021549074095742 
1.165586989668348 -1.059340196953861 -0.7847078750332305 
0.4767082146683426 -0.4788294081753480 -0.03731795777935303 
-0.3544554544934140 0.7288077070375663 -0.4557072835626731 
-0.001983235754162188 -0.2104784175974315 0.1560260985642787 
0.2784047102768392 -0.4426018670396943 -0.2662569637292960 
0 0 0 
1.059942575457791 -1.229647484641256 -0.4526679267008283 
0 0 0 
0.9380441261753474 -0.5311852297787405 -0.6770558472539044 
0.4862098756771184 -0.8713879248069882 0.1285362592659405 
0.03612467502287390 -0.3378524854854527 0.2997330679917628 
0.1504816857423982 -0.4972953369972970 0.7413295824441710 
-0.5900858583856343 0.1269496477606511 1.189499264042242 
-2.016796344220764 1.939614325824533 0.7673056637434824 
0.07369737518883070 -0.4181603350566623 0.09693387757118904 
-0.2380033763754291 0.1426352552953695 -0.07344947145183112 
0.4926023022197709 -0.3082567995217314 -0.4609503845466752 
-0.08412362315895103 0.5077342422955119 -0.4736686822034995 
-0.3522039087688508 0.2631296712962868 0.04766496966949233 
0.6493331159937783 -0.4243459130843632 -0.3781505398434019 
0.2335147520988311 0.1386971534585453 -0.3202840004815767 
-1.086669043133741 1.001032974789243 0.7155339217977673 
0.3486712106950253 -0.2499153825647556 -0.3015607109808620 
1.059995360657982 -1.454351868473620 -0.09002768211475251 
-0.04733674483588128 -0.4559518262856714 0.1933359581389307 
0.9706752696595159 -0.6868721197261359 -0.5165739090416267 
-0.3356046099330222 -0.4976278476729498 0.8674683850623176 
-0.9247371022796433 0.2979162254373437 1.212743800489192 
-0.7832008815950309 0.7405273702722572 0.09445260051504528 
1.143612763805976 -1.352263417591828 0.07111396469590335 
1.399940706339812 -1.137675530015512 -0.6911546568754936 
-0.3130536727998476 0.5427122493146195 -0.5496737214879784 
0.2357521014837796 0.1315880199062048 -0.4331286363846169 
0.2408047579577472 0.1515441023861057 -0.2996519990333141 
0.4115672860843945 -0.5212839598989072 0.04061020774290027 
0.7218410321342374 -0.6212118820442307 -0.4525698235448424 
0.08834507245712439 -0.3876990604761275 0.2338990222585061 
0 0 0 
0.04546760304473195 -0.03188944812317725 -0.009558312225524480 
0 0 0 
0 0 0 
0 0 0 
0.001547362173955641 -0.01232623946396464 -7.033173976423270e-06 
0 0 0 
0 0 0 
0 0 0 
0 0 0 
