solver_type L2R_L2LOSS_SVC_DUAL
nr_class 10
label 6 10 8 1 2 5 4 9 7 3
nr_feature 233
bias 1.000000000000000
w
-0.3300863718648766 -0.02327068406722113 0.1437530491121881 0.1527872518832976 0.1134983333450272 -0.3095161542338082 0.1333571564327395 0.1665187702748719 0.2418680458732527 -0.1771393266051612 
0.4468068971817624 -0.1296461212726687 -0.1066984138877683 0 -0.2555169035791639 -0.4313079443144050 -0.6679991964842213 0.5407915918349537 -0.02165654151696693 0 
0 0 0 0 0 0 0 0 0 0 
0 0 0 0 0 0 0 0 0 0 
-0.2915886116984885 -0.1006256147938670 0 -0.2747868787588199 -0.03696807940311193 -0.07395592175136233 0.5953277646936418 -0.05571498171217774 -0.04461852431394104 0 
0.3183950945366921 -0.03165518434236352 0 0 0 0 -0.2434876907779773 0 0 0 
0 0 0 0 0 0 0 0 0 0 
0 0 0 0 0 0 0 0 0 0 
0 0 0 0 0 0 0 0 0 0 
0 0 0 0 0 0 0 0 0 0 
-0.4005913480311342 0.6304588057474170 -0.3164198833869820 -0.2893821463642338 0.8914384445386520 0.3875696053928315 -0.3092506456890564 -0.1317258005398974 0 -0.04963995718270274 
0 0 0 0 0 0 0 0 0 0 
-0.7871881613438114 1.184538218038864 0 0 0 0 -0.2130726353235434 -0.009542212721590983 0 0 
0 0 0 0 0 0 0 0 0 0 
0 0 0 0 0 0 0 0 0 0 
0 0 0 0 0 0 0 0 0 0 
-0.2470759386032908 0.8642550764563925 -0.04217765976897655 -0.2378178718843997 -0.07008208666460918 -0.4339542024691215 0.3360188719118285 -0.1753721738074928 -0.1896693594215047 0 
0.02577379710106608 -0.05505989875237902 -0.1064007707286380 -0.2419998871101894 0.1777335249509468 0.01204341183625867 0.1383693196736227 0.07087381518393918 0.1314994561311171 0.1776154339930288 
0.06710485075238336 -0.08466136372545131 -0.1351591582766255 -0.002375700015160399 0.1373674879412681 -0.1003562200238797 -0.03528896830339026 0.1518769998579717 0.01042783480169204 0.2341900170593075 
-0.1955980872031783 -0.09476878931250580 -0.04423353878616834 0.9429482217012587 0.5066953862668543 -8.673617379884035e-18 -0.4289393192717541 -0.1124639137706229 -0.1102939468973401 0 
0 0 0 0 0 0 0 0 0 0 
0 0 0 0 0 0 0 0 0 0 
0 0 0 0 0 0 0 0 0 0 
0 0 0 0 0 0 0 0 0 0 
0 0 0 0 0 0 0 0 0 0 
0 0 0 0 0 0 0 0 0 0 
0 0 0 0 0 0 0 0 0 0 
0.1608995690926927 0.2624634077284750 -0.1196972064597797 0.1334604125344059 -0.2651949756357940 -0.4505093172310068 -0.2220592528562423 -0.04683707335484676 3.469446951953614e-18 -0.03244278030251965 
0 0 0 0 0 0 0 0 0 0 
0 0 0 0 0 0 0 0 0 0 
0 0 0 0 0 0 0 0 0 0 
0 0 0 0 0 0 0 0 0 0 
0 0 0 0 0 0 0 0 0 0 
0 0 0 0 0 0 0 0 0 0 
-0.6756524245707963 0 0 0 -0.01361967507676993 0.9208010703574968 0 0 0 0 
0.004717869213351211 -0.5016687215639586 -0.2273532718070385 0.1775863651921976 -0.2634148378327827 0.5302238599279209 -0.03571301794950814 -0.1345893629700786 -0.03488048075177669 -0.1162035880486029 
0.4462939374663746 0 -0.1108544338718030 0 0 0 -0.01563289827399401 -0.06763767958742105 0 0 
-0.1153278604019040 0.01463840323283311 0 -0.1272730299217006 0.5257918299876246 -0.6569108112044043 -0.1920032795497387 0 0 0 
0.2534490732343986 -0.3869829334286770 0.4763259757304121 -0.5927911000468846 -0.03459179504182931 0.3912622245231639 -0.09954070552195957 -0.03329523161534365 -0.1340947982100092 0 
-0.5917724583817586 0 0 -0.1133999544755220 -0.01988998659729506 0.8035142719910804 0 0 0 0 
0.5012681054403196 0 0 -0.3602870844362827 -0.1283669367960222 -0.2606801177176032 0 0 0 0 
-0.9724360857602936 0 0 0.9725851484438218 -0.1272824301733431 0 0 0 0 0 
0.8014145673211989 0 0 -0.3049742396776970 -0.4190210250458462 -0.1024041353480679 -0.3365765934541141 -0.08228585616886705 0 0 
0.5907987613291290 0 0 0 -0.2901344485131671 -0.2386664209771500 -0.2176744592038636 0 0 0 
0.7347457631468144 -0.1302141588436120 0 0 -0.5473838049171335 -0.2635735782171105 0 0 0 0 
0 0 0 0 0 0 0 0 0 0 
0.2458946229601136 -0.1363796426534627 7.372574772901430e-18 -0.03233244995882229 -0.1400027696231210 0.2433309356750786 -0.1576722683741274 -0.02593916080717727 0 -0.07765306425984712 
-0.05846331949305322 -0.03374980739179776 -0.1140128423281575 -0.3928534206790768 -0.1248685047886477 -0.2111327444697820 0.2619124243962849 0.1741527542947085 -0.2631951699888030 0 
0 0 0 0 0 0 0 0 0 0 
0.6009254695704644 -0.2370001203274136 0 0 -0.002808100182616079 -0.3011551338458346 -0.1664051824426323 0 0 0 
0.6716640467448962 -0.06588475544903077 -3.469446951953614e-18 -0.2375681939393106 -0.07955421845438843 -0.1963015426547658 -0.07312075254082906 -0.06436817786833886 -0.2147746831998161 0 
-0.1122529792871017 -0.08925481008073462 0 0.4810993436927886 1.387778780781446e-17 -0.2045042743803810 0.2725790238565369 -0.3680799047749701 0 -0.008578371945184411 
0 0 0 0 0 0 0 0 0 0 
-0.3798571488492869 -0.1374521687483523 -0.1682841704877083 -0.05195447432675198 0.04271582880107584 0.1915678226783092 0.4594564711985048 -0.3212646112970357 0.3122001680427912 -0.1129760187235122 
-0.1994812457371656 -0.1658238879620182 0.1401644031641180 0.01508006614896053 -0.1177515879810313 0.1758883171837594 0.4147817901472528 0.1228348730426989 -0.04320777530661504 -0.02793814808809293 
-0.09789771859496446 -0.3151996448340270 0.01254879391148376 -0.1192509720567586 0.1285278194958241 0.08655185321419899 0.2143701118759020 0.01278021775773658 -0.09027785171107001 -0.3911490367701961 
-0.05840196506006692 -0.5777646399335148 0.2436397197726555 -0.07374782883017925 0.06657807039271939 -0.1167620484341492 0.1226329106837535 0.2387387569953170 -0.2071462650372002 -6.071532165918825e-18 
-0.2289042721373809 -0.3421870211363393 0.05885015966546417 0.1562387673676072 0.02698968625661687 -0.005211709666822484 -0.005078783815495144 0.1698193934593988 0.1311143762462943 0.2046199710420837 
0.06975528856905028 0.0006890387990318523 -0.09106515464178687 -0.2489899473855630 -0.03966515595234801 0.01048073321082884 0.08820571364861175 -0.5274928494936738 8.673617379884035e-19 -0.07797161727359192 
0 0 0 0 0 0 0 0 0 0 
-0.8317879288949981 -0.04598224451942746 0 0 0 1.244818743808808 -0.05205444091018599 -0.07290231254626864 0 0 
0.1947294310265656 -0.5759943666773464 0.1134820558575795 -0.5402534449113067 0.03299831954684597 -0.1015533601357988 0.2022032862918332 -0.2872347241826371 -0.09339111035750622 0.1323447835559776 
-0.2427479134177882 -0.3108676816142745 -0.1870050393614531 0.08209399870171306 -0.3424526032267498 -0.01296767640760335 0.2205069419119335 0.3006262015123995 -0.1730712832089284 0.4426780835889471 
-0.2323006792956319 -0.2090555164469004 -0.03183906878329610 -0.4279732222855703 -0.4006731297922924 -0.08583043808975657 0.2474949727811766 0.3356619822953472 -0.1021222342708957 0 
-0.3171362174095901 -0.1504189207497029 -0.05970269324488705 -0.002291294675041052 0.05872052654313779 -0.1128474474104770 0.2753957719085051 0.1725912603853029 0.1558132784436167 -1.301042606982605e-17 
0.1132295135016802 -0.04978396630868701 -0.04808377340461397 -0.04860580524895707 -0.2562160494731292 0.04408448178070183 0.1118474465746512 0.05903359058750699 0.08756946712784583 -0.1932727874193345 
0.06531971450325358 0 0 -0.1477712153171390 -0.008097812960345840 -0.04713536950416198 0.3523541208057457 0 -0.1738915887634968 0 
0 0 0 0 0 0 0 0 0 0 
-0.2502555586250690 -0.4124381523559764 0.3439004754286362 -0.2017690442183027 -0.7731837401519173 0.1307811924399621 0.1552740224915750 0.08387926725741487 0.3701337702344750 -0.02141189034139400 
-0.3636095116718268 -0.1695930109313701 -0.05428814337805297 0.002987284811646958 0.1090278100521171 -0.3188583054711800 -0.4861464215130092 0.4171221732667552 0.6610026197283698 -0.1385108896005247 
0 0 0 -0.004276110166314057 -0.1772711626033824 0 0 0 0 0 
-0.1142831696749177 -0.09462813731012673 0.2316550427174657 -0.09321165165580211 -0.06216124179797490 0.01406534010236184 0.1036963427300365 0.03925205687832421 0.06230440515645911 -0.3643947621778615 
-1.097984518436578 0 0 0 0 -0.05350030472825815 0.9590523824519478 0 0 0 
0.1786855521653205 -0.4929827624325325 -0.3165842039786634 -0.1469108998662241 -0.2030241965744424 0.1730186681783516 -0.1286532749680779 0.01681336589193462 0.09913761460333534 -0.2799925037995352 
0 0 0 0 0 0 0 0 0 0 
0 0 0 0 0 0 0 0 0 0 
0 0 0 0 0 0 0 0 0 0 
0 0 0 0 0 0 0 0 0 0 
0.07957700009942574 -0.1494841097547655 0.03420069530846044 -0.2891932320499216 -0.01357244168360749 -0.1448301118008852 0.03937862835906147 0.2170623494385979 0.05260169727644092 -0.3041571278514472 
0.3139915221933686 -0.4917702529777608 -0.1382631091565854 -0.1269814308309804 0.08326452977456301 -0.3402995119944351 -0.08794530849615097 0.02936234498825928 -0.1084816975465007 -0.1057426192887608 
0.2063034936675555 -0.08726567134236508 -0.06854065170903167 -0.01903041065517087 -0.1473361513751777 -0.07388080302135192 -0.1181194947527183 -0.006143085286505053 -0.1096147071134781 -0.2909629491236966 
0.2337965693634697 -0.4864289948514449 -0.1183205839213154 -0.1044254826137069 -0.2009174365951149 -0.04675031137965315 0.1455173041040310 -0.1252358848513531 -0.5011404042478627 -3.469446951953614e-18 
0 0 0 0 0 0 0 0 0 0 
0 0 0 0 0 0 0 0 0 0 
0 0 0 0 0 0 0 0 0 0 
0 0 0 0 0 0 0 0 0 0 
0.1505444110587833 -0.5360532743619282 -0.1586409251760959 0.3096913783579521 -0.09666412218574331 -0.1352328541778835 -0.0006846862258825360 -0.09667006205340944 0 0 
-0.5584731602359663 0.5101537928741620 -0.3808921956930088 0.1635046580320211 0.2563872749305514 0.2657390951617822 -0.08214944393052519 0.8639957902701069 -0.07451146720730042 0 
0.1802014580819389 -0.3632613833268711 0.2278450561786070 -0.1737879351241277 -0.4364100849981962 -0.1834276529237751 0.08059793451336184 -0.02220170067039986 -0.1507238134331611 0 
0 0 0 0 0 0 0 0 0 0 
0.03599428211510237 0.3169800448403841 -0.3731772582936479 -0.1356361926643260 0.1759021960671105 -0.7328145548925359 0.06398416930943711 -0.2563576819681702 -0.1074517601382227 0 
0 0 0 0 0 0 0 0 0 0 
0 0 0 0 0 0 0 0 0 0 
-0.9105087181815747 0 0 0.4712289494720030 0 0 0 0 0 0 
0 0 0 0 0 0 0 0 0 0 
0 0 0 0 0 0 0 0 0 0 
0 0 0 0 0 0 0 0 0 0 
0 0 0 0 0 0 0 0 0 0 
0 0 0 0 0 0 0 0 0 0 
0 0 0 0 0 0 0 0 0 0 
0 0 0 0 0 0 0 0 0 0 
0 0 0 0 0 0 0 0 0 0 
0 0 0 0 0 0 0 0 0 0 
0 0 0 0 0 0 0 0 0 0 
0 0 0 0 0 0 0 0 0 0 
0 0 0 0 0 0 0 0 0 0 
0 0 0 0 0 0 0 0 0 0 
0 0 0 0 0 0 0 0 0 0 
0 0 0 0 0 0 0 0 0 0 
0 0 0 0 0 0 0 0 0 0 
0 0 0 0 0 0 0 0 0 0 
0 0 0 0 0 0 0 0 0 0 
0 0 0 0 0 0 0 0 0 0 
0 0 0 0 0 0 0 0 0 0 
0 0 0 0 0 0 0 0 0 0 
0 0 0 0 0 0 0 0 0 0 
0.5079195224083422 0 0 -0.1543793363616305 -0.1569013066399419 -1.734723475976807e-18 -0.1798121272620340 0 0 0 
0 0 0 0 0 0 0 0 0 0 
0 0 0 0 0 0 0 0 0 0 
0 0 0 0 0 0 0 0 0 0 
0 0 0 0 0 0 0 0 0 0 
-0.8918344329656518 0 0 -0.1583997262840841 -1.214306433183765e-17 -1.734723475976807e-18 -0.3075763013212740 0.7105038157836285 0.5555990032539660 0 
-0.2771544278374240 -0.1844832892613270 0.1208422444498419 0.4699004505997438 -0.5933270298788308 -0.3656140775987760 0.1650594276514601 0.08046329584060313 0.1868880477941146 -0.04963995718270275 
0.1254770130448713 0.03598269380834071 -0.04326556529206510 0.1884609081325672 -0.1175183398979371 0.04565847898360081 -0.2979038718206848 0.1089035926001773 -0.1657041537968966 0.1994292742841120 
0.06932068500730810 0.2237692619529821 0.04195707599084677 0.2819910653331821 -0.1985460094619884 0.1636953367146054 -0.2369051778898816 -0.1933900894738004 -0.001293190592461204 -0.2986462750338229 
0.2918448148407272 -0.2258337082417505 -0.2883031399748372 -0.3556649532568980 -0.1418311237728835 -0.1078931038494532 -0.1720900522553719 0.03566503445029173 0.1158423706076482 -0.2165647255514690 
-0.01584330214984606 -0.01480481440847611 0.08919510439853559 0.2126093851347502 -0.1359513525004640 -0.08541566849460919 -0.1278182749012986 0.1847972084805284 -0.03308485533612759 0.07009734610386992 
0.1963499795752679 -0.1894691078821652 0.1381520528222828 -0.5115011854778535 0.1626917090009692 0.3327633264163803 -0.3628757315906404 -0.08612162665090878 -0.2261261195344468 -0.1771393266051611 
0.08771813367511971 -0.3616840170107381 -0.3251127245600927 -0.6193552353031748 0.1361738257832808 -0.3530870691812910 0.5430108518072042 -0.3975159466167793 -0.1717210422936712 3.469446951953614e-18 
0.1981591777662078 -0.2585800196983629 -0.07376660441840334 2.775557561562891e-17 -0.03696807940311196 -0.07395592175136234 0.04444438855008759 -0.1025520550670246 -0.04461852431394101 0 
0.4776348125091395 -0.3726416090579303 0 0 -0.3901703529778124 0 0 0 0 0 
0.2246931458257498 -0.6097674537783683 -0.04593060204137667 0.1334604125344060 -0.5643640352019581 -0.1156708430026086 0.1181135291155300 -0.1309102480566843 3.469446951953614e-18 -0.03244278030251963 
0 0 0 0 0 0 0 0 0 0 
0 0 0 0 0 0 0 0 0 0 
0 0 0 0 0 0 0 0 0 0 
0.3860059841751797 -0.2324981730664355 -1.387778780781446e-17 0.3238048398034001 -3.469446951953614e-18 -0.2297540759799035 -0.3633712330541730 0 0 0 
0.3051464164090263 -0.04598224451942749 -3.469446951953614e-18 0.1253136965270398 -0.5458013501982366 -0.4124510434709265 -0.1790839581287850 -0.1320828313109213 -3.469446951953614e-18 -9.540979117872439e-18 
-0.1184439045916097 0.07559525723767967 0.1138220266386034 0.2160331843096874 -0.03224497530232943 0.1128729467456741 -0.07566338801515325 -0.06608890035732577 0.005151401787572323 -0.04194153714149554 
-0.1026191873298084 0.2669807629831978 -0.1107717263733863 0.1992727215269730 0.005043036528269516 0.08942178672225940 -0.02447114570086926 -0.04808314757409515 1.820296684363221e-05 -0.4653077777721095 
-0.1256465070053244 1.734723475976807e-18 -0.05428814337805294 -0.2045708313493250 -0.08659362424537617 -0.08683870618648462 -0.2275160353321911 0.7246717921326774 0.1333511666728548 0 
0.7420617303004058 -0.3099555519158541 -0.1017161942193881 -0.5705717725870337 -0.2965218415245713 -0.2716360369655394 -0.2131989047321166 -0.04148239212214247 0 -0.3261994830740703 
-0.2627322248622081 0.1054746572517971 0.2189415628055721 0.1669155005930671 0.2153751765890191 -0.1648844068276112 -0.06267632069755606 0.07670970899224650 0.1018414594916228 0.2789211131396085 
-0.03166330262436970 -0.06306909890346957 -0.2401056513011884 -0.005609486037700701 0.1329262768053888 0.2993003879036998 -0.09843157547119318 -0.4758289157703396 -0.3407269605271584 -0.1459797655761286 
0.4161957722149519 0.1468924095472880 0.1487720073013212 -0.2528114996949679 -0.1853776096058721 0.1008888070500287 -0.03635294156017710 -0.9577198303107611 -0.1624664232338520 0 
0 0 0 0 0 0 0 0 0 0 
0.3337828597969424 -0.1695930109313701 -8.673617379884035e-19 0.2618926617612336 0.2675007444950444 4.163336342344337e-17 -0.07010417498292776 -0.2343351082459836 -0.2717967697537850 -0.1385108896005247 
0 0 0 0 0 0 0 0 0 0 
-0.3144014677537129 0.1960884600465605 0.09961086562732718 0.2909358261056599 0.1166314636953715 0.1715913633830704 -0.1299827507491403 0.008935302350317594 0.05207090613023934 -0.1831140745863710 
-0.6255948585298820 0.07002962677385914 0.04233771309119569 0.6388184505961210 0.2485364153274492 0.3872334550475839 -0.3244855746630936 -0.2568548122134071 0.1008121586223932 0.1801533514874900 
0.1640553265686081 -0.2609818561916510 -0.2241960346775818 -0.3685594579073088 -0.2070796226433052 -0.3777848853839212 -0.2047125996645824 -0.2786014538262406 -0.2480313117878245 -0.2013461136460880 
0.03327639007354560 -0.4212251624247272 -0.2828783683975227 -0.3014401449956987 -0.1517012876391072 -0.2258832855648135 -0.1777914916491864 -0.2296203639616998 -0.2786742034720723 -0.2539203734589050 
0.2314461827041850 -0.09684196255353300 0.02623002346178667 -0.02053455409621802 0.01242946182282036 -0.2625277482834263 -0.3242788362953581 -0.1179586216235758 -0.2694490671000898 -0.01211353301120734 
-0.001482284254611693 -0.2582758841950750 -0.3492249189751584 -0.1071590213372981 -0.1349796468153329 0.007795413377476773 0.1171411918118436 -0.1578171509850710 0.2382492748230158 -1.734723475976807e-18 
0.05612968423089003 -0.1449520455473810 -0.3880321282420788 -0.06680023562908433 0.02607447593713758 -0.2541703779736542 -0.07673795367334707 0.2007291367192211 0.001186271802287344 -0.08173218087608880 
0.2392430473019636 -0.4917581250612239 -0.02272774237155721 -0.09099119824556162 -0.1656399172095382 -0.1175544144363081 -0.1149892392172476 -0.05986379020994304 -0.007861133264768855 -0.1062105419264714 
0.02451146674201604 -0.1214907394370388 0.03093117714189379 -0.2881847563350981 0.08439139843475449 0.05290300104529584 -0.02594716924024531 -0.3563561237527911 -0.2379398835240400 -0.3055807067671837 
-0.4363469420356582 0.3930310572894739 0.1327463896941738 -0.07648859917261343 -0.1691763131237098 0.1171523039874113 0.1776260620882675 0.01158899337364731 -0.1005418699598513 0.2154932537309048 
0.08383056195337003 0.03808068088839334 0.06300279621582697 -0.01984123808714003 -0.01188036932854424 -0.1472663486655216 -0.1353181467876846 -0.02854426130942322 -0.1503491080364482 -0.1651227782549461 
0.2174044788221232 -0.1821771149601708 -0.1971086842032042 -0.03362209046451969 -0.07866387254687408 -0.2443724093023655 -0.2618693418561037 -0.1483722514486055 0.01262618241734097 0.1643510688092325 
0.004738107102988692 -0.5111416864165220 -0.1914884287465891 -0.09206831741395813 -0.09233078615003507 0.1839914771657807 -0.05973826109000635 -0.04545550186540980 -0.2122511495406529 -0.3096218525046565 
0.1589910180529799 -0.0001042444497460979 -0.02229125022510299 -0.1641991249112865 -0.04462736140497002 -0.1750023779387813 -0.06296565523761306 0.03624915307321507 -0.1088614328930629 -0.09338598923227687 
-0.1200020419351543 -0.09426662446062317 0.04565122374908368 0.1875112265580392 -0.1671937173846781 0.05901993007049401 -0.06781289833997534 -0.1326965139194584 -0.08094099523406880 -0.06774036474228094 
-0.2191095883502481 0.1287413060236863 -0.2149726208987436 -0.1144686328952181 0.1202284390072459 0.08961361617887514 0.07879694027612555 -0.1824243788070014 -0.1873991084342502 -1.301042606982605e-17 
0.1372604728298350 -0.1123146667562696 0.05750442520361979 -0.05947478351061840 -0.1546150610880495 -0.3471808146464444 -0.008564702361420233 -0.09641094245184453 0.3078864656152209 1.767249541151372e-17 
0.01804927011962892 0.08905601240326397 0.01563093204582687 -0.3936778802654535 0.05842144928494987 -0.1697375924762856 -0.0003501727047743727 0.06088861763116950 -0.2577654771904236 -0.1488693494350116 
0.2701874483699341 -0.5388876776837516 -0.2042087447071239 -0.3434630782579807 -0.2621592113756318 -0.1369659722936422 -0.05198755672227726 0.1541851646070230 -0.2342787230639224 -0.06534738707077879 
-0.1301806069460621 -0.004350444074370309 -0.1218441742346513 0.09256853641501021 -0.07719899111574220 -0.1428197494407952 -0.01273845077236819 -0.3410889370307464 -0.05287476664783086 -0.1257122998270966 
-0.2576812421572430 0.2583382428949005 0.2333497137135029 -0.03412770511798069 0.02741363120927377 -0.3759154650572973 -0.1271296020760685 -0.08012046968487033 -0.1091814237717679 0 
0.3150061173755272 -0.3973071397531576 -0.4143711978468382 -0.3849773559420537 -0.04683633900031182 0.05203301584300916 -0.1906484817430525 -0.2411975756793419 -0.1303706017763754 -0.2642068002071150 
0.1973317166421570 -0.6822070186163700 -0.5070744030751161 -0.6699996029030131 -0.3587809102824148 -0.6036681709487351 -0.3825040913137616 -0.5082218177879558 -0.5267055152599043 -0.4552664871049919 
-0.005348322608324190 0.2345696067648863 0.06551926586420986 -0.06054918800336787 -0.05925923357490024 0.1160467935953297 -0.1769610743373924 -0.2114360829142110 -0.1649457674148057 -0.2322279624902445 
-0.2374647862493672 0.2602221794704189 0.1655088901583165 -0.2766334683476910 0.1093464907595346 -0.3078118197701068 0.05594924153202538 -0.09485546749753038 -0.3495718377764964 -0.02142926810049818 
-0.4078349877340170 -0.6101917450332759 -0.3633443179678041 0.1131128430423799 -0.1842760675247864 -0.03467071136594023 0.4056478039291240 0.1184506329236031 0.1631242478904980 -0.1057426192887607 
0.8479798132338602 -0.5668070598184086 -0.3747582411298331 -0.4459297895943378 -0.2245920999422608 -0.3772324334080073 -0.6671400624375285 -0.3203809002997968 -0.1753121579590914 -0.09586663722548756 
0.1262468793020135 0.09689283377558117 -0.003827027309380174 -0.1951388998139468 -0.009494940373128475 -0.1761039552961625 0.09980683369224735 0.009079955463905217 0.002991442956118393 -0.3122860247700110 
-0.2911346559463493 -0.1561873617969888 -0.1882786332181793 -0.1369220681887572 0.5076394497492661 0.07232545051230713 0.08937159573126464 -0.006871054986951551 -0.2457988410317070 -0.02314298760315683 
0 0 0 0 0 0 0 0 0 0 
0 0 0 0 0 0 0 0 0 0 
-0.5535878993976002 0 -0.08179209822757260 -0.3832509626863188 -0.2436137225560013 1.093663273647594 0 0 0 -0.06519179552065994 
0 0 0 0 0 0 0 0 0 0 
0.1645776604529026 -6.938893903907228e-18 -0.1565784666410754 0.4860516816079274 -0.1738378696648144 -0.09500347210180077 -0.3943426369197180 -0.1760223592169021 -0.07435153972494078 0 
0.01988424808200810 -0.5983384075561875 -0.2360726081354846 -0.2265229965574466 -0.06281816753588368 0.1877025690867304 0.1977622956263186 -0.2686151565918264 -0.2867528269947144 -0.007498420069315072 
0.09923170139750208 0.3803680515158429 -0.4415587223151442 -0.06204742642710788 0.01931134013626213 0.1367614277582291 0.08956176023349328 -0.5464487890572861 -0.3718983117082024 -0.03909950338643310 
-0.3387965140837506 -0.1677529454656118 -0.06950911396548750 0.5788201089473394 0.1003012045987848 -0.4278992690485114 -0.3299499066899450 -0.2324688631586900 -0.03766808320218276 -0.005334645655124311 
0.5507722078494670 -0.2201452664096043 -0.3517194764709269 0.07980155788349219 -0.2164257452663400 -0.3101644193183534 0.1395160196486321 -0.4921866476796026 1.734723475976807e-18 0 
0.5576299975111384 0 -0.1074142096173187 -0.2161960555190138 -0.1774161407036000 -0.2169637861752541 0 0 0 -0.06801715444452643 
0.2939743109863865 -0.5668801726972932 -0.4772339007201779 0.1160707934672236 -0.08978902657243654 -0.4620135376073219 -0.4948070231104517 -0.004659793302284794 -0.08943567381706596 -0.02000248218263998 
-0.4242383431818401 0 -0.04281105438535626 -0.4646068829241281 0.2529640893242916 -0.1900602543118521 -0.1886395550804506 0.5221020195834035 0.5463233054845897 0 
-0.6789879200251032 -0.1313093974390908 3.469446951953614e-18 -0.2070475083647567 0.7042003021526643 0.2808742832777700 -0.6002330327307815 -0.3230350032721982 -0.01276569491562134 -0.1563301247921194 
0.2765749851186141 0 -0.1160405401730748 -0.2344898579878124 0.4903754252335724 -0.2171150617710611 -0.05864313517266578 -0.2880710539238020 0 0 
-0.1377022294849866 0 -0.05934003564856002 0.8119566099977442 -0.2880488301167853 -0.4389998499759033 0 0 0 0 
0.4234355662414455 0 0 -0.03835663988472113 -0.09971564026066430 0 0 0 0 -0.2341113695084058 
0.1917179916952313 -0.2616231310751278 0.1880183528938824 -0.1414613287713103 0.02408596755716486 -0.4325494325558281 -0.04275416910444577 -0.3387850783493160 -0.2055024412914223 0 
0 0 0 0 0 0 0 0 0 0 
0.5137104285917167 0.2007892461998855 -0.3045402718919051 -0.1275587259635232 -0.3130712720049444 -0.4603512921436244 -0.05252063764717269 -0.3119703052791111 -0.3356595607734141 0 
0 0 0 0 0 0 0 0 0 0 
0.05803778153746880 -0.5387674660515821 -0.1144429109045452 -0.1225281131208802 0.06942320681965938 -0.6219622447481465 -0.1525039777265831 -0.1956930072614138 0.2656327854459001 -0.1124952472636493 
0.1269138309185979 -0.2467050708845370 0 0 -0.003355687691451517 0 -0.09190295165982350 0 0 0 
-0.3362104125667558 -0.3557857566499658 0 0.7527167125751391 0 -0.1088948833058580 -0.1128845212542333 -6.938893903907228e-18 0 0 
0.2098013704295138 -0.1336426648118414 -0.3077103543294767 -0.7163715561063895 0.1432652445429130 -0.06955803072735733 0.1965606531738797 -0.2436933983748008 -0.04305082344780545 0 
1.116257427875875 -0.1960166494637881 -0.1116489501850550 -0.4682117053926013 -0.3612307549197860 -5.204170427930421e-18 -0.3556005349901988 -0.1225907626286010 0 0 
-0.2009359001748978 0 -0.02756431785849688 -0.1366525654038245 0.4648458818057652 6.938893903907228e-18 -0.1514680667270732 -0.05266971321732199 -0.2951094154004447 0 
-0.5916149786424808 0.005038336229809232 -0.5387786135069034 0.3741979486747768 0.1734283741132097 0.08798601189759690 0.2608442893967655 -0.2237437232733934 -0.06254767090840074 -0.2111620975610385 
-0.2551718381185556 0 -0.1073771790914827 -0.4201755594984585 0.8854932987220484 -0.02206919688458675 -0.2409070657928296 0.2825470637094932 -0.3506933160362465 0 
0.4859302055988264 -0.3391391650536510 -0.3602200770460992 1.040834085586084e-17 -0.2775766685950556 -0.2272317632976078 0.5188980218864502 -0.5953102311224866 -0.01877988230288395 0 
0 0 0 0 0 0 0 0 0 0 
0.05919541542840973 -0.3099397132046891 -0.3678186672002727 0.03689187579913202 0.1796050363801238 0.06839231376126730 -0.3037158779587473 -0.2874155778609908 -1.799775606325937e-17 0 
-0.09832142365774627 0.6167777691302846 0.03957235322796284 0.01277493810105478 -0.1238664797342875 0.1271379276174730 -0.05222621105253572 -0.1064542684615791 -0.2965642781000617 -1.561251128379126e-17 
0.6980246378969276 -0.007140691340262110 -0.3376265022988994 0.1844007519445582 -0.4253579415597966 -0.3125927169631137 -0.4156063288755058 -0.5194848343968202 0 0 
0 0 0 0 0 0 0 0 0 0 
0 0 0 0 0 0 0 0 0 0 
0 0 0 0 0 0 0 0 0 0 
0 0 0 0 0 0 0 0 0 0 
0 0 0 0 0 0 0 0 0 0 
0 0 0 0 0 0 0 0 0 0 
-0.1404820529994155 0.6051140650464970 0.3823602357193737 -0.3348296810141122 0.1175361099679131 0.03280857249860181 -0.001869791544556822 -0.2547522974217175 0.3894256159020939 -0.1324977294462892 
0.4069379589328662 -0.6459194537188012 -0.5799493508929108 0.1501184203474358 -0.9694151480879170 -0.6845873016128339 -0.1731967435643620 0.1564833674128088 -0.04943551374788256 -0.07765306425984717 
-0.1590650418792647 -0.2610568044040713 0 0.7881097598282706 -0.3866271429454778 0 -3.469446951953614e-18 -0.4692088767197671 3.469446951953614e-18 0 
0.1365317871388365 -0.2610568044040714 8.673617379884035e-18 -0.2649013456387128 0.4396747635586614 -0.3394345987866886 -0.2176744592038635 -0.4692088767197671 0 0 
-0.1358393167804305 -0.5415130685801888 -0.3583026411835781 0.009802786884836040 0.1715246925381639 0.02836668704928297 0.01505628760025957 0.2986992415299338 0.2204157313265692 -0.1604079595407288 
-0.8021991333215585 -0.08559298223476643 1.486427225565178 -0.1913680994641393 -0.03553227471054492 -0.3945346845846058 -3.469446951953614e-18 0 0 0 
-0.001324759677805626 -1.054434575634205 -0.3974356087786241 0.06590758406717460 0.2359614602956963 -0.1992965502893289 -0.1337432758107097 -0.6608242090042611 -0.2916120156336811 -0.1178298929187737 
-0.3824210319282009 1.237868877869856 6.722053469410128e-18 -0.1453211615841195 -0.05793060299461598 -0.4353803204766035 -0.2291141751474205 0.7753384426600545 -0.04943551374788259 -0.002960723098880531 
-0.4320181447581648 0.2725980984492498 0.3788157069724882 -0.03871688275809238 0.2769592512045412 0.2211558527809295 -0.3870364302435384 0.3049351956198525 -0.2045369420742643 -0.06519179552065991 
-0.0006762179822919472 -0.4080604073357033 0.1225201583195802 -0.0004119290586256587 -0.1231041272171561 -0.2712985615748411 -0.04905899948222101 0.1819003697058454 0.1103451097111314 -0.1438508092945758 
0 0 0 0 0 0 0 0 0 0 
0.1754933886483405 1.387778780781446e-17 -0.02744403866162548 -0.04231660404366158 -0.2104267632826570 -0.1946774350022379 0.1654126212798176 -0.1537143988715636 0 0 
-0.1141506672670162 0.4345061095971815 0.1601415128825032 0.05519966466577972 -0.03575333867291853 0.2251536501669641 -0.4590995399451305 0.1878781294673717 -0.1260267028893208 -1.734723475976807e-18 
-0.6539464911097961 -0.03717784182792549 -0.1864707673369624 0.7581509702289135 0.1788860080193479 -0.2087240290396327 0.5236872105825496 -0.2391372856624443 -0.2043668498034230 0 
-0.1230060858885217 0.1751795231354120 -0.009606551140005590 0.02221539237374550 0.07309225482446895 -0.1449235707108631 0.3237274440973168 0.1583341537892501 0.01361353289399084 -0.1562332764155842 
-0.07383542838464814 0.4403818593721466 -0.1110078667435863 0.3529621549503738 -0.3745678085060631 -0.1811953126927456 0.1842490696261685 0.1151923521512352 -0.2881057270680265 0.4912252961173656 
-0.2822813981468398 0.1481352519430404 -0.06761121600942321 0.3355399767128149 0.07842904480225549 -0.2842522956677357 0.3150958820886836 -0.2243003793813957 -0.3158209292811104 0.1664586171925743 
-0.1098918062642851 0.3008799432891841 -0.1357756161889106 0.2471376779634843 -0.1755292130711455 -0.1437311309842554 0.4257179167786929 -0.07699657247313806 -0.1006420335800725 0.1038045855883257 
-0.08456347610823492 0.1802613456683565 -0.2744757270328091 0.7235817549671025 -0.03215757901556070 -0.4638237412641913 -0.1139354596905695 -0.07564632824525888 -0.04305082344780538 0 
