solver_type L2R_LR_DUAL
nr_class 3
label 3 2 1
nr_feature 372
bias 1.000000000000000
w
0.7633333132029342 -0.5565986251098535 -0.2907046736760924 
0.001749271657366450 0.1686673128655689 -0.06110085901513295 
0 0 0 
0 0 0 
-0.08205055027703012 -0.009847361511659856 -0.01948790112940526 
0 0 0 
0 0 0 
0 0 0 
0 0 0 
0 0 0 
0 0 0 
0 0 0 
0.01640185695056711 -0.006395637354007923 -0.005136436956431179 
0 0 0 
0 0 0 
0 0 0 
-0.6568822430425938 -0.03122065320855718 0.6123368436021853 
0.6127449296568040 -0.4871745851024735 -0.3418073006925437 
0.1265252357853972 0.2246018791538446 -0.3928298674942236 
-0.4108922124683669 -0.09143728215932406 0.5323396411624305 
0 0 0 
0 0 0 
0 0 0 
0 0 0 
0 0 0 
0 0 0 
0 0 0 
0.2509051526671792 -0.2003458017616894 -0.07378843201391223 
0 0 0 
0 0 0 
0 0 0 
0 0 0 
0 0 0 
0 0 0 
0.04401918676671184 -0.02141251776128072 -0.04417778810273591 
-0.5894711468894420 -0.3300714294934269 0.8585737654480069 
0 0 0 
0.02223716151531943 -0.01178669249005678 -0.004051122299605505 
0 0 0 
0.06680906836203845 -0.002298924132013844 -0.1087848368355605 
0.01340953775909714 -0.001227042417022178 -0.02487808075984855 
0 0 0 
-0.6647832528260691 0.8292525135787344 -0.06301358711035947 
0.005445426733584106 -0.001789739125628192 -0.002196012020893396 
0 0 0 
0 0 0 
0 0 0 
-0.3646342004282875 0.4962264995867693 -0.06910475186079053 
0 0 0 
0.2109356569228471 -0.2820536201564836 -0.02153661250300333 
0.2594363235990580 -0.1008318312056409 -0.1537550364448820 
0.1691555197370358 -0.07146648576503424 -0.04670414712981545 
0 0 0 
0.1448160017183273 0.2914539342667053 -0.6600298201123160 
-0.04713277817255522 0.1380587882299530 -0.1217739851978356 
0.3016651680026650 -0.3060617039681477 -0.07070791884285510 
0.1685417578402700 -0.01761907792966539 -0.5780079479521659 
-0.07778067480880484 0.1217903622582261 -0.02618092282676616 
0.7105108436093898 -0.8849617239459020 0.1352823737536657 
0 0 0 
0 0 0 
-0.08151575405275030 -0.1478661572202698 0.1753242801515295 
-0.1288411012126339 0.1614094534249291 -0.1090934929680489 
0 0 0 
0 0 0 
0.1611258809084344 -0.1157908554667533 -0.02639219013925714 
0.1131550442097510 -0.1322529376131526 -0.06089192756849802 
0 0 0 
0 0 0 
0 0 0 
0 0 0 
0 0 0 
0 0 0 
0.003590968915410024 -0.001572679331753922 -0.003072886167652852 
0 0 0 
0 0 0 
0 0 0 
0.3621394152059821 -0.2010222348871447 -0.1598477482495500 
0.4350098580113158 -0.2928067254312602 -0.6685960894452632 
-0.5670339178730618 0.5772689731095970 0.3435379366013058 
0.3179673997538374 -0.2355240683260004 -0.09056692889101860 
0 0 0 
0 0 0 
0 0 0 
0 0 0 
0 0 0 
0 0 0 
0 0 0 
-0.1576304252100030 -0.2078192656734569 0.3934822125684290 
0 0 0 
0 0 0 
0 0 0 
0 0 0 
0 0 0 
0 0 0 
0.003642444077869195 0.1854259654812375 -0.1222458866437449 
-0.2741922381693505 0.1843665515592932 -0.002084864222753408 
0 0 0 
0 0 0 
0 0 0 
0 0 0 
0 0 0 
0 0 0 
0.2977055521859185 -0.1633025774236463 -0.09297142122361943 
0.05183867231474150 -0.04484150479507862 -0.01502945493309241 
0 0 0 
0 0 0 
0.1115824768000870 -0.04369009429879770 -0.01840403898496323 
0.4954881817034923 -0.4839380171041078 -0.04618306004348426 
0 0 0 
0.07073618959603387 -0.09125537331989966 -0.001113016691185170 
0 0 0 
-0.1427815865028050 -0.1261038264620157 0.2950454963953504 
-0.5849461605437560 0.4962470388053182 -0.003005427504689229 
0.1198333725827931 -0.09725208630501887 0.03228014674060836 
0.3251619213089018 -0.3059580654844554 -0.09605383794014613 
-0.07742866697353337 0.3345857433315302 -0.5270249161997852 
-0.2761816767586545 -0.5078170708935377 0.9159935006452631 
0.3006247215617766 -0.01987524238388747 -0.7356761700298177 
0.1159637817336581 0.1348356120502608 -0.4186356322667990 
0 0 0 
0 0 0 
-0.06133806680535126 0.005111905000446631 0.4212065219068472 
0.9199485330258121 -0.8949236704102748 -0.4429012488048515 
0.2820379133713313 -0.2938105057813754 -0.2620317495092073 
0.6615362632848704 -1.020632411369856 0.1121335240582654 
-0.1199021240489543 0.2296399314258193 -0.2715288832444494 
-0.5147462495230319 0.5088631611312680 0.005921162084615766 
-0.03296335841344884 0.05264167985816236 -0.04693016956140321 
-0.3857714068192547 0.3772066446254599 -0.04097145042639573 
-0.07040363936339514 0.1096773310486510 -0.03516054245457843 
0.1115154314516013 -0.05356645396587033 -0.05690044271274711 
0 0 0 
0 0 0 
0 0 0 
0.3180332106744435 -0.1437866104217752 -0.4274698531418526 
0.004874251759384235 0.2108243703179591 -0.5963252120639827 
-0.02811908106094181 0.3490528793344347 -0.6762157609170418 
0.2499084019746781 -0.07858026384593687 -0.2651276823931422 
0.8608275490325752 -0.8890901877275609 -0.03071343775596313 
-0.5173163747166609 -0.2090039618843698 0.8046212570761756 
0.1140955630062406 -0.1381073350827593 -0.01757949685335855 
0 0 0 
-0.01482048090541080 -0.2447094944497694 0.2134671806304319 
0 0 0 
0 0 0 
0 0 0 
0.3931259195313153 -0.4882932175352437 0.1453883127416024 
1.042801053299473 -1.229800167529189 -0.4659313939125828 
1.783826675098706 -1.373627992797199 -1.368193068051012 
0.6366389339806169 -0.5882858789585058 -0.09264310638475173 
-0.2931667495817741 0.08036081860856856 -0.1734820154205181 
-0.3667894195506674 0.2280775986023771 0.1306955780480447 
0.9649385826882730 -1.055587835655573 -0.5972019146530766 
-1.068214135356003 0.9577724797529068 0.6645871243681776 
-0.6622195337057325 0.6067413657893502 0.3950119850822417 
1.207995179021300 -0.5270317161827612 -1.270972956403158 
0.4028986841184762 -0.3130732005864084 -0.1592465708279652 
-0.5301966375725027 0.7623499688056564 -0.3348263489402651 
0.2535365993612784 -0.8734393795790666 0.3357465849776677 
0.1986749383078026 -0.3248135085823704 0.03564862582917277 
-0.7166914654642716 0.3553234041613502 0.7963932378543609 
0.1787970558013781 -0.2238650126944695 -0.4439679895006991 
-0.2828073709897110 0.3239150787959530 -0.1499437796786795 
0.3810529336618895 -0.5429314747454497 -0.1390600867921704 
0.1351882634826622 0.2074417095437181 -0.9398974532718711 
0.1609802345243108 -0.5362488342275773 0.7162187501566807 
0.7530701290649221 -0.6428412596121056 -0.6089655262440885 
0.002153985265799974 -0.02886269345827215 -0.05401864015621800 
-0.1546238214364217 0.07497802904565844 0.1344413189754558 
0.1384843213746509 -0.1008410041103588 -0.7481753770342163 
-0.2910273400978050 0.1359575651407753 0.04119915824631416 
0.2853279806270979 0.03343892334534907 -0.6021251458375386 
-0.6667995030569898 0.6552503982076410 0.4216297960899156 
1.394883152019472 -1.447952553751639 -0.5227603965089130 
-0.08462664665483580 -0.3458330703999932 0.7555913896852451 
0.2187723893618463 -0.07456970308983948 -0.3865848416516945 
-0.4891154028529764 0.4360522711693889 0.3266443094508142 
0.7007999184756140 -0.9655825530712703 -0.1597817524614413 
0.2438681264327297 -0.02259819238823728 -0.2083145305461291 
0.5394617115180843 -0.5924209703679443 -0.9997734434541382 
-0.06781414857500197 0.02283653474442424 -0.1786979786026123 
0.5376756179528691 -0.7543022968360028 -0.1501325440565136 
0.5279338333468675 -0.3094674812825233 -0.2119297487512760 
-0.002780949151282951 -0.1036162012839658 -0.5004651456004864 
0.9950143535734524 -1.144549444658071 -1.041225417010891 
0.9950143535734524 -1.144549444658071 -1.041225417010891 
-0.3672832546399160 0.3416605114048185 0.3226306795524805 
-0.4334164997193006 0.4811812670125182 0.1743822146787787 
-0.2286439947020857 0.03424080146970439 0.1582460778729007 
0 0 0 
-1.551217609891372 1.380901876916180 -0.04314194749246704 
0 0 0 
0 0 0 
0.03052569281710426 -0.01277016317540762 -0.04149784520768973 
0.2770548514878971 -0.5262396482664181 0.2588063495087593 
0 0 0 
0 0 0 
-0.1969668233222557 0.3717506155538616 -0.06165255115826174 
0 0 0 
-1.797545815804701 1.808395814449814 -0.1608107453847113 
0.9233786494226390 -0.6576104015393525 -0.6253642134008689 
0 0 0 
0 0 0 
0.06179739788043369 -0.01777595248596283 -0.05954790280747228 
0.05005481616576374 -0.02827953447611389 -0.01831039574978599 
0 0 0 
0.7377679983697656 -0.3050922460692835 -0.3636453206838046 
0 0 0 
0.2104466514239629 -0.04593622112484588 -0.2084916860151788 
0.2285255678368954 -0.06648208809290225 -0.05227725136754538 
0.04938156020904509 -0.06759672928523454 -0.2016598724059278 
-0.5323990239712674 -0.2915381299595680 0.8685143854966247 
0.1475692158525809 -0.2039567468526691 0.06935661073757750 
0.8843722345724356 -0.9274910441650227 -0.09670058612928668 
0 0 0 
0 0 0 
0 0 0 
0 0 0 
0 0 0 
0 0 0 
0 0 0 
0.4804030676539335 -0.4065308667613760 -0.2426016295603083 
0 0 0 
0.6174672610930779 -0.5502117313946273 -0.1570042352337980 
0.3721612131460036 -0.2189846443081368 -0.1336532950393852 
0 0 0 
0 0 0 
0.1387910622438603 0.03896764421612039 -0.2529058367534688 
0.02773729644735626 -0.1182030988313956 0.1370212733181595 
-0.4985020896117774 0.6921085509891760 -0.4778786034630614 
0 0 0 
0.1260666908441756 -0.09604376144799046 -0.2814721198100409 
0.03873201469826650 -0.009289105527237199 -0.05710253926737299 
0 0 0 
0 0 0 
-0.04912284892634428 0.1483349992676115 -0.2767273806068776 
-0.5830589534506428 0.7140665769767276 -0.1348999299804137 
0 0 0 
0.3436297125096097 -0.2834824959371570 -0.1179153345322021 
0.08294717174387417 0.06368545422863385 -0.02669296666034743 
0 0 0 
0 0 0 
0 0 0 
0.003523422237345458 -0.003495992504226405 -0.002370765363733024 
-0.08858903553243329 -0.3593110843588732 0.7242750798864561 
0 0 0 
-0.4985020896117774 0.6921085509891760 -0.4778786034630614 
0.4804030676539335 -0.4065308667613760 -0.2426016295603083 
0.2381860913392024 -0.1865121842050885 -0.1743070983918285 
0.3343040260342413 -0.4627673770584949 -0.05557220904424820 
0.3436297125096097 -0.2834824959371570 -0.1179153345322021 
0.6174672610930779 -0.5502117313946273 -0.1570042352337980 
0.1387910622438603 0.03896764421612039 -0.2529058367534688 
0.3629356576253617 -0.4195168715760364 -0.08852024056763005 
0.4461214184447592 -0.3211822372739713 -0.09913047287433976 
0.2399806606475994 -0.1529339015971443 -0.1070213810511354 
0 0 0 
-0.05685123676585661 -0.3951945940251010 0.3821020233090439 
-1.068340011498521 1.097448256474275 -0.01325150998583469 
-0.04912284892634428 0.1483349992676115 -0.2767273806068776 
0.02721354146133310 -0.006848287448602945 -0.05537207240929027 
0.02773729644735626 -0.1182030988313956 0.1370212733181595 
0 0 0 
0.1260666908441756 -0.09604376144799046 -0.2814721198100409 
0.03873201469826650 -0.009289105527237199 -0.05710253926737299 
0.3049960629550387 -0.2337626251700221 -0.06865117768345491 
-0.5830589534506428 0.7140665769767276 -0.1348999299804137 
0.4434715889724335 -0.2829253396582882 -0.2598212531292373 
-1.008258548502093 1.214547564288892 0.1257320176061300 
0.08294717174387417 0.06368545422863385 -0.02669296666034743 
0 0 0 
0.3721612131460036 -0.2189846443081368 -0.1336532950393852 
-0.5134812133881316 0.6395890919076498 -0.1037933004939457 
0.04985423773632434 -0.01202722009522956 -0.03208261875285506 
0 0 0 
0 0 0 
0 0 0 
0 0 0 
0 0 0 
0 0 0 
-1.251611038939985 0.9929639919117066 0.8112812924604681 
-0.1882755244655657 0.03775554861060757 0.3483730243843522 
0.1905752222897272 -0.4975797156901721 0.1739104955662938 
-0.05581364355129658 0.08842428817441293 -0.2664773261314479 
0.7132490377809467 -0.3659042348250278 -1.086409331188970 
0.02625073841142347 0.2543831889716899 -0.3954072136864564 
0.1639612205274210 0.3040923226068021 -0.3282098125234632 
0.7639805957534558 -0.8933351860685416 -0.1182085678398252 
-0.3219086317320572 0.4546509039943140 -0.2667568849934191 
-0.001789297815045891 -0.2771003213778691 0.4474026460421460 
0.2960091431300292 -0.2245836881151667 -0.07553523778068759 
0.2921127870380197 -0.6326794546967689 0.2249822128402644 
0.3274042919534394 -0.2117478888075474 -0.2093461514107156 
0.5801257611322501 -0.3505030829788243 -0.2333658155908790 
0.1723312768328895 -0.4023815236384633 0.1749496456580516 
-0.3644547377408171 0.8043720720198069 -0.3608729644220879 
-0.3725709788039482 -0.2959494691076242 0.5757752654957146 
0.3161809474872190 -0.1739942440219770 -0.02646675734713622 
0.8554766164445687 -0.3403486394339066 -0.6914687487423511 
-0.9587123467010609 0.5152232024741726 0.7591595580497704 
0.7168470486837045 -0.6355365572470392 -0.5406420348656453 
-0.1446412436410512 -0.4182386561150189 0.4540154605583258 
0.2855034934636023 -0.6964989685751672 0.3634440504143410 
0.3332183407423365 -0.3245938486381870 -0.1014667974297599 
0.02286999205330602 -0.4075546457766021 0.6711649538688060 
-0.3204463862548161 0.1284607612358518 0.2809402501067912 
-0.8135844588464033 0.3189374627109650 0.8322250914314888 
0.2177450439576700 -0.2323276657454053 -0.08784455278956431 
0.2644887779652578 -0.3416117410110566 0.1973621739737007 
0.4399068265297448 -0.2639627273171050 -0.5687365485771301 
-0.2131351260871443 0.4114176440514603 -0.1644344627740481 
0.3024128232935960 -0.1292722769116126 -0.06498444671051179 
-0.6066078273845570 0.6698733681020828 0.2277603772433436 
-0.3292091574916041 0.4974201209245412 -0.1260368447575226 
0.2038497013239280 -0.07499489201959820 -0.1216582648560015 
0.4982451708624008 -0.2342810578247115 -0.2248674034875813 
0 0 0 
0 0 0 
0 0 0 
-0.7937715739786079 -0.05767031082790618 0.9031750982236812 
-0.3207742734130132 -0.3689609159283551 0.8086650387694982 
0.3416772008180626 0.3757247751264699 -1.367032052345286 
-0.1784381804577962 0.4709334845906951 -0.3163098773065430 
0.7121807938585537 -0.8032691939147216 -0.4924631952614889 
-0.9426808461818775 0.2414116473384347 1.072503455655703 
1.159004822527345 -1.076571080510514 -0.7824798586401552 
0.4578652213891505 -0.4607362885261824 -0.02168860616054681 
-0.3426413521111175 0.7154316078974854 -0.4675703274897313 
-0.01631541322335711 -0.1890191977309817 0.1166821645341324 
0.3111700656084447 -0.4411616872954013 -0.2244058601427095 
0 0 0 
1.042801053299473 -1.229800167529189 -0.4659313939125828 
0 0 0 
0.8935614820568331 -0.5048666616742970 -0.6581509085857280 
0.4547016424791629 -0.8438691060310295 0.1571064528866555 
-0.2162682745791091 -0.1894980440783412 0.4902751154174944 
0.7969294751398945 -1.006282489028056 0.3451468653191676 
-0.5824310194694234 0.1620358802974891 1.025027484143509 
-2.072354363365196 1.989618245922818 0.7417318729794966 
0.01910112972148919 -0.3964306749527856 0.1378232512683014 
-0.4007284869676551 0.2569819269626869 0.09021139236663839 
0.4156737923504235 -0.2340554875392681 -0.4557461257676087 
-0.08769071530981730 0.4931099813118631 -0.4735763408148870 
-0.3314892310174827 0.2581139273607990 0.02060081024164634 
0.5925592739365945 -0.4152280781438533 -0.3221658214778689 
0.2769136565221940 0.1429450392126298 -0.3578274127731066 
-1.053828926759623 0.9958848742339504 0.6861985411316713 
0.3047781551119631 -0.2376435755143482 -0.2854885896002682 
1.074765249938715 -1.481953342281897 -0.07726515890790088 
0.2600549466992386 -0.6405403767731682 0.1049245563332605 
0.5460531705199030 -0.2552423864402527 -0.6102153980508829 
-0.2743236885569930 -0.5102430286221742 0.7699390570326022 
-0.8295025311646648 0.2569240452879338 1.150811995575050 
-0.7578079487660474 0.7434401229488656 0.09017997439520105 
1.315314531185769 -1.489210055287274 -0.004648569260820364 
1.386175396968710 -1.127103654660670 -0.7002901139433908 
-0.3300557595347747 0.5643957675698849 -0.5676423823341551 
0.2687616613107974 0.1329123074957617 -0.4441422958876793 
0.2736062600287949 0.1241939544191457 -0.3358501710926352 
0.4243417622356114 -0.5163810287646482 0.01723993930905292 
0.7052184351331432 -0.6128651546585213 -0.4442754344904377 
0.08154879206033891 -0.3761763183668303 0.2461060429037208 
0 0 0 
0.04925038927561135 -0.03349976764125284 -0.01092309502692516 
0 0 0 
0 0 0 
0 0 0 
0.001693963669513071 -0.01292876976133839 -7.362976777380579e-06 
0 0 0 
0 0 0 
0 0 0 
0 0 0 
