solver_type L2R_L2LOSS_SVC_DUAL
nr_class 3
label 3 2 1
nr_feature 362
bias 1.000000000000000
w
0.4900738037892661 -0.3802101222504355 -0.08689237656341482 
0.2965541946414425 -0.06693603427242961 2.081668171172169e-17 
0 0 0 
0 0 0 
0.2854495226884659 -0.3612402183556860 0 
0 0 0 
0 0 0 
0 0 0 
0 0 0 
0 0 0 
0 0 0 
0 0 0 
0 0 0 
0 0 0 
0 0 0 
0 0 0 
-0.6367898377465179 0 0.8053463267231300 
0.1310743770816075 -0.04162635652413094 -0.2137244540169548 
0.05005653942171087 0.1329625944578249 -0.2241941403282609 
-0.2861307503510145 0 0.1689456291550445 
0 0 0 
0 0 0 
0 0 0 
0 0 0 
0 0 0 
0 0 0 
0 0 0 
0.2626681406283671 -0.2489493654866938 -0.03412491421650376 
0 0 0 
0 0 0 
0 0 0 
0 0 0 
0 0 0 
0 0 0 
0 0 0 
-0.5649757382463374 -0.5317106902073767 1.434217115972199 
0 0 0 
0 0 0 
0 0 0 
0.1479376943443533 0 -0.1616528854569405 
0 0 0 
0 0 0 
-0.9238431216498064 1.485450913719872 -0.2054416944359045 
0 0 0 
0 0 0 
0 0 0 
0 0 0 
-0.2092759409641085 0.3993578283439114 -0.002405038013099720 
0 0 0 
0.3039597313226667 -0.4913017397419588 -0.1136796508417037 
0.1773863060881308 -0.01255394367642575 -0.3961626277981487 
0.1879220722768694 2.081668171172169e-17 -0.04257737073182868 
0 0 0 
0.09579710275702213 0.2452419233438766 -0.5595912555572400 
-0.01940029198201844 0.1980680648980294 -0.06296404190763523 
0.1941636004891717 -0.1151701126655787 -0.2237436896523672 
0.02937707975826371 0.1067348286503899 -0.2165491709655085 
0.02466562694134014 0.05412343127850607 -0.1138890012618793 
0.3446322041920795 -0.8350745200061621 -0.1490958416765818 
0 0 0 
0 0 0 
-0.06001894558551404 0.1582653957825804 -0.1497267106424107 
-0.5033826832766367 0.5322110042229489 -0.2162277513896821 
0 0 0 
0 0 0 
0.09146531035376944 -0.1392022175704678 -0.1542058059044585 
0.08928731037040373 -0.09110844120828489 -0.03281355254940273 
0 0 0 
0 0 0 
0 0 0 
0 0 0 
0 0 0 
0 0 0 
0 0 0 
0 0 0 
0 0 0 
0 0 0 
0.1651372150609196 -0.1031199555679528 -0.1295498485682368 
0.1311293999605535 -0.03936307516677808 -0.2118199935835695 
-0.1945868317614228 0.2293366039301369 0.1539178153235579 
0.1123497607086983 -0.08118857207441080 -0.03032673847796195 
0 0 0 
0 0 0 
0 0 0 
0 0 0 
0 0 0 
0 0 0 
0 0 0 
-0.1438466217977635 0 0.5409070370546477 
0 0 0 
0 0 0 
0 0 0 
0 0 0 
0 0 0 
0 0 0 
-0.04001576461977766 0.04064403343010473 -0.1511025798089254 
-0.3314371146996734 0.5298963647130833 0 
0 0 0 
0 0 0 
0 0 0 
0 0 0 
0 0 0 
0 0 0 
0.4252371591840691 -0.4771421285043778 -0.01199968620021546 
0 -0.04156145646866934 0 
0 0 0 
0 0 0 
0.2351887520165582 0 0 
0.7070812008146193 -0.7770377844133325 -3.469446951953614e-18 
0 0 0 
0.1429871002809894 -0.2763350694627875 0 
0 0 0 
-0.05496133319329604 -0.1143602821563177 0.2530629635097808 
-0.7586176095682092 0.6466543978593560 0 
0.1012215099612045 -0.2283935450356562 0.1133850326323751 
0.1630078539604740 -0.1478618743943325 0.03924515763290598 
-0.08378011183490916 0.2426736555661297 -0.3585529518523448 
-0.1127499870160116 -0.1194918750631978 0.4474127681520667 
0.1241701560913665 -0.08524082929537556 -0.2339623611582025 
0.1764365900705456 -0.1211078676168685 -0.2658218757435193 
0 0 0 
0 0 0 
-0.01270997945015207 -0.03755871676050041 0.1681000817660720 
0.3556106861311772 -0.4436226048298669 -0.05230312168345234 
0.2083233807254110 -0.2631921789934161 0.0009002339914922161 
0.3859857984583839 -0.5476209407549917 -0.09448703147095146 
0.1020710656337311 -0.04818901324911135 -0.07611822871602142 
-0.3118714325385411 0.3002265863756074 0.08008000787017301 
-0.1292671962042875 0.2197433685341056 -0.2221260273483310 
-0.4386731950411817 0.4033633674684748 0 
-0.3464113785736437 0.5053081212218904 0 
0.02473950440675458 -6.938893903907228e-18 -0.03412491421650376 
0 0 0 
0 0 0 
0 0 0 
0.06623256990162700 0.04499843632186480 -0.1528796331362360 
0.0001684374260972132 0.1584893535126933 -0.2823737305282041 
-0.06789030985502854 0.2266765743843329 -0.3637747286150726 
0.006125850779877301 0.05848219918944993 -0.1633394667946920 
0.4017468909369147 -0.5982487579438268 0.01284913689707363 
-0.2434190401301393 -0.2366404526541874 0.7426868901885320 
0.08928731037040373 -0.09110844120828489 -0.03094747355302455 
0 0 0 
0.1290506060512056 -0.02548243009651196 -0.1585339970355946 
0 0 0 
0 0 0 
0 0 0 
0.1087798657080798 -0.1397045269042318 0.08645285012324397 
0.2619939001994566 -0.3242676775743834 -0.1606828409703419 
0.6026835312805615 -0.4456383025155734 -0.5856849815321965 
0.6090063948481083 -0.6404202082107592 0 
-0.2615275665492517 0.08754498331409247 0.04664387138784800 
-0.1887659641031713 0.1973705619640740 0.1008546576638314 
0.3735580674671716 -0.5659433174928451 -0.3116444285371904 
-0.4583145125309173 0.5339005055017142 0.2194977607073052 
-0.2953376349315333 0.3703522589448386 0.1321540387368050 
0.4873935540141408 -0.1984357737613904 -0.9700872605868010 
0.2875434291206858 -0.3134420783598865 -3.469446951953614e-18 
-0.1746098596992020 0.3135459853768257 -0.01561525098265817 
0.01429370095849942 -0.2941146550019722 0.1907708299939329 
-0.009539227061736090 -0.1164179596325232 0.06340217831747953 
-0.2529027763836097 0.1977234120313672 0.2823121784345376 
0.02912349453217790 -0.05169244914688818 0.05103824324991342 
-0.08667828952241731 0.1374559231159911 -0.002256436353441460 
0.06101396432474073 -0.1470501965964543 0.03477427255177583 
0.2541782486131642 -0.2254033954689551 -0.7346494123494236 
0.06075245543303773 -0.2008766349474294 0.3586536269642672 
0.3409032782258631 -0.3433040405595355 -0.2686483443511323 
-0.1609140761111632 0.1947570373237386 0.1742177093102237 
-0.08795326548226862 0.1215877886381749 0.03972950265413229 
-0.04736565821687101 -0.002718360396898686 -0.2550352959883545 
-0.1414538388549830 0.1363037554921263 0.08960111407557306 
0.2464853124959032 -0.1518137077907171 -0.2273993040302879 
-0.08727643806263155 0.07734867709706905 0.1120102290112897 
0.3066807795318640 -0.4056067265655512 -0.3020272730970468 
0.05761698141031758 -0.2681497743371290 0.3753644614236058 
0.04661517717735747 0.1518026180066311 -0.1906930129683747 
-0.2175013211318880 0.2216682492076520 0.1774272082136324 
0.2118374854443282 -0.3964625318050338 -0.07852860194791311 
0.2172998562370458 -0.01308004874989475 -0.2254885490362985 
0.1696662949314719 -0.2749591871471858 -0.2715891388030173 
-0.06305905166763856 -0.04801388549807539 0.1001669618311678 
-0.01288456849685685 -0.1904542867189485 -0.1065260658039492 
0.5493539015795690 -0.2712215546256369 -0.1769019826321069 
-0.09210796593411666 0.04685620834819223 -0.2149179949687062 
0.3813023154809575 -0.4628335184944663 -0.3981790815736058 
0.3813023154809575 -0.4628335184944663 -0.3981790815736058 
-0.1141967852946728 0.07423118761599805 0.06871675823972005 
-0.1171062070957961 0.2012192560904096 -0.02934196284664488 
-0.1026969524225600 0.09549471615922178 0.1202166725660222 
0 0 0 
-0.6660989295600794 0.6730843478946099 0 
0 0 0 
0 0 0 
0 0 3.469446951953614e-18 
0.03064974447832486 -0.4399909391358822 0.2430157377676295 
0 0 0 
0 0 0 
-0.07738648444950852 0.2984217294977075 -0.1456014890460652 
0 0 0 
-0.9379398454576110 0.9725592135073695 -0.2039313313409440 
0.3592751263798817 -0.3052467812054206 -0.4600747260338756 
0 0 0 
0 0 0 
-1.734723475976807e-18 0 -0.009868328177587550 
0 0 0 
0 0 0 
0.7283323033453882 -0.4762876300449883 -0.6175045440942496 
0 0 0 
0.2379270183388578 6.938893903907228e-18 -0.2048634236523212 
0.6558703936243999 -8.869085688515684e-05 -0.5020285284128362 
0.007911312792903332 0.01275485255971318 -0.05039232419938867 
-0.1727900206262367 -0.1031081536959240 0.3553133251127134 
-0.2043225732904206 0.3676452133483317 -0.1786869703856400 
0.05114297199523510 -0.1974197494150315 -0.04975308819061818 
0 0 0 
0 0 0 
0 0 0 
0 0 0 
0 0 0 
0 0 0 
0 0 0 
0.1641265967976942 -0.1806882423139168 -0.1715159182641820 
0 0 0 
0.4262136835527290 -0.4170365839399242 -0.01643784657281304 
0.1780237480800243 -0.09219708198577212 -0.1516499650557726 
0 0 0 
0 0 0 
-0.04179398030938533 -0.03989428764099635 0.06225579313221120 
0.06241911914929472 -0.2610160152613107 0.06014599241776011 
-0.1488846673221221 0.2667268407854313 -0.1777321471798602 
0 0 0 
0.1143526677416143 -0.1112652730495530 -0.2675964736095062 
1.040834085586084e-17 0 -0.1452272905236832 
0 0 0 
0 0 0 
-0.07415383387674818 0.1701997763762649 -0.2019811217252118 
-0.1832469948019706 0.3093421292395633 -0.04620659818353037 
0 0 0 
0.1988863155117583 -0.2081473265006200 -0.03765957982474646 
0.09296739423682611 -0.02990192183325057 -0.1215782576515714 
0 0 0 
0 0 0 
0 0 0 
0 0 0 
-0.01622412032677986 -0.3098321160485285 0.3719305579870844 
0 0 0 
-0.1488846673221221 0.2667268407854313 -0.1777321471798602 
0.1641265967976942 -0.1806882423139168 -0.1715159182641820 
0.2025671802787674 -0.2490259336613563 6.071532165918825e-18 
0.1635510587499859 -0.3454453372340687 -0.3994251641636943 
0.1988863155117583 -0.2081473265006200 -0.03765957982474646 
0.4262136835527290 -0.4170365839399242 -0.01643784657281304 
-0.04179398030938533 -0.03989428764099635 0.06225579313221120 
0.3651161149737280 -0.6407189316322893 0 
0.3526539668421960 -0.2995124414798865 -0.3112266148513528 
0.1533019403885033 -0.05802933440325703 -2.558717127065791e-17 
0 0 0 
0.1116215631411665 -0.4810878632506813 0.05450188919843624 
-1.151223411017257 1.191305248540686 0 
-0.07415383387674818 0.1701997763762649 -0.2019811217252118 
0 0 -0.01022143108518809 
0.06241911914929472 -0.2610160152613107 0.06014599241776011 
0 0 0 
0.1143526677416143 -0.1112652730495530 -0.2675964736095062 
1.040834085586084e-17 0 -0.1452272905236832 
0.2760834857370777 -0.2223912327701591 -0.2242443811790422 
-0.1832469948019706 0.3093421292395633 -0.04620659818353037 
0.2135062179331213 -0.2539703254008924 -0.2364837369089761 
-0.2996640839947389 0.6168483985453046 0.1669955981627818 
0.09296739423682611 -0.02990192183325057 -0.1215782576515714 
0 0 0 
0.1780237480800243 -0.09219708198577212 -0.1516499650557726 
-0.1072229118637348 0.2392749843612202 -0.05505373102957936 
0.04452708932146424 0 0 
0 0 0 
0 0 0 
0 0 0 
0 0 0 
0 0 0 
0 0 0 
-0.5660390047637925 0.4161957154563910 0.3110449055006361 
-0.04950579032832552 -0.01374036393783810 0.3179443807912686 
-0.2348886672553635 -0.6120413413486540 0.4085093718717869 
0.06019420222701663 0.04474959542132906 -0.2890134074516114 
0.1808427330068654 -0.02934909857018553 -0.1715010004607164 
0.05389607396429441 0.01659619028638610 -0.5907100575428260 
0.1960400774635136 0.2924969030610239 -0.4307463180130909 
0.3806178266271518 -0.6700706757519096 -0.01536270194340440 
-0.2359851594318033 0.3015487963611271 0.02031768581585138 
-0.05494532294779170 -0.03588198574285442 0.3406000813496538 
0.2165848497156606 -0.2482794129072902 -8.673617379884035e-19 
0.3024800942476892 -0.7210592000534297 -0.08838894128818994 
0.3239426793896150 -0.09669386684139380 -0.3377611232760560 
0.6947178488138034 -0.4180760455418418 -0.3928565792793592 
0.1039359167213659 -0.3784380447983481 0.1684565696380087 
-0.1305000188124677 0.6014945229215714 -0.5398195676563919 
-0.2278373059443435 -0.2231332279250509 0.5363832321959736 
0.4328126096062390 -0.1540531526365965 -0.9219201417437083 
0.2318620337379078 -0.08566562604612073 -0.3475612208527250 
-0.6481393866801808 0.4518207971672019 0.6821829586949859 
0.3401341534447626 -0.2793569737779976 -0.3336707525300475 
-0.1282073909121164 -0.3001406616691010 0.4595024114028375 
0.2192491878795213 -0.5049761378265132 0.1468928952544579 
0.08633198357506484 -0.04613825756284674 -0.1734503014760025 
0.1125217426813569 -0.3098321160485286 0.3680214016436483 
-0.4503975369979278 0.2756671484475730 0.1602355001914450 
-0.7651361786205679 0.3024237718447434 1.394278580380168 
3.165870343657673e-17 -0.003707933213260906 -0.1378904410066590 
0.1188144878934365 -0.2203384791322250 0.1600148394436559 
0.2141856521350196 -0.2413591989039065 -0.4611477402225971 
-0.1499165737392807 0.3780783964126130 -0.3704948704849051 
0.3781593093387274 -0.09443362906766517 -0.1156219916833365 
-0.2096177766596123 0.2923036886770895 -0.02787670086040789 
-0.07499515545349636 0.2482130570534696 -0.09842653143365895 
0.1241175962143987 -0.01207104407359446 1.127570259384925e-17 
0.6433750976414022 -0.3343411560199614 -0.4146198876358724 
0 0 0 
0 0 0 
0 0 0 
-1.123871835989765 0 1.557611263059285 
-0.07362333669626840 -0.2306704067936688 0.3705963697614731 
0.2978666266036764 -0.03034778674677905 -0.7329421432569078 
-0.1201267291441135 0.5638448551735378 -0.5514204558803933 
0.1359261742764437 -0.3654981613760955 0.02407484298006308 
-0.2577960095242549 0.1237830615379785 0.3002270130695497 
0.3299734317411540 -0.3931700471314651 -0.1071883829813270 
0.1488313568434883 -0.1468266681037998 0.06903529455178277 
-0.03872155043749502 0.1636668865910508 -0.1588792455656802 
0.02657043351942864 -0.1123379434910644 0.1165733713926743 
0.1314595321995672 -0.1898947840200713 -0.1951903664302478 
0 0 0 
0.2619939001994566 -0.3242676775743834 -0.1606828409703419 
0 0 0 
0.4163004322823956 -0.2955223573916673 -0.7464258452462065 
0.08605049024909199 -0.3493154101713004 0.1097645682200410 
0.06621611176550875 -0.1433849863110978 0.02087028067557476 
0.1252716906592862 -0.1626871863060072 0.1749313996347557 
-0.1520890471909397 -0.01818539438975482 0.2899234404567327 
-0.7775095752340236 0.8331933648015608 0.4920713929837685 
-0.01514679843682379 -0.2982085207322559 0.1412547913287109 
-0.1762961759214241 0.1139505146602847 0.01854182710163497 
0.3107230481882402 -0.3141427759803130 -0.2213313725889133 
-0.04348645806705984 0.1940876395422148 -0.2096695797435985 
-0.05584786717389269 0.08473991374938860 0.01032356566823453 
0.3563139238353331 -0.3000978827406946 -0.6404726697686056 
0.04418633641183509 0.1898482649923488 -0.2640586378951083 
-0.4831174575419578 0.4966342211038943 0.3894432745162935 
0.08731579773811178 2.118480035131001e-05 -0.1446185107302391 
0.2447993734065362 -0.6344866774871551 -0.006802396238992155 
-0.3637437207366632 -0.1483519711387539 0.4181562032667069 
0.3134500067577661 -0.3571547511116813 -0.1357109039979293 
-0.05537816833581885 -0.1574689273241902 0.2347892892592150 
-0.2904726970319745 0.2620382579979260 0.5484952217787158 
-0.3077310137852550 0.2747199921126798 0.08551249598582517 
0.7136809716713652 -0.7730595586353182 -0.4461685811647926 
1.258519358973534 -1.417721036973262 -0.3952036518133338 
-0.1233232258601373 0.1999358819417703 -0.1227208581602687 
0.03700526193386339 0.06228148295039530 -0.4551557898770063 
0.2809982173798554 0.06043936737786311 -0.3918482282889694 
0.3304829235576213 -0.3035026715593248 -0.1693188026197106 
0.3462562261458961 -0.4716645776216981 -0.1894624755471044 
-0.004407470620745410 -0.2631368872833029 0.2052132586600719 
