solver_type L2R_L2LOSS_SVC_DUAL
nr_class 7
label 2 1 6 5 4 8 10
nr_feature 166
bias 1.000000000000000
w
-0.08316052569163400 0.02649004249648949 0.1351685145219097 -0.01410663853781777 0.006205536153127621 -0.06848769944859238 -0.04694596610695385 
0 0 0 0 0 0 0 
0 0 0 0 0 0 0 
0 0 0 0 0 0 0 
-0.01546190784147375 1.486593423038842 -0.1220785103984366 -1.273259784479939 -0.05698863968640468 -0.05696916918130698 0 
0.001455563523087136 -0.1546566289222149 0.4572579835927786 -0.3302686522836056 -0.08727380579524868 -0.06789805666779677 0 
0 0 0 0 0 0 0 
0 0 0 0 0 0 0 
0 0 0 0 0 0 0 
0 0 0 0 0 0 0 
-0.8559388369952419 0 -0.2384705742043476 0.8148252163690038 1.387778780781446e-17 -0.002040942743026941 -0.01702377782783054 
0 0 0 0 0 0 0 
0 0 -0.1987210942516158 0.2897423557263887 0 -0.001624878334628289 0 
0 0 0 0 0 0 0 
0 0 0 0 0 0 0 
0 0 0 0 0 0 0 
0 0 0 0 0 0 0 
-0.2187640245453422 0.1768134820277177 0.09540973854363993 -0.08350575638037847 0.2127791993091397 0.004130108451453283 -0.1963095615463307 
-0.2793706228392658 0.2009755265168184 0.07693578357062253 -0.1095240450491566 0.2688142396550873 -0.07654704204033244 -0.1859429819248354 
-0.3520324484547419 0.2623535207572344 0.3695514926415395 -0.3353489265737678 0 -0.01784047976772856 0 
0 0 0 0 0 0 0 
0 0 0 0 0 0 0 
0 0 0 0 0 0 0 
0 0 0 0 0 0 0 
0 0 0 0 0 0 0 
0 0 0 0 0 0 0 
0 0 0 0 0 0 0 
-0.2897905270095098 -0.4526830974578217 1.152141595577861 -0.5491755951408628 -0.1066694560034536 -0.06787661351073336 -0.07496136729784525 
0 0 0 0 0 0 0 
0 0 0 0 0 0 0 
0 0 0 0 0 0 0 
0 0 0 0 0 0 0 
0 0 0 0 0 0 0 
0 0 0 0 0 0 0 
0 4.857225732735060e-17 -0.1058949424515841 0.2976247985218247 -0.1765631980127812 -0.07592922874782510 0 
0 0.3350851814577099 0.03206317177537837 -0.1902328985032906 -4.119968255444917e-18 -0.05054720100466461 0 
0 0 -0.06675348121169147 0 -0.03512207376217386 0 -0.01266327135072729 
0.1291882688136441 -0.1333603799385140 -0.2940557913261527 0.2020322312713064 -0.2055879731697285 0.1217298893195040 0 
-1.561251128379126e-17 -0.2759233862953318 -0.1147282370565996 0.08005728834991510 -0.06726019484588491 -0.1099899996954065 0.5831464925639811 
-1.040834085586084e-17 -5.898059818321144e-17 -0.3461407190575386 0.3687324070381671 -0.09572102279719501 0.003703214349226061 0 
0 0 0 0 0 0 0 
0 0 0 0 0 0 0 
-0.03629290902022105 -0.2989010125140114 -0.1352811349126233 0.6353329777180075 -0.1243914912726387 0 0 
-0.1326933320915255 0.1927163825915334 -0.2917452613545616 -0.4883279711334067 -0.1591227987069603 0.5395131443672881 0 
1.095373821715648 -0.4282111605965712 -0.1251987104547841 -0.4987384445777585 -0.2022785937678748 -0.03015069157781328 0 
0 0 0 0 0 0 0 
-0.06133329785107895 -0.5004767336564138 -0.2221227009131475 0.3812488893227720 0.04105923586660323 -0.07895836546471029 -3.469446951953614e-18 
0 0.4267276180212993 -0.2539103374485939 -0.04528062084148798 -8.673617379884035e-19 -0.01930867481461714 -0.02010376099716187 
0 0 0 0 0 0 0 
-0.1259279098693305 -0.2000009805678426 0.1653043219055156 0.2147184031461004 -0.1947484474263874 -0.1547908991018879 0 
-6.938893903907228e-18 1.072520965749661 -0.1958984270046763 -0.7261529349043648 0 0 -0.1680749129110168 
-0.06574430654855590 -0.5891791376221904 -0.007095433514164029 -0.1572476379918725 0.3690585048075606 -0.08288417174539420 6.938893903907228e-18 
0 -0.1815008853142952 -0.1580376304833930 0.4558852993443964 -0.08179248693131906 0 -0.03833392745518102 
0.1558073902695926 -0.2597103955660524 -0.09714338325466693 0.3820966043110090 -0.04132701424983545 -0.1194869235025908 -0.1437521947533769 
0.1384370382135599 0.1292861256962858 -0.2069729452338158 0.01033303382777083 -0.01182624894447467 -0.03193115038794718 -0.1815071411389045 
-0.02941937142243421 -0.2693675667891562 0.1334465446713244 0.1167359883715419 0.1139681430996832 0.006902589226116163 -0.09013944199492284 
0.3368182627944426 -0.3726967956133059 0.03465655957558153 -0.05579872251601677 -0.1494779770177508 -0.004775536205536404 0.1030158625190491 
0.07688235200488915 -0.01834108957852391 -0.04597328961158981 0.1100366516017025 -0.06520945953661246 -0.1561531563338738 -0.01355171448264951 
0.1585778563991719 -0.2157171379531041 -0.1046635100161126 0.2047878533589080 0.09245783041651087 -0.04795290066982796 -0.08262289861917868 
0 0 0 0 0 0 0 
0 0 0 0 0 0 -0.01702377782783053 
0 0 0 0 0 0 0 
0 0 0 0 0 0 0 
0 0 0 0 0 0 0 
0 0 0 0 0 0 0 
0 0 0 0 0 0 0 
0 0 0 0 0 0 0 
0 0 0 0 0 0 0 
0 0 0 0 0 0 0 
0 0 0 0 0 0 0 
0 0 0 0 0 0 0 
0 0 0 0 0 0 0 
0 0 0 0 0 0 0 
0 0 0 0 0 0 0 
0 0 0 0 0 0 0 
0 0 0 0 0 0 0 
0 0 0 0 0 0 0 
0 0 0 0 0 0 0 
0 0 0 0 0 0 0 
0 0 0 0 0 0 0 
0 0 0 0 0 0 0 
0 0 0 0 0 0 0 
0 0 0 0 0 0 0 
0 0 0 0 0 0 0 
0 0 0 0 0 0 0 
0 0 0 0 0 0 0 
0 0 0 0 0 0 0 
0 0 0 0 0 0 0 
0 0 0 0 0 0 0 
0 0 0 0 0 0 0 
0 0 0 0 0 0 0 
0 0 0 0 0 0 0 
0 0 0 0 0 0 0 
0 0 0 0 0 0 0 
0 0 0 0 0 0 0 
0 0 0 0 0 0 0 
0 0 0 0 0 0 0 
0 0 0 0 0 0 0 
0 0 0 0 0 0 0 
0 0 0 0 0 0 0 
0 0 0 0 0 0 0 
0 0 0 0 0 0 0 
0 0 0 0 0 0 0 
0 0 0 0 0 0 0 
0 0 0 0 0 0 0 
0 0 0 0 0 0 0 
0 0 0 0 0 0 0 
0 0 0 0 0 0 0 
0 0 0 0 0 0 0 
0 0 0 0 0 0 0 
0 0 0 0 0 0 0 
0 0 0 0 0 0 0 
0 0 0 0 0 0 0 
0 0 0 0 0 0 0 
0 0 0 0 0 0 0 
0 0 0 0 0 0 0 
0 0 0 0 0 0 0 
0 0 0 0 0 0 0 
0 0 0 0 0 0 0 
0 0 0 0 0 0 0 
0 0 0 0 0 0 0 
0 0 0 0 0 0 0 
-0.1990081411810499 -0.08922941863170927 0.1034890972723082 -0.04522180674443477 -0.02502326082649833 -0.05389040088871377 -0.006418432817273598 
0.01516967822202874 -0.1062684031928342 -0.01706207663237336 -0.01620678520583668 -0.02811813344205582 -0.08409247836823468 -0.2029145258000324 
-0.07063027301893082 -0.2070732716495002 -0.01962431775042459 0.1059512298696719 -0.2128765273381012 -0.1399746646682486 -0.01702377782783054 
-0.05963305890549352 -0.1454240702231140 0.01835432159441508 -0.02408235288967854 -0.1835721095215833 -0.07682506092121295 0.03391373426457260 
0.08140157752804573 0.008482546068079046 -0.2674195233942088 0.04751199709596940 0.03635775298777866 -0.07056896930828363 -0.1773901604814229 
-0.1509712715276134 0.3603940338562717 -0.5659144803640752 0.01644259788306973 -0.03894651887481319 -0.02806942171812206 -0.1579998111918829 
0.001455563523087136 -0.1546566289222149 0.4572579835927786 -0.3302686522836056 -0.08727380579524868 -0.06789805666779677 0 
-0.01546190784147375 -0.1447695783748777 -0.1340909718627419 0.4501075982437610 -0.1108961338050327 -0.05696916918130700 -2.168404344971009e-18 
-0.05571163324492069 0.4373806710381408 -0.2539404402396253 -0.4970124566038291 -0.1066694560034536 -0.06787661351073339 -0.07496136729784525 
0 0 0 0 0 0 0 
0 0 0 0 0 0 0 
0 0 0 0 0 0 0 
0 0 0 0 0 0 0 
0 0 0 0 0 0 0 
0 0 0 0 0 0 0 
0 0 0 0 0 0 0 
0 0 0 0 0 0 0 
0 0 0 0 0 0 0 
0 0 0 0 0 0 0 
0 0 0 0 0 0 0 
0 0 0 0 0 0 0 
0 0 0 0 0 0 0 
0 0 0 0 0 0 0 
0 0 0 0 0 0 0 
-0.1851451819926739 0.2596566295140568 0.09126701706685830 -0.5906761433541016 -0.1601838237092749 -0.1446888001099445 0.02672501137076983 
0.2121306823443577 -0.7180702408830776 0.2788422845690973 0.01736384101723920 -0.05412219874906660 -0.09422662397584250 -0.05924433867846378 
0.07716775239678587 0.1788088822950455 -0.1858706224458674 -0.09115783220519638 -0.2692822151563756 -0.05375705594746669 -0.1083372227512720 
-0.04305023216710215 0.3381434483606244 -0.2265579775275933 -0.1182920179800317 -0.1698187887027650 -0.03536174064297794 -0.1310320406024275 
-0.1899092697829512 -0.1716955559602623 -0.08841378945930843 0.2248231160904979 -0.1603621069559157 -0.1417945443533844 -0.1298517381132254 
-0.2811015723572578 -0.3233839043793828 -0.3425758683260475 0.5117263406119319 -0.006922941854572699 -0.07474810046076659 -0.1111541654142142 
-0.04348164488747826 0.3953766210212323 -0.2056414516610805 -0.2465659348152497 0.06367388250896079 -0.1015879697422690 -0.07287606913505282 
-0.5162216793860898 0.5078356197263033 0.01269973633735871 -0.2130055267707584 -0.1725222896593777 -0.06938576642031144 -0.2666119140418955 
-0.3207107525499400 -0.4184473689526275 0.2221528786250432 0.3555547259110571 0.08357848321347420 -0.03308846358779551 -0.1046765094051612 
0.9954083694833960 -0.6458152149451719 -0.7302653203914963 -0.4328440144771556 -0.2371937318669593 -0.1663634454729134 -0.03856944158459302 
-0.1188005510379369 0.05230317315507029 -0.06845519969818802 0.1236861039920813 -0.1846925023243604 -0.07189275495673118 -0.1147708385545923 
-0.1222046897056846 -0.1792966391681108 0.02170143302739304 0.2068849550005522 -0.1813359918310193 -0.05619558048295634 0.07841953922985609 
-0.1070877734064354 0.04174656993562666 -0.04549810393775616 0.06892145679003833 -0.08414618044357727 -0.1616765796490609 -0.03932849921134337 
-0.2637723898436450 0.6005097402171565 -0.09128583174629896 -0.4019763310807307 0.01929402029281313 -0.08756224466288436 -0.1002328997561555 
-0.08371611914771833 -0.5743271209889704 -0.2032586632725105 0.5454809227322913 -0.2416627753626701 -0.2349132541004192 -0.1727709676275852 
-0.1596746627863689 0.5599766410783720 -0.1439948914313361 -0.5774360155910410 -0.2962638785949708 -0.1708489992447252 -0.03837783515396400 
-0.3040316630934673 0.2747343894482025 -0.4490751890925641 -0.1454259893537703 -0.09600146017711747 -0.1368991593300428 -0.07080586045721811 
0.09403297858123068 -0.3015480295693615 0.1173783360124626 -0.1153975484223940 -0.1230900784842486 -0.1035034225574664 -0.3038159000851201 
-0.4533894664463289 -0.04116412003175963 -0.6789504077839489 -0.2927786306349084 -0.7570181926189902 -0.6461648352326540 -0.5857705633238883 
-0.06762112006622858 0.1184427611300078 0.05273630816084751 -0.1396248657515700 0.03534722997965301 -0.03212728795260561 0.05801920984806319 
0.07728916209463486 -0.2714011012016452 -0.05100163071366895 -0.05816392729755956 0.1046893930209103 0.1745010761095156 -0.3602370585471280 
