solver_type L2R_LR_DUAL
nr_class 5
label 4 2 6 1 5
nr_feature 166
bias 1.000000000000000
w
-0.4047324038376379 -0.1349403768924723 -0.3716772703149197 0.5610791185341418 0.09965462166379059 
0 0 0 0 0 
0 0 0 0 0 
0 0 0 0 0 
0.4817001046298929 0.2878726585868089 -0.6505092163825379 -0.4198060627765425 -0.1124269404177978 
-0.2241199783189343 0.6197494909908229 -0.1863238008162514 -0.1744744876090690 -0.05051551717040594 
0 0 0 0 0 
0 0 0 0 0 
0 0 0 0 0 
0 0 0 0 0 
0 0 0 0 0 
0 0 0 0 0 
-0.02322117811933961 -0.4275408680405026 0.6192149081350712 -0.2450771764688251 -0.05269620240993074 
0 0 0 0 0 
0 0 0 0 0 
0 0 0 0 0 
0 0 0 0 0 
0.6013553747545485 -0.4778696490375277 -0.1309871265026531 0.07909863886612907 0.09075018487522820 
-0.3887623474617329 -0.8809588457201548 0.1172157832048827 0.8953455969785127 -0.8321734373139362 
0 0 0 0 0 
0 0 0 0 0 
0 0 0 0 0 
0 0 0 0 0 
0 0 0 0 0 
0 0 0 0 0 
0 0 0 0 0 
0 0 0 0 0 
-0.1530176825903525 -0.6170475007335440 -0.2686531464743583 -0.1794195471949811 0.7248356098382305 
0 0 0 0 0 
0 0 0 0 0 
0 0 0 0 0 
0 0 0 0 0 
0 0 0 0 0 
0 0 0 0 0 
0 0 0 0 0 
-0.09178777380602209 -0.01054342330867153 0.6467644311632857 -0.2584594258603316 -0.08247915859207436 
0 0 0 0 0 
0 0 0 0 0 
0 0 0 0 0 
0 0 0 0 0 
0 0 0 0 0 
0 0 0 0 0 
-0.3020317788466763 -0.1015440938613352 0.3864875886168233 -0.06587114190971623 -0.02315231842431449 
-0.1132212096142037 -0.3633348422860731 0.1268536066048342 0.5735103086302696 -0.1140643104648975 
-0.1891538367216572 0.6551739825897000 -0.3276462311541090 -0.1553056578928577 -0.03235085399910423 
0 0 0 0 0 
0.2737158988456385 -0.02389933977211016 -0.2645215115151985 -0.1120176832717529 -0.02199704183333444 
0 0 0 0 0 
0 0 0 0 0 
0.4391573247605070 0.3809387492256701 -0.5093698457815238 -0.1964770844687689 -0.06475793207635952 
0 0 0 0 0 
0.2248299980075846 -0.05798724308219522 -0.2236548771788634 -0.2733695552994833 -0.1274062805127035 
0 0 0 0 0 
-0.4818974373476890 0.9946678393582623 0.1880226899540241 -0.2983443621363168 0.03637369672179756 
-0.1728995137143708 -1.172640825242554 -0.2708618806381312 0.3205229416014931 -0.2841298768962682 
0.09963377577460068 -0.7660530629022105 -0.02365151983629837 0.06653325687336882 0.3562335052174935 
-0.8743937608306053 0.1461202635845001 0.4525837288797450 -0.9234099789448533 0.04298912848792164 
-0.2099757307702015 -0.1368579656165603 -0.09960751457868450 0.4513072529917127 -0.2681960781355203 
0.1587788721417243 0.7299858449111233 0.3517971157140616 -0.4013664992165332 -0.8059037185566285 
0 0 0 0 0 
0 0 0 0 0 
0 0 0 0 0 
0 0 0 0 0 
0 0 0 0 0 
0 0 0 0 0 
0 0 0 0 0 
0 0 0 0 0 
0 0 0 0 0 
0 0 0 0 0 
0 0 0 0 0 
0 0 0 0 0 
0 0 0 0 0 
0 0 0 0 0 
0 0 0 0 0 
0 0 0 0 0 
0 0 0 0 0 
0 0 0 0 0 
0 0 0 0 0 
0 0 0 0 0 
0 0 0 0 0 
0 0 0 0 0 
0 0 0 0 0 
0 0 0 0 0 
0 0 0 0 0 
0 0 0 0 0 
0 0 0 0 0 
0 0 0 0 0 
0 0 0 0 0 
0 0 0 0 0 
0 0 0 0 0 
0 0 0 0 0 
0 0 0 0 0 
0 0 0 0 0 
0 0 0 0 0 
0 0 0 0 0 
0 0 0 0 0 
0 0 0 0 0 
0 0 0 0 0 
0 0 0 0 0 
0 0 0 0 0 
0 0 0 0 0 
0 0 0 0 0 
0 0 0 0 0 
0 0 0 0 0 
0 0 0 0 0 
0 0 0 0 0 
0 0 0 0 0 
0 0 0 0 0 
0 0 0 0 0 
0 0 0 0 0 
0 0 0 0 0 
0 0 0 0 0 
0 0 0 0 0 
0 0 0 0 0 
0 0 0 0 0 
0 0 0 0 0 
0 0 0 0 0 
0 0 0 0 0 
0 0 0 0 0 
0 0 0 0 0 
0 0 0 0 0 
0 0 0 0 0 
0.05408078909582316 -1.228599006175391 -0.1009102383115196 -0.01599639625318679 0.1596009044665810 
-0.1945293715972877 0.003833533710861936 0.03750554502570366 -0.2769172251055747 -0.4759130363121903 
-1.441701944537378 0.4729900979366118 -0.3170394182018454 0.1695440640790305 0.07954407139501440 
-0.1852366237103377 -0.3683789025036386 -0.08189897459118539 0.04441048667781863 0.01499923798648416 
-0.05353570687705355 0.1539107873146980 0.4207588327046178 -0.4631057558015216 -0.5649307496145237 
0.5855481986174844 -0.3989949953676985 -0.04824376978450147 0.003539369056789851 -0.5265476535308544 
0.1963666337555919 0.3421855566385759 -0.4742385236391946 -0.3046109098267981 -0.08227565120953699 
0.2080242598148301 -0.09439823707862013 -0.1835999661667498 -0.08020424143679883 -0.01693940030907597 
-0.5190595176266029 -0.2392580417244278 0.3091424240638740 0.1673390600358380 -0.1089506428707094 
0 0 0 0 0 
0 0 0 0 0 
0 0 0 0 0 
0 0 0 0 0 
0 0 0 0 0 
0 0 0 0 0 
0 0 0 0 0 
0 0 0 0 0 
0 0 0 0 0 
0 0 0 0 0 
0 0 0 0 0 
0 0 0 0 0 
0 0 0 0 0 
0 0 0 0 0 
0 0 0 0 0 
-1.720304526235582 -1.164183995562315 0.1877517588386307 -1.225637569680207 1.039162365728804 
0.1094215556430975 0.002517593520288288 -0.2923006975463570 0.7826276827282477 -0.6518741061260424 
-0.3290321338211312 0.5293036966588909 -0.05023492681571137 -0.06430528944893174 -0.1079701027132654 
-0.7225194788959577 -0.3326324961261404 0.08891999340453335 -0.02781057499003703 0.3480966861420670 
0.2410775059521273 -0.5710422778279995 0.3314709760937205 -0.4273396719372538 -0.1377885270172097 
1.466439690730314 -0.4129628744938775 -0.2751403031365299 -0.3290543107366986 -1.571309931551238 
-0.3951258964377983 0.5922911465821294 -0.4289908897390860 0.5355181854904749 -0.4397293044619228 
-1.989360293418757 -1.740382969557937 -0.4193736309984423 0.8683679564021611 0.9006490700701537 
0.9119232486904640 -0.8934196398687659 0.07408883534254865 -0.2930329674923969 -0.5458158901808680 
-0.6761346416659130 1.293332902059000 -0.4220044560735734 -0.9465233623244959 -0.5417437892448591 
0.06750805521820544 -0.02405252136706240 0.09631193629905865 -0.1692474771162997 -0.3347517191379587 
-0.1472622083321225 0.2195499424121079 0.1000788349757100 -0.2658453537350473 -0.6619917978774535 
-0.1897090882455753 -0.09239034062459701 0.2705409954177021 -0.1854957645892114 0.2023550263343858 
0.6729916446887652 -0.1193465803017730 -0.1381666038638023 0.2357754202808835 -0.5401138199622103 
0.4902062356435470 -0.4243861300633517 0.8330524378078166 -1.796461837601568 -0.7358401059481579 
-1.935147589604807 -0.9187788730329147 -0.2759292452323806 1.197003260525701 -0.7458098824408225 
0.4746353147687534 -0.2212021318486613 -0.9774472620835395 0.4060213645280838 0.2534400671070680 
-0.3797372438724181 0.2076579276958996 -0.01820001939269540 -0.5625643360266250 -0.2932029987168986 
-1.350043283064936 -1.356709207249038 -0.4385240889008010 -0.7560015485744114 -1.521412919998811 
-0.1430660749730629 -0.7015297526831709 0.2143101618571052 -0.5447430048226134 0.6076137656553787 
0.02413261767826752 -0.4841267400125793 0.8113742150750035 -0.7742186385694232 -0.5267558530020854 
