solver_type L2R_LR_DUAL
nr_class 6
label 6 5 1 2 4 3
nr_feature 274
bias 1.000000000000000
w
0.02640204781657759 -0.09842863876005753 -0.4439327566614538 -0.6144960226582297 0.7660506290041638 -0.3151738946420029 
0 0 0 0 0 0 
0 0 0 0 0 0 
0 0 0 0 0 0 
0.1732765387110857 0.4051318789997409 -0.3617669609307914 -0.1371840619119234 -0.2721920916361122 -0.01117563598874704 
0.1631791337363812 -0.04395919211808853 -0.06696305986591383 -0.03400775288374304 -0.1395463243492329 -0.005328973274839391 
0 0 0 0 0 0 
0 0 0 0 0 0 
0 0 0 0 0 0 
0 0 0 0 0 0 
0 0 0 0 0 0 
0 0 0 0 0 0 
0.8738619543612025 -0.2974569542439158 -0.4385290145153672 -0.1815525990199346 -0.04734256978630769 -0.03390622492124024 
0 0 0 0 0 0 
0 0 0 0 0 0 
0 0 0 0 0 0 
0 0 0 0 0 0 
-0.7122545102579568 0.2716192430585782 0.07108236698280458 0.1049968067663146 0.5751549240061717 0.1294725355743905 
-0.3879034836790750 0.3964072795987671 0.6234244292981257 -0.5470849245749462 -0.5012535613612323 -0.5127930172984778 
0 0 0 0 0 0 
0 0 0 0 0 0 
0 0 0 0 0 0 
0 0 0 0 0 0 
0 0 0 0 0 0 
0 0 0 0 0 0 
0 0 0 0 0 0 
0 0 0 0 0 0 
-0.2095685947024817 0.6674032751637179 0.1611266287649363 0.1962476654892984 -0.7918998142975803 -0.1192235732673818 
0 0 0 0 0 0 
0 0 0 0 0 0 
0 0 0 0 0 0 
0 0 0 0 0 0 
0 0 0 0 0 0 
0 0 0 0 0 0 
0 0 0 0 0 0 
0.7002901146124865 -0.02782553625324579 -0.1106917531633909 -0.2792873931519131 -0.1746882244787244 -0.005607587877378942 
0 0 0 0 0 0 
0 0 0 0 0 0 
0 0 0 0 0 0 
0 0 0 0 0 0 
0 0 0 0 0 0 
0 0 0 0 0 0 
0.2585203018619114 -0.01112415137780931 -0.1049964027397361 -0.07154552208767370 -0.2724419446655778 -0.008606966344242835 
-0.8908601545016606 -0.3451230192807189 1.050528958431527 -0.1968404175097942 0.8087268924974248 -0.001422322643138683 
0.03108739719498313 -0.09865638281305965 -0.2013688080692481 0.4405470940696067 -0.1390848929123224 -0.02018018646619508 
0 0 0 0 0 0 
0.2883522001575213 -0.01698307533379067 -0.03589559056036574 -0.08490306757939380 -0.08351873615302625 -0.01461477566975506 
0 0 0 0 0 0 
0 0 0 0 0 0 
0.6016462598924883 -0.1960900608041002 -0.1507556601707472 -0.05142643193328012 -0.002054313167446908 -0.006528035662383774 
0 0 0 0 0 0 
-0.5402378216346481 -0.08246918823408810 -0.08298460620884159 -0.09739320029020790 0.2944371661518420 0.4436573046381808 
0 0 0 0 0 0 
-0.2089102704655221 -0.08184648104526768 0.4876119600346960 0.2906768011758869 -0.4311451651390602 -0.08519219483427802 
-0.05551941584361626 0.05136749072572545 0.09678246590002046 -0.1036295983737125 -0.2093409260242451 -0.4161457412103112 
-0.8546870351349418 -0.1702890221571793 0.7419691454372622 0.1319514826048775 0.1393444014143393 0.4064436583387276 
0.1912272297705156 -0.3339036467426421 -1.517430100739454 0.8870844756521956 -0.6946234216584523 -0.2181666934843049 
0.1556584341802158 -0.08153054031890426 0.1371004072084149 -0.4241312811016352 -0.2060857928579816 0.01391702984798056 
0.6824313875280099 -0.4355256899480053 -1.198111552246999 -0.5509540275735980 0.3671121047999368 -0.3112260503892290 
0 0 0 0 0 0 
0 0 0 0 0 0 
0.3601355044856504 0.7953697690493939 -1.367185960488819 -0.2221429282421460 -0.2921296715861966 0.6418935238693958 
0 0 0 0 0 0 
0 0 0 0 0 0 
-0.2297172070585647 -0.1035516728611426 0.8624110511639905 -0.01173082736664224 0.2024343117199216 -0.1338614363999942 
0.4160170246131111 0.2256402980227670 0.3665767320883901 -0.9773384519900649 -0.1357961911073607 0.7170658557232926 
0 0 0 0 0 0 
0 0 0 0 0 0 
0.01662753766277408 -0.1624704524197962 -0.07898649325712293 0.8873381773606318 -0.5079850274863514 -0.1323755766829710 
-0.7712799575007349 0.5630426582268133 0.2981812339787196 0.3083953971759967 0.1540075814623777 -0.04075446774384335 
0 0 0 0 0 0 
0.1354860993544076 -0.5980333169982633 -0.5463909685922160 0.7580797897418962 -0.9053287085688863 0.4134609688505129 
0 0 0 0 0 0 
0.6460671227218520 0.5413793162789197 -0.1495286194010849 -2.050981353450643 0.7494669257907707 0.2492801632381544 
0 0 0 0 0 0 
0 0 0 0 0 0 
0 0 0 0 0 0 
0 0 0 0 0 0 
1.022654183291422 -0.7685578955380566 0.1386470752968414 -0.5102363244486672 -0.7453427817877649 0.4053757371756235 
0.5219258661533264 0.3602836427595542 0.1971878973258877 -1.033779096087800 -0.4405872709851301 0.01193904947211189 
0.6751097741650843 -0.8861707980655921 1.123790428254840 -0.7438061458860167 -0.2886323359974821 -0.02155146434362483 
0.1590522992392722 0.3251501398694083 0.3307864560606571 -0.3999186045655976 0.1885916080428785 -0.4220110422720120 
0 0 0 0 0 0 
0 0 0 0 0 0 
0 0 0 0 0 0 
0 0 0 0 0 0 
0 0 0 0 0 0 
-0.4735519671166273 0.4730878685195694 0.1650429410970068 0.2410544987976254 -0.2395136893516217 -0.1722999875499377 
1.869528749721395 -0.4935581494155517 -0.4597530436126440 -1.529922325442043 -0.1866634365824413 -0.1154074163760688 
0 0 0 0 0 0 
-0.9252257045327934 1.303396264562460 -0.7727997599586160 0.4579969227012665 -0.1509284189134604 -0.02009211832001996 
0 0 0 0 0 0 
0 0 0 0 0 0 
0 0 0 0 0 0 
0 0 0 0 0 0 
0 0 0 0 0 0 
0 0 0 0 0 0 
0 0 0 0 0 0 
0 0 0 0 0 0 
0 0 0 0 0 0 
0 0 0 0 0 0 
0 0 0 0 0 0 
0 0 0 0 0 0 
0 0 0 0 0 0 
0 0 0 0 0 0 
0 0 0 0 0 0 
0 0 0 0 0 0 
0 0 0 0 0 0 
0 0 0 0 0 0 
0 0 0 0 0 0 
0 0 0 0 0 0 
0 0 0 0 0 0 
0 0 0 0 0 0 
0 0 0 0 0 0 
0 0 0 0 0 0 
0 0 0 0 0 0 
-0.7001823323787683 0.004177616346749721 0.7664938935817867 -0.2344811371525523 -0.1904627105054183 -0.02604476987908288 
0 0 0 0 0 0 
0 0 0 0 0 0 
0 0 0 0 0 0 
0 0 0 0 0 0 
0.8720794947131316 0.3431211951605964 -0.5861907377914537 -0.4355110845241371 -0.04071501305967619 -0.03589997089166049 
0.5628917701243267 -0.2034078431309028 0.4904259086050620 -0.4302839989315485 -0.7505100824412528 -0.07186464308864776 
0.02317125533723755 -0.03923881216638911 -0.3122359445890921 -0.4717144920661639 0.2555375717393637 -0.06720170418534462 
-0.001055592494047686 -0.3445365703817117 0.07210321135180990 -0.3964940890439535 -0.2013334392869336 -0.01337439508437281 
0.3712772204910372 -0.04902404386326257 -0.9253095100580767 0.5026150099830995 -0.9112641847831070 0.3032393978712421 
0.2977433110726399 -0.1181650330405319 -0.3439502182588631 -0.03382660041314848 -0.1361539656243373 -0.8449065763004878 
-0.5265074698094914 -0.5166911082598433 0.2595821666238655 -0.3293887529837524 0.6107476883021578 -0.2766833690361914 
-0.1850652931469729 0.009586768122989510 -0.04788628068088029 0.2355010515302456 -0.01962764722323890 -0.08185467509644040 
-0.03721429252981319 0.4755972166381058 -0.3165125373252858 -0.03751398750439570 -0.2103880935081082 -0.01482916634341352 
0.3736699649772801 -0.1144245297564536 -0.1122174834714192 -0.1336778272912706 -0.2013503224772368 -0.001675442920172916 
-0.03002739029438895 0.1676137008227550 0.3826266925934218 -0.6584322871024587 -0.2005592677519785 -0.09451541447944531 
0 0 0 0 0 0 
0 0 0 0 0 0 
0 0 0 0 0 0 
0 0 0 0 0 0 
0.8194332915661784 -0.5921550048228904 -0.6863869728981690 -0.3234909655743063 0.08220358604932033 -0.1192031985501122 
-0.3230864807156111 0.03869515433739618 -0.1012252500893989 0.2548067703878032 -0.2076821745602530 -0.6407458255432881 
-1.072133460842247 0.2005271943722309 -0.05525325785408980 0.9911424858372212 0.06482959224662717 -0.2609492848864101 
0 0 0 0 0 0 
0 0 0 0 0 0 
-0.9921724445351238 -0.7445897494902399 0.4300929681769832 1.306217912718569 0.3985300517895241 -0.5123483182168915 
-0.5917260925362482 0.3367130114299347 -0.2197079262133052 1.024098410305182 -0.4268937963928802 -0.08368418333860711 
1.395976782604767 -0.02047028089598224 -0.2947101025156368 -1.288867826644418 -0.4261771259340628 -0.2877074039260064 
0 0 0 0 0 0 
-0.7712799575007349 0.5630426582268133 0.2981812339787196 0.3083953971759967 0.1540075814623777 -0.04075446774384335 
0 0 0 0 0 0 
0.6062258612945096 -1.726119224608434 1.055091281405281 0.6531371585372212 -0.1675865048275858 -0.7602231113026750 
1.096305450330046 -3.744688293818192 2.116097751389710 1.923904743900584 -0.4952309191985159 -2.795351868758775 
0.2350692079392111 -0.2759425645316929 -0.6788106405945459 -0.7061453883162323 -0.8037840843124802 -0.5078032929763222 
0.05092250566426926 -0.2533398473526541 -0.6649892632199599 -0.6167865865755662 -0.2106075763009374 -0.5839980525983098 
-0.3951684381664463 0.2739251213763562 -0.1612173968395213 0.3288113503454470 -1.240596412191012 -0.4314559124446562 
0.5752697378982705 0.1960121952924838 -0.3949117205292277 -0.3224327223788170 -0.05516115035421219 -0.02144863058173987 
-0.1698219543758870 0.09008347188286991 -0.08583263543137060 -0.04825244061890374 0.008303770931442939 0.3932942672014753 
-0.2903656395781817 0.3757199641870790 0.05131390212563448 -0.1928475598740220 -0.4918916137430665 -0.6984507530073178 
0.6136735284143153 -0.6166339936280185 -0.6264833439067952 0.04985073958912809 -0.2652516203581845 -0.4535642658273347 
0.1844307232165781 -0.7690281788644515 -0.3471975935061441 -0.8704372936492368 0.9513910994113083 0.005995214360710099 
-0.2320262438051720 -0.07936099213066385 0.2205288842729034 -0.2676240483053987 0.07881426569030767 0.1138287347242312 
-0.6632641373968770 0.5455388843622727 0.8354142669017035 -0.2300419408401537 -1.210735251706744 -0.5675357383790387 
0.2307007694873131 -0.5734112029794207 -0.4355218033513715 -0.4372340640621822 0.5048370001064186 -0.4389234443910746 
-0.02577843987544316 -0.08444832397867008 -0.8002289975911985 0.5438047985662215 -1.050808680332213 0.6808359506677878 
0.1745190776365811 -0.4782625153370718 0.09540609431135329 -0.5677070358797426 0.2170545390914745 0.3292962260318448 
0.4059120519184473 -0.1407102422728355 -0.7018838896472602 -0.1009351884818889 -0.03508366347379963 -0.2753197573582447 
0.5211453145160728 0.4162272655889511 -1.059748453958689 -0.1325768610376685 0.1767087596901697 -0.5823380248564832 
-0.3572429226826203 -0.2142162772675662 0.7227628795209511 -0.3982416831563857 0.3836356360112717 -0.2378165572894209 
0.6181418249050310 -0.4198222597826550 -1.182167559423840 -0.3883777740831677 0.08435793216742560 0.3999097101669898 
-0.03259212182409639 -0.1109837341036650 0.2829891458764431 -0.4660055129675138 -1.381073003128477 -0.7369414317577258 
0.1822363665069894 -0.04759761716855461 -0.2381033741593743 -0.5301318920506375 0.8422859624135508 -0.2776176218254857 
-0.4817943559844426 0.04912119917053237 -0.2065181161077475 0.06158320420952126 -0.5599625520659157 -0.4771520021584085 
0.2859917136034773 -0.5292824118843374 -1.343799903814525 -1.322931974891804 -1.014391660613435 -1.091801345574622 
0.1943047881753150 0.7384168273515631 -0.7208756952900090 -0.3474921112324731 -0.8927311543295708 -1.743004272124142 
-0.7036695571172189 -0.2955664809941401 -0.05546774499546605 0.1293084987900383 0.6573599977147129 0.6980937332889928 
0.1533449784897997 -0.1366410945024384 -0.8655686632496006 0.1011207036997867 -0.2877800515865375 0.2506687122545518 
0.6420115040555834 -0.8354916637393268 0.2981121997205625 -1.205869066149147 -0.4912404524120249 -0.2975595189940246 
-0.2784918572616036 0.4490280324556010 -0.4463033679893085 0.3272334970548231 -0.09051562582566082 -0.3947640008644669 
0.4957454468110240 -0.4915574238347575 -0.5944949715677595 -0.07214197032146434 0.5127304824682283 -0.3223827137414321 
0.3171652063527523 0.2319568548476349 -0.7878860332476326 0.1241650953328483 0.1260261382341741 -0.1695628098656165 
-0.1272168868805919 0.9194728901518576 0.3077760898823642 -0.2494868208361131 -0.1915807952441634 -0.2137429389232035 
0.2714573779255363 0.3508063033359579 -0.5004309587772615 -0.4651572913822711 -0.8478469719338108 0.4334737967100487 
-0.5875181773116529 0.8364103959257430 -0.1215560781001120 0.08941445783359177 -0.1940159745378354 -0.2063648689298458 
1.834890980020263 -0.7236930284412566 -0.9563588385027335 -0.9089877613070327 -0.3298730908960580 -0.1767066110881359 
-0.4649126699922457 0.5561671947040350 0.2331118002588684 -0.1309408335969080 0.6092186953346606 -0.1293892192470061 
-0.2684077773679511 0.7069433628429379 -0.1216494305962098 -0.6073017776562909 0.7186329909895371 -0.02471763882836725 
0.2360701116015306 -0.2564056657259856 -0.1899123746747386 -0.09717771520528472 0.002487155743761987 -0.01743755742905411 
-0.5944848324949388 -0.1520518835820051 0.3169354505101455 -0.03760501683820463 0.8176527767281287 -0.008753130737680130 
0.1733247897367930 0.2180223291014414 0.2823290619878291 -0.5053715923061234 -0.1631893525969125 -0.02348174990214982 
0 0 0 0 0 0 
0 0 0 0 0 0 
-0.6741167536162023 -0.01339247957337663 -0.2917039594803696 0.9823299115457885 -0.08329364113126154 -0.02905839272959021 
0.7597037864315990 -0.2721705359050064 -0.1339579332923570 -0.2184360010429479 -0.009387203616794165 -0.1179255404293466 
0.1029078644561053 -0.1317501175355911 0.6399650970207922 -0.2306168876173836 -0.2547196711659947 -0.02838862286466617 
0.6551517341344231 -0.3388187149831021 -0.4304311489556189 -0.09893457112925903 -0.07635185611012385 -0.006413624967924417 
0 0 0 0 0 0 
0 0 0 0 0 0 
-0.1663808773866069 0.2990846284653025 -0.09896703157497351 -0.007644095422828712 -0.09071710321386264 -0.02379015056203221 
-0.004814289282809699 0.3241875112293814 -0.4576035785900539 0.3254907429695305 -0.2477424329192331 0.3552923147415030 
-0.5550401017343555 0.2435698016903223 -0.06347300340665801 -0.06371654890800763 -0.05198496237915556 -0.02814637941439650 
0.1566223693108025 -0.4767190462238078 0.5195536560188019 -0.2239251849926444 -0.4169157604977700 -0.2547895924759801 
0 0 0 0 0 0 
0 0 0 0 0 0 
0 0 0 0 0 0 
0 0 0 0 0 0 
0 0 0 0 0 0 
0 0 0 0 0 0 
0 0 0 0 0 0 
0 0 0 0 0 0 
0 0 0 0 0 0 
0 0 0 0 0 0 
0.6551517341344231 -0.3388187149831021 -0.4304311489556189 -0.09893457112925903 -0.07635185611012385 -0.006413624967924417 
0.2360701116015306 -0.2564056657259856 -0.1899123746747386 -0.09717771520528472 0.002487155743761987 -0.01743755742905411 
0 0 0 0 0 0 
0.004593255061856427 -0.2409220624658785 0.6636869295224732 -0.4057826776182703 -0.1287647075061345 -0.02725006946828500 
0 0 0 0 0 0 
0.1733247897367930 0.2180223291014414 0.2823290619878291 -0.5053715923061234 -0.1631893525969125 -0.02348174990214982 
0.7597037864315990 -0.2721705359050064 -0.1339579332923570 -0.2184360010429479 -0.009387203616794165 -0.1179255404293466 
0.3554193359676243 -0.02027368469232834 -0.05140492678702609 -0.1739373694893244 -0.1589245995448011 -0.003096360150511913 
0 0 0 0 0 0 
0 0 0 0 0 0 
0 0 0 0 0 0 
0 0 0 0 0 0 
0 0 0 0 0 0 
0.1566223693108025 -0.4767190462238078 0.5195536560188019 -0.2239251849926444 -0.4169157604977700 -0.2547895924759801 
0 0 0 0 0 0 
0.1029078644561053 -0.1317501175355911 0.6399650970207922 -0.2306168876173836 -0.2547196711659947 -0.02838862286466617 
0 0 0 0 0 0 
0 0 0 0 0 0 
-0.1663808773866069 0.2990846284653025 -0.09896703157497351 -0.007644095422828712 -0.09071710321386264 -0.02379015056203221 
0 0 0 0 0 0 
0 0 0 0 0 0 
0 0 0 0 0 0 
0 0 0 0 0 0 
0 0 0 0 0 0 
0 0 0 0 0 0 
0 0 0 0 0 0 
-0.9626249364836393 -0.4365260535820498 0.4062904556221034 0.1385109263379122 0.8773190969764855 0.4138592966215600 
0 0 0 0 0 0 
0 0 0 0 0 0 
0 0 0 0 0 0 
0 0 0 0 0 0 
0 0 0 0 0 0 
0 0 0 0 0 0 
0 0 0 0 0 0 
-0.6878073166109397 0.1949322114469091 -0.03839150636343564 0.4176182628725718 -0.01842986373351019 -0.01421478893713463 
-0.6157313313170752 -0.5710757471567753 0.4354163025576789 1.249852079090896 -0.5750980513486886 -0.4014869789724457 
-0.5584949277366394 0.4121951650373140 0.7056159158150306 -0.6363542545581771 -0.1039422003688309 -0.2661202092169939 
-0.2510181720682352 -0.6068924666432034 -0.09981002888133807 1.024752926320156 -0.3473383901683571 0.3640615470948381 
0.1461669013937481 0.3500230166663024 -0.9093197700588751 0.3463838528701801 -0.4142530378599125 0.1217609530672594 
0 0 0 0 0 0 
0.01209626670733896 0.08110594045037140 -0.05801390461599987 -0.4633015016247511 -0.2126364627578952 0.3016834713296301 
0.3439683504776022 -0.2252481739877050 0.6902261837484855 -0.7267891640420370 -0.1371339225379037 -0.3036044984347309 
-0.02451997235564480 0.3701684282358291 -0.2264813390429523 -0.4241229888406507 -0.4944824563937031 0.4824846839162695 
0.1361978920115665 0.05504823307621864 -0.4279291924469021 0.1407860552766507 -0.3928256205633543 0.6328792389454206 
-0.1951430310660481 0.9074908538095023 -0.6993076367797868 0.08074570974919841 -0.04458412351413807 -0.1605301723308183 
0.08642069913203979 -0.06483292469085525 -0.001025393474200919 -0.03006305574988680 -0.008350490510182407 -0.05928835328424855 
0.2062793498903002 -0.1062591774831276 -0.2298592393281507 -0.2208660908074698 0.05300546154432664 0.4044065283090645 
-0.3733031880086798 0.2223856171350956 -0.5374932394139413 -0.02377739167376286 0.4141833401783717 -0.01681913697010053 
-0.4093924451627241 0.4217624168725714 -0.3973974089284269 0.5276973365741504 0.03480657764351756 -0.03444714701732347 
-0.3089714439239144 0.1010483823771969 0.005071783985600031 0.01262966025603395 -0.1074545630757480 -0.03823691577061828 
-0.1867020977191435 0.05886692294567289 -0.1204275686107731 -0.05848643462385283 -0.02069234471451959 -0.01410623441854774 
-0.5738466399595488 0.6300153547665304 -0.05226279368985625 0.02386570751919692 -0.2135546246853180 0.2339682699101883 
-0.5800903358007616 0.01451386311649938 0.01133282632673623 0.2358398858794170 0.2635282811912676 0.4706841739935051 
0 0 0 0 0 0 
-0.05851452599311061 -0.5038431832630760 -0.7159597589798371 0.5169859169394617 0.6479775958965424 0.1593730728165150 
-0.3935767265539950 0.6705896532532449 -0.1782676934828243 -0.06954403647938819 -0.1266111458769882 -0.1731325058804435 
0.1350388626356964 -0.3168202095776966 0.2181662678913259 -0.2882712060914499 0.7507873347923351 -0.3365201490853942 
0.1402642968801355 -0.2980271032499036 -0.2938903473390344 0.2855661881886055 0.03866756287840359 -0.05402144049348548 
0 0 0 0 0 0 
0.3501984306101000 -0.3063504716193102 -0.01075908988269238 -0.05548936662725038 -0.05441493020487785 -0.07225473152776718 
-0.4822082261767940 -0.03837628484668722 0.4272173201791191 -0.05095023298762871 -0.002493677470778047 -0.003233036564291946 
0 0 0 0 0 0 
-0.5213227945235224 -0.01279531650981590 -1.251116155517800 1.045195358330657 0.7789169559945033 -0.1345592610214717 
-0.8021553026970649 0.05228431112675128 1.986745871312047 -2.126216302071234 -1.010191596352156 -0.2372704303513640 
-0.7175709669599960 0.7741574622308326 -0.07123355558155918 -0.6375973797700522 0.7995575965240107 -0.7056380248217587 
-0.2656081843229128 -0.4781712627032544 0.1577403906183893 -0.3135140884114507 1.005692512190290 0.4498264540050040 
-0.3918476653967102 0.6193685381259038 0.9287770766026340 0.1602985474948865 -1.033022305555791 -0.3667235081471301 
