solver_type L2R_LR_DUAL
nr_class 6
label 6 5 2 1 4 3
nr_feature 268
bias 1.000000000000000
w
0.2077779640704336 0.03479529179161366 -0.2147952100578105 -0.5215841673857160 0.4160752419075209 -0.5891187171070768 
0 0 0 0 0 0 
0 0 0 0 0 0 
0 0 0 0 0 0 
0.09227151236531045 -0.3754881957826833 -0.4663433966777618 -0.4409160323424224 0.4985395470407531 0.1992917211284783 
0.1620150291042971 -0.1534436652574673 0.7398922774193308 -0.2539281801303561 -0.4898373957544956 -0.03117845394953842 
0 0 0 0 0 0 
0 0 0 0 0 0 
0 0 0 0 0 0 
0 0 0 0 0 0 
0 0 0 0 0 0 
0 0 0 0 0 0 
0.5461798356742854 -0.09094583868551870 -0.09391338187481002 -0.3955464784923150 -0.07916841382635731 -0.02180694569592113 
0 0 0 0 0 0 
0 0 0 0 0 0 
0 0 0 0 0 0 
0 0 0 0 0 0 
-0.7326250186369755 -0.05485543108335828 0.1943630361078134 0.9228066402291142 0.01185376248746917 0.1537290872876597 
-0.4567103133778417 0.5662004548597627 -0.3139598915295696 1.125645684868599 -0.4561447845675500 -0.4785936700298231 
0 0 0 0 0 0 
0 0 0 0 0 0 
0 0 0 0 0 0 
0 0 0 0 0 0 
0 0 0 0 0 0 
0 0 0 0 0 0 
0 0 0 0 0 0 
0 0 0 0 0 0 
-0.1441648708903327 0.4554630874593167 0.1754062542927324 -0.2320023542459108 -0.5486759536701398 -0.3015093429562252 
0 0 0 0 0 0 
0 0 0 0 0 0 
0 0 0 0 0 0 
0 0 0 0 0 0 
0 0 0 0 0 0 
0 0 0 0 0 0 
0 0 0 0 0 0 
-0.3576183500253426 -0.009907151082887245 -0.1664399087757946 -0.4437438696171192 1.340372551780634 -0.01286648889793677 
0 0 0 0 0 0 
0 0 0 0 0 0 
0 0 0 0 0 0 
0 0 0 0 0 0 
0 0 0 0 0 0 
0 0 0 0 0 0 
0.5668428556572795 -0.03407845760630924 -0.06828259815300142 -0.2588465374292154 -0.2064617943077616 -0.06128910010568674 
0.3646135761132232 -0.4245553683490121 0.06834111873065175 -0.1705420668996722 -0.2803532431914389 -0.07051500608386540 
-0.5992302948019165 -0.03275174789350739 0.9467823797378837 -0.1576324513952458 -0.3128010649928195 -0.005849425385285955 
0 0 0 0 0 0 
-0.9173812365711012 -0.04095322461841418 -0.1311959422556761 -0.09919124391730914 0.9248728992589726 -0.005285966508639398 
0 0 0 0 0 0 
0 0 0 0 0 0 
-0.7022379333822146 -0.1494033915083150 0.5470312154290140 0.1339706171428557 0.2484210921182981 -0.06837397835017943 
0 0 0 0 0 0 
0.9012588903308029 -0.2481580661299958 -0.2885592505089334 -0.1493525649296030 -0.4508779421973840 -0.03204133231851559 
0 0 0 0 0 0 
-0.04390190195236492 -0.2158019972482498 0.03713128036267211 0.6838269665477610 -0.7432686169461977 0.007049703476391344 
0.1832030932745167 0.4110009289536207 -0.1326950364364056 -0.1212551649679250 0.5785969720489710 0.06803178501885751 
0.3357469738745568 0.007583511239721247 -0.3721989786052872 -0.2652323741700478 0.03369729168216165 -0.3172370970389205 
-0.007910195940398025 0.003317224030717543 0.4251415132129823 -0.5367027388872206 -1.411645266293999 0.3136055597685378 
0.2961451641390919 -0.5783989726894070 -0.9917506541839676 0.4749026804924204 -0.07284548679005468 0.3177689530691142 
0.4437426288363143 -0.1014529030119907 -0.7443980938536527 0.01305294535987138 0.03389406792231908 -0.4103578962443725 
0 0 0 0 0 0 
0 0 0 0 0 0 
-0.03054169938853932 0.1550165390937478 -1.377385128970798 0.5242954310155369 0.3824272914352837 -0.4543985639242924 
0 0 0 0 0 0 
0 0 0 0 0 0 
0 0 0 0 0 0 
0.1340814675899557 0.2127326449484059 -0.4899455585030175 -0.6198605072067400 -0.1106721448050237 0.1041217965841037 
0.2308651793411879 -0.2351887754239023 0.6120900954317110 -0.2256769205081418 -0.1544919434175747 -0.02485777223183583 
0 0 0 0 0 0 
0 0 0 0 0 0 
0 0 0 0 0 0 
0 0 0 0 0 0 
0 0 0 0 0 0 
0 0 0 0 0 0 
0.1587938774065285 -0.02408864671049961 -0.2076668854538425 0.1357676471879809 -0.1976129385592201 -0.03188146594817765 
0 0 0 0 0 0 
0 0 0 0 0 0 
0 0 0 0 0 0 
0 0 0 0 0 0 
-0.4655274537265235 0.5588726379342217 0.3911042229028120 -0.09876371492192383 0.4726613235413149 0.07920965304241284 
-0.2804766874312372 -0.7110247827364480 1.161895976567001 -0.7791989871751345 0.8172930707141636 0.2776963288572628 
0 0 0 0 0 0 
0 0 0 0 0 0 
0 0 0 0 0 0 
0 0 0 0 0 0 
0 0 0 0 0 0 
0 0 0 0 0 0 
0 0 0 0 0 0 
0 0 0 0 0 0 
-0.01653701554950826 -0.6574996977980653 -0.02676913002760436 0.6415932413402770 -0.2991705150533381 -0.4448461115700964 
0 0 0 0 0 0 
0 0 0 0 0 0 
0 0 0 0 0 0 
0 0 0 0 0 0 
0 0 0 0 0 0 
0 0 0 0 0 0 
0 0 0 0 0 0 
0.5313322791071640 -0.1064868817795427 -0.4214703994108298 -0.06388427132039480 -0.003318171704253461 -0.01295375247077737 
0 0 0 0 0 0 
0 0 0 0 0 0 
0 0 0 0 0 0 
0 0 0 0 0 0 
0 0 0 0 0 0 
0 0 0 0 0 0 
0.05943545097260605 -0.06699078880212950 -0.003181068679254017 -0.02829480335866769 -0.02839654739357566 -0.001692302871968841 
0.6812259555616844 -0.8118136578122948 -0.6857386762023446 0.03921514161403308 -0.07940153778659197 -0.01595115180563239 
0.2498410008557122 -0.4577125917682791 -0.3168471756785217 0.6045623637734658 -0.3094941631821727 -0.02352636337555750 
0 0 0 0 0 0 
0.4852145295027835 -0.1365706306693000 -0.08528847261067488 -0.1724997388847193 -0.03116854071488672 -0.02759690119960091 
0 0 0 0 0 0 
0 0 0 0 0 0 
0.003684727273339419 0.1758265781671034 -0.2226538573643108 0.2577718187023852 -0.1978967555915384 -0.02637865867117106 
0 0 0 0 0 0 
-0.2570677646718340 0.3746727715401211 -0.2351211936747901 -0.4443592030224163 -0.2695086760860340 -0.1037070052203181 
0 0 0 0 0 0 
-0.3098524711903757 -0.2096008315342755 -0.1464736658240509 0.4131048148314424 0.02822880423047797 0.6217140893244053 
-0.1033228345377269 0.4805416449873973 0.2809334251292517 -0.2669660555361515 -0.0008888347699583217 0.1304598356097581 
-0.6286465918122358 0.5424141238163158 1.056530073682267 -0.2642495869855550 -0.4825997371336973 0.4066143903587695 
-0.04298826192965805 -0.6372466747440971 -0.7332461315322001 0.2163033342497800 -0.1647690090118355 -0.7510328631306221 
0.07423785270958784 -0.2464828015842514 0.5343851205283798 -0.4853406730996782 0.03611344428319425 -0.8279496640457777 
-0.3357341322212706 0.7687959082634187 0.06440516207122537 -0.07579002086483509 -0.3730909552858315 -0.2195901282338389 
0 0 0 0 0 0 
0 0 0 0 0 0 
-0.04132975482430487 0.1113678388584115 0.1840826914048891 0.07640532041173781 0.2228422366586459 0.6013323718692394 
-0.07073807163206175 0.02222786435029770 -0.4024388922806592 0.1770470360554046 0.08147672536769675 -0.4480581517298159 
-0.3110901225232546 -0.1432008918320336 0.4736835254716845 0.1209609860218922 -0.3251199231829263 -0.2331200132281376 
0.3270818048137568 0.2588634826235244 -0.4775113686295375 -0.2374165448598376 -0.9711325359121500 0.3134886315799647 
0.4163248714571898 0.2408725889444201 -0.4311252162599827 -0.6649840344216047 0.4523282949329630 -0.5538430520090698 
-0.6543927715979019 -0.1377460490103220 0.4702059265392733 -0.1315771705021492 0.3636838160813250 -0.1884735810132735 
-0.3322598555073277 -0.3363272004205569 -0.01971225332157926 0.6784792759082505 -0.3548252996540432 -0.1305220308443394 
-0.6595266068185854 -0.4773415018303223 0.3538764003576718 -0.4761305489856640 0.6676782937495629 0.1847910142379243 
0.4826266443103836 -0.0008270790393003571 -0.07622172065713106 -0.09503158476500365 -0.6338289583742414 -0.001489718330979672 
0.9399915153594404 -0.4583551263980690 -0.7411996688393115 -0.06361810462075847 -0.2460169492992870 -0.2893197095852269 
0 0 0 0 0 0 
0 0 0 0 0 0 
0 0 0 0 0 0 
0.5821630907972861 -0.3683760174075564 -0.3629856622856670 -0.5244248155299316 0.1569882919642252 -0.2636392569056918 
0.1586051761036614 0.02058976043325834 -0.8037048481623443 0.2744232174425341 -0.005709277646357376 -0.5666675020223613 
0.3833213553795851 -1.239606588096096 -0.6223711430024594 0.1970995245976106 0.1439580980113375 -0.1895042837195554 
0.1383012090056958 0.3561555928437580 -0.1570458295757758 -0.1423175770559859 -0.5839266157142248 0.3750880767660099 
-0.04691523886692323 0.2431124886563168 -0.5716516645378015 -0.1666748309321674 0.5825272791453714 -0.4570943543108733 
-0.5184470352234789 -0.01570476405825765 1.228040080756876 0.005449186706025427 -0.7764216355509428 -0.1906096314035533 
-1.211285872687172 0.9862980559499912 0.4366261823290021 -0.2706690079572424 -0.2356025072500437 0.1666514260296416 
0.7482351712820712 -0.7707258281342886 -0.1812367887504134 -0.1399261469683743 -0.01924147406724920 -0.04614579788279583 
-0.09596044792907735 -0.2435766127994964 0.1838864056089933 0.07476975952807138 -0.2283286951832128 -0.1746252874737644 
0 0 0 0 0 0 
0 0 0 0 0 0 
0 0 0 0 0 0 
0.03333601503128661 -0.2520609369767375 0.1732347249487971 0.02723991192181550 -0.2680815340051443 -0.2198753578936245 
0.8900224993699507 -1.009508901819735 -0.3032472892108989 -0.3716693356195818 -0.6843292995897704 -1.322261711920644 
-0.2054805240652703 0.3610573722356678 0.4275079131595807 0.02720031511504561 -1.937338494773370 -0.8768809540946434 
0.5468767770983196 -0.3795091760790815 -0.3248644067195675 -0.6632031386306605 -0.5592230101293834 1.103000098840350 
0.1693764739789207 0.5907012495918129 -0.2364726784072712 -0.4839991916022919 0.3494338363407102 -0.8816208425188607 
-0.1910019608246733 0.03132549279185330 -0.05636083291878615 0.3960534432382323 -0.4893284766992709 -0.2032294473761308 
0.009298411190372350 -0.008835989118933877 0.1875464323190281 -0.2462559417785458 0.2161232406011100 -0.9438202085787615 
0.1859454376044012 -1.190858889863413 -0.9807841235079575 -0.3719788228268569 1.303286089786524 0.3111552508574512 
-0.3769972071204262 -0.4357139721702810 0.1329844284553977 0.6499126463156237 0.1512902785825812 0.1448494919476413 
0.06606446392038020 -2.346826419050699 -0.1992702709152752 0.3827804027995858 0.4020418527149255 -1.303347568965118 
-0.2827596234657959 0.1463065448242700 0.4197037765717632 -0.4055476527057214 -0.01041538877051475 0.5915341783677652 
0.01721566166533756 0.4118889308638818 -0.1381348051724672 -0.001915139051830207 0.05814576605968700 0.1613436160873698 
0.05118995224973465 -0.8075793689688860 -0.1357006394566686 0.2373353168848354 0.1274097470950968 0.08581872700240768 
0.2717201587270314 0.7005562066311110 -0.8469241223307631 -0.2033568416064895 -0.2455273495273345 -1.016078165188345 
0.2219766571180162 1.219802715603927 -0.1761031163434614 -1.043445842515844 -1.216934822500304 0.4221254999116264 
-0.2073898623530629 -0.3559825225159564 0.2259859100272809 0.3418790660260170 -0.08047634136265899 -0.2879428981386450 
-0.4506367583776145 -0.1892828847632630 -0.1587386831895012 0.8327735948291850 -1.154996697361980 0.1282056259782844 
0.04669697035554184 -0.1484602554852397 -0.06306349131157285 -0.2793381188739120 0.6576894027325662 -0.6716629667140924 
-0.1230924520426853 0.1972756800341368 0.9872299587402017 -1.229309062490106 -1.257840189857447 -0.2684911932659844 
0.1599496350247560 -0.7305800753620352 0.07780870289377714 -0.1479964151556568 0.1820439346223418 -0.3350756655155956 
0.7397402842683911 -0.2795566092689781 -0.9492528820550256 -0.09614754788049316 0.3141634483555699 -0.1875590643736665 
0.06735187248544512 0.7436908816948495 -0.4322633571118710 -0.04628392291572886 -0.2903670211347125 -0.07425060925282799 
-0.3019921438521926 -0.6249206494618338 -0.3121635155855920 0.2740307823172420 0.5835505863525843 0.06228726222092920 
-0.4659455527658447 -0.8988346189517112 1.016435544621135 -0.2727784478867380 0.1307471640152964 -0.1329585166317124 
0.08654559139301649 0.6631507891425841 -0.1295466173468021 -0.5013293357034764 0.03066464764458682 0.07703688867655008 
0.2161914959553735 -1.967768045364334 -1.696580061510409 1.211706996068220 -0.9703217220890441 -0.1402998675947171 
0.2362876190589490 -0.02956127727306546 -0.1378053030328902 -0.08264798440995827 -0.2968129560951371 -0.7984713073960567 
0.1759561939547268 -0.06455460798027114 -0.1577917049656731 -0.2513896791993231 0.5356444188751701 0.03062003336775182 
0.3884637065286349 0.5023066739001678 -0.2412207448793526 -0.7041077639684021 -0.1383008634906605 0.2451995788357640 
-0.4994816462632203 0.7634271739142571 0.4960656194944026 -0.09172447506977639 -0.2573772251512964 -0.6276734201805315 
0.3491040554522382 -0.6112794922229614 -1.068672314768206 -0.4032356676849832 0.5075147133081871 -0.1177897419057827 
-0.1590350137204405 0.3871104559548652 0.2474400000439234 -0.03103461087405649 -1.476382885961698 -0.6713880623285687 
0.1140917773436126 -0.1971251219935286 -0.4599917629384908 -0.05096898978522938 0.2895035432422376 -0.07138220540152161 
-0.1661434112137730 -0.6105397543507327 0.4307808100431941 -0.2070314218251914 -0.2863919068798263 -0.4859866012870668 
0.9261109971602863 0.5931802338745412 -1.667245253954512 -0.7545937836146739 -0.5004487784075058 -0.2550887095186504 
-0.4774263061350165 -2.195093949159753 0.9527811411896110 -0.2185453846692056 0.001556013523799855 -0.5663716276739986 
0.1139632618285137 0.3057588501343365 -0.2011341336057582 -0.02151416662602340 -0.3569401561866538 -0.1146069017559607 
-0.4246305449921425 0.2643209525385129 0.06515497875106356 0.3023826447404372 -0.1099236152207394 -0.4104793719743305 
0.1380174078616346 -1.031833912612397 -0.8504432676195970 -0.6922706901694705 -0.9657565362910863 -1.346546610922932 
0.1380174078616346 -1.031833912612397 -0.8504432676195970 -0.6922706901694705 -0.9657565362910863 -1.346546610922932 
0.4050300413416237 0.08632625991430053 -0.4162609269734613 -0.4810123260802349 -0.01969442087518344 0.8174681794746074 
0.2165091536353302 0.02393413309229826 -0.3060026908901661 0.001779172600707809 -0.1497659209975627 0.8598603512368850 
-0.2646309731544352 0.2871101032163552 0.1700331272906457 -0.1069442463274228 -0.2908280304777784 0.07255884967927907 
0.7331515973867999 -1.041966435409671 -1.923093311568549 0.4762953807564863 -0.2250668545539526 0.5120089651319938 
-1.167294811658837 0.2299722339656787 -0.04056432506502012 1.097963409530270 -0.1334248973431522 1.048752281296337 
0.2222815640613044 0.7197844219613443 -0.8925195743836435 -0.1625408590659834 -0.4128016843581069 0.5264874393781083 
-0.5303189947523310 0.3134444471663277 -1.213116325429434 0.9826177728403050 -0.8582757289893104 -0.2808841772710449 
-0.1770081769447626 0.1354759330848480 -0.005624185114710134 0.1649135214710401 -0.1409047292210306 -0.2312880087321624 
0.2295534715076196 -0.5411648734666659 -1.426941550827302 -0.01482820873173677 0.2036739255428138 2.009575907309029 
0.02872721833022193 0.4515960854764920 -0.2210373931090616 -0.3152447594442375 -0.6964489152903600 0.5272042322537662 
0.6235608956660668 -0.6739740071841187 -1.369291112377947 -0.7834086608540468 1.038024779333564 0.5372092231780716 
-0.7411565973276455 0.1519052213039322 0.2857278147927177 0.08014494717139536 0.5805630864382286 -0.08238853626179360 
0.8336042600551730 0.1161411507197048 -0.4134238703682489 -0.4217837179440725 -0.1537363900227285 -0.2203815022146123 
-0.3319370957891503 -0.1752571153400460 0.8559875184950355 -0.8571517590223736 -0.2335286977669797 0.6566773760867695 
0.4244232841591124 -0.08897886475816430 -0.7553697795390298 0.4972963941087589 -0.7570484430731730 0.02734805445364048 
-0.1090604313506422 1.413435968382010 -0.3316895268947329 -0.8859221292442536 -0.05123324882120702 -0.2326264220963964 
0 0 0 0 0 0 
0 0 0 0 0 0 
0.4626980568077468 -0.002603125444957397 -0.4161693866842927 -0.07840757244236944 -0.02116648722425756 -0.005337296405125111 
0 0 0 0 0 0 
-0.2785475763012494 -0.001843176135162151 -0.1653277128984827 0.5261832001327023 -0.02841027981505361 -0.01624487135611381 
0 0 0 0 0 0 
-0.2952175159355858 0.4124549475331172 0.2572624971176127 -0.3842579251764200 0.4036091484742593 -0.01225944057739668 
-0.4350518186007886 -0.05673869004391716 -1.061204419217020 -0.7824143376931318 1.747145139561925 -0.02242278391170595 
0.1421171594021280 0.1647594743617090 0.2963232842287971 -0.4463818989457258 -0.6106810289342225 -0.1742407756934868 
-0.05113998818933910 0.1497231907857738 -0.5588392134610441 0.3531231330062288 0.4097468976465692 -0.7275158221998811 
0.4602143169517869 -0.2331438495476243 -0.6423420466240850 -0.01761368811831797 -0.6009097055774614 -0.3004107239370220 
0.01917218988245593 0.7322283571767694 -0.3610407251444143 -0.5087423192772486 0.06570428011946092 -0.3123590519409754 
0 0 0 0 0 0 
0 0 0 0 0 0 
0 0 0 0 0 0 
0 0 0 0 0 0 
-0.5690661335360954 -0.3463753927508447 0.5036249141001771 -0.2437778100228663 -0.01216282635440770 0.8857899855111956 
0.09627235803408617 1.317852199745430 -0.5131879861740366 -0.2656244993704946 -0.1541419195897045 -0.4393604250812451 
0.01415440710981104 -0.6854941127122570 0.5024682454743439 -0.4757549868722256 0.1802373149547358 0.05172581006620490 
0 0 0 0 0 0 
0.2239750595164632 0.3509763407722699 0.1543624445305721 -0.3595685607083206 -1.091463473297597 0.3714881683958293 
0 0 0 0 0 0 
-0.01319212780849133 -0.3538911405452777 0.3560811133799965 -0.05671517313042705 0.05593120132818019 -0.2059609320811404 
-0.2254871623568119 1.879054011555810 -0.6092277036402101 -0.2360120428205326 0.4049160150510717 0.006169191381003701 
0.01249901651848707 -0.4633803876257633 0.1486299255270965 0.3017765511037020 0.006274418751337747 -0.1398579858390034 
-0.3826902877832635 -0.006402458958751434 -0.1841476685745900 0.1858817501041466 0.5445749970107362 -0.01267306317044360 
0 0 0 0 0 0 
0 0 0 0 0 0 
-0.5266327590525890 1.563272849262406 0.1768976713837793 -0.1097915538534943 -0.6475274009344391 0.07023694035421871 
0 0 0 0 0 0 
-0.4158256786737755 -1.134239192908760 2.182240017178872 -1.407826519011384 -0.8273017253900908 -0.5892951946271973 
0 0 0 0 0 0 
-1.197492956778189 -0.1016697004713590 1.985966979091411 -0.4966256010142280 -0.04848267646817236 -0.04379948568431451 
0 0 0 0 0 0 
0 0 0 0 0 0 
0.02560272854738688 0.2492225983986196 -0.2714343138329722 -0.1366822437881535 0.4034835686554458 -0.1190070090355272 
0 0 0 0 0 0 
-0.2320420166990286 0.6145607427123893 -0.6480264177957561 -0.7401466906254668 1.266632786341351 -0.01817045575101108 
0.06043347010144713 -1.039097572171055 -1.082862938309327 0.7480748956362536 0.007001796188546130 -0.2146444837487840 
-0.7879448907207902 2.070684925039760 0.7305732979771042 -0.5699724291909976 -0.6397359722169275 0.03520934312477985 
0 0 0 0 0 0 
0 0 0 0 0 0 
-0.07990854794278499 0.6535398904665807 0.02333228690969126 -0.2485687869684866 0.2505028858564019 -0.1425095288201031 
-0.001900352071699502 1.181278239492253 -0.04666551984018557 -0.5522826669325840 -0.3156682544575098 0.6916978040070536 
-0.1790576246061633 -0.1403464855957790 -0.2826660074367033 0.8554258844691643 -0.2222528060377329 -0.05761748278030869 
0 0 0 0 0 0 
0 0 0 0 0 0 
0 0 0 0 0 0 
0 0 0 0 0 0 
0 0 0 0 0 0 
0 0 0 0 0 0 
0.02048263156497780 1.393004499268413 -0.2159151415247131 -0.8552487325412730 0.4067684549495698 -0.4538750968636887 
-0.5099840051119776 -0.4037250776706822 0.1194382338469823 0.6326273246011442 0.5957979051724590 -0.5374208281718175 
-0.3021070391076009 0.2144672196830759 0.9175429093164735 0.2204664038042299 -0.5247412125540092 0.1312710903201893 
0.3618401674698727 0.7947595079326223 0.04909142555260172 -0.3071600056606224 -0.2939453355911728 0.1311353878854819 
-0.1185783744818400 0.3005738203744074 0.1884716725738242 -0.04776649724456314 0.07597377742439346 -0.1689515802540655 
0.6795605219013011 -0.3346550147591206 0.2148725163966297 -1.149909558170172 0.9505833540367484 -0.1547417480457912 
0.5521705717200525 -1.493315531260152 -1.559311740434192 0.7139966063732550 -0.1678016797012936 -0.3025643171292481 
-1.149683297125953 0.1813860889823167 0.6681198691200356 0.003235113870976455 1.053146702148170 0.1191135618559607 
-0.4800788856896039 -0.2961088421838434 0.4537077211401040 0.03431487342568587 0.2291719152704209 0.02697150341140236 
0.1295636766481650 -0.9687449014295034 0.1307019088334366 -0.1481598419052601 0.02256448216741988 -0.7270981063437221 
-0.1023088895520391 -0.01548351114295437 -0.9606822747005416 -0.8126276666792607 1.463719628257699 -0.01726246109743569 
-0.6223334920179802 -0.2092764252201735 0.5655010872602598 0.1325832201668118 0.4584485785159425 -0.1807950314669770 
-0.4801096904318074 0.8954978187808145 -0.1192027288081167 0.4329276378248054 -0.6560998893030805 0.5560150382375102 
-0.2871524981395573 -0.2044820068324255 0.9838912410128655 -0.2455609293017708 -0.03948592770435482 -0.02690407390046181 
0.4634527902446608 -0.7694684830289468 -0.4841736064131783 -0.1004246607163050 -1.430207840724607 2.244618775767028 
