solver_type L2R_LR_DUAL
nr_class 6
label 6 5 1 2 4 3
nr_feature 269
bias 1.000000000000000
w
0.008474562970034856 -0.04794204111957106 -0.3498078019266816 -0.6111164014651632 0.8113208833335752 -0.3328167893574374 
0 0 0 0 0 0 
0 0 0 0 0 0 
0 0 0 0 0 0 
0.09943529263677672 0.4388440141313521 -0.2857579272138758 -0.1090916376560415 -0.3715467059358620 -0.01364121276210639 
0.1898345509043804 -0.07415228642972158 -0.07186763423587247 -0.03029062871515723 -0.1223672075173596 -0.003260215174987218 
0 0 0 0 0 0 
0 0 0 0 0 0 
0 0 0 0 0 0 
0 0 0 0 0 0 
0 0 0 0 0 0 
0 0 0 0 0 0 
0.8310625828255940 -0.3121025708930285 -0.1993309772108318 -0.4357208645205237 -0.07255024726498568 -0.03150033547090818 
0 0 0 0 0 0 
0 0 0 0 0 0 
0 0 0 0 0 0 
0 0 0 0 0 0 
-0.7382865178096636 0.2915132418986622 0.1666362823252406 0.2613517345594016 0.5339694677274560 0.1067054065119247 
-0.3590811201817906 0.3750949389746666 0.4651692070508406 -0.2659708176182236 -0.4377001781625510 -0.5055544949709526 
0 0 0 0 0 0 
0 0 0 0 0 0 
0 0 0 0 0 0 
0 0 0 0 0 0 
0 0 0 0 0 0 
0 0 0 0 0 0 
0 0 0 0 0 0 
0 0 0 0 0 0 
-0.1851806749219386 0.6027816122312646 -0.01555844892536359 0.3215453341858358 -0.7706673513328853 -0.1004917120826351 
0 0 0 0 0 0 
0 0 0 0 0 0 
0 0 0 0 0 0 
0 0 0 0 0 0 
0 0 0 0 0 0 
0 0 0 0 0 0 
0 0 0 0 0 0 
0.6858737853651968 -0.03118031759450244 -0.2168601202021010 -0.2808913889395379 -0.09057200173232580 -0.005391253473304364 
0 0 0 0 0 0 
0 0 0 0 0 0 
0 0 0 0 0 0 
0 0 0 0 0 0 
0 0 0 0 0 0 
0 0 0 0 0 0 
0.2704352827542998 -0.01401196776836703 -0.09286628743590228 -0.08912548001162977 -0.2849239132326732 -0.006288492273452534 
-0.9086320001565663 -0.3022752892870333 1.012027254968294 -0.2702969722042087 0.8291572044683849 -0.002503493474642311 
-0.004032095841323108 -0.08459173039292199 -0.1723258902980170 0.3281484579871352 -0.1447367632191336 -0.02172940175587636 
0 0 0 0 0 0 
0.3044471511386018 -0.02221356501874446 -0.04343218208511678 -0.06848767417218325 -0.08414564947673668 -0.01386796622826275 
0 0 0 0 0 0 
0 0 0 0 0 0 
0.5655152053710420 -0.1708194998252100 -0.05414976481201989 -0.2007691814117847 -0.009756838108569373 -0.008095545312624195 
0 0 0 0 0 0 
-0.5206558609072942 -0.1032828940357995 -0.1002439536977553 -0.1014982745637301 0.2860107406900149 0.4448441733847263 
0 0 0 0 0 0 
-0.1943173327514922 -0.04762008974278640 0.4907182425996042 0.1805135496523115 -0.4653347380752594 -0.09140749616943379 
-0.08345387551234955 0.1034912480078222 0.1794070977592608 -0.1740081352677208 -0.1883686064310884 -0.4192301624264808 
-0.8359541766712826 -0.1703550344925249 0.6649172350599484 0.1635605935038441 0.1341401962117433 0.3825082418496194 
0.2141907621841530 -0.3548197969895045 -1.522475776909375 1.029167249164044 -0.6580491051144645 -0.2297968500548926 
0.1689702524647447 -0.1151827716793125 0.02952208638694783 -0.3494542764466859 -0.1717178206823775 0.03752959101701110 
0.6731256032194142 -0.4340175544575334 -1.082995170227433 -0.6136262074084917 0.3569325519377814 -0.2923139568539976 
0 0 0 0 0 0 
0 0 0 0 0 0 
0.4655848313926143 0.5396713112738546 -1.673763677233438 0.03689181012330330 -0.1271191666311427 0.7072240185613617 
0 0 0 0 0 0 
0 0 0 0 0 0 
-0.2679548212430671 -0.05949829175628783 0.6812433023807525 -0.08585992443427168 0.2968646575101695 -0.1138873556473166 
0.3480441868373320 0.5246110385096698 0.04544875267178000 -1.296626606412617 -0.006087799399590367 0.7013456206232825 
0 0 0 0 0 0 
0 0 0 0 0 0 
0.06260007583353167 -0.2959877261011219 -0.2811491881516701 1.094486758141226 -0.4547632134307327 -0.1215146546772853 
-0.6814871910641555 0.3474035123944514 0.2255185000834173 0.2600507066690366 0.2330666479506761 -0.02582702816100188 
0 0 0 0 0 0 
0.2019725293340397 -0.8646083817490321 -0.7916784148313596 1.199811181392365 -0.8245747391293645 0.4505148262187025 
0 0 0 0 0 0 
0.7271672420467821 0.3955645879629027 -0.02225491762007897 -2.113459432404849 0.6306366802763075 0.2671748041447630 
0 0 0 0 0 0 
0 0 0 0 0 0 
0 0 0 0 0 0 
0 0 0 0 0 0 
1.140549004971344 -0.9994845775384006 -0.1537439094248693 -0.3197521310806793 -0.7468489063997491 0.4362869717094423 
0.5954312125773121 0.2128071118565009 0.1226397947005397 -1.248928988626196 -0.4593805065096123 0.05849539083728317 
0.6406537086057225 -0.8361713060119832 0.4528161102529948 -0.5389071191973015 -0.2110947435631559 -0.05184648014235962 
0.2035989401772753 0.2787233712467433 -0.01635864090754705 -0.1710733278969494 0.3363082646222941 -0.4070073640763969 
0 0 0 0 0 0 
0 0 0 0 0 0 
0 0 0 0 0 0 
0 0 0 0 0 0 
0 0 0 0 0 0 
-0.4353181276057744 0.4491995235612644 0.1518155350337225 0.3619600559543683 -0.2303002932108621 -0.1692951290145743 
1.769524402395013 -0.3516963454429457 -0.5477865013907679 -1.667509180284194 -0.1887487593916388 -0.1285147323635247 
0 0 0 0 0 0 
-0.8858319431258674 1.243150064038190 -0.9994561130469456 0.5927866724664196 -0.1351679088451207 -0.01983312728672975 
0 0 0 0 0 0 
0 0 0 0 0 0 
0 0 0 0 0 0 
0 0 0 0 0 0 
0 0 0 0 0 0 
0 0 0 0 0 0 
0 0 0 0 0 0 
0 0 0 0 0 0 
0 0 0 0 0 0 
0 0 0 0 0 0 
0 0 0 0 0 0 
0 0 0 0 0 0 
0 0 0 0 0 0 
0 0 0 0 0 0 
0 0 0 0 0 0 
0 0 0 0 0 0 
0 0 0 0 0 0 
0 0 0 0 0 0 
0 0 0 0 0 0 
0 0 0 0 0 0 
0 0 0 0 0 0 
0 0 0 0 0 0 
0 0 0 0 0 0 
0 0 0 0 0 0 
0 0 0 0 0 0 
-0.8266305637008133 -0.09982703519452944 1.998377481187380 -0.8868997181044300 -0.5269341215159321 -0.02870915419862033 
0 0 0 0 0 0 
0 0 0 0 0 0 
0 0 0 0 0 0 
0 0 0 0 0 0 
0.8122460999542693 0.4004573417908576 -0.6113212050939869 -0.3793760833580284 -0.04465421574608664 -0.03627512031388665 
0.5572147059852851 -0.2035264056902321 0.3882632347530783 -0.4091457155639954 -0.7792910287324171 -0.07341727319017771 
0.02260221529927658 -0.02709540143702002 -0.3722348734651557 -0.3014997348168907 0.3039976040528387 -0.09408244449966205 
-0.03621221904447377 -0.2909193669257136 0.1496416929516507 -0.4427849772727323 -0.1538131718600627 -0.01200727301317556 
0.3455860040782365 -0.06732616827812415 -0.7726682862339846 0.3546098311946260 -0.9297402580654162 0.3110561606895794 
0.2958587840549106 -0.1018966510392843 -0.1587817457878930 -0.1352659142232265 -0.1293452721723981 -0.8577151507775984 
-0.5213048895164943 -0.5351454468871587 0.03116300242465757 -0.1708434353499094 0.6507220082624396 -0.2786895450248307 
-0.2017080300094238 0.07649205285711899 0.06018102851779752 0.02262079631545321 0.01849071520440714 -0.07971777996308232 
-0.1091280252425016 0.4781246054931943 -0.1581876199511987 -0.06151396165320189 -0.3185818089429637 -0.01455055285714822 
0.3983978687836590 -0.1134328777915639 -0.1994379414985496 -0.07786830471799681 -0.1753321045102581 -0.002350875079945389 
-0.01232033132265309 0.1083568995257547 0.2210502140124631 -0.5035153208246401 -0.1873037938859047 -0.07824450455284984 
0 0 0 0 0 0 
0 0 0 0 0 0 
0 0 0 0 0 0 
0 0 0 0 0 0 
0.9955796694852652 -0.9595048081482580 -0.5984589950394752 -0.3037730257218105 0.1227582298816087 -0.07585375846713836 
-0.4049488840049662 0.2251590982757892 -0.02639241629492591 0.4144554898733848 -0.3155576856434109 -0.7490265027795089 
-1.126200910821397 0.1880998631385395 0.05555757149983170 0.9366003323530949 -0.1466899043684979 -0.2503870490343975 
0 0 0 0 0 0 
0 0 0 0 0 0 
-0.7291786946177283 -1.429446302200598 0.5702698230077017 1.522503940721325 0.4917007929371298 -0.3336805024555083 
-0.7056926310580567 0.5883152526732537 -0.2282101689266346 0.8700491991078738 -0.4742322185414321 -0.1439363745371853 
1.334206274789236 0.09750317811831857 -0.3959709663570446 -1.305549124329825 -0.4190490526025011 -0.2978098613780986 
0 0 0 0 0 0 
-0.6814871910641555 0.3474035123944514 0.2255185000834173 0.2600507066690366 0.2330666479506761 -0.02582702816100188 
0 0 0 0 0 0 
0.5995784674297031 -1.677384972130382 0.9636237750410677 0.5835660836158959 -0.1637668459520265 -0.7778848192428451 
1.094192627532231 -3.684693166650181 1.982802167684489 1.759809976199093 -0.4781765780834612 -2.808442593357744 
0.1932774638267798 -0.2684124110425316 -0.6463677144486852 -0.6676078418510284 -0.7522592785604012 -0.5049231817808215 
-0.01150608674624653 -0.2044299434402631 -0.5529068145815259 -0.6484531794974964 -0.1686468033569181 -0.6013787832978904 
-0.4166331038474130 0.2953320068258635 -0.1026230784726698 0.1912476812849822 -1.172252721150663 -0.4294211240784058 
0.4911882285184730 0.2274829488178335 -0.3162367771891114 -0.6368506381383922 -0.08363443108822088 -0.02467204033836031 
-0.1637213334099826 0.07264375126169480 -0.01728152435990475 0.009273350338432886 0.03297608608572798 0.4004636835356032 
-0.2962319410225245 0.4132273612322854 0.05116054427934855 -0.1356532713512354 -0.4783621371943036 -0.7141544016477627 
0.6089345355679330 -0.5707916168871139 -0.5749513039541654 0.1147218941610355 -0.3383538403297339 -0.4753679716194429 
0.1858714620536945 -0.8097146405801583 -0.2746330319183534 -0.7715088003052836 0.9702398666057281 0.03833967178112688 
-0.2276364707796470 -0.1010221651531997 0.03529064258464176 -0.08729123733805720 0.1484810951541505 0.09851021728852616 
-0.6625648441110321 0.5216852278947820 0.6295348678377767 -0.06356369059289943 -1.157953983452823 -0.5896199647061946 
0.2103883938294606 -0.5440284584489900 -0.3408040770802433 -0.4086856558654817 0.5469646933644039 -0.4486749753926966 
-0.04243193472064814 -0.1259424671215365 -0.7060040508053783 0.4483536209721755 -1.075648998196855 0.6991427665979150 
0.1649670478893868 -0.4550729467425184 0.009247314025634792 -0.4972854080109083 0.2386992299276626 0.3411930704719958 
0.3769480274752133 -0.1003133004453365 -0.5833554456744124 -0.2604070769570486 -0.06186786371966962 -0.2896281219548745 
0.5033380847256270 0.4047023548904372 -1.013624086072285 -0.1531801202447192 0.2311104060567862 -0.5732381975297260 
-0.3688733980074668 -0.1738727645096427 0.8057309487387052 -0.3812926906496396 0.3577904341031853 -0.2454765425651307 
0.5846479183213101 -0.4461193134785467 -1.194493779614704 -0.3224289818694299 0.1556084081720486 0.4234725148551999 
-0.06395107773062472 -0.08757290980602081 0.3620533167590322 -0.4870517881509695 -1.417341955380354 -0.7467357455984635 
0.1906792829536184 -0.04299857853378968 -0.3487743055862245 -0.4295166895698276 0.8626205145121961 -0.2884343768154670 
-0.5296047464637593 0.1038484473355615 -0.01805976058831358 -0.07706356175829134 -0.5217930492212091 -0.4946043575199855 
0.1817713770805328 -0.4728423544827962 -1.199274529030217 -1.316061021348521 -0.9209060819173176 -1.106301965078715 
-0.09344809009822230 0.7325643667744395 -0.7187575981789847 -0.4110221998929136 -0.4144711081317198 -1.746653294655748 
-0.9598321854514061 -0.2030429584903592 -0.1511227128119882 0.4837214518216230 0.4649751588793576 0.6359919863017020 
0.3533839096846612 -0.08741991313435721 -0.7125266806737830 -0.2004200770546314 -0.4455168660565888 0.2755983169714519 
0.8816677429454980 -0.9149438496325217 0.3831324626345497 -1.188340196222596 -0.5258932666083659 -0.2712389736961165 
-0.2695474531952931 0.4188719295232015 -0.3834102368336735 0.2935895556978721 -0.1117048220056963 -0.3877379679968490 
0.4891544653304742 -0.4811773355119497 -0.4534830295630160 -0.1605214011112049 0.5407943827634260 -0.3273031666332750 
0.2962148469152262 0.2516857268711275 -0.8154093852609353 0.1281355509550472 0.1373186887863241 -0.1726232848935731 
-0.2037328914111145 1.012266143077063 0.4595643045030086 -0.5078160641585167 -0.2137932261313910 -0.2287661151901875 
0.2571755028573080 0.3541383804002524 -0.1395758285485541 -0.3858773885388651 -0.8486763862923994 0.4197531080442734 
-0.6363327975463650 0.8996504800540728 0.08796095052701710 -0.1989445495921021 -0.1911368329163894 -0.2139243131546164 
1.820003695245682 -0.7229736280764160 -0.6383739958920662 -0.8180627756490289 -0.4397160644684052 -0.1768667028078061 
-0.4586721667467385 0.4611811669247685 0.06516082510022113 -0.3554765637906609 0.7004340327749026 -0.1238214484613234 
-0.2885693965767284 0.6956468808108867 0.02230562488495020 -0.5946412278050918 0.8099657866104938 -0.02089387273275054 
0.2393716953866834 -0.2103017708318180 -0.1766885383074406 -0.1045403816477729 0.01751733871379607 -0.01973917674577206 
-0.6262672875357933 -0.1508066372926001 0.5672588941535168 -0.1667054669537598 0.7845167572888277 -0.01037626696795685 
0.1682168051776942 0.2199109665692512 -0.04643803763867754 -0.3266115168915574 -0.1298777956754065 -0.02392134012761799 
0 0 0 0 0 0 
0 0 0 0 0 0 
-0.6544236446984549 -0.04270551567270266 -0.4131430398488862 1.074445301498539 -0.07544825827662237 -0.02784389511194476 
0.7658440455264954 -0.2743949404777541 -0.1542230313261738 -0.2180143249013289 -0.008287267296408274 -0.1123795239225869 
0.1205164647149981 -0.1468364726266893 0.5492089008187511 -0.1982647249526125 -0.2423374104170776 -0.02102522098599675 
0.6319376566744495 -0.2468573182949528 -0.3686056247613314 -0.2142477702333526 -0.07541493619373497 -0.01020772607427239 
0 0 0 0 0 0 
0 0 0 0 0 0 
-0.1772320082778754 0.3232659046890691 -0.08360054314600124 -0.01616337234186177 -0.09198887578895190 -0.03740394828574940 
-0.01043314959884212 0.2971303061688214 -0.5261761929979151 0.4322656912847229 -0.2446452509150421 0.3654299877410267 
-0.5613805095486251 0.2257065700155832 -0.1916195455097391 0.1444833724677296 -0.04831657977485408 -0.02831610871633878 
0.1584965938194500 -0.4726058632839771 0.3906288920524998 -0.1291768609567327 -0.4012724764325590 -0.2593421862335100 
0 0 0 0 0 0 
0 0 0 0 0 0 
0 0 0 0 0 0 
0 0 0 0 0 0 
0 0 0 0 0 0 
0 0 0 0 0 0 
0 0 0 0 0 0 
0 0 0 0 0 0 
0 0 0 0 0 0 
0 0 0 0 0 0 
0.6319376566744495 -0.2468573182949528 -0.3686056247613314 -0.2142477702333526 -0.07541493619373497 -0.01020772607427239 
0.2393716953866834 -0.2103017708318180 -0.1766885383074406 -0.1045403816477729 0.01751733871379607 -0.01973917674577206 
0 0 0 0 0 0 
0.07883433070755294 -0.3006545280525480 0.6777471069845664 -0.4293755360090615 -0.1265355800152597 -0.02722841030256766 
0 0 0 0 0 0 
0.1682168051776942 0.2199109665692512 -0.04643803763867754 -0.3266115168915574 -0.1298777956754065 -0.02392134012761799 
0.7658440455264954 -0.2743949404777541 -0.1542230313261738 -0.2180143249013289 -0.008287267296408274 -0.1123795239225869 
0.3684807164855739 -0.03183952893621828 -0.09467024902756888 -0.1043993718512562 -0.1632229863224230 -0.002716969838545007 
0 0 0 0 0 0 
0 0 0 0 0 0 
0 0 0 0 0 0 
0 0 0 0 0 0 
0 0 0 0 0 0 
0.1584965938194500 -0.4726058632839771 0.3906288920524998 -0.1291768609567327 -0.4012724764325590 -0.2593421862335100 
0 0 0 0 0 0 
0.1205164647149981 -0.1468364726266893 0.5492089008187511 -0.1982647249526125 -0.2423374104170776 -0.02102522098599675 
0 0 0 0 0 0 
0 0 0 0 0 0 
-0.1772320082778754 0.3232659046890691 -0.08360054314600124 -0.01616337234186177 -0.09198887578895190 -0.03740394828574940 
0 0 0 0 0 0 
0 0 0 0 0 0 
0 0 0 0 0 0 
0 0 0 0 0 0 
0 0 0 0 0 0 
0 0 0 0 0 0 
0 0 0 0 0 0 
-0.9687609711675988 -0.4478425778648085 0.2805113441774310 0.08736765409894973 0.9758104506526684 0.4130393329564832 
0 0 0 0 0 0 
0 0 0 0 0 0 
0 0 0 0 0 0 
0 0 0 0 0 0 
0 0 0 0 0 0 
0 0 0 0 0 0 
0 0 0 0 0 0 
-0.6918003913748292 0.1451670035936450 -0.1119566939845493 0.6317516799548599 -0.01619643676104561 -0.01461357978724093 
-0.6060197762518378 -0.6193875221461649 0.3633068514373916 1.419580998142767 -0.5998416329420302 -0.3860222146586782 
-0.5523961913364761 0.3913621557568820 0.5992480809862669 -0.5732936132558420 -0.1510261529118043 -0.2679925051699209 
-0.2604809278885286 -0.5985309862297792 -0.01319634868966077 0.9988536361793012 -0.3510824759979129 0.3769316198443556 
0.1600109349982457 0.2940243699645824 -1.100606617070723 0.4321366461223271 -0.3846387217298065 0.1366588520365399 
0 0 0 0 0 0 
0.01707110814586072 0.08625595170991646 -0.1297880091973614 -0.3381310637535169 -0.2300302557610939 0.3080132293011084 
0.3282675046839378 -0.2362588667406749 0.5572236531955402 -0.6377538677161086 -0.1782486841395994 -0.3029894353647705 
-0.03676778409822396 0.3350538073175080 -0.03162638833471013 -0.4704975789179088 -0.5067113765320134 0.4880335103799013 
0.1271694334705908 0.1245938148764804 -0.1349065809281971 -0.1970730591429775 -0.4845188985911366 0.6353933098121417 
-0.2320731773263863 1.020423183535433 -0.8317901720559904 0.2816398458905268 -0.04787129238800969 -0.1755076562426863 
0.08343019317738080 -0.04599237046750623 -0.002675838348948182 -0.02611519540595882 -0.008622103024613305 -0.06646171908910688 
0.2439590479536073 -0.09022095154510812 -0.1867808407831569 -0.4730037426684834 0.06798506573867805 0.3909057464696873 
-0.3739242686078636 0.2264936869240561 -0.5292706195960404 -0.03524322071638797 0.4673723295330540 -0.02021937768504845 
-0.4340644621967383 0.4903815700905395 -0.3127286915859365 0.3304855833417593 0.03661017738495306 -0.03988893276445299 
-0.2683740387959891 0.1257577822386194 0.06513097189685929 0.1133922487995290 -0.09573729001289186 -0.03799794399932420 
-0.1879965102110528 0.04479163616136640 -0.1229336204223446 -0.06582155780904870 -0.01805354555007340 -0.01445816512836969 
-0.5602500985794939 0.5762243280183474 0.01191046455062784 0.05886498144064990 -0.2923521058642795 0.2390751169417594 
-0.5644175888246116 0.03636184802760705 -0.1554896118634370 0.3010769482861583 0.2986032317983879 0.4715662221601318 
0 0 0 0 0 0 
-0.02397112209661691 -0.5339387543681642 -0.8781093939458600 0.5664406274923892 0.7117166781213675 0.1611858203885589 
-0.4013264495087409 0.7007882724099088 -0.1846881748302430 -0.08062993454397220 -0.1159961063822659 -0.1787421630008495 
0.1216981471556219 -0.1599183468747508 0.1938415222489278 -0.1805323162799079 0.6612228332456842 -0.3387744066057329 
0.1385558094761614 -0.4225903675364613 -0.09688404214715232 0.04658061777594627 0.03345433791064732 -0.03809743858466422 
0 0 0 0 0 0 
0.3376480052011214 -0.2291357599131014 -0.01799242108458404 -0.05633831221542976 -0.05712701589622824 -0.08015506938839054 
-0.4585918784473071 -0.04752847889338465 0.4479356746801628 -0.05459411787115665 -0.003306667156435004 -0.002686385012132642 
0 0 0 0 0 0 
