solver_type L2R_LR_DUAL
nr_class 6
label 6 5 2 1 4 3
nr_feature 268
bias 1.000000000000000
w
0.2076308197228770 0.03455802238068789 -0.2147279223138356 -0.5219760838490015 0.4161381888052732 -0.5890833925282690 
0 0 0 0 0 0 
0 0 0 0 0 0 
0 0 0 0 0 0 
0.09209676332416172 -0.3756172045263227 -0.4662588070818466 -0.4408425867373835 0.4986467009537746 0.1992019937835415 
0.1617906916012545 -0.1533906196431888 0.7399644158230846 -0.2540198716776341 -0.4897662586864631 -0.03119305900316689 
0 0 0 0 0 0 
0 0 0 0 0 0 
0 0 0 0 0 0 
0 0 0 0 0 0 
0 0 0 0 0 0 
0 0 0 0 0 0 
0.5462650810425352 -0.09093237449525927 -0.09403266166539131 -0.3955236811724402 -0.07914470731127557 -0.02181459614035532 
0 0 0 0 0 0 
0 0 0 0 0 0 
0 0 0 0 0 0 
0 0 0 0 0 0 
-0.7320307780629562 -0.05495977012509347 0.1942528150672766 0.9230042690653575 0.01189159437944783 0.1539003331288535 
-0.4566772121149670 0.5662244575162710 -0.3139176926862032 1.125856306368398 -0.4560461792060909 -0.4786166690240231 
0 0 0 0 0 0 
0 0 0 0 0 0 
0 0 0 0 0 0 
0 0 0 0 0 0 
0 0 0 0 0 0 
0 0 0 0 0 0 
0 0 0 0 0 0 
0 0 0 0 0 0 
-0.1443479278021780 0.4555087095395924 0.1754391006331739 -0.2319898043439989 -0.5487497024133848 -0.3015516371252149 
0 0 0 0 0 0 
0 0 0 0 0 0 
0 0 0 0 0 0 
0 0 0 0 0 0 
0 0 0 0 0 0 
0 0 0 0 0 0 
0 0 0 0 0 0 
-0.3576879198804296 -0.009906883394669466 -0.1663886449819427 -0.4437460241282240 1.340395134480191 -0.01287316279518063 
0 0 0 0 0 0 
0 0 0 0 0 0 
0 0 0 0 0 0 
0 0 0 0 0 0 
0 0 0 0 0 0 
0 0 0 0 0 0 
0.5668035630207462 -0.03407860601829125 -0.06836616117747700 -0.2587637105209982 -0.2064735253596102 -0.06129931714547221 
0.3647883778114866 -0.4245394551540227 0.06843730880176735 -0.1702443687825695 -0.2803571875117393 -0.07054824777109880 
-0.5992602890845231 -0.03274884347929352 0.9467837376359792 -0.1575036694286144 -0.3128329576139863 -0.005848005825625807 
0 0 0 0 0 0 
-0.9173014174982261 -0.04096950720516601 -0.1312356298789980 -0.09910687623033743 0.9248551444301730 -0.005285944314120299 
0 0 0 0 0 0 
0 0 0 0 0 0 
-0.7019927700491404 -0.1493812516811910 0.5473181095980731 0.1338029563335390 0.2483986557378769 -0.06838011795625161 
0 0 0 0 0 0 
0.9012056547919380 -0.2480297908163396 -0.2883876620251577 -0.1493031792670120 -0.4507975516439386 -0.03201542074884262 
0 0 0 0 0 0 
-0.04390586518053470 -0.2157954912571620 0.03703522944122986 0.6833709545972758 -0.7433895190636677 0.007050720686877292 
0.1834798047121969 0.4112428256767984 -0.1327386026553987 -0.1215141523146247 0.5784829527311752 0.06820578023175573 
0.3353642399046125 0.007371644098523548 -0.3721141461760673 -0.2649057609124499 0.03358812693731383 -0.3172987907136941 
-0.007698700883069454 0.003319832730442579 0.4250404274986218 -0.5371170985223974 -1.411693790744652 0.3136596514703193 
0.2958821801574743 -0.5781610669327661 -0.9919711736535867 0.4748152009633734 -0.07286627658150108 0.3177363818116632 
0.4437127785276320 -0.1013980896472032 -0.7444902713943916 0.01327249948147090 0.03392296995743897 -0.4104104073335247 
0 0 0 0 0 0 
0 0 0 0 0 0 
-0.03039325778019256 0.1549647983316854 -1.377434163602218 0.5243499917831391 0.3824448093065922 -0.4544186963569876 
0 0 0 0 0 0 
0 0 0 0 0 0 
0 0 0 0 0 0 
0.1343452444535452 0.2127772083231367 -0.4899697781094162 -0.6199863051924411 -0.1106524425249030 0.1039732612516260 
0.2310477867128682 -0.2351649446247813 0.6122511689858410 -0.2256349838257732 -0.1545066327906484 -0.02484993651741498 
0 0 0 0 0 0 
0 0 0 0 0 0 
0 0 0 0 0 0 
0 0 0 0 0 0 
0 0 0 0 0 0 
0 0 0 0 0 0 
0.1583027442486703 -0.02410544464764187 -0.2075959718071626 0.1354748810836956 -0.1976114240959790 -0.03186661725417720 
0 0 0 0 0 0 
0 0 0 0 0 0 
0 0 0 0 0 0 
0 0 0 0 0 0 
-0.4659572423977385 0.5589605830259428 0.3915782271185011 -0.09873788149681184 0.4726726315243190 0.07931302615040580 
-0.2803371299975113 -0.7107775470527357 1.161241764504586 -0.7788929098174087 0.8173904765557467 0.2778619563680966 
0 0 0 0 0 0 
0 0 0 0 0 0 
0 0 0 0 0 0 
0 0 0 0 0 0 
0 0 0 0 0 0 
0 0 0 0 0 0 
0 0 0 0 0 0 
0 0 0 0 0 0 
-0.01625252294741195 -0.6575007523671983 -0.02701174503389286 0.6415719983306500 -0.2991230135924121 -0.4448948837846039 
0 0 0 0 0 0 
0 0 0 0 0 0 
0 0 0 0 0 0 
0 0 0 0 0 0 
0 0 0 0 0 0 
0 0 0 0 0 0 
0 0 0 0 0 0 
0.5313959285056116 -0.1064949892648131 -0.4215238382160776 -0.06383280133640193 -0.003318211957440314 -0.01294912633512931 
0 0 0 0 0 0 
0 0 0 0 0 0 
0 0 0 0 0 0 
0 0 0 0 0 0 
0 0 0 0 0 0 
0 0 0 0 0 0 
0.05943733888393551 -0.06694873129473111 -0.003179952912462442 -0.02828710011575869 -0.02838050632044259 -0.001692664390904914 
0.6811157004674692 -0.8119721381819276 -0.6858116027255845 0.03962622319048195 -0.07940362278468373 -0.01594397216189334 
0.2496073159733886 -0.4578594088228836 -0.3168465023057397 0.6043405348773552 -0.3094997427656833 -0.02354452082647559 
0 0 0 0 0 0 
0.4850982410007049 -0.1366691621419440 -0.08525968259081579 -0.1725616098884077 -0.03117469640186995 -0.02760701533771821 
0 0 0 0 0 0 
0 0 0 0 0 0 
0.003809042866049689 0.1758205518908314 -0.2226604372556999 0.2576314285282382 -0.1979289011011082 -0.02637244905575406 
0 0 0 0 0 0 
-0.2571339181342391 0.3743419778285063 -0.2350469642081016 -0.4444256462195974 -0.2694988920528360 -0.1037092221546191 
0 0 0 0 0 0 
-0.3096542559076989 -0.2093312006762828 -0.1464565234561784 0.4128695836196719 0.02838978314046754 0.6216663092176866 
-0.1033822392191986 0.4805214168031231 0.2813295119737879 -0.2670490875512506 -0.001065646681560308 0.1304607295613555 
-0.6281221532231613 0.5425294853322287 1.056215451598732 -0.2641199220017450 -0.4826372069335184 0.4065764843378267 
-0.04310692512534575 -0.6376120679240864 -0.7331445605065681 0.2160873791349927 -0.1648335810187283 -0.7510777606740144 
0.07376565411274918 -0.2463360133003735 0.5340722041386469 -0.4851279184582860 0.03602441522537228 -0.8278661548046127 
-0.3354682784316140 0.7691729163302887 0.06489516321874958 -0.07573053572260752 -0.3730857824543254 -0.2195226545445347 
0 0 0 0 0 0 
0 0 0 0 0 0 
-0.04154995370158414 0.1113113332595194 0.1836199008226714 0.07666144052269980 0.2227874972913352 0.6012987446277781 
-0.07055518509753973 0.02256178104736144 -0.4025800960537277 0.1768872428603164 0.08140243154218318 -0.4478802484820327 
-0.3112371219119025 -0.1429713295504947 0.4737471575822677 0.1217025715168196 -0.3251967537667366 -0.2331476269850951 
0.3266306614534160 0.2586099851577391 -0.4778050024180105 -0.2373823712569204 -0.9712315339418416 0.3135931972541018 
0.4167143329636103 0.2410165334215906 -0.4309522375967044 -0.6653200416467830 0.4523784551900473 -0.5538283922780324 
-0.6545283283835435 -0.1378348102447113 0.4701358176587295 -0.1318504538069186 0.3636985567314648 -0.1884932535565667 
-0.3320532092617992 -0.3365801390937868 -0.01953484873852597 0.6784634405009621 -0.3549559415795801 -0.1305465315113545 
-0.6594397676107530 -0.4773748431040898 0.3539916307598047 -0.4761939751911328 0.6678816691290547 0.1846914333762556 
0.4825345603899207 -0.0008270386956446647 -0.07617621981338864 -0.09503670119456617 -0.6338630956254735 -0.001488382262070283 
0.9400511315194752 -0.4582836013716168 -0.7411844325715258 -0.06370439286004040 -0.2459119754027648 -0.2893641028670373 
0 0 0 0 0 0 
0 0 0 0 0 0 
0 0 0 0 0 0 
0.5819800599039497 -0.3683912612964281 -0.3630064313031934 -0.5242150231052038 0.1569113091355818 -0.2635471415265063 
0.1588580263137783 0.02073318659058706 -0.8034526894934437 0.2744602206830732 -0.005751540501055158 -0.5666412575666883 
0.3832476021495267 -1.239683254631725 -0.6221950111304380 0.1971563281891105 0.1440611278814290 -0.1893903490592027 
0.1383789847627412 0.3560046522953831 -0.1569292540109790 -0.1421936298042405 -0.5839383973745750 0.3751049028304204 
-0.04703835291086986 0.2429955111739721 -0.5718830918148569 -0.1670448587991390 0.5825169339665274 -0.4571312392083798 
-0.5184588228517948 -0.01552850024734975 1.227906720827022 0.005194814571252652 -0.7764437684258103 -0.1906011403984827 
-1.211235206885199 0.9864022693847689 0.4367266249028260 -0.2706332749810381 -0.2355970315587422 0.1664998795600002 
0.7483318577601009 -0.7707274761692116 -0.1811628136645309 -0.1398924259372344 -0.01923902057983002 -0.04613229124254716 
-0.09594707418134762 -0.2434885895336534 0.1836377144965082 0.07473316810514333 -0.2283178002671686 -0.1746252707004483 
0 0 0 0 0 0 
0 0 0 0 0 0 
0 0 0 0 0 0 
0.03317393856108835 -0.2520968576912136 0.1732200332736452 0.02781788778228425 -0.2679239921017152 -0.2195832418118782 
0.8901557021731747 -1.009710289670459 -0.3033012496967820 -0.3718121434490088 -0.6842566055559425 -1.322448828444021 
-0.2051295122875635 0.3611479634448393 0.4278048499924195 0.02697822737699983 -1.937374105858932 -0.8768598793310499 
0.5472281340009448 -0.3795336939618036 -0.3243907129986138 -0.6634036683777362 -0.5592215606699645 1.103150128398375 
0.1689881915570280 0.5907142209469365 -0.2361502093484442 -0.4839599008560749 0.3494492912297162 -0.8816377329123902 
-0.1910989301851948 0.03147368085362710 -0.05660613724027098 0.3953302944212008 -0.4893631394642622 -0.2032970897337602 
0.009400679801312178 -0.008821274772273110 0.1874093617505692 -0.2462374609056790 0.2160811896924444 -0.9437937159975631 
0.1858866622202305 -1.190846863039652 -0.9809754741702237 -0.3719393506895998 1.303334430728435 0.3111515200567205 
-0.3771581510458745 -0.4358174959053358 0.1325500908234789 0.6507971779526130 0.1512957066189426 0.1448228622078386 
0.06619981766368979 -2.346980737547662 -0.1992111065763332 0.3823682666955111 0.4019626809662796 -1.303140007643306 
-0.2831322051711908 0.1462798647822896 0.4195325441322008 -0.4056324979092825 -0.01039589620149157 0.5914445648036465 
0.01688359443580853 0.4121049202239479 -0.1379795629475840 -0.001608737750824204 0.05813844989425891 0.1613462230401103 
0.05115121439116262 -0.8076161349420420 -0.1359933736786311 0.2375815224964323 0.1273018728297230 0.08571533881148889 
0.2718167793109145 0.7009033165489826 -0.8467758751724368 -0.2030335063187563 -0.2453732267047315 -1.016059641891542 
0.2223233544769412 1.219850990713832 -0.1759955201072095 -1.043630491107987 -1.216948658991742 0.4221585102049062 
-0.2071254810464444 -0.3562256822130078 0.2260646631589123 0.3415207628166440 -0.08048340951593606 -0.2879288946371438 
-0.4504259585285962 -0.1895427672953743 -0.1587177559871427 0.8332918488580653 -1.155064387932046 0.1282688182790762 
0.04678399786007307 -0.1478625616058583 -0.06328882517762553 -0.2790929361681484 0.6576343619358397 -0.6716161151250036 
-0.1232668609213541 0.1974371669702016 0.9876013811008101 -1.229810380579804 -1.257694183494394 -0.2684885966382011 
0.1597693250913863 -0.7305090373403715 0.07790114512941462 -0.1481019190496108 0.1821178321250114 -0.3350921539172347 
0.7396066619734063 -0.2799305400967144 -0.9491318677462067 -0.09619044099784128 0.3140891777068346 -0.1875550804986669 
0.06748027801071552 0.7437037417671621 -0.4324352343129322 -0.04658674343065368 -0.2903786628975427 -0.07437254836316401 
-0.3018303694247526 -0.6249794648326921 -0.3122870741974002 0.2740558902897085 0.5834976748326647 0.06239176895135675 
-0.4661750535202846 -0.8989563052310522 1.016698390086707 -0.2722044277236618 0.1306416438044346 -0.1327395591690747 
0.08640693973554654 0.6636271791358151 -0.1295697528239006 -0.5013347384215883 0.03074574045093747 0.07703098533849666 
0.2162171844882230 -1.967641607591074 -1.696508232399524 1.211514156710045 -0.9704666187305703 -0.1403222986051826 
0.2366289444093352 -0.02983328889675279 -0.1378586914786145 -0.08263861068240928 -0.2967728070156769 -0.7983944250512715 
0.1759471482957178 -0.06468678494047266 -0.1578607294832675 -0.2522690617830166 0.5357172709005440 0.03056479439769249 
0.3887454733021695 0.5024990706349579 -0.2409001345077542 -0.7039120840404133 -0.1383089865946225 0.2451572176840560 
-0.4996535626498278 0.7633082744549327 0.4956409194152618 -0.09158991513722910 -0.2573544305386799 -0.6277606219065409 
0.3491636029718666 -0.6112998870916530 -1.068770240069047 -0.4031689698581001 0.5075282144060042 -0.1177821784352493 
-0.1587935211861009 0.3873226845383438 0.2479133229022809 -0.03107428967857021 -1.476301754779321 -0.6712901595034323 
0.1139778317233352 -0.1970291196000274 -0.4601714043927304 -0.05095924636588240 0.2893362836542998 -0.07137696477104280 
-0.1662308394482224 -0.6106771402803136 0.4306700903684079 -0.2072321751757203 -0.2863609310046291 -0.4860146046021123 
0.9260966018457749 0.5931356819822502 -1.667155610895455 -0.7543971244829305 -0.5003926821382271 -0.2549710983529490 
-0.4775835950240882 -2.195138316582578 0.9528562378666026 -0.2183696451320422 0.001516126350123944 -0.5663951001363808 
0.1139653259886523 0.3059019496262954 -0.2007925383441288 -0.02189636088753177 -0.3569550304953241 -0.1146301506900307 
-0.4243612587494540 0.2644172225403592 0.06473368018189443 0.3022284494242373 -0.1099666014402105 -0.4104675581324744 
0.1381170740608799 -1.031683462433680 -0.8503582311911000 -0.6924346810782817 -0.9657981877236171 -1.346463907311857 
0.1381170740608799 -1.031683462433680 -0.8503582311911000 -0.6924346810782817 -0.9657981877236171 -1.346463907311857 
0.4054729308623939 0.08630339522158877 -0.4158437745960050 -0.4810098912261867 -0.01960445348856587 0.8174245900840909 
0.2168995657908446 0.02401212403921755 -0.3062076323477237 0.001469451233988984 -0.1496982762213762 0.8596580892761382 
-0.2647461589300001 0.2874277516946038 0.1695138155609558 -0.1068494201157747 -0.2909841369786063 0.07251952216326299 
0.7327907352668420 -1.041855629974598 -1.923045003773092 0.4764221646957566 -0.2250793936457439 0.5122382351034024 
-1.167416671024658 0.2300402922757722 -0.04039256417408656 1.097927342204392 -0.1333940938528300 1.048780938914578 
0.2221714648550689 0.7196669029019181 -0.8924208126363706 -0.1625157066936235 -0.4127169980014281 0.5264631121275144 
-0.5302248061516633 0.3135414698571709 -1.213009392012213 0.9821246417702137 -0.8582650880510138 -0.2808728214497017 
-0.1768514858073958 0.1357143845135151 -0.005356385674052736 0.1647302764334465 -0.1409391530615773 -0.2313319866490654 
0.2293674111289351 -0.5412309964671081 -1.426924974898250 -0.01473388330013629 0.2037170119986102 2.009647033955822 
0.02919989557719008 0.4516966135848539 -0.2210326068257814 -0.3150867265033696 -0.6965440743968095 0.5272518154385454 
0.6239303101959568 -0.6739842767023214 -1.368881263019697 -0.7830598573316154 1.037693473949079 0.5372588446796270 
-0.7412093869092877 0.1519192614440241 0.2855027115088215 0.08040430401273160 0.5806447648449135 -0.08240955486249835 
0.8337792827308348 0.1162276846540542 -0.4134530675192640 -0.4217828561862951 -0.1536913630440076 -0.2203517986963144 
-0.3316412457006476 -0.1752608622126306 0.8561901647520368 -0.8574272991926792 -0.2334759671930446 0.6566399203702286 
0.4243496554200741 -0.08905077272528317 -0.7552761064562301 0.4972428879875427 -0.7570344037333868 0.02736684021757674 
-0.1089709668704086 1.413393532228819 -0.3317641350082434 -0.8853541838023735 -0.05125419819994089 -0.2326073731271863 
0 0 0 0 0 0 
0 0 0 0 0 0 
0.4628889605422873 -0.002601596709870008 -0.4163449302546989 -0.07835626874217506 -0.02117324124376416 -0.005337324126318650 
0 0 0 0 0 0 
-0.2786066644025830 -0.001843624776354817 -0.1653999242251734 0.5259823896286333 -0.02840213904263271 -0.01623424402389484 
0 0 0 0 0 0 
-0.2948437731811577 0.4121457052350061 0.2571219359204185 -0.3844217248820301 0.4036469732462997 -0.01225632095815077 
-0.4350144896924454 -0.05674874966193284 -1.061253450291357 -0.7823839321561323 1.747286043699445 -0.02243053562047180 
0.1419268485306602 0.1647735264836751 0.2958127653635072 -0.4456766217639839 -0.6106678318963942 -0.1740961300356569 
-0.05099272817214937 0.1499604535341814 -0.5584419657542117 0.3529200254196373 0.4095586130952457 -0.7274562109177600 
0.4598421651099623 -0.2328772077284957 -0.6420036557703034 -0.01761084964289082 -0.6009097391763272 -0.3004175741510694 
0.01900157077600433 0.7320425468353451 -0.3609145510555912 -0.5090451934751353 0.06568488082556286 -0.3123554695767588 
0 0 0 0 0 0 
0 0 0 0 0 0 
0 0 0 0 0 0 
0 0 0 0 0 0 
-0.5687389945851458 -0.3462177647430421 0.5037883664922932 -0.2438465500739433 -0.01215613918608199 0.8858653402593263 
0.09584621025969123 1.317709773844316 -0.5131053378936641 -0.2651552911959788 -0.1542375337329471 -0.4393125430766862 
0.01442078389495949 -0.6854971463937806 0.5026122498007586 -0.4754257257379996 0.1802842450446695 0.05173434355393405 
0 0 0 0 0 0 
0.2238076662250457 0.3509116194341170 0.1545298581290697 -0.3595549341811560 -1.091330390985067 0.3716033130424697 
0 0 0 0 0 0 
-0.01337324605825133 -0.3537941882706432 0.3563927483182462 -0.05694608962330660 0.05601294762633742 -0.2059257917097187 
-0.2257718343013443 1.878863314387349 -0.6094150114784539 -0.2360359051443215 0.4049061773590792 0.006259877119075022 
0.01227364230701319 -0.4634518880863170 0.1487699491327172 0.3021508211799952 0.006330141810273436 -0.1398601714869664 
-0.3826000166469777 -0.006399346166423073 -0.1840927710698862 0.1855651066955488 0.5444379091889202 -0.01268784088754975 
0 0 0 0 0 0 
0 0 0 0 0 0 
-0.5268778925370032 1.563479734867773 0.1766873586059400 -0.1099637454858251 -0.6476226300875946 0.07009748500078208 
0 0 0 0 0 0 
-0.4156774576572594 -1.134316357261865 2.182323544099280 -1.407653725871950 -0.8273473137574835 -0.5891609668572220 
0 0 0 0 0 0 
-1.197232876556478 -0.1016845656979450 1.985562004415285 -0.4967465483372199 -0.04848765301734226 -0.04379281522193668 
0 0 0 0 0 0 
0 0 0 0 0 0 
0.02556959710815643 0.2491649517092437 -0.2714161932902937 -0.1363090261815454 0.4035585147746995 -0.1190095240796430 
0 0 0 0 0 0 
-0.2319978766787382 0.6147238044155617 -0.6475670452766512 -0.7400075275595354 1.266606218157964 -0.01817354518584314 
0.06024420571214492 -1.039131355179657 -1.082697232817969 0.7481004539199546 0.007024326232854027 -0.2147510944864589 
-0.7877413333214934 2.071118747284995 0.7302877012886951 -0.5701492082640237 -0.6396934412038655 0.03524729138265725 
0 0 0 0 0 0 
0 0 0 0 0 0 
-0.08027911121812667 0.6534391214395189 0.02344057323347032 -0.2485139163310441 0.2504463040975356 -0.1424579738616202 
-0.001735730004755021 1.181417199850402 -0.04661120519116459 -0.5525768080785156 -0.3155667089158943 0.6918385708809608 
-0.1791353727344495 -0.1403932835906165 -0.2825488021757306 0.8550924178785861 -0.2222921026866372 -0.05770654142280574 
0 0 0 0 0 0 
0 0 0 0 0 0 
0 0 0 0 0 0 
0 0 0 0 0 0 
0 0 0 0 0 0 
0 0 0 0 0 0 
0.02083850299161620 1.393055160685759 -0.2156825921960521 -0.8549528626079324 0.4067685585379066 -0.4539087770091678 
-0.5100698868293569 -0.4034100274666704 0.1190726060739606 0.6327956224934799 0.5958547299462216 -0.5374353541529728 
-0.3020620180064388 0.2148307953042724 0.9171860319609503 0.2202411407991962 -0.5248025867068086 0.1312888713643660 
0.3618941637328585 0.7951285209179423 0.04918584303724529 -0.3070217108116171 -0.2938943081671721 0.1311544580487420 
-0.1187221491415138 0.3007280259426429 0.1891522410161753 -0.04762195984959596 0.07589418211710020 -0.1688348007490299 
0.6799721447908648 -0.3346030347725847 0.2150622005674307 -1.150030040981238 0.9505370400279254 -0.1547903142881743 
0.5520867362565072 -1.493149850870790 -1.559751705269787 0.7138850171805089 -0.1678231231499760 -0.3026398191197340 
-1.149682401800118 0.1817636435581641 0.6679401566875430 0.003184576971265809 1.053298905024899 0.1191258619920070 
-0.4795857047166290 -0.2962228886917813 0.4537003068857032 0.03377092496522603 0.2291894541087655 0.02685433054033641 
0.1294197823534685 -0.9685893332340367 0.1306943117043904 -0.1480185075382256 0.02262546976807070 -0.7271486920779807 
-0.1028325257003120 -0.01549243867310123 -0.9608525131818602 -0.8124939761102643 1.463838799289068 -0.01726162097308173 
-0.6219102584363877 -0.2093537574471005 0.5653073090576419 0.1325764893103156 0.4584342380822440 -0.1808253012089846 
-0.4802798286233634 0.8956953098755996 -0.1190982427788226 0.4328332296275914 -0.6560318381771032 0.5559446225978433 
-0.2872887324350537 -0.2045308749264167 0.9835257245951128 -0.2457677013095909 -0.03949084367112803 -0.02689112272201778 
0.4631007764707597 -0.7695745598753823 -0.4840605187917025 -0.1002250274202381 -1.430224086158063 2.244439057945205 
