solver_type L2R_LR_DUAL
nr_class 6
label 2 1 6 5 4 3
nr_feature 18
bias 1.000000000000000
w
-0.03926563777151951 -0.3882402810075144 -0.4251718490510474 -0.1366658177928731 -1.970337094678622 -1.116152512069291 
-0.7676033946209322 -0.3841820700006775 0.4760323529448296 0.1290898436837968 -0.2299306369788549 -0.08058333732579964 
-0.06025283915135224 -0.2571089299202979 -0.2641323851122392 -0.4077200883963615 -0.6786093799827463 -0.02761180450132309 
-0.3350491365692165 -0.2481408090837712 -0.1711222288769740 -0.1567047544700319 -1.180308204744751 -1.227071240025426 
-0.3310917882244719 -0.4467943781860575 0.3824788984650758 -1.079854049668617 -0.7570461301612337 -0.8723768947507292 
-1.268716327415239 -0.4838765076430537 0.01876724358367471 -0.9193133557456965 0.9134182772186457 -0.1221803685968348 
-0.2576502396533409 -0.2704931235266604 -0.1701959407643305 -0.7058263114418910 -0.5572169635388685 -0.7560958912862422 
-0.3553817484565064 0.2555168607101336 -0.6413194407996572 0.3996051050296721 -0.9976460207070253 -1.176898584853959 
-0.2644072017936158 -0.9218784272210289 0.2169503728277940 -0.9266668154087011 0.02226145839450922 -0.7775606758289260 
0.3792758331246620 -0.8413985865757339 0.3353401603772652 -0.8704653559055106 -0.8687942777138290 -0.3176708113445941 
-0.6449024249819660 0.1368907348406624 -0.1311970879972253 -0.1029300404968118 -0.3080964602480372 -0.1176450318285665 
-0.06967642236505926 -1.253651289100371 0.3273043064129739 -0.5277800405807822 -0.4258539649764231 -0.4709325230590866 
-0.2430431342213612 0.02446959896726077 -0.2524234056812094 -0.02052734620537881 -0.5320823260167387 -0.2534782950672669 
-0.02693927994085313 0.2827102412763891 -0.3916461464609386 -0.3922001637093959 -0.2511773640013538 -0.5801981073701351 
-0.3763984198363649 -1.105431345728436 0.004572500722933637 -0.5632035071534667 -0.6950773617302490 -0.5636571331141488 
-0.6051344869041201 0.1155977805649033 -0.08305752690422047 -0.8506446681138344 -1.600694848324009 -1.119360611067794 
-0.3338946954523693 -0.4899601859567633 -0.1021327614468210 -0.6026419820627322 0.05454429628823211 -0.3767155952872890 
0.09035322355815369 -0.8375471159823916 -0.3563734536928900 -0.4244744999468738 -1.120161041502877 -1.634650689883309 
-0.8738767262958297 -0.4847636860982175 0.3453353812252111 -0.5901985123113112 -0.6780739896707423 -1.651416871858580 
