solver_type L2R_L2LOSS_SVC_DUAL
nr_class 3
label 3 2 1
nr_feature 362
bias 1.000000000000000
w
0.9093199794036422 -0.9380173154649905 -0.2794444663330250 
0 0 0 
0 0 0 
0 0 0 
-0.2923240968339348 0.1677628469526481 0 
0 0 0 
0 0 0 
0 0 0 
0 0 0 
0 0 0 
0 0 0 
0 0 0 
0 0 0 
0 0 0 
0 0 0 
0 0 0 
0 0 0 
0.1131792361369045 -0.04057785769624538 -0.04742861004519597 
-0.4870959790567595 0.8625163379639900 0.04398944339095268 
0 0 0 
0 0 0 
0 0 0 
0 0 0 
0 0 0 
0 0 0 
0 0 0 
0 0 0 
0 0 0 
0 0 0 
0 0 0 
0 0 0 
0 0 0 
0 0 0 
0 0 0 
0 0 0 
-1.041866766221496 -0.01812887539402629 0.5970493639475661 
0 0 0 
0 0 0 
0 0 0 
0 0 0 
0 0 0 
0 0 0 
0 0 0 
0 0 0 
0 0 0 
0 0 0 
0 0 0 
0 0 0 
0 0 0 
0 0 0 
0 0 0 
0 0 0 
0 0 0 
0.4543534513409878 -0.2330286678039709 -0.09533661459737044 
0.001336234677940206 0.4804709760505099 -0.4807379724959416 
-0.08731503176401081 0.05583991786465602 -0.2387671704135691 
0.7083680597136540 -0.5093102185085400 -0.07531337871841348 
-0.1378617697721279 0.1018609295230518 0.3567100742188484 
0.3162631079794442 -0.4027320652667780 -0.06482932575988032 
0 0 0 
0 0 0 
0.4026117481675223 -0.1853337827998575 -0.06208115922083166 
0 0 0 
0 0 0 
0 0 0 
0 0 0 
0 0 0 
0 0 0 
0 0 0 
0 0 0 
0 0 0 
0 0 0 
0 0 0 
0 0 0 
0 0 0 
0 0 0 
0 0 0 
0 0 0 
0.2383156749784690 0.07413317998497132 -0.3039000438255070 
-0.4928440535226198 0.3049792572063963 0.4011487075769232 
0 0 0 
0 0 0 
0 0 0 
0 0 0 
0 0 0 
0 0 0 
0 0 0 
0 0 0 
0 0 0 
0 0 0 
0 0 0 
0 0 0 
0 0 0 
0 0 0 
0 0 0 
0 0 0 
0 0 0 
0 0 0 
0 0 0 
0 0 0 
0 0 0 
0 0 0 
0 0 0 
0 0 0 
0 0 0 
0 0 0 
0 0 0 
0 0 0 
0 0 0 
0 0 0 
0 0 0 
0 0 0 
0 0 -6.938893903907228e-18 
0 0 0 
-0.5399170863903793 -0.09982848817829919 0.4777233797980849 
0.2525273064859831 -0.3415598329621574 0.1412471566599174 
-0.3584247828715655 0.1499334267992351 -0.1117282805800629 
0.5459196863582904 -0.4497571674173623 -0.3125154596191990 
0.1688770764583321 0.1245636974693681 -0.1043996608219474 
0.2392908559402117 -0.05047428188199107 -0.4096032967734061 
0 0 0 
0 0 0 
-0.1339085470855040 0.2858424297299596 0.09034052456690403 
0.7271942150333558 -0.7114351492348884 0.1869307641284746 
0.6296541491548320 -0.5249602034011907 -0.1620380440211402 
-0.7465554930691014 0.7198728078570413 -0.06211343232751642 
0.1383876513190864 -0.1245842939533036 0.03255652174717885 
-1.387778780781446e-17 3.469446951953614e-18 -0.2794444663330250 
0 0 0 
-0.2923240968339348 0.1677628469526481 0 
0 0 0 
0 0 0 
0 0 0 
0 0 0 
0 0 0 
-0.2069170122282037 0.2194907208981633 -0.1127509117668896 
0.02236536419222441 0.1406622415638495 -0.4228494098786883 
0.06942266686198711 -0.1608098843510038 -0.05236039440864847 
0.1349372589220338 -0.4061480661862139 0.1307503016562768 
0.4026117481675223 -0.1853337827998575 -0.04008728257536319 
0.03393639968867807 -0.08120522090463562 0.2131890401672850 
0 0 0 
0 0 0 
0 0 0 
0 0 0 
0 0 0 
0 0 0 
-0.6369197371341004 0.4477905828755446 0.4182985607490103 
-0.04919082695445584 -0.2857401687482178 0.1132614868809748 
0.9697867084619080 -0.8988521044629095 -0.2868714526795431 
0.06150861173066346 -0.03592811770577668 0 
0.1452976917708281 -0.01361107099373811 -0.2966429901954146 
-0.2580586123489853 0.3326590631936178 0.1040425811599588 
0.04300419125744647 -0.01230949546838636 -0.1366414348470112 
0.04937915404525742 -0.2364777642022493 0.2975708295768078 
-0.5545613193128824 0.3911754978597445 0.03443381017917448 
0.4454023176744018 0.02313931075315148 -0.2439101112175091 
0 0 0 
0.5349579853726589 -0.5141918114787065 -0.1686793397676448 
0.2369475370211623 -0.5868324039970801 0.3935614364267462 
-0.2098758566267637 -0.08277251423010884 0.09495251645618889 
-0.8703438410779318 0.7775380706229738 0.1829249849817477 
0.3192682832407123 -0.09022464344992752 -0.5429581436855560 
0.2905914127265609 -0.1440951238864200 -0.09288297819639511 
0.2305121193986060 -0.2362721932214515 -0.03165515256457140 
-0.4266009590102571 0.4219483092222608 -0.1817966788899928 
0.2891306901597347 -0.2694770445009966 -0.07419134372434513 
0.3862620186268251 -0.3847523438530583 -0.1022089890913436 
-0.2348022096091144 0.3558952194517279 -0.1676621170856429 
-0.07873664668811238 -0.2165908149917595 0.3662886027462641 
0.08298947291847530 -0.1049446583243840 -0.1099033256752648 
0.1403363841643307 -0.2053807162346620 -0.06892703378272112 
-6.938893903907228e-18 1.734723475976807e-18 -0.01545199971888868 
-0.4301899730229573 0.3076371444647045 0.2522037077971996 
0.2542638785896813 -0.1181469557777398 -0.2303017248462894 
0.4089566629547146 -0.3376813430664030 -0.1117282805800629 
-2.081668171172169e-17 -0.01482746284121241 3.469446951953614e-18 
0.7991214931148514 -0.7506890157552352 -0.07110505332792627 
-0.2240018811966778 0.3058774703104524 0.2184145959087124 
0 0 0 
-0.1187631863139308 -0.02853244633491473 -0.4314181993868148 
0.1778952646474649 -0.2374864643816695 0 
0.3044785103371625 -0.1091515203544057 -0.1291927067632769 
0 0 0 
-0.02601734938038559 -0.1267060070436229 -0.1549159500427507 
0.4563564256042421 -0.4733439917796963 -0.2841086568060283 
0.4563564256042421 -0.4733439917796963 -0.2841086568060283 
-0.1522244381231779 0.1903102123771391 0.06137437330397150 
-0.4832374660702420 0.3651679767190382 0.5513546226981476 
0.01274552143035170 -0.2490948136739029 -0.08685997819714625 
0 0 0 
-0.8123149313740925 0.8263889679615204 0 
0 0 0 
0 0 0 
0 -0.08277251423010883 6.938893903907228e-18 
-1.387778780781446e-17 0 -0.07639837125088035 
0 0 0 
0 0 0 
0.2419578540241090 -0.2330286678039709 -0.07110505332792628 
0 0 0 
-0.1486942129166467 0.06538773305621148 -1.301042606982605e-18 
0.1510490127671187 -1.734723475976807e-18 -0.07444300022078565 
0 0 0 
0 0 0 
0 0 0 
0 0 0 
0 0 0 
0 0 0 
0 0 0 
0 0 0 
-3.469446951953614e-18 -1.387778780781446e-17 0 
-0.2654671504647571 -0.2274498007968783 0.02519116377392650 
-0.1254568807003924 -0.2117031188286859 -0.02937769742622651 
-0.5764402490940168 0.5146919381164089 -4.336808689942018e-19 
0.3211967476711480 -0.3316102116396225 -3.469446951953614e-18 
0 0 0 
0 0 0 
0 0 0 
0 0 0 
0 0 0 
0 0 0 
0 0 0 
1.214306433183765e-17 -0.02713695830959876 3.469446951953614e-18 
0 0 0 
0 -0.09313272693184775 0 
0 0 0 
0 0 0 
0 0 0 
-0.3300134576839452 0.3088697748329994 -0.2236323916746614 
0.1002841807218572 -0.3900688281100096 0.1463034877721406 
-0.2068245800166466 0.3589637891779728 -0.1978088478870743 
0 0 0 
0 0 0 
0 0 0 
0 0 0 
0 0 0 
-0.1815509892025456 0.04076218974320538 -0.08401528728748688 
0 0 0 
0 0 0 
0 0 0 
0 0 0 
0 0 0 
0 0 0 
0 0 0 
0 0 0 
0 0 0 
0 0 0 
-0.2068245800166466 0.3589637891779728 -0.1978088478870743 
1.214306433183765e-17 -0.02713695830959876 3.469446951953614e-18 
0 0 0 
-0.006919497285634181 -0.4311717527610190 0.04636745691750217 
0 0 0 
0 -0.09313272693184775 0 
-0.3300134576839452 0.3088697748329994 -0.2236323916746614 
0 0 0 
0 0 0 
0 0 0 
0 0 0 
-0.1880971511421196 -0.09555037612646815 0.4814902613583666 
0 0 0 
-0.1815509892025456 0.04076218974320538 -0.08401528728748688 
0 0 0 
0.1002841807218572 -0.3900688281100096 0.1463034877721406 
0 0 0 
0 0 0 
0 0 0 
0 0 0 
0 0 0 
0.3547950516855230 -0.05281345885185282 -0.1817966788899928 
1.387778780781446e-17 -8.673617379884035e-19 -0.05396154376960411 
0 0 0 
0 0 0 
0 0 0 
0.4921357882852422 -0.3458221746437695 -0.1981987842474197 
0 -0.1181469557777398 0 
0 0 0 
0 0 0 
0 0 0 
0 0 0 
0 0 0 
0 0 0 
-0.2120541489761372 0.1961798025187377 0.1581266803089279 
-1.464495306514249 0.9816573693085631 0.2418885191782849 
0.05788509838948878 -0.3455835803189241 0.1435863053582450 
0.6337958539277793 -0.3455835803189243 0.02081474082489561 
0.1982216069328091 0.06958985370476053 -0.1450333844563322 
6.938893903907228e-18 8.673617379884035e-19 -0.01545199971888870 
-0.08994089680303805 0.1961798025187377 -0.03912199829995360 
0.05788509838948870 -0.3455835803189242 0.1166906949853150 
0.4660749856329127 0.06893661679367459 -0.3991170947520197 
-0.08741936076785023 0.5073430649573794 -0.1129709504430252 
0 0 0 
0 0 0 
0 0 -6.938893903907228e-18 
0.1410162976094176 0 -0.04582812348240675 
-0.4519573683462844 0.2100116338312335 0.2039548037913344 
0.2066313207555718 -0.1231628525854845 0.1817822160717212 
-0.5265918965135028 -0.02786178194912704 0.4545353722698336 
0.02949227939268231 -0.02786178194912705 0.008974204783712860 
0.06829108113169856 -0.3316102116396224 -0.1264269803563731 
0.02949227939268230 -0.02786178194912704 0.06293574855331696 
0.8098502203006596 -0.9029322118049501 -0.1189678065862209 
-0.5265918965135028 -0.02786178194912704 0.4545353722698336 
-0.07077209928141610 -0.4590335347101460 0.2349290484561570 
0.1905076409938728 -0.009346609774495394 -0.1751198917407860 
0.2925395524882234 0 -0.1668524612617085 
0 0 0 
0 0 0 
0.1410162976094176 3.469446951953614e-18 -0.04582812348240675 
0.1221132521730990 -0.09313272693184775 -0.2357582226595968 
-0.3271903149206139 0.2138537457044815 6.938893903907228e-18 
0 0 0 
0 0 0 
0 0.02352840879085082 -0.06211343232751641 
0 0 0 
0 0 0 
0 0 0 
0 0 0 
0 0 0 
0 0 0 
-0.3959601782383574 -0.3477981561101969 0.4634882492361821 
0 0 0 
-0.2311515252223562 0.5983076673266507 0.03614208776295388 
0.07892673426616761 0.2538733773526628 -0.1129443211566719 
0.2786372113808562 -0.3844200080575460 0.04664264471719743 
-0.1722471267733476 -0.3840404560574803 0.3143536528723104 
0.5118376542237730 -0.1376556586873336 -0.3949829513288825 
0.5913907187150210 -0.2158601851099385 -0.3389363639220023 
0.1463531013866438 0.03156052217214046 -0.2201951007207837 
0.1936489530184823 -0.02566126568360588 -0.09482586279437669 
0.1655451981535722 -0.1935030795200137 -0.08234918017184230 
0 0 0 
-0.04919082695445584 -0.2857401687482178 0.1132614868809748 
0 0 0 
0.8749802235966049 -0.8923371347603013 -0.04669706789610278 
0.4763298910985813 -0.1042935743415348 -0.4566173562992489 
-0.1496689462622482 0.5017455275717650 -0.4015920686172040 
0.05375520255921784 -0.3218869491613154 0.2999909808254583 
-0.4258459087718371 -0.1269423035421132 0.7504515540986597 
-0.3223539554809856 0.4712257503985030 -0.1819277036969134 
-0.9484388101589425 0.6443855667072184 0.05848984590264462 
0.08252357334385267 -0.3218869491613154 0.2788738187978758 
-0.1516800147441472 0.3774203497186474 -0.2112085981005935 
0.9690787623674345 -0.9129530049949004 -0.2556279163698773 
-0.05582537116358332 -0.1399841686130838 0.1895883417852246 
0.3475832001098101 -1.387778780781446e-17 -0.3914407324094718 
0 0 -6.938893903907228e-18 
0.08187731064375883 0.2643687986505809 -0.1356978958608767 
0.5343153546071011 -0.4233016499448948 -0.03483319390118660 
0.2500226657103707 -0.04477857981022809 -0.3963617418259728 
0.3999006044201468 -0.2644586183851140 -0.1012936762504793 
0.3659642047314692 -0.1832533974804780 -0.3364765930632328 
-0.1359020711132679 -0.1468996020064547 -0.01062816195167444 
-0.06385260199578188 -0.02786178194912704 0.1885615915386548 
-0.3120645605816667 0.4056507885589624 -0.06767879747225942 
0.003940426181789152 -0.6122567744953108 0.3248407183068437 
0.5353824236437398 -0.3207726014481801 -0.1546799141732399 
-0.4142464607365380 0.6427516742024217 -0.3247739172912934 
-0.1958283115880854 0.5283622624501023 -0.3413478625024922 
-1.734723475976807e-17 0 -0.2525488559600946 
0.5930736941810437 -0.7112007615794396 -0.2586899504921629 
1.078097047871050 -0.7576964633280227 -0.2586899504921629 
0.8870177343117637 -0.6833152819133090 -0.2929135729772187 
