solver_type L2R_L2LOSS_SVC_DUAL
nr_class 10
label 6 13 8 11 14 1 7 2 12 5
nr_feature 233
bias 1.000000000000000
w
0.1172343939880545 0.1388026329629336 -0.2957692038562031 0.2389224508218774 0.02500749756386321 0.1633102938842469 -0.3650038495153939 0.09340711620816075 0.1143605978847357 -0.09926862442787114 
-0.7902814502306404 0.5948488992408908 0.4472563037310300 0 -0.2626489684098950 0 -0.4140864211647756 -0.1383684009307106 -0.1301623219991986 0 
0 0 0 0 0 0 0 0 0 0 
0 0 0 0 0 0 0 0 0 0 
0.5817945350382114 -0.07927360836988918 0.04276088184767246 -0.03737194300282845 -0.1640710845782755 -0.5041713672710428 -0.1205836273181754 -0.01826519277680592 -6.938893903907228e-18 0 
-0.2803439829624673 0 0.6732952777470990 0 -0.007344984426515658 -0.2828917895084124 0 0 0 0 
0 0 0 0 0 0 0 0 0 0 
0 0 0 0 0 0 0 0 0 0 
0 0 0 0 0 0 0 0 0 0 
0 0 0 0 0 0 0 0 0 0 
0 0 0 0 0 0 0 0 0 0 
0 0 0 0 0 0 0 0 0 0 
-0.3044003651568262 -0.1362111194019975 -0.8165760633966952 -0.03343812027585725 1.225461660531054 0 0 0 0 0 
0 0 0 0 0 0 0 0 0 0 
0 0 0 0 0 0 0 0 0 0 
0 0 0 0 0 0 0 0 0 0 
0.5037134043562017 -0.05263509872528881 -0.4730411766855490 -0.2487031827333055 0.8550984401155346 -0.1781637756369369 -0.4929852795698467 -0.01633627102998307 -0.1267584516016061 0 
0.1205582980227312 0.06186621490116516 0.08959733419292120 0.1337642357865202 0.01344308857801898 -0.1945964988164418 -0.04331897733962253 0.1560998823759590 -0.1530479940761000 -0.009399341839250987 
-0.06491148110149203 0.1474450224316787 0.1186446917387782 0.01517480876961778 -0.1114993563291418 0.01920961674444142 -0.1397415485389500 0.1355795732470646 -0.1382687161796215 0.01370904462522109 
-0.3721502552992843 -0.2639368112482016 0.1465274634194527 -0.02572590583291491 -2.775557561562891e-17 0.4355090950307528 1.387778780781446e-17 0.6295138814839409 -0.07701642362879924 0 
0 0 0 0 0 0 0 0 0 0 
0 0 0 0 0 0 0 0 0 0 
0 0 0 0 0 0 0 0 0 0 
0 0 0 0 0 0 0 0 0 0 
0 0 0 0 0 0 0 0 0 0 
0 0 0 0 0 0 0 0 0 0 
0 0 0 0 0 0 0 0 0 0 
-0.1933179162408734 -1.734723475976807e-18 0.2394011923073013 -1.734723475976807e-18 0.2712177670783312 -0.2043094221491607 -0.3901019024072475 -0.2340191814328009 -0.1199494695042680 -3.469446951953614e-18 
0 0 0 0 0 0 0 0 0 0 
0 0 0 0 0 0 0 0 0 0 
0 0 0 0 0 0 0 0 0 0 
0 0 0 0 0 0 0 0 0 0 
0 0 0 0 0 0 0 0 0 0 
0 0 0 0 0 0 0 0 0 0 
0 0 -0.6165391788921120 0 0 -0.08112158094499608 0.9478229986148988 -0.06579426424687383 0 0 
-0.2575537672552071 -0.2214254567956562 0.04036191028651082 -0.05300258535259004 -0.4766089861899823 0.2319248321216529 0.5136365642722155 -0.1967741077132018 -0.2407733396734135 0 
-0.03331334697505183 -0.05556636484308972 0.5423690453578697 0 0 -0.02026653856051732 0 0 -0.07139091524274169 0 
-0.1841739662922776 0 -0.1988298529248503 0 0.1253565847753420 -0.2439456972565298 -0.5430399330555542 0.5014169791762042 0 0 
-0.08404353592119854 -0.02978564662372262 0.2570287630174031 -0.09920963961894200 -0.3250304025737650 -0.6668719143864106 0.4057393005612295 -0.08683389770548844 0.4422921753111495 0 
0 0 -0.5405161469405597 0 0 -0.1837313077120288 0.8523162846295268 -0.07716705289971591 0 0 
0 0 0.4621589763373218 0 0 -0.2376155489588166 -0.2980409257596545 -0.1723088304452703 0 0 
0 0 -1.022034648028346 0 0 1.134563582535614 -0.01136558103313530 -0.1852745720178735 0 0 
-0.3571996684035713 -0.1047915789159929 0.3274282386953260 -0.01684908138394112 0 0.1800870752870700 -0.05235400710456114 -0.1499374454780280 -0.03277716398086995 0 
-0.2745526372033884 0 0.2041435473708740 0 0 0 -0.09811994835689275 0 0 0 
0 0 0 0 0 0 0 0 0 0 
0 0 0 0 0 0 0 0 0 0 
-0.1076731618158072 -0.07641532563086972 0.2388918212327249 0 -0.09743537826129317 0.07987277621498665 0.1050444590552482 -0.1622591974999645 1.040834085586084e-17 0 
0.2685003948659938 0.1685992208018690 0.001390278984057192 -0.3178513839844925 -0.06077014459503445 -0.3427268935115925 -0.2432267459534427 -0.1374255230622438 -0.1006901916726437 0 
0 0 0 0 0 0 0 0 0 0 
-0.1104186091339290 0 0.5704486925696096 0 -0.2685623162856173 0 -0.3477243313026543 0 0 0 
-0.1433585826528372 -0.06504719452978462 0.7343214028654895 -0.1826343222642064 -0.1014004041040430 -0.2673820350692693 -0.1918322081343094 -0.04526670602271975 0 0 
0.2449018388097796 -0.2714430401619649 -0.02722410870781442 0 -0.07692057569615021 0.5413686271753579 -0.1692035956242991 -0.07184916975886972 -0.07696505297207441 0 
0 0 0 0 0 0 0 0 0 0 
0.4413039821385517 -0.3687242583208266 -0.3995711188619409 0.3210020180641776 -0.1284918578448079 0.01000264302877574 0.2142536623581589 -0.0002290283316856382 -0.1462563795784155 -0.08470279143429185 
0.4453409436081244 0.1249910025393129 -0.1686490100926651 -0.02435365628428078 -0.1770681972572319 0.04110940439035297 0.1676809618188902 -0.1668188633728927 0.1485812486902893 0.02034618590211507 
0.2008633328747427 -0.0004781434091626275 -0.02644689570181473 -0.1161837538728934 -0.2321170530041113 -0.1033389642924105 0.1098527057427180 0.03613084974121171 0.01671860119192836 -0.09089226632550948 
0.1740530357257626 0.1466772967058722 -0.1346157666392659 -0.2553409434928691 -0.4950928622149702 -0.002620899606328767 -0.07477179534489242 0.1046565954899974 0.2059683504507419 -0.05447841395848956 
0.003490369923151745 0.1988950276832305 -0.2169349167197099 0.1819659628374274 -0.2895163832623781 0.2253904771918955 0.01657086997717065 -0.06212498173696908 0.08172559352330859 -0.1032115674596455 
0.1336100805566788 -0.3481679057894584 0.06967257316943844 6.938893903907228e-18 0.04753472780091935 -0.1360954287975725 0.04120693545923293 -0.1429030346111553 -0.1014652031289360 -1.734723475976807e-18 
0 0 0 0 0 0 0 0 0 0 
0 0 0 0 0 0 0 0 0 0 
0.1658654033060750 -0.2941058486912467 0.2170249642010356 -0.05613355672123925 -0.5089282094006629 -0.4977349301432705 -0.07524173341292453 0.007138911466001580 0.08808358959274706 0.1050184776363789 
0.1937447509670784 0.3049351353994969 -0.2352521065008630 -0.1779633350854520 -0.3483167632060985 0.06140542008966216 -0.006164369080476483 -0.3595456274654399 -0.1654332729816299 0.1785138938967142 
0.2304532921965419 0.3152065983202777 -0.2360778069064560 -0.1218769360642062 -0.1754358619203681 -0.1319641483928068 -0.09440084542702269 -0.3723024597066031 -0.03542093142792324 0 
0.3170958201091070 0.1749720189971816 -0.3386096684277958 0.1616486550268846 -0.1678240613184654 -0.003072533145859875 -0.1239654890783353 -0.009962758153612562 -0.05011817453286308 -3.469446951953614e-18 
0.1008870251924011 0.03021247226645341 0.06881479826794710 0.02249510587648166 -0.08175101945269006 0.07212570875619814 -0.01443196766215275 -0.1575010775189930 -0.04964073110779364 -0.07956731887837142 
0.3421375277705205 3.469446951953614e-18 0.1175962516857098 -0.1794535788353193 0 -0.1520893116757988 -0.02777306317224838 0 0 0 
0 0 0 0 0 0 0 0 0 0 
0.07137540336808515 0.03370696163637883 -0.1983505513788557 0.2996886373062639 -0.3358760422239429 -0.1715398708262304 0.1301372476187208 -0.9577149139348815 0.2930147399930284 0 
-0.5062725364770368 0.4009025662911036 -0.3226836612381506 0.6277480596608567 -0.1622656654723380 0.1037825257235414 -0.3706481749078492 0.06530633427495058 -0.1167840351316384 -7.375120545589797e-05 
0 0 0.1520828805871512 0 0 -0.3576277113018947 0 -0.1545323448511529 0 0 
0.08618520237296065 0.05229549505031891 -0.09471243684690704 0.05671387550220952 -0.08383579393185889 -0.1283224331646274 0.04831244839872108 -0.05435563693026235 0.2667050128915755 -0.2395566594907394 
1.069962489132450 0 -1.076205484993857 0 0 0 -0.1055882811853369 0 0 0 
-0.04291059523724249 -0.1004511724285514 0.1150941325923484 0.1124563533106111 -0.5245271725732825 -0.04938802754547768 0.2205384871802731 -0.1684213268304548 -0.3042914370819650 1.734723475976807e-18 
0 0 0 0 0 0 0 0 0 0 
0 0 0 0 0 0 0 0 0 0 
0 0 0 0 0 0 0 0 0 0 
0 0 0 0 0 0 0 0 0 0 
0.008781517410296170 0.2217704384038306 0.1030081024667574 0.08738954044530031 -0.1246035153695830 -0.2058922213336306 -0.1257733049457245 -0.03897767575372267 0.07788071114085088 -0.1311338291271864 
-0.1542522366096266 0.002730255401369845 0.3946966581559410 -0.1181383223267507 -0.7264060679212127 -0.1470951018259743 -0.3218674118729568 0.07527208881529382 -0.06558029593390963 -0.03565611800900816 
-0.1176415336961234 -0.01583774301840109 0.1577782545492467 -0.09337065010945184 -0.06080680175974837 0.08522088510500615 -0.09642392521537763 -0.06995951520628153 -0.06969430201577528 -0.2054424697400527 
0.1592086943200941 -0.1422640741426360 0.2190794013891633 -0.4812353960762011 -0.4819167989868139 -0.09533325455136016 -0.02682023664132090 -0.1271146029147814 -0.08392154163950727 2.428612866367530e-17 
0 0 0 0 0 0 0 0 0 0 
0 0 0 0 0 0 0 0 0 0 
0 0 0 0 0 0 0 0 0 0 
0 0 0 0 0 0 0 0 0 0 
-0.01423949408409767 -0.1395343540600632 0.1252039219164345 0 -0.2642794655331234 0.4244608546160633 -0.1653630701758045 -0.1015753104758922 -0.3464727297132743 0 
-0.1309677179493093 0.8801998480558837 -0.5625481706681139 -0.1471571610096467 0.5606291625528761 0.3244987127330076 0.2531206652364708 0.1739613461654668 -0.4625849559346462 0 
0.1414436797782090 -0.06059168853676712 0.1180965381224001 -0.1879737842374472 -0.3680246754934908 -0.2005400179333670 -0.1751803469332617 -0.3618949534783925 0.2682555058716497 0 
0 0 0 0 0 0 0 0 0 0 
0.01297348199326324 -0.2328732500823533 0.08917328197644028 -0.1342428868416280 0.3775880864917606 -0.1508247232786516 -0.7579512010365185 0.07084461287826262 -0.3992299971615432 0 
0 0 0 0 0 0 0 0 0 0 
0 0 0 0 0 0 0 0 0 0 
0 0 -0.9081969321181045 0 0 0.5807473243399751 0 3.469446951953614e-18 -3.628871225974751e-07 0 
0 0 0 0 0 0 0 0 0 0 
0 0 0 0 0 0 0 0 0 0 
0 0 0 0 0 0 0 0 0 0 
0 0 0 0 0 0 0 0 0 0 
0 0 0 0 0 0 0 0 0 0 
0 0 0 0 0 0 0 0 0 0 
0 0 0 0 0 0 0 0 0 0 
0 0 0 0 0 0 0 0 0 0 
0 0 0 0 0 0 0 0 0 0 
0 0 0 0 0 0 0 0 0 0 
0 0 0 0 0 0 0 0 0 0 
0 0 0 0 0 0 0 0 0 0 
0 0 0 0 0 0 0 0 0 0 
0 0 0 0 0 0 0 0 0 0 
0 0 0 0 0 0 0 0 0 0 
0 0 0 0 0 0 0 0 0 0 
0 0 0 0 0 0 0 0 0 0 
0 0 0 0 0 0 0 0 0 0 
0 0 0 0 0 0 0 0 0 0 
0 0 0 0 0 0 0 0 0 0 
0 0 0 0 0 0 0 0 0 0 
0 0 0 0 0 0 0 0 0 0 
-0.1468749285394790 1.734723475976807e-18 0.4667154082891133 0 0 -0.0006620007145935425 -6.938893903907228e-18 -0.2160758803996783 0 0 
0 0 0 0 0 0 0 0 0 0 
0 0 0 0 0 0 0 0 0 0 
0 0 0 0 0 0 0 0 0 0 
0 0 0 0 0 0 0 0 0 0 
-0.4409944869761214 0.9698992186452373 -0.8633437525710767 0.4871689473557102 0 -0.2084982904374356 0 0 0 0 
0.1736157812015777 0.05590853329511131 -0.3063686267535582 0.2094970191397850 -0.4077872610456692 0.4153181597698087 -0.3609545736263980 -0.6232410711130536 0.1494432396576295 -0.03321964130787423 
-0.3128001192973876 0.1245086698636020 0.01457565446623269 -0.1627471604141600 0.1470986095584471 0.02811815471257021 -0.02554904466504353 0.01703968753074974 -0.06215357303913187 -0.04470143226380600 
-0.2665253653457926 -0.2019068602972088 -0.03277220060308703 -0.02394810038513416 0.3104172066192660 0.1181388559982582 0.06718492595626284 -0.02755972393782494 -0.02749029872549506 -0.1489792343183572 
-0.09030731957433905 0.1055850627937160 0.1759283164877132 0.1555116557453660 -0.04561284851045153 -0.4175892592608069 -0.2055224748917127 -0.1157439406491558 -0.2285459077455321 -0.1745512051929736 
-0.07044396089949288 0.2544602971046323 -0.1561396133134501 -0.03306193091643485 0.1120645511532578 0.07923449962932304 -0.09295139902656505 -0.07787197059026751 0.1246743079407862 0.01340421000040281 
-0.3650469338508034 -0.1414942874284867 0.1007415870405032 -0.2469253067196307 0.03297407492613454 -0.4865285716901898 0.2315144876649587 0.1787079991506552 0.1116090787288641 -0.02354723612396587 
0.5683059021953791 -0.4264426885904643 0.02534132583991386 -0.1544431747427399 -0.3795310692938795 -0.7428332469541531 -0.3155512780961641 0.1260355491871908 -0.3110215110950568 -0.02952287701902261 
0.1027446059444356 -0.07927360836988913 -0.3783009173209350 -0.05422102438676960 -0.1610390715943445 0.5779183006389904 -0.1205836273181755 -0.01846253101578992 -5.204170427930421e-18 0 
0 0 0.3765334859754605 0 -0.2054229785020626 -0.005796590627850882 0 -0.1836368455904912 0 0 
0.1117450740911338 -0.1272128205748552 0.1430426688510022 -5.204170427930421e-18 -0.5224076629465175 0.2618366186805341 -0.1599175246576792 -0.3716590674357758 -0.1129471522509703 0 
0 0 0 0 0 0 0 0 0 0 
0 0 0 0 0 0 0 0 0 0 
0 0 0 0 0 0 0 0 0 0 
-0.2350537098223179 0 0.3817868947679393 0 -0.1452157236237452 0.3163572635463195 -0.1654102545055398 -1.040834085586084e-17 -3.628871225974751e-07 0 
-0.1225409899556364 -0.1294459488027560 0.3756807194163246 0 1.387778780781446e-17 0.08755455223809992 -0.4347638250905398 -0.6973804591096747 -3.628871226087508e-07 -0.07526590890509051 
-0.08269260293352879 -0.05865298243925980 -0.1354364056037774 0.003462230919015365 0.05503129262956413 0.1766632734349298 0.1077951160361120 -0.008467953195721118 0.1176599132717410 -0.01313610604671470 
-0.02335641367220263 -0.03060682258914148 -0.1078139691888393 0.003105322991803849 0.2770217618290016 0.1665079132224455 0.09964732296050885 0.01110116394492021 -0.1555152546802201 -0.2936841673325087 
-0.01075182568927114 0.7220887377258887 -0.1047543430767886 0.1387269295382043 0 -0.1997646200777941 -0.1299375245643981 -0.1731326342205201 -0.04267515413251834 0 
-0.2844338690074754 -1.040834085586084e-17 0.7216554730830514 0 -0.05610919328946277 -0.5547639180559193 -0.2673782374867437 -0.2469944282770009 -0.2429786384657104 0 
-0.04221763805257301 0.09438808025691645 -0.2381027338294386 0.1760645660133058 0.1966495510741851 0.09966263032310461 -0.1233385655077088 0.1578004687270732 0.1960810476419981 0.09451230388481743 
-0.05217442557241865 -0.4799624262737965 -0.09431786467291228 -0.3412178324690680 -0.1196065630651850 -0.03771464234463671 0.3123079609245568 0.1581950470314976 -0.1994663616952968 -0.1202501453127696 
-0.06209068633392177 -0.9719456375355069 0.3952311830903617 -0.1613179868365646 0.1926044870593845 -0.2680235349718327 0.09055763234355754 -0.2105673750446715 0.1800509930652617 0 
0 0 0 0 0 0 0 0 0 0 
1.387778780781446e-17 -0.3961368110644034 0.3430617724569154 -0.2915622583198569 -0.1622656654723380 0.2207037706554063 2.775557561562891e-17 0.1859596814923138 -0.07410888099912004 -7.375120545589450e-05 
0 0 0 0 0 0 0 0 0 0 
-0.1664454517903686 -0.01202588765868870 -0.3101706886465150 0.05488901541662947 0.1655166611708623 0.2797986800123428 0.1707305287809671 0.1094233870358002 0.09986215562212919 -0.1387128350359322 
-0.3420916152512086 -0.2910465023289073 -0.6265439961048542 0.1111358902765698 0.02216503603070108 0.6365330859100786 0.3733776186190191 0.2104992211295918 0.07248506849283134 -0.07268334061314868 
-0.1784178511015965 -0.2656951870922437 0.1968239830680970 -0.2353387166901231 -0.2587998563968126 -0.3186220115061613 -0.3735096074182194 -0.2673558218300067 -0.2298039389402337 -0.2204764732251922 
-0.1439102656352694 -0.2260810484067080 0.07212632435525466 -0.2844963251293771 -0.4526593321933334 -0.2688792273671629 -0.2478663276159016 -0.2057950215207004 -0.2760711172462985 -0.1874213016925280 
-0.2855273310773412 -0.1218857532332693 0.2491726210198901 -0.2673821356674597 -0.008442473088419094 0.01274823336624051 -0.3016246753624963 -0.05232510423812229 0.02371116288133218 0.08843944747023355 
-0.07590892305701086 -0.1042439478395702 0.03335814225317342 0.2494078671491455 -0.4013421469817301 -0.1694128567939314 0.06395727466882100 -0.04474828768671607 -0.3073907360083743 0 
0.01333969209907754 0.1980815478588393 0.03615396015225383 0.04814726164460331 -0.07512251196382548 -0.03192754648716038 -0.2588026742347497 -0.06664289637671822 -0.4156716632900306 -0.03080106416833591 
-0.1023118563289645 -0.04285355451432405 0.2494490499746206 -0.05196350928972270 -0.5860237981671729 -0.07885991456348634 -0.1232434343015250 -0.1655770056287784 -0.05072771116340363 -0.04350884080414420 
-0.006493557232519136 -0.4389832249918150 0.04952561102210807 -0.2581895242650937 -0.1405158983729783 -0.2178877346901826 0.01727005022967440 0.03996723709321978 0.08799480646249963 -0.1323836443231137 
0.2242791524331307 0.03111455835978407 -0.4223678587391649 -0.09226255026553752 0.4307229264835094 -0.09145881287367125 0.1277701943532232 -0.1632888207400652 0.1161492472382845 -0.2954716907342137 
-0.08970529357323939 -0.01300586113859781 0.07365878174047051 -0.1475924511254400 0.06926471350047361 -0.01070260683113021 -0.1467026703870628 -0.02053596577353013 0.04005983769315605 0.005828017641851964 
-0.2255121204977978 -0.1087117818368453 0.2136309221032085 -0.002503304842327352 -0.1540074595827465 -0.03733943140932700 -0.2187099213784469 -0.02730438477894196 -0.1918078709291777 -0.004389785873770791 
-0.004899252095678014 -0.06539858630867713 -0.006551099037532628 -0.2585912404656823 -0.4645911322171562 -0.05593337993318152 0.1791735071448610 -0.03840888544635773 -0.2196427740393366 -0.1785733022998964 
-0.03382303905581156 0.05382743843897429 0.1338007232195012 -0.08628254483600947 -0.2452467972430957 -0.3190747494722409 -0.1963665280217246 -0.2427451166024940 0.1244241054625318 0 
-0.07461993850414042 -0.1732394453256629 -0.1247507507159569 -0.08509529704778461 -0.07317524398218216 0.1852348558629527 0.06210863315283497 -0.1046238593222690 -0.01658448365859054 0.006614373805233269 
0.02894499097090288 -0.1024120469828007 -0.09490179849598776 -0.1553150563400636 0.2612505420873581 -0.05581063191837814 0.06711296481613105 -0.03338741933958710 -0.2005564928802274 -0.05148692157929522 
0.03256262826918734 -0.1044883800881341 0.09037330050238490 0.3340826491337989 -0.1551644389262629 -0.01987432792778153 -0.3401122978628595 -0.08345007498350370 0.04483167527712581 -0.06376120771972686 
-0.04498138582352616 0.008646566604192843 0.05734900984773161 -0.2661302474214340 0.1194753412739394 -0.2847035740753695 -0.1745822928849125 0.05676889712244325 -0.04653921541886087 -0.1163009312502663 
-0.0002791073241554341 0.09903033746192338 0.2933138782762720 -0.1093754809844121 -0.5781707167655207 -0.3598500095872812 -0.1252462665555007 -0.3445477698531920 -0.1685761770766972 -0.05324522246663693 
-0.02469121046082960 -0.3415472113856237 -0.1168358181961544 -0.09487384679979277 0.005653088063175757 0.1035404038527572 -0.1523396160045107 -0.06338727896645610 -0.1243434062657810 -0.1251288032316398 
-0.09878313502814343 -0.01475187510815777 -0.2914244024872474 -0.1406359790959735 0.2360515661438934 0.03296954190314495 -0.3873889874030741 0.005593642219301642 0.2101508490709950 -0.01929043876004281 
-0.1985746639237402 -0.2345074864670963 0.3838966498304889 -0.1749497349393236 -0.3749931260316978 -0.3641611750419479 0.04359893492896733 -0.07080943675036316 -0.4231063219150547 -0.2102333104594000 
-0.3223281167368753 -0.4917762354989456 0.2689503074233529 -0.5198350418195140 -0.7114591885901715 -0.5875012388733384 -0.6213759350341214 -0.4731508433507136 -0.5058750561865240 -0.4078977749177167 
0.0004470359167345998 -0.1549917387012955 -0.2058779548567121 -0.1837798233588008 0.2673775542293218 -0.002752696816868547 0.05121644406573189 0.02747820045002642 0.1066022523186564 -0.01701635678312351 
0.1850858273683235 -0.07125106968347876 -0.3319275350924554 -0.3418930480573370 0.2999558402291255 -0.05589813526631313 -0.4267818127661152 0.1841562516548077 0.009080481773208362 -0.2172029119157212 
0.3327662144539708 0.09361511006943392 -0.5125875230112815 0.1766095307008845 -0.5999408866510807 0.02679069937837968 0.03038144211477159 -0.06656846825722049 -0.3020862997715521 -0.07180589108736067 
-0.8406271944758984 -0.3591485371836126 1.319343320383803 -0.1707717011042483 -0.6788516963975115 -0.5556411061685212 -0.2761920084485061 -0.6182168271983248 -0.3194714905068500 -0.1018726151315163 
0.08584794241361807 -0.03948691540105608 0.1141006712483008 0.04715920018569127 0.08872079288719828 -0.1542686750470730 -0.1434432621657007 -0.01701799089500380 -0.01907850690809550 -0.1106876918079573 
0.08039929994336303 0.2061706842513487 -0.1528903975289206 -0.3379536574696507 0.3022258213324865 -0.1477326861553600 0.1201960689772261 0.3856730013115091 -0.3185413003033711 -0.007807782064418461 
0 0 0 0 0 0 0 0 0 0 
0 0 0 0 0 0 0 0 0 0 
0 0 -0.7041138760032486 0 0 -0.2230038253428235 1.086107018746718 -0.2583095656299745 -0.1384934360820323 0 
0 0 0 0 0 0 0 0 0 0 
-0.4450147776928028 -0.1455411313571204 0.1483880411144634 -0.08262302051870994 0 0.3885298666806168 -0.06053231565502748 -0.1886690968543056 -0.03964153520436009 -2.168404344971009e-19 
0.1457380693278569 -0.2487645538539641 0.009318679479386464 -0.2348535645013147 -0.2757914367143157 -0.1372026459630127 0.2234855400611056 -0.1170203170446538 -0.2958076670086551 -0.02770156077477371 
0.1692905652701477 -0.4528974843354899 0.06627556161948987 -0.2759289595053402 0.3969538427483461 0.01586975742758648 0.1239342217953370 -0.1099745625947851 -0.2581283377388776 -0.005715680080365411 
-0.2690628987701801 -0.1352744131778015 -0.3251802467342903 -0.07176917774959403 -0.2285686657936294 0.5308082762294030 -0.5292049673822572 0.02766198433562671 -0.08190981018176316 0 
0.1943362920977617 -0.4210817781945001 0.4725491461249875 3.469446951953614e-18 -0.2661615644950957 0.01364273934526982 -0.2504006007600572 -0.2453125425916481 -0.3080398845507419 -7.806255641895632e-18 
0 3.469446951953614e-18 0.4954653619662124 0 0 -0.1337148221657978 -0.1030967577081990 -0.1674087043931410 -0.1287375647872201 -0.07896156385367226 
-0.5341723729982215 0.0003349503632347033 0.2945590375557794 -0.09927244745041044 -0.4632981223848061 0.1025174260200693 -0.3579927156967530 -0.1526774614507970 -0.5053603042349064 -0.02764905766433088 
-0.1897213014969851 0.4229725014859668 -0.4598000074757850 0.5776233203398292 -0.02839347993088312 -0.3062313833110157 -0.2663672136467606 0.1999479164280996 -0.006079038555468969 0 
-0.6257908212808021 -0.3730348760643190 -0.7756454943972587 -0.06923321488780354 -2.775557561562891e-17 0.008567756329171540 0.2804631961002495 0.6872600657548753 0 -0.01920868916474429 
0 -0.2159716994093810 0.05902490575768438 0 -0.2236909543883688 -0.3170998383869361 -0.3606087813229119 0.5672082428252835 0 0 
-0.01659897453597862 0 -0.3292045865926687 0 0 0.7252271948716613 -0.4310828652340686 -0.1588463129235957 0 0 
0 0 0.4447067251467787 0 0 -0.06609354030431293 0 -0.1787341664900776 0 0 
0.04235287585469182 -0.3860948774699950 0.3197790315852225 -0.2134415228210028 -0.1046832964651154 -0.1743883080622705 -0.4119367272561378 -0.3790648827763352 0.1723850528421263 0 
0 0 0 0 0 0 0 0 0 0 
0.1151075231198697 -0.3251330708985760 0.4673457960117718 -0.05184954110653976 0.1563801314554895 -0.2782488604958061 -0.4007601059605780 -0.3099667026752049 -0.2499273154120983 0 
0 0 0 0 0 0 0 0 0 0 
-0.1191668668646599 -0.2191821425437979 0.1708452272811006 -0.07580483116417015 -0.4114924046928715 -0.1198816537046360 -0.5977864448281530 -0.04029931473366993 0.1046940416728561 -0.07964362642412173 
-0.06934463914875752 0 0.2340799935236550 0 -0.1109862059289312 0 0 -0.1309802513465586 0 0 
-0.02773062674962512 -0.1209146543866868 -0.2675967053236024 0 -0.3585668336930545 0.7598303772719820 -0.09472126777826238 -0.1613413966835393 0 0 
0.1859908428355034 -0.07014811115599415 0.1105732721430754 -0.07306522929753423 -0.09419445629779580 -0.4610732844597639 -0.1291309943297645 0.09001932841612637 -0.2654000120506035 0 
-0.3668206852480362 -0.1580789277823418 0.8275593860735128 -0.005180795915981630 -0.1308884403423515 -0.1651998883680958 3.469446951953614e-18 -0.2295708211079197 -0.1595836168117193 0 
-0.1553128357579220 0.04380601532240550 -0.3852787171559520 -0.2025353004224421 3.469446951953614e-18 -0.001504627038302421 -6.938893903907228e-18 0.4049479009276312 1.734723475976807e-18 0 
0.2518809605196425 -0.3239480882145871 -0.8155332474381147 -0.1029104242410101 0.1871217849517658 0.4578236798225394 0.1219260370093472 0.1634088942755217 -0.1044025468780591 -0.05603117021275704 
-0.2676876166367180 0.5450857173430061 -0.1848427282951557 -0.3430661384501060 0 -0.4190890840289139 -0.06853506527816372 0.9300427693452690 -0.1184369119365044 -0.02314612072094209 
0.5591649829942880 -0.4701961703525927 0.4375342076866704 -0.004352222070720095 -0.2554272820888430 -1.387778780781446e-17 -0.1700007242067855 -0.2178264905950838 -0.3072595193128607 0 
0 0 0 0 0 0 0 0 0 0 
-0.1446813284322399 -0.09969200793172674 0.09036961470363361 -5.204170427930421e-18 -0.2018461663076061 0.005883977921696315 0.1877898061634528 -0.08606674358872649 -0.3780976473448431 3.469446951953614e-18 
-0.1167034820927476 -0.06333709508491289 -0.1529955161664920 -0.2757008715353641 0.6097138750504969 0.1176455033095112 0.1587709939700727 -0.4213308493693256 0.2700143827765945 -0.02765696801781878 
3.469446951953614e-18 -0.09986879393229767 0.3900542241125712 0 0 0.2062915799078031 -0.2657450636958322 -0.3794594612278597 -0.2847867439942668 -0.02764130625501056 
0 0 0 0 0 0 0 0 0 0 
0 0 0 0 0 0 0 0 0 0 
0 0 0 0 0 0 0 0 0 0 
0 0 0 0 0 0 0 0 0 0 
0 0 0 0 0 0 0 0 0 0 
0 0 0 0 0 0 0 0 0 0 
0.1288469955164524 -0.9711869608249775 -0.1254453612091322 0.4012340714331359 0.6131697459964319 -0.1827105232234172 0.1390965616088393 -0.06093243386380971 0.3788204648944711 -0.07964362642412173 
-0.1533292402750101 -0.05231644303193721 0.3825231342278839 -0.05184954110653976 -0.4499086832267061 0.09749480534579044 -0.2514325885584542 -1.010130812134347 -0.5817242603258627 -0.02314612072094207 
-6.938893903907228e-18 -0.06426521149701965 -0.02850790282763960 0 -0.3443769587393586 0.8070579973058265 3.469446951953614e-18 -0.4053693097478856 -6.938893903907228e-18 0 
-0.04314255210606004 -0.06426521149701965 -0.3707893359097242 0 -0.3443769587393586 -0.01518563655453433 -0.1944727184308767 0.6862634107251410 -0.1667948904068478 0 
0.02441894689150524 0.2963802764661672 -0.1512213629374485 0.1689207406440621 -0.2939330875591979 -0.02921366108020835 -0.1241210079140998 0.2458218845445130 -0.3499609190931589 -0.05765245249077759 
0 0 -0.8536986794537025 0 0 -0.2817299866276786 0 0.9944494827042974 0 0 
-0.04471539242954099 -0.1982179357994986 0.009138498718260283 -0.1276543722707100 -0.9207869203099335 0.07205959359081146 -0.3098021711809629 0.2397545013206363 -0.5354230590793579 -0.09885231558886604 
-0.01334181184559793 -0.06426521149701973 -0.08931149403438095 -1.734723475976807e-18 1.161011530421662 -0.1582263526549802 -0.4689174029012604 -0.4053693097478849 -0.09608525926460573 0 
-0.4337834786176521 0.1785411996389725 -0.3020884067939043 -0.2068875224931621 0.01811442458085103 -0.08188000634289583 0.1544728358658369 0.2846698689614169 0.3505656228441769 -0.01422576268242981 
-0.02909728445276776 0.2141571492911259 -0.03761515810440652 0.1127941419439825 -0.5137717739267091 0.07525078374332357 -0.1892123971556551 -0.1300170863838739 0.05858933171454726 -0.1257841225304396 
0 0 0 0 0 0 0 0 0 0 
0.1038951547531644 -0.2221863415558333 0.3519066421027224 -0.09408243149419278 0 -0.7524469254667338 -0.4373967305941856 -0.01255013896693825 -0.1331870226449209 0 
-0.4472331298601115 -0.1847887909823140 0.2160612608530782 -0.1425196864905414 5.204170427930421e-18 -0.05925336924717430 -0.1620589433607751 0.1911385448409877 -0.1386713335192599 0 
0.3688591764120967 -0.1983447183276749 -0.3872090327413867 -0.1807508863160021 -0.1308884403423516 0.2913405207586439 -0.04741101779156581 0.3335552529363350 -0.02002649938267778 0 
0 0 0 0 0 0 0 0 0 0 
0 0 0 0 0 0 0 0 0 0 
0 0 0 0 0 0 0 0 0 0 
0 0 0 0 0 0 0 0 0 0 
0 0 0 0 0 0 0 0 0 0 
