solver_type L2R_L2LOSS_SVC_DUAL
nr_class 10
label 1 4 3 5 2 6 7 8 10 9
nr_feature 268
bias 1.000000000000000
w
0.1062526902231622 0.2109272748659025 -0.2350745599118180 -0.2153874836293264 -0.02313850022307451 0.3054454214767583 0.05590045644504826 -0.3079089245015440 -0.4783591593021986 -0.3372756177093096 
-0.04384367631098431 -0.2856751542536912 0 -0.1499915968766755 0.2942173543797217 0 0 0 -0.009774242049182090 0 
0 0 0 0 0 0 0 0 0 0 
0 0 0 0 0 0 0 0 0 0 
-0.5213988425240957 0.02973334774272591 -0.5807969649551588 0.9959409116831610 -0.08544281844113796 -0.3740109851400889 -0.006283807870225543 -0.09385430950531268 -0.02708254322371148 -0.1031570073810763 
0 0 0 0 0 0 0 0 0 0 
0 0 0 0 0 0 0 0 0 0 
0 0 0 0 0 0 0 0 0 0 
0 0 0 0 0 0 0 0 0 0 
0 0 0 0 0 0 0 0 0 0 
0 0 0 0 0 0 0 0 0 0 
0 0 0 0 0 0 0 0 0 0 
0 0 0 0 0 0 0 0 0 0 
0 0 0 0 0 0 0 0 0 0 
0 0 0 0 0 0 0 0 0 0 
0 0 0 0 0 0 0 0 0 0 
0 0 0 0 0 0 0 0 0 0 
-0.1474657523151663 0.1275371489332078 -0.3970048707899671 0.03213128087158240 0.1182193647788489 0.3629161117184393 0.04410679977825812 0.1630887967043578 0.1016589914668048 -0.3422843685485337 
0.1294623829445539 0.1046992962870983 -0.3881608139178661 0.02498714486115965 -0.07632170514343548 0.3128656416177057 0.05180786661588741 0.08882833078959089 -0.3911466225036163 -0.3083755763653756 
0.1418059657298109 -0.001706057478423727 -0.4289313153032022 -0.1106292182399500 0.09527676979107663 -5.204170427930421e-18 0.3633641285999023 6.938893903907228e-18 -0.03831793791455145 -0.06691196390265058 
0 0 0 0 0 0 0 0 0 0 
0 0 0 0 0 0 0 0 0 0 
0 0 0 0 0 0 0 0 0 0 
0 0 0 0 0 0 0 0 0 0 
0 0 0 0 0 0 0 0 0 0 
0 0 0 0 0 0 0 0 0 0 
0 0 0 0 0 0 0 0 0 0 
0.2218111306293243 0.1694549489424508 -0.1465718546899208 0.1066841848201647 -0.4170174248282634 -0.1642532097961878 0 0 0 0 
0 0 0 0 0 0 0 0 0 0 
0 0 0 0 0 0 0 0 0 0 
0 0 0 0 0 0 0 0 0 0 
0 0 0 0 0 0 0 0 0 0 
0 0 0 0 0 0 0 0 0 0 
0 0 0 0 0 0 0 0 0 0 
0 0 0 0 0 0 0 0 0 0 
0.08875404409114937 -0.2266340801214350 -0.06436627712461820 -0.09493558269640237 -0.2002870378958966 0.7934598580906765 -6.938893903907228e-18 0 0 -6.938893903907228e-18 
0 0 0 0 0 0 0 0 0 0 
0 0 0 0 0 0 0 0 0 0 
-0.1748203090768827 0 -0.01457181488479962 -0.1780558266134897 0.5300165435896507 0 0 0 0 0 
0 0 0 0 0 0 0 0 0 0 
-0.2683499606263701 -0.5750167452739375 0 0.6738311412210917 0.04723947068953896 -0.06716428530942653 0 0 0 0 
0 0 0 0 0 0 0 0 0 0 
0.01958182479759278 -0.3853147850085749 -0.1538944718841154 0.2811666710240372 0.1006025911216097 -0.2118112793339369 -0.2216029169090112 -0.07191012937862347 2.602085213965211e-18 -0.06562316145628602 
0.6252051161418556 -0.1049992480631718 -0.3659751172706757 -0.3349623029563494 0.1656655247744936 -0.2162132306784704 -0.04425507280381281 0 0 0 
-0.1877249711390650 -0.1122196372075373 -0.1769657754937318 0 0.6897924991472413 -0.2538598763176002 0 0 0 0 
0 0 0 0 0 0 0 0 0 0 
0 -0.2566242165956736 0.8867227454194112 -0.08041041528990997 -0.3020246066706812 -0.09327040704163342 -0.1599760608971428 0 -0.1039845272353933 0 
-0.3968517606869045 -0.05543816720682784 1.188073341019055 -0.3934880884254804 -0.3449756640951310 -0.1649405866845250 -0.3435672137229390 0 -0.08883342666249110 -0.08569999289570700 
0 0 0 0 0 0 0 0 0 0 
0.2849370283590031 0.6387875911182918 0.3102154530511365 -0.2677582593378469 -0.7063678808336488 -0.1159963570960993 -0.2400857587217348 -0.01919364684002081 -6.938893903907228e-18 1.734723475976807e-18 
0.1524938375384863 1.778091562876227e-17 0.4503594883705356 -0.2307623927908284 -0.3153986727252447 0 0 0 0 -0.06578965762574347 
-0.1759658387995758 0.3798867310034602 0.3864986099065276 -0.4133132388251693 -0.1602873668360839 -0.2460850822405015 0 1.734723475976807e-18 -0.04988084030958871 -0.03947236958432483 
0 0 0 0 0 0 0 0 0 0 
-0.1032525257906815 -0.08563851167858302 -0.1103651036641360 0.1240705193879524 0.1561597667316097 0.01036453345399823 0.08578715809460416 -0.006154964246368327 -0.1367583699473894 0.6403818777651129 
0.002412685444386686 0.1011243882046953 -0.1201052321089080 -0.04334209589321032 0.1240242459953164 -0.06606020790580462 -0.05703233421115377 0.2003286824417694 0.1874989348006537 0.1479855960151467 
0.1696244643567387 -0.009424907680304519 -0.2421038871534915 0.06019557458939446 -0.05620406320595307 -0.1839725894173226 -0.2432287980383839 -0.02251830062529685 0.3057613951283706 0.3014575657494328 
0.002269458343183746 0.05117985873182598 -0.1877505450260705 -0.1028097891767043 0.2125652664892591 -0.002150266981083376 -0.1903415635803753 -0.3156562806880934 0.4241909169257396 -0.07132023064147780 
0.02371765376746212 0.1013420725684161 -0.03342608321427953 -0.1958614912851218 0.1281807913397010 0.006701520228335853 0.04652098358592000 -0.2254804168428570 0.08424451516806598 0.1582847536984875 
-0.1378170769485304 -0.01313504400741199 0.04208060926393947 0.1049691516412227 -0.01964085997427648 0.03063391343388933 0.4086127525462849 0.1817802589053503 -0.2865531817250016 -0.3211506493224488 
0 0 0 0 0 0 0 0 0 0 
0 0 0 0 0 0 0 0 0 0 
0.4012167144312246 -0.2414914997563156 -0.09602567013208880 0.1282547963027655 -0.1076612425781074 -0.1080620268042213 -0.3022219034020345 -0.3540903901501259 0.1744759271726759 -0.3176586919111801 
-0.06410025554093875 -0.2408969461099387 -0.1338855036511459 0.7729957288765872 0 -0.1327782728978303 -0.1298037427068650 0 -0.1721107547791843 0 
0 0 0 0 0 0 0 0 0 0 
0 0 0 0 0 0 0 0 0 0 
-0.3062588177863941 -0.2200485201280920 0.2811084450683942 -0.7685489183255902 -0.2329442848258084 0.7721101407344778 8.673617379884035e-19 -0.05800186685025242 1.214306433183765e-17 9.540979117872439e-18 
-0.1395448945372122 -0.1812875847484934 -0.1444894509165764 -0.08957739898359272 0.05643283928325282 -3.469446951953614e-18 0 0 0 0 
0 0 0 0 0 0 0 0 0 0 
0 0 0 0 0 0 0 0 0 0 
0 0 0 0 0 0 0 0 0 0 
0 0 0 0 0 0 0 0 0 0 
0 0 0 0 0 0 0 0 0 0 
0 0 0 0 0 0 0 0 0 0 
-0.5969737950846510 -0.06659751795878356 0 -0.1107510608422174 1.085271094943547 -0.1394935655466999 -0.1506071058939217 0 0 0 
0 0 0 0 0 0 0 0 0 0 
0 0 0 0 0 0 0 0 0 0 
0 0 0 0 0 0 0 0 0 0 
-0.8570569377069143 0.1114505902220173 0.1217786476805112 -0.004687269529479197 0.5662891136643581 -0.1013514913891359 1.387778780781446e-17 -0.1023585938505511 3.469446951953614e-18 0 
-0.03935668886605503 -0.05287415068082323 0.2567950286911803 0.1271638990263330 -0.08923576066664551 -0.008279601041431031 0.2374870109147818 -0.1951632755295157 0.2823093577433139 0.1834533699919195 
-0.2510718900308132 -0.008680561993566979 0.2347959079498976 0.1301339973946243 0.1546201445141304 -0.0006314173399034476 0.08452598161048216 -0.2586475387795625 0.2165513924825665 -0.2813029052544768 
-0.1459171458666060 -0.04579774261233201 0.7870410891146891 -0.09659266340901962 -0.2432561503028069 -0.1076502091155815 0 -0.09606293757589691 0 0 
0 0 0 0 0 0 0 0 0 0 
0 0 0 0 0 0 0 0 0 0 
0 0 0 0 0 0 0 0 0 0 
0 0 0 0 0 0 0 0 0 0 
0 0 0 0 0 0 0 0 0 0 
0 0 0 0 0 0 0 0 0 0 
0 0 0 0 0 0 0 0 0 0 
0.6371262405783288 -0.03196306579917085 -0.2642391701436143 -0.2342254731495538 -0.4379389790067599 -0.02958629018402069 0 0 -0.06506988283778956 0 
0 0 0 0 0 0 0 0 0 0 
0 0 0 0 0 0 0 0 0 0 
0 0 0 0 0 0 0 0 0 0 
0 0 0 0 0 0 0 0 0 0 
0 0 0 0 0 0 0 0 0 0 
0 0 0 0 0 0 0 0 0 0 
0 0 0 0 0 0 0 0 0 0 
0 0 0 0 0 0 0 0 0 0 
0 0 0 0 0 0 0 0 0 0 
0 0 0 0 0 0 0 0 0 0 
0 0 0 0 0 0 0 0 0 0 
0 0 0 0 0 0 0 0 0 0 
0.9136981983577311 -0.1187543499582569 -0.1375386112962222 -0.1846397467193682 -0.1915626019902623 -0.05580159182543454 0 0 0 0 
0 0 0 0 0 0 0 0 0 0 
1.047354232564426 -0.3466849189510172 1.040834085586084e-17 -0.1321974453433266 -0.6528983707325735 -0.1207554285786751 1.734723475976807e-18 0 0 0 
0.3339062564153088 -0.2074918729053767 0.3706402287058387 -0.1019165330611013 -0.4508033070076883 0.2323978256179282 -3.469446951953614e-18 0 -0.2340694531350488 0 
0.3257171590222785 0.3019178325685572 -0.06887007147792486 -0.04607956125714227 -0.6272423623242834 -0.01200156318232903 -0.09350424851315830 0 0 0 
0 0 0 0 0 0 0 0 0 0 
-0.4331797060876542 -0.06403472905455410 -0.06753808335200694 0 0.7501831058920222 0 -0.01708570478438072 0 0 0 
-0.6863587198168145 0.8508783750389697 0 -6.071532165918825e-18 -0.1011069848174209 -0.1183806803812609 -0.009228830091543122 0 3.469446951953614e-18 0 
0 0 0 0 0 0 0 0 0 0 
0.7106642572886671 0.2128266541643363 -1.160210061783637 -0.7206179120070277 -0.4093558929055920 -0.06974928693794416 -0.1040205508691598 0 -0.3948087370479396 -1.734723475976807e-18 
-0.6047240811956545 -0.07243291299441876 0 -0.02007611261249855 0.7910166783514683 0 -0.08545040041856276 0 0 0 
0.1018514315077509 0.6762757609683262 -0.2440477761051126 -0.1359630740702273 -0.5242332942487621 -0.2839270633298168 -0.2495253517524804 0 1.561251128379126e-17 -0.05539518106658730 
-0.2906470639150536 -0.1567173873324479 0 0 0.5372926802246155 -0.004694802712461393 0 0 0 0 
0.09038445354328972 -0.09227898718111946 -0.1467905139107102 0.1215321416314222 0.06363196262779468 -0.05235717664277152 0.3039882432184841 -0.1071311012833715 -0.6768558254107857 -0.06868750397408630 
-0.1088480459122869 -0.03316613036985882 -0.01543129615823949 0.1793241703987899 0.06666500585914320 0.1041857649589325 -0.002096971238737902 0.2232500724470281 0.1141885715038396 -0.1069565293060200 
-0.2905332541903411 0.04866930015276900 0.09480227006008976 0.2626158756853668 0.06162068660186916 -0.005628854068431687 0.2087158844021722 -0.04989695037979744 0.2279783468553280 0.03364824449900637 
0.2895002120398361 -0.08777364219397048 -0.1261464979570385 0.1850556201898931 -0.2633354710688133 -0.1043897031309145 0.3148997154932384 0.1787185987215549 -0.09576177196537820 0.1062328643041164 
-0.1291679459093781 0.01040132938566533 -0.09587452855930437 0.1590260921516561 0.1013504992600400 -0.009245965724205744 -0.2386973458656455 0.3859383702421211 0.08768748137303038 0.2307831389548894 
-0.09684234515362336 -0.1406012179496057 0.1720111778108548 0.1720396457160045 0.05205447920851277 0.01866989559886578 -0.2176480611915475 0.004794709201314470 0.02814925066188226 -0.2830676084423370 
0 0 0 0 0 0 0 0 0 0 
0 0 0 0 0 0 0 0 0 0 
0.07505177796683239 0.03946589771877244 0.1634324168428523 -0.04269124086870164 -0.1364688032678772 -0.01131575894302968 -0.07246390798371591 -0.02362660829013162 -0.2636761942544643 0.1994266249253463 
0.01635200708111422 0.1643068645721208 -0.08256024834986742 0.06561429800844629 -0.2640086129527838 0.1399839011397305 -0.01715911871177661 -0.1580189049812482 -0.2062855784882615 -0.3651822644200294 
-0.01022753343084209 0.03672467174508004 -0.1154050155623422 0.08300548779993193 -0.1461280962409130 0.06215419413264950 0.03350162638988841 0.2558148789553270 -0.2953819883079178 -0.1948865384728774 
0.2367523770412039 -0.006485535756493957 0.02560384200857667 0.1400465373185136 -0.3919967557155151 -0.2677610339630805 -0.1004359497293952 -0.0006461904009941687 -0.1228869061948813 0.02235425894841705 
0.2413176496613294 -0.2038806911710517 0.04764640671842719 0.3326345622651565 -0.3870069368336334 -0.3300258454082543 0.05481740786059234 -0.1240374533532822 0.07669585120801413 0.1091033426210642 
-0.3562911089883183 0.3957404247522123 -0.5532674737052481 0.2795211339952509 -0.1222824612869730 -0.3128121924210235 -0.2184723555148267 -0.3079089245015440 0.08705351031816674 -0.1303396008813299 
-0.3726493704376590 0.05151034760042739 0.08544133027975939 0.3876516706443470 -0.03115050741684580 -0.1536885289596907 -0.1908803355596097 -8.673617379884035e-18 -0.02492242371287782 0 
0.09832023637379506 -0.2722101755877454 0.3868024690267760 0.08587009153955227 -0.2593384157818503 -0.02173171219480822 -0.006283807870225550 -0.05650248692813219 -1.734723475976807e-18 0 
0.08900866272653274 -0.1900283748895675 -0.02980389608832535 0 -0.6109009270080955 0.7531686183825363 -0.005360847953521505 0 -0.02160856220573269 0 
0.2218111306293243 0.1694549489424508 -0.1465718546899208 0.1066841848201647 -0.4170174248282634 -0.1642532097961878 0 0 0 0 
0 0 0 0 0 0 0 0 0 0 
0 0 0 0 0 0 0 0 0 0 
0 0 0 0 0 0 0 0 0 0 
-0.006102657139829231 -0.1177828235421963 -0.009915707389968878 -0.05069931005156497 0.1770542179277145 -0.07909404853684196 -0.008399146187961691 -0.07436948783387340 -1.316384683660752e-06 -0.1488927013037249 
0.1010084572367443 -0.2294188639421748 -0.02647748511243965 -0.1188686914091912 0.1624391577469978 -0.02898612821282115 -0.03211465980203798 -0.1428370186459890 0.1202360012159800 -0.08296107261786076 
0.1608082993370408 -0.09950395919632121 -0.07083638536037054 -0.05503687621402990 0.04058153199268062 -0.03128058845036452 -0.03728891347652875 -0.2026707111345920 -0.4056331548983548 -0.3823810405507263 
-0.1189490329289057 -0.1597577533103858 -0.07963182443838411 -0.1681061111942826 0.2519295839310345 0.1392298896679457 -0.04192478489243313 0.2456504127181749 -0.3737986127186712 0.05528401226755585 
-0.4667609309478500 0.1633215750712280 0.3062405449699731 -0.03238614506913871 0.1974226606873381 0.08168502907386414 -0.2007421340230488 -0.001796259239053322 -0.03121637229045719 1.734723475976807e-18 
-0.3802263692955301 0.3792533629561511 -0.1338855036511459 0.5074729570271359 -0.8222259129972875 -0.1327782728978303 -0.1298037427068650 -0.1946259728014670 0.2481972582674023 -3.469446951953614e-18 
0.2585645159009782 -0.1812875847484936 -0.1033689092362115 -0.1254926720024754 0.3868381176607047 -0.3527028557407420 3.469446951953614e-18 -0.05800186685025244 5.204170427930421e-18 0 
0.6337798927522917 -0.2585713783029674 0 -0.09535047064986860 -0.2620565318546771 -0.09471127149109015 0 8.673617379884035e-19 -5.001773691330209e-05 0 
-0.3712846067664858 0.3065935288376625 -0.2642391701436142 -0.2692638823732833 -0.1771292371392723 0.1612368826650185 0 0 -0.06506988283778953 0 
0 0 0 0 0 0 0 0 0 0 
0 0 0 0 0 0 0 0 0 0 
0 0 0 0 0 0 0 0 0 0 
-0.01079665086340078 -0.05062048856738179 0.06215447642642359 0.03534488271007827 -0.03846056829722820 0.05359420907642947 -0.05397644139011798 -0.0008347436691208121 0.09393548157279748 -0.05481746217020236 
-0.1839110805128505 -0.1520319666041377 0.8682256207085317 0.1704584544219141 -0.4520494068249938 0.1088861153223311 0.04672396480616828 -0.08402145220189985 0.07647473452438547 -0.07342787293599704 
-0.1465495539128785 -0.2066023964308597 -0.05894648234011856 0.01982905592243335 0.2533890795848596 0.01904191484415568 -0.04146927727473240 -0.1977899412019014 -0.3568548207473151 -0.2636419630326488 
0.1871602846595655 0.3880054834473106 -0.3207809033455815 -0.3370665648838325 -0.5174103354113825 -0.1341438520824388 -0.09366245683190112 -0.1883955503831956 -1.301042606982605e-18 -0.1912688004832676 
-0.3363554281000188 -0.001337914593848723 0.1270408838780106 0.06030653490688691 -0.08013790888603065 0.04385201814856104 0.3167744209143201 -0.03768447382487013 -0.09443386518407541 0.3815659078942394 
0.05901670168102244 -0.06007034066087889 0.05830290548037524 -0.06303215131227590 -0.02697781422284568 -0.03818620788432002 0.006751325806667252 -0.1169677672933425 -0.02570036072778562 -0.6023280706961044 
0.1187596182840619 -0.06133649509289219 -0.1739426654140893 -0.1626049483518134 0.02654673958059955 -0.01874709585837341 -0.3256053454941790 0.01074082946176650 0.2568612525682436 -0.3685439909104430 
-0.1240402702913078 -0.05488658640144111 0.07904717465866692 0.04415870808872938 0.1628888481739519 -0.1746565561048249 -0.3508563964567520 -0.05564828413989328 -0.1488723857526217 0.2458910753920608 
0.05284621582801261 -0.2009256464448858 -0.09283535327942143 0.03067816369316808 0.1365549791360940 -0.03456158498562283 0.03779434824770178 0.1570942835943849 -0.1383359175399356 0.2393750396314085 
0.06596874467137824 -0.1376781117315472 0.1574638645194401 0.0004910020404364857 -0.03620921205512209 -0.04171548244355264 -0.1921062000518649 -0.1526732829411400 -0.3993032380825878 -0.1785354136847871 
-0.01486140380221629 0.1744648697677241 -0.4667536449019324 -0.4967715782039460 0.1528986181119642 -0.1863936795749352 -0.09763699612058563 -0.1980389668545737 -0.1166625711913068 -0.1394561312941326 
-0.07509126940419195 -0.02793374528878865 -0.04900308726078652 0.07974005355913523 -0.1834900679278649 0.03658702965557473 -0.06070353332847511 0.1882848101521693 0.1970572246878821 0.008553194568760303 
-0.006616643596594625 -0.01212403427792213 0.03040586891565286 0.08681367553377042 -0.1074800485277127 -0.05163261475669952 -0.04278352652401717 0.004667887812800167 -0.3437557716198680 -0.1068277553890392 
-0.1651254723643157 0.1179169870668628 0.01562337909956835 0.02282844888758547 0.02646889047167084 -0.04350319684068742 -0.3232879234295098 -0.1099073235502937 -0.1611320062421036 -0.09293171360375457 
-0.1312120265940369 -0.1556007041165200 -0.002192075978678257 -0.07961488875440698 -0.007874250675512030 0.07609117547214204 0.2927431441602593 -0.3698344001492718 0.2957540869221658 -0.005919390068725237 
0.1377756392384382 -0.1561991575973098 -0.06765874475542553 -0.02121791499927739 0.1105396585578161 -0.1268345954347017 -0.02649834579468076 0.2088503717432581 0.02070617814232828 -0.04383359273307697 
0.1421433033469650 -0.1777912958874690 -0.1775501085330184 -0.04565038185889879 -0.01696256974896397 -0.06914269067642444 0.03294122746962307 -0.05667638827786371 -0.07690869297392568 0.1486314063297815 
0.08164665679224585 -0.05365991677002322 -0.1617528183115174 -0.1004119453391729 -0.007687552417918183 -0.03585478011315715 -0.3466507314230915 0.01541674776364212 -0.1231809987367061 0.03445670521032192 
-0.1798377546376496 0.06716656938879452 -0.1194296743228507 -0.03281911969197059 0.09699801087770532 -0.1577840318733970 0.06796443189243974 -0.1076791090105544 0.04007754275112457 -0.4206327799318468 
-0.09656152053810999 0.05872673119065202 0.1754727676513870 -0.1679523544237763 0.009249818908916295 -0.05430281911538777 -0.03925978841528719 0.07125005201018042 -0.1443010528749002 0.1306427259991428 
0.1495962023415650 -0.07181155998973536 -0.1039669364518131 0.002070356285445287 -0.1816748559152657 -0.05262958267488817 0.04892351211579601 0.04926964787600494 -0.1448813242052468 0.1112407269725387 
-0.1842043351161006 0.03187978791266912 0.05207585519007406 -0.005171502497633232 0.01659356723959696 0.03948861963372308 0.03479113595553118 0.1568225526742126 -0.1737131829957625 -0.4032019587106553 
-0.1019449840404583 -0.05166421202238422 -0.04696352558441736 -0.05779625441069418 0.03833716901116331 -0.007176079103332872 -0.2489831686838868 -0.5570544068226722 0.1155716116519300 -0.1600876280740388 
0.01644450759866963 -0.1071454260168065 -0.2679195046274269 0.003607065049113431 0.08516835648888421 0.01005678647105992 -0.1279996641178028 0.008975436817960930 -0.1690802902051469 -0.2102480102701131 
0.1015926941902926 0.008542692635594007 -0.2563658547844048 0.02685019476887524 -0.09438996491180711 -0.02630350047819813 -0.08865040970488273 -0.04306439369251595 -0.05944378813384113 -0.1089813511669676 
0.004149514287073763 0.1096287409748922 0.3235785877476918 -0.1378980581179991 -0.2526955688366024 -0.2344069039969688 -0.03011578931493933 -0.1677063082713425 0.3481085867202780 -0.2145688895754274 
-0.1389198552903248 -0.1172925688639610 0.01177802783850439 0.01082004971573206 0.1092739751491576 0.04881947967447396 -0.07475465419977395 0.02936397650981279 -0.1347546003041877 0.09934735558267808 
0.2484103519678934 -0.02214253527121017 0.06312023967955312 -0.01077060083508175 -0.3221763371299073 -0.2436777949468173 -0.1948662235888699 -0.1636096857755824 0.03060363469473640 -0.08824163282404000 
0.008992063523031892 0.02904758364767900 -0.2182173584444904 0.05512846226011896 -0.1361213790302572 0.06586731295600895 -0.1253083791595428 0.2110059153705912 -0.3496661286162658 0.02611581344405474 
-0.4298317081281812 -0.09779238328368899 -0.03808857777158821 -0.3554683147774616 0.5657945062257712 0.04224325639757816 0.1914217389969355 -0.3036158447459735 -0.1731035115390620 -0.06237408739493998 
-0.3753644171349627 0.09678920191206207 0.02885322009599954 -0.2316567052990479 0.2803824586424535 0.06356690821399448 -0.09980496217742144 -0.3112290480047438 -0.06775246189735033 -0.4094000954088369 
0.1403648574595234 -0.1144600941974737 -0.1934675286422661 -0.08233165198660836 -0.1624160006580180 -0.009398439566788780 -0.2448298801264651 -0.07357768020325331 -0.06309481199409742 -0.1316362288930347 
0.1438936612724988 -0.1158667086367247 -0.06224469222659354 0.08516560028438237 -0.2735479910726016 -0.3536194014392330 -0.04214182350411019 -0.02290503558379870 -0.1883763396086404 -0.1005264468828634 
-0.09805653344860348 -0.06361629525536502 -0.1552554395893015 -0.1789084449354230 0.1104351210434055 -0.03795043113083749 -0.06349671528087737 -0.02093913999525538 -0.1881124838833996 0.08261196897997868 
-0.1140997538867974 0.1011022174151549 -0.1644427048371347 -0.08530981687572979 -0.2225663999108563 0.1019140274460720 -0.1717955079824521 -0.02630141826658719 -0.3379123964681887 0.3759473015174068 
-0.07294881173875772 -0.1782561371844510 -0.04094056205592535 -0.1243812409050369 0.2474182427393138 -0.1823630185806915 0.1551964770194813 -0.3868912593661735 -0.03022116535862600 -0.4209928294827809 
-0.1285563218458519 -0.1199945446257212 -0.2472097300093012 -0.2319790075310511 0.2666505365694736 -0.1963113651625687 -0.1426355009186091 0.2828376630843049 -0.2475035702178236 -0.2110925557479114 
0.1264424556198629 -5.431782483040354e-06 0.07047855654019820 0.03393886337511430 -0.3366487914426891 -0.06064100762567481 -0.2910388492072888 -0.2982958892386017 0.1083010346611495 -0.3028127184914660 
-0.1891624318515433 -0.1971538961775009 -0.3821144403621556 -0.4077312019367030 -0.04514641204476372 -0.3374013639228541 -0.4502733810888789 -0.4286509037870585 -0.5073360973834717 -0.5589508022047504 
-0.1891624318515433 -0.1971538961775009 -0.3821144403621556 -0.4077312019367030 -0.04514641204476372 -0.3374013639228541 -0.4502733810888789 -0.4286509037870585 -0.5073360973834717 -0.5589508022047504 
-0.1200730684155328 0.1470474302958563 0.2639328526216905 -0.005487179131470797 -0.1259936229545486 -0.01196615472830113 -0.06974565919037554 -0.2732787155374374 0.1672010085271724 -0.1117439415773619 
-0.05827236982814138 0.1020458287311722 -0.1065064983860249 -0.04239244561816172 0.06803266854129625 -0.09949412733863423 -0.06712255164100962 0.07062734017407320 -0.02678529049689925 -0.02551108989102440 
0.06418484256292843 0.02282118365838967 -0.08489465203422712 0.006746671506777885 -0.1266884004198398 0.01991763575432851 0.2170929542728071 -0.1291881584907320 0.09964918501092800 0.01185201344419782 
0.2959465646768416 0.4264609102129949 0.06715949105026957 -0.1486441469049696 -0.8213510689171620 -0.04828600586685081 -0.08820995159479414 0.04267293502787067 -0.1722814000088545 -0.1122041667414522 
-0.6807775325497412 0.1344760408570294 -0.3173862418147196 -0.1454647846033760 0.3775833713394111 0.02189390781182367 1.734723475976807e-18 0.1912467956890841 0.4904901245325498 3.469446951953614e-18 
-0.01209444705569746 0.03877029338625892 -0.1889636937868948 -0.1540108388300007 -0.3596875472720252 0.09310788865537536 0.1235204128314600 -0.2172994981088389 -0.1832677910355088 0.8269987346012141 
0.1618209492414241 -0.08320805375301916 0.04298596837335342 -0.06569702470321533 -0.1593488861616019 0.2579211810936273 -0.07943830168502919 -0.02225019444026380 0.1442790547137409 -0.08319793306153334 
-0.2179455733390389 -0.3630253543945461 1.387778780781446e-17 0.1615905873302126 0.1456950624154416 0.08114736982169540 -0.05879871254466210 -0.02381788376987885 -1.301042606982605e-18 0 
-0.2598059960052246 0.2509415111682932 0.3322322129202798 0.4533550759347322 -0.8022721522693503 -0.1011455327734588 0.2862178771232851 -0.1974778764493230 0.1782720029635428 -0.01901854634145369 
0.04707507138210155 -0.01798287098821480 0.2757913840606527 0.1124413978818199 -0.2373360353813725 -0.1581372406097480 0.2346937323797342 -0.3000679836062721 0.2297779588779775 0.2367361913784183 
-0.06485887455522282 0.01730481390716223 0.6428144377119815 -0.04029418162781023 -0.4876150505677215 0.04664432711835567 0.1335697965839404 0.1120189856747916 0.1254594013729093 0.2876328772604357 
-0.9645419054802941 0.4489159659218412 -0.6366872164067745 -0.04266157250194143 0.2042009040297517 -0.1967750657822612 -0.02499220553338570 0.4769410904267977 -0.07621972375195575 0.9512850647212703 
0.3262356520222788 0.2956869707359937 0.3282642236521002 -0.1122160542178690 -0.7756021867000291 -0.04701551886263568 0.2595486263618272 -0.1904483055606319 0.2136928063196359 -0.1140483944377760 
-0.7811234581368479 0.1345784139574840 0.2234488570427483 -0.04017384629230645 0.3557310598676908 -0.4410322780910179 -0.3297039732582036 0.6651608993882993 -1.040834085586084e-17 -0.2040642435636156 
0.09450851563215369 0.02063354980756414 -0.06357481177911105 -0.04981564816352946 0.03874340187648093 -0.07667450652792684 0.2103809557146891 0.09664178794911948 -0.3298636142515607 -0.2816188595334769 
-0.4287673877382646 0.02579488867292695 -0.1830888124236192 -0.2667945888627392 -0.4521163205334617 1.028738781360428 -0.1140942150285802 0.1481352132469539 -0.07100198421263620 0.1012781040607302 
0 0 0 0 0 0 0 0 0 0 
0.3883746750569485 0.03830985651982567 0 -0.1123840253328356 -0.5701405646803586 -0.1267728243633673 -3.469446951953614e-18 6.938893903907228e-18 -0.05271335711975918 0 
0 0 0 0 0 0 0 0 0 0 
-0.8064607586031309 -0.05198789995589977 0 -0.03444290724069080 1.023269210452668 0 0 0 0 0 
0.1082757047524370 0.3752812836445860 -0.3740888728364240 -0.4790611996125249 -0.4514580788662166 -0.3372493673895405 -0.01212623083435110 -0.1953242369976781 3.469446951953614e-18 -0.2303536857090098 
0 0 0 0 0 0 0 0 0 0 
-0.2378888147566231 0.1357501158018372 1.734723475976807e-17 0.4175585374967216 -0.1837393102118635 -0.09332530969402723 -0.03994699831999865 -0.07298771918908781 -0.1920963230548332 0 
-0.6494828998649794 -0.05383574760562376 -0.1280587895346000 1.051327641370183 -0.4654865732588057 -0.2410769549210153 -0.06264278786697049 -0.1627615553698787 0.3512683456008188 0 
-0.05947856288561198 0.04463806550197032 -0.05597867967552025 0.07423583742819637 0.09686388250816987 -0.05426580776753114 -0.1658790514176085 -0.1289322599088840 0.06413003580246866 -0.1056164865961171 
0.2105215908061818 0.1446367132870486 -0.2154264178167216 -0.01446006329995732 -0.1645375317502152 -0.0005730274135707207 0.02017768365326747 -0.04203906836122686 -0.08374269392465011 0.04413220483290378 
-0.1112951384848361 -0.04771805886738358 0.1092186741076837 0.1020608872358439 -0.04614064703918278 0.1616554346896228 -0.1325023514682575 -0.1245143583728107 -0.1950935315172384 -0.01634726850889470 
0.4669468808194067 -0.1357814819564703 -0.4306728761630274 -0.1124095886648710 -0.1773807138864602 -0.3953212351175059 -0.1852654961499260 -0.1699841346953779 -0.6410810491429110 0.3468411348947269 
0 0 0 0 0 0 0 0 0 0 
0 0 0 0 0 0 0 0 0 0 
0.6144252186509203 -0.3007872373577719 -0.4908197081343243 0.3804031024754493 -0.4934638111887362 -0.05299453306552809 0 0 0 0 
0.2730571389802865 -0.5150165147981695 0.7075919713051991 -0.2680835274999933 0.05662452058943535 -0.3010655049994720 -0.06446256572738579 -0.1918834346361954 -0.03261041861703931 -0.005985800223419552 
-1.045298759135299 -0.007257725874333832 0.4252160632880033 0.6306999645741788 -0.2532494215840543 -0.2086285650353605 -0.05598256264780245 0 0 -0.005929216929882887 
-0.1226586008083593 0.05881864326420010 0.02452304584316244 0.06915263458936187 -0.01838581031943969 0.02910343984562948 0.008720249033634112 -0.03179899955768161 -0.03450437602894946 -0.4401483253052764 
0.01816491961536374 0.1116899953654685 -0.1968507920451570 0.1386963153969545 -0.2572902075651586 -0.01123727590807188 -0.4223230376111069 0.2574371475052545 0.1076631988312754 -0.4425247047171001 
-0.06745476070490451 0.3418256181741193 0.09064106029457954 -0.03099300717845268 -0.3105391740435634 0.08311945977373456 -0.1119005606798013 -0.4271176664140771 -0.3059302083311340 -1.040834085586084e-17 
-0.1906137730334869 0.1977298954100926 -0.002132789586707817 0.06601765760209075 -0.1053154735394524 0.2028491718760528 -0.2476905649313672 0.1565300362957496 0.07561998583026822 -0.06273077801226466 
0.2686166505455942 -0.07808846704376801 0.4057387701075737 -0.5211427880367272 -0.4017767480164544 -0.04507151685900264 -0.2132226871769544 0.2637312768697926 -0.03822648398712642 -0.1021254805108151 
-0.1727042286767767 -0.3575359471013211 0.004013872466974509 0.05007905692298961 0.4901042382996323 -0.7117715737707658 -0.03591239310447695 -0.2337102714274819 -0.2427477223011963 0.06426489968373948 
0.4524920819407805 -0.5108669516975388 0.003099711530649960 -0.1814099945613106 -0.6054758060567373 -0.2974945880255506 0.3737245168394333 -0.2064777900361666 0.5376456876424740 -0.1252892941427071 
0.3266702629488946 -0.4672945156596422 -0.1231328960529425 0.02319674957695460 0.07521626541048615 0.003337571068972633 -0.1390151077807805 -0.2078037178587523 -0.1989428722595814 -0.2159797362709827 
0.4899173375532080 -0.04193011431371847 -0.06206246916640318 0.2084394677087689 -0.6294811477310127 -0.1348322328793274 -0.06878474417021671 -0.1035509002474016 -0.1212138444545722 -0.1004721796506294 
-0.2087108197273938 0.1217910683362679 -0.3081838773333119 -0.03624890919378360 -1.040834085586084e-17 -0.1055902965292738 -0.2690318737832131 0 0 0 
0 0 0 0 0 0 0 0 0 0 
0.09564936877805764 0.1070479694305714 -0.1489662708523782 -0.01069579764440393 -0.1952190201461637 0.1118952471223873 0.06851034882577456 -0.001620591691786780 -0.06042858322013052 -0.5530531239692701 
0.4860536592403429 -0.07330606487352784 0.4158919635975236 -0.1690264989229212 -0.5175852146515836 -0.09740461232244620 -0.03821025714470217 -5.204170427930421e-18 0 -0.02476620136818467 
-0.07633354199987440 -0.2103877843138286 0.09301559753670002 0.09547136912328218 0.2152877769156402 -0.02913691705071682 -0.1538741252312936 -0.09360519369978908 -0.1390228309861797 -0.02468755995501637 
0.04741410248178457 -0.4378370601205211 -0.1883471649337660 -0.2890414535457599 0.5244272284318956 -0.1077363394601571 -0.1341366146064796 -0.04265921497362785 -0.1664277430693134 0 
-0.04391036770822531 -0.2466961187639478 0.05185962071103679 -0.01212174581432677 0.2640907432146017 -0.4514150565536985 -0.1428349585116223 0.2622938423161673 -0.2953972248676399 -0.1764663315073887 
-0.4626236353973628 -0.1033962217173519 -0.6522958789144994 1.306252140710158 0 0 0 0 -0.1012346655520035 0 
-0.2984748892173358 0.2682247756599597 -0.9064611629281184 -0.6039965490686410 0.5206159115896234 0.2210404627083670 -0.1305217496886553 8.673617379884035e-19 0 0 
0.09770912617228966 0.1002369742337975 -0.8543643525658813 -0.01999482591412057 0.02972888156134963 -0.1131207528043915 -0.1435681818057705 -0.1912419940473075 -0.1250379544194223 1.387778780781446e-17 
-0.3641551679857779 0.3291826039649012 0.1571025911956531 0.1527326364557297 -0.1010968424763587 -0.1841088150581915 -0.06813812186414527 1.561251128379126e-17 -0.09728282292853065 -0.04342295901726940 
0.3777330742029769 -0.1668639348280671 -0.2127448195703380 -0.2585678437504482 -0.1917563548319900 0.3183601199048232 -0.03756818216583889 -0.03735182257718055 -0.3379123964681892 -0.4410859976329784 
0.06009920311123471 0.2200318146314130 -0.1847922670947053 0.06206500469301275 -0.2797895582318197 0.01263664876938891 -0.3405125903527630 -0.1041768038904148 -0.1202459627354609 -0.1436809557023535 
-0.8146020935796766 -0.05613964126914459 0.2549556050264069 -0.06681209270147268 0.5765107878228544 -0.07542364753131707 -0.1336223095321076 -0.1328025862046993 -0.06614096902855661 -0.02891396430775991 
0.4833274835481755 0.4066914748149338 0.03505387285506680 -0.8691377845326720 -0.6019594748554954 -0.2375037929573282 -0.1832866739840669 2.602085213965211e-18 0 0 
0 0 0 0 0 0 0 0 0 0 
0.5074101271319964 -0.6016898756278393 -0.02058196863190637 -0.2632287062294396 -0.01196208038584432 -0.1436055794739606 -0.2399212812128967 -0.2917891252234943 -0.3322838103827170 -0.1811641778919736 
-0.04025365937507083 0.1285350415323114 -0.04075124530579810 -0.08082876031244313 0.03058730896266909 0.06308640263113185 -0.6301773214559975 -0.4874720498361999 -0.4021893069259406 -0.3578936791467422 
-0.6219794177089446 -0.03807419844027370 0.5769802945976457 -0.6042485516622083 0.2830541075892811 0.2083919974023680 -0.1271854901322983 -0.003188239120592643 -0.02676182554838916 0 
0 0 0 0 0 0 0 0 0 0 
0 0 0 0 0 0 0 0 0 0 
0 0 0 0 0 0 0 0 0 0 
0 0 0 0 0 0 0 0 0 0 
0 0 0 0 0 0 0 0 0 0 
0 0 0 0 0 0 0 0 0 0 
-0.03212604953168706 0.1098840638337753 -0.04665456201405592 0.03760243767050438 -0.07556024499733663 0.03414711067255142 0.2045726663104379 -0.1209772019533177 -0.05948644255250045 -0.005182495610076751 
-0.1286530482958857 -0.1073570192382479 -0.1255903338145265 0.07644708949789461 0.1503356224868574 0.1236327331519715 -0.2759418004289768 -0.1328025862046992 -0.07207668667618340 -0.5566123028802858 
0.1555464460979266 -0.07062159824209440 0.1679207246752960 0.07291185242877746 -0.1714318040935959 0.2069063947937183 -0.2836191638382217 -0.1190941014930974 -0.2571172147047591 -0.02373146869768323 
-0.1226717885213656 -0.02522903323809125 -0.2875561690750925 -0.04943484165555809 0.3699622867510346 0.09457751909666932 -0.2836191638382219 -0.1190941014930974 -0.2571172147047592 -0.02373146869768324 
0.07520157149494101 0.02539088171294284 0.07546756014255060 -0.02384686878968600 -0.1286104821359487 -0.09972022260705601 -0.01082346662844483 -0.03129892145025567 0.09559359937152040 -0.4569477763479910 
0.4753150357988019 -0.5343593598523220 -0.2639851927141835 1.010104390713654 -0.2549906620343615 -0.2375037929573280 -0.1832866739840670 -3.469446951953614e-18 0 0 
0.08472072866694505 0.1618007051507675 0.07575450465963670 -0.1074019935008983 -0.1213754899949328 -0.2052810172280115 -0.3826332908040321 0.1767098111749520 0.02418187214267045 -0.2736070596766697 
0.09384360899173830 -0.1062266728939715 0.3040810632942521 -0.4955049258620496 -0.03154818474888431 -0.3402563876107270 0.5823226149222764 -0.1190941014930975 0.2143554462760705 -0.02373146869768324 
0.08605883954346740 -0.05172973862476304 0.01874870175468769 -0.03671156414426603 -0.005611816388073073 -0.1994349938676738 0.1211507412170371 -0.05507564111942630 -0.04328703866922670 0.1040463188049257 
-0.1942308150949872 0.07039572365176944 -0.04245573531214140 -0.002980600625260501 0.08559514845427621 0.07836793949287676 0.1585952712501106 0.1313641975090591 0.05130009101937885 -0.1742993991373404 
0.2655979540429971 0.4201561798864125 -0.8023741480786951 0.2067858206440991 -0.4470956331868056 -0.2784718488562766 -0.02564732356410925 6.722053469410128e-18 -0.01865869227106226 0 
0.3428972959369336 -0.5302415102760569 0.2583044054891143 -0.3270479358132500 -0.07819248774673314 -0.2576760959697568 -0.02689872909658891 0 -0.1171135310880871 0 
0.1744667923305915 -0.02762192243899184 0.1122819476982687 0.04071784136882314 -0.3360830837359525 0.1575500634714612 -0.3072421309279153 -0.2084235795989389 -0.2427072088238291 3.469446951953614e-18 
0.01309076913434962 -0.1516943086568409 -0.3692392028824608 -0.1795981275417615 0.3860116344355414 -0.2866462166302438 -0.2919110118723116 -0.2631388204049333 -0.2571172147047592 0 
-0.2947509815847419 0.03244197717893523 0.7681307198333716 -0.1522119137632970 -0.2785517152552902 -0.1366516265998564 -0.1966176799431514 -0.05955806146610274 -0.1088377102978461 -0.4498344793162469 
