solver_type L2R_L2LOSS_SVC_DUAL
nr_class 7
label 8 6 2 1 14 7 12
nr_feature 166
bias 1.000000000000000
w
0.1516101410005776 0.06484316293569480 -0.1148402758379588 0.04101492350972266 -0.03970723906883603 -0.03859759071792709 -0.07647785768315513 
0 0 0 0 0 0 0 
0 0 0 0 0 0 0 
0 0 0 0 0 0 0 
-0.1290283786830316 -0.03412246751081991 -0.03263373561711049 1.486483125285230 0 -1.245073439041900 -0.05438409596044848 
0.4570480208772817 -0.08571123185178198 -0.009384069443749920 -0.1473893107535060 0 -0.3183955742468605 -0.06500213545524110 
0 0 0 0 0 0 0 
0 0 0 0 0 0 0 
0 0 0 0 0 0 0 
0 0 0 0 0 0 0 
0 0 0 0 0 0 0 
0 0 0 0 0 0 0 
-0.2274545011699870 0 -0.03851476093032362 0 0 0.3250134210155141 0 
0 0 0 0 0 0 0 
0 0 0 0 0 0 0 
0 0 0 0 0 0 0 
0 0 0 0 0 0 0 
0.1136542625505373 0.2374641314407637 -0.2705448273111885 0.1633040188474050 -0.1660191401894211 -0.06748121050452605 0.001283754167988802 
0.08478902354629580 0.2952737199631110 -0.3993029454110507 0.2397574052109849 -0.1895114993353419 -0.08982659001593299 -0.07048208961061993 
0.3605426934696568 8.673617379884035e-19 -0.4015267035298888 0.3007763307235514 0 -0.3409356928665140 -0.02541304971028647 
0 0 0 0 0 0 0 
0 0 0 0 0 0 0 
0 0 0 0 0 0 0 
0 0 0 0 0 0 0 
0 0 0 0 0 0 0 
0 0 0 0 0 0 0 
0 0 0 0 0 0 0 
1.146576294582834 -0.1036362950438340 -0.3426052845194922 -0.4268170990690962 -0.06644827145864290 -0.5459620637044051 -0.06469999211493872 
0 0 0 0 0 0 0 
0 0 0 0 0 0 0 
0 0 0 0 0 0 0 
0 0 0 0 0 0 0 
0 0 0 0 0 0 0 
0 0 0 0 0 0 0 
-0.1436213890959187 -0.2159274592902783 0 -1.127570259384925e-17 0 0.3680130421165665 -0.06293857525425633 
-0.009856256987351791 2.775557561562891e-17 0 0.4017313383741775 0 -0.1882258163485821 -0.05380015989087683 
-0.09996772115052772 -0.06112793356434342 0 0 -0.01206614873082193 0 0 
-0.2998317129356906 -0.2141663822916169 0.08192176257858957 -0.09894926749904276 0 0.2269353769318896 0.1208280215512527 
-0.1367630103203348 -0.06213417946109045 3.469446951953614e-18 -0.2452228717744282 0.6019264742347710 0.08111697538291840 -0.1358061688391800 
-0.3844114345162155 -0.1194148365772787 -2.602085213965211e-18 1.373684152539134e-16 6.938893903907228e-18 0.4240122046070076 0.01202544181336138 
0 0 0 0 0 0 0 
0 0 0 0 0 0 0 
-0.1455002752361319 -0.1474562162954715 -0.01716199790156090 -0.3359413452467717 -1.734723475976807e-18 0.6820342501623682 0 
-0.3087613241002735 -0.1520107815821413 -0.1893043470558432 0.1938762870844681 0 -0.4482605615974778 0.5505084934224557 
-0.1417736129032389 -0.1848823857393850 1.044034300972005 -0.3840969061237437 0 -0.4834900844924857 -0.02255373782398486 
0 0 0 0 0 0 0 
-0.2621634217945623 0.01456069282946512 -0.09170759487616535 -0.4875981691602527 2.602085213965211e-18 0.4507761836432999 -0.06736113668210802 
-0.2809016026237191 -3.469446951953614e-18 0 0.2713760265282039 -0.03036841510509571 0.1437464755146362 -0.02325530238391552 
0 0 0 0 0 0 0 
0.3170079318305835 -0.1929410713509852 -0.1536846048778183 -0.2319634520034120 0 0.1391560683251175 -0.1799473338300558 
-0.2045811921903491 0 0 0.9858789877107130 -0.1640091935925354 -0.6041560629408778 8.673617379884035e-19 
-0.03971802232445798 0.3436518619040546 -0.09864717279917205 -0.5818319235132334 1.040834085586084e-17 -0.1022683337340367 -0.07337751597506165 
-0.1886255486053144 -0.1055127909039783 0 -0.2067915317769212 -0.05019058701820359 0.4929923301831961 0 
-0.09758722270575834 -0.04937439695444600 0.1222748492141808 -0.2438396425435823 -0.1609093211647716 0.3860810960088557 -0.1104925558525802 
-0.2320134487961426 -0.02586834755556874 0.1199454330097542 0.1558235006576826 -0.2069714615649371 0.02487836604393277 -0.03815707688983194 
0.1403400594501000 0.1278785940647457 -0.06395793648770770 -0.2828620788927851 -0.1070266431614411 0.1302619531679633 0.005324186661686220 
0.04271127215148917 -0.1381915305445809 0.2569813413698966 -0.3481948497412934 0.1097208491072578 -0.03341641517805879 0.003439230349315444 
-0.04986649466594449 -0.06655714861646975 0.04019461996290598 -0.02193491417546785 -0.008111632582901842 0.1253782967304421 -0.1879793140881333 
-0.09873342421896603 0.09702803492691474 0.1053814844293606 -0.2371097313654905 -0.09311606348080448 0.2288807262388631 -0.03336558686332587 
0 0 0 0 0 0 0 
0 0 0 0 0 0 0 
0 0 0 0 0 0 0 
0 0 0 0 0 0 0 
0 0 0 0 0 0 0 
0 0 0 0 0 0 0 
0 0 0 0 0 0 0 
0 0 0 0 0 0 0 
0 0 0 0 0 0 0 
0 0 0 0 0 0 0 
0 0 0 0 0 0 0 
0 0 0 0 0 0 0 
0 0 0 0 0 0 0 
0 0 0 0 0 0 0 
0 0 0 0 0 0 0 
0 0 0 0 0 0 0 
0 0 0 0 0 0 0 
0 0 0 0 0 0 0 
0 0 0 0 0 0 0 
0 0 0 0 0 0 0 
0 0 0 0 0 0 0 
0 0 0 0 0 0 0 
0 0 0 0 0 0 0 
0 0 0 0 0 0 0 
0 0 0 0 0 0 0 
0 0 0 0 0 0 0 
0 0 0 0 0 0 0 
0 0 0 0 0 0 0 
0 0 0 0 0 0 0 
0 0 0 0 0 0 0 
0 0 0 0 0 0 0 
0 0 0 0 0 0 0 
0 0 0 0 0 0 0 
0 0 0 0 0 0 0 
0 0 0 0 0 0 0 
0 0 0 0 0 0 0 
0 0 0 0 0 0 0 
0 0 0 0 0 0 0 
0 0 0 0 0 0 0 
0 0 0 0 0 0 0 
0 0 0 0 0 0 0 
0 0 0 0 0 0 0 
0 0 0 0 0 0 0 
0 0 0 0 0 0 0 
0 0 0 0 0 0 0 
0 0 0 0 0 0 0 
0 0 0 0 0 0 0 
0 0 0 0 0 0 0 
0 0 0 0 0 0 0 
0 0 0 0 0 0 0 
0 0 0 0 0 0 0 
0 0 0 0 0 0 0 
0 0 0 0 0 0 0 
0 0 0 0 0 0 0 
0 0 0 0 0 0 0 
0 0 0 0 0 0 0 
0 0 0 0 0 0 0 
0 0 0 0 0 0 0 
0 0 0 0 0 0 0 
0 0 0 0 0 0 0 
0 0 0 0 0 0 0 
0 0 0 0 0 0 0 
0 0 0 0 0 0 0 
0.1250341962379147 -0.002982015877558447 -0.2281893252883054 -0.08813261324736248 0.01917484546283855 -0.05514493458476194 -0.05722262089251791 
-0.01078626585403479 -0.03137605678479102 0.03807039639614008 -0.1058747370318963 -0.2183232367688975 -0.03748622974633098 -0.08857122987655978 
0.0008035476628144300 -0.2019418791251934 -0.02427992761412295 -0.2584621804743505 3.469446951953614e-18 0.1012450759280565 -0.1458530754980602 
0.03997235691316035 -0.1628793547294210 -0.07672122407782318 -0.1328849114198647 0.03332559166400941 -0.05322276968689604 -0.07731981163703326 
-0.2611609589382762 0.01791330269036563 0.09086617339369042 -0.03787944060135712 -0.1860680594133479 0.07449557692954065 -0.06752140248936696 
-0.5906890337290777 -0.06656810514179767 -0.1549294851443161 0.3823493914112853 -0.1644691625976837 0.02104440228385299 -0.03151019301777291 
0.4570480208772817 -0.08571123185178198 -0.009384069443749920 -0.1473893107535060 0 -0.3183955742468605 -0.06500213545524110 
-0.1465923338607044 -0.1411536212053060 -0.03263373561711047 -0.09316841362294564 0 0.4566284382244525 -0.05438409596044849 
-0.2805098248736413 -0.1036362950438340 -0.05588126766674513 0.4409210660331095 -0.06644827145864290 -0.4659766544180639 -0.06469999211493872 
0 0 0 0 0 0 0 
0 0 0 0 0 0 0 
0 0 0 0 0 0 0 
0 0 0 0 0 0 0 
0 0 0 0 0 0 0 
0 0 0 0 0 0 0 
0 0 0 0 0 0 0 
0 0 0 0 0 0 0 
0 0 0 0 0 0 0 
0 0 0 0 0 0 0 
0 0 0 0 0 0 0 
0 0 0 0 0 0 0 
0 0 0 0 0 0 0 
0 0 0 0 0 0 0 
0 0 0 0 0 0 0 
0.06924743406660092 -0.1699389140351806 -0.1572163712203593 0.2693532268627255 0.02683613604930454 -0.5593808118115153 -0.1443053587434336 
0.3162163698922190 -0.04975090231947109 0.1638724968996775 -0.6977052176237962 -0.03283265394598128 0.04391139604472483 -0.09036056774340322 
-0.1286344229603686 -0.2894731709504115 0.07071925673268661 0.1727751664204462 -0.09769443511933626 -0.1314932583627438 -0.05801003262182054 
-0.2527550641109642 -0.1877771611389448 -0.01992067888186311 0.3483768318682883 -0.1424757677796197 -0.1219124069470804 -0.03600943993811986 
-0.1039237073918952 -0.1705754070464563 -0.1854120000545826 -0.1832867900115084 -0.1399191884615078 0.2371140838069723 -0.1343997645849543 
-0.3498338893294815 0.01114754886059274 -0.2929067786647257 -0.3503817386662412 -0.1268800363336008 0.5077556208733602 -0.07709914109178079 
-0.2171970157306742 0.07803274956055113 -0.03221838987317498 0.4003473714431929 -0.06984234752098482 -0.2528072929207408 -0.1119002522184276 
0.02616968322196139 -0.1820884894242724 -0.5354086296777680 0.4835025031183945 -0.2948214393098100 -0.2013005872854640 -0.05997687421133571 
0.2310753554082764 0.09101944350797998 -0.3095310362919048 -0.4226055131442854 -0.1177872224555952 0.3153429060429852 -0.03691995197617301 
-0.6816167823981116 -0.1970062697754823 1.024548568333452 -0.5832304120416214 -2.775557561562891e-17 -0.4698764829194007 -0.2111041665933675 
-0.1027793447129711 -0.2127630784140007 -0.1423457805213539 0.08234819653965934 -0.1130371952895824 0.1498004358076798 -0.05743321712900897 
0.01361861399812783 -0.2024800510831998 -0.1155104665568991 -0.1962850567892086 0.09618675483416798 0.2110439493408234 -0.05124132565611770 
-0.04953384346602616 -0.1036363765182107 -0.1266531073996823 0.03876311611756068 -0.03622967078572381 0.08355415232679361 -0.1562456019857396 
-0.1038139776158177 0.02861956463786913 -0.2481820129481747 0.5569860164926160 -0.1171195201051815 -0.3653770426304269 -0.07916341939019794 
-0.1896643986768961 -0.2292577838259091 -0.1501059102124069 -0.5399190768765634 -0.1735925374123526 0.5315593243469843 -0.2657989128393522 
-0.1440359994971590 -0.3063219536849011 -0.1733550070661974 0.5522490251301962 -0.02653206389068927 -0.5448174504212031 -0.1643607493946406 
-0.4590096717746742 -0.1109476130337896 -0.2674208790053881 0.2700066051657733 -0.06370082711621763 -0.1278076372471478 -0.1241572657290598 
0.1258297743841639 -0.1318079065247190 0.1377993312216514 -0.3228577031263009 -0.3189828646924647 -0.1357469059956480 -0.09776762897888541 
-0.6668802955645620 -0.7783352570693155 -0.4530824650623452 -0.04052114970688876 -0.5828082931117271 -0.2768126693170160 -0.6520845569419478 
0.03453002606049010 0.05365466141344812 -0.07194168655480981 0.1285230265696969 0.06718595006835759 -0.1298790034426351 -0.02662701740256594 
-0.1333167239589487 0.1055402164528977 -0.007037813893503301 -0.2682388631138780 -0.3531136846776974 0.06531341576907462 0.2228554416827400 
