solver_type L2R_L2LOSS_SVC_DUAL
nr_class 7
label 2 1 6 5 4 8 10
nr_feature 166
bias 1.000000000000000
w
-0.1165723111608824 0.04540384408873240 0.1556358963267089 -0.04316472909809828 0.05976690601764895 -0.07624427697001264 -0.03967792163155328 
0 0 0 0 0 0 0 
0 0 0 0 0 0 0 
0 0 0 0 0 0 0 
-0.03310094348605924 1.492185418651293 -0.1247453836359672 -1.250181453096231 -0.03824001125117974 -0.05457193009595956 0 
-0.009659034731726877 -0.1466841534241948 0.4581503356785880 -0.3196134782467255 -0.08654042620261368 -0.06494432628235850 0 
0 0 0 0 0 0 0 
0 0 0 0 0 0 0 
0 0 0 0 0 0 0 
0 0 0 0 0 0 0 
0 0 0 0 0 0 0 
0 0 0 0 0 0 0 
-0.03962381300040482 0 -0.2256102123975094 0.3217764364403506 0 0 0 
0 0 0 0 0 0 0 
0 0 0 0 0 0 0 
0 0 0 0 0 0 0 
0 0 0 0 0 0 0 
-0.2716083258589387 0.1658865742716752 0.1154549304489725 -0.06964751493845256 0.2327529003394090 0.001544375294432222 -0.1660967602034484 
-0.4010448959245314 0.2438149215582745 0.08743940682663268 -0.09405511417350634 0.2910796104857746 -0.07129337489381340 -0.1889537012671285 
-0.4032600859012847 0.3041856178707415 0.3626534526489015 -0.3430472244655506 1.734723475976807e-17 -0.02477968104629720 0 
0 0 0 0 0 0 0 
0 0 0 0 0 0 0 
0 0 0 0 0 0 0 
0 0 0 0 0 0 0 
0 0 0 0 0 0 0 
0 0 0 0 0 0 0 
0 0 0 0 0 0 0 
-0.3445005778802174 -0.4240947223872079 1.148410370364474 -0.5483494521498515 -0.1050269645561627 -0.06498388835383596 -0.06663529122020032 
0 0 0 0 0 0 0 
0 0 0 0 0 0 0 
0 0 0 0 0 0 0 
0 0 0 0 0 0 0 
0 0 0 0 0 0 0 
0 0 0 0 0 0 0 
1.387778780781446e-17 1.387778780781446e-17 -0.1425966974649690 0.3548236583998760 -0.1999413467045021 -0.06736452266078441 -1.734723475976807e-18 
0 0.3987708381729644 -0.01226312800264953 -0.1828846984036777 -2.677979366039196e-17 -0.05318998718204263 0 
0 0 -0.09696012082338665 0 -0.06405117152048881 0 -0.01234502049730164 
0.08560846279340800 -0.1035827016860569 -0.3126729755012297 0.2343843888508315 -0.2089110561203932 0.1218467807644181 0 
0 -0.2435898133499330 -0.1403035451528615 0.08153396532432805 -0.06692683817282272 -0.1349349073471727 0.6023514554255993 
6.938893903907228e-18 6.678685382510707e-17 -0.3863142382121668 0.4271587630142655 -0.1181350332613068 0.01215458931606857 2.255140518769849e-17 
0 0 0 0 0 0 0 
0 0 0 0 0 0 0 
-0.01219659011278206 -0.3392196967318173 -0.1488435361890409 0.6885037222090838 -0.1449960726955691 0 0 
-0.1923756496543561 0.1970161080561879 -0.3042773786068837 -0.4505442127674891 -0.1561550176863880 0.5503844176677325 0 
1.041429922684327 -0.3799751608435986 -0.1383575377518855 -0.4870616433877428 -0.1870799370433929 -0.02325764143714976 0 
0 0 0 0 0 0 0 
-0.09307827790472172 -0.4881970491209450 -0.2589383756504213 0.4376835563355898 0.02166343991591893 -0.07021211909056974 8.673617379884035e-19 
0 0.2638878012628598 -0.2863404022401013 0.1541769549982079 1.734723475976807e-17 -0.02181483732842657 -0.03029943963734437 
0 0 0 0 0 0 0 
-0.1518293304873588 -0.2301012285225147 0.3172145876008936 0.1422835242361122 -0.1922421152470380 -0.1794803672396145 0 
0 0.9857362638589042 -0.2000519816777398 -0.6030075757025137 0 0 -0.1642276388013076 
-0.09971055794283037 -0.5921745157674500 -0.04443268030765862 -0.09436890476387833 0.3475877405893157 -0.07335904047641280 -2.602085213965211e-18 
0 -0.2013577618814351 -0.1845664249989776 0.4881953949552469 -0.1093138629405348 0 -0.05012305460646124 
0.1265808921892054 -0.2462584593989566 -0.1003304216529131 0.3909524394583807 -0.04678007696441858 -0.1106225270204781 -0.1613032780554928 
0.1221039527623704 0.1479816766540898 -0.2370846055024320 0.02897104877004954 -0.02117929058769493 -0.03692461734349794 -0.2067364758290329 
-0.06554913195459387 -0.2831505186882521 0.1412499441544781 0.1295191049656956 0.1253877242764073 0.005401329035528245 -0.1069049170855086 
0.2580108772965750 -0.3502128833344047 0.04202043367564255 -0.02801455358445980 -0.1407351600706490 0.004770119121637691 0.1102551883471385 
0.04084092259149594 -0.02294065714133512 -0.05151512891016737 0.1275241534836025 -0.06481009624977174 -0.1872083646787117 -0.008387837329167574 
0.1065815477741531 -0.2358346816966442 -0.1009975119676830 0.2327011378256352 0.1001873781850400 -0.03403191079009172 -0.09339475250085189 
0 0 0 0 0 0 0 
0 0 0 0 0 0 0 
0 0 0 0 0 0 0 
0 0 0 0 0 0 0 
0 0 0 0 0 0 0 
0 0 0 0 0 0 0 
0 0 0 0 0 0 0 
0 0 0 0 0 0 0 
0 0 0 0 0 0 0 
0 0 0 0 0 0 0 
0 0 0 0 0 0 0 
0 0 0 0 0 0 0 
0 0 0 0 0 0 0 
0 0 0 0 0 0 0 
0 0 0 0 0 0 0 
0 0 0 0 0 0 0 
0 0 0 0 0 0 0 
0 0 0 0 0 0 0 
0 0 0 0 0 0 0 
0 0 0 0 0 0 0 
0 0 0 0 0 0 0 
0 0 0 0 0 0 0 
0 0 0 0 0 0 0 
0 0 0 0 0 0 0 
0 0 0 0 0 0 0 
0 0 0 0 0 0 0 
0 0 0 0 0 0 0 
0 0 0 0 0 0 0 
0 0 0 0 0 0 0 
0 0 0 0 0 0 0 
0 0 0 0 0 0 0 
0 0 0 0 0 0 0 
0 0 0 0 0 0 0 
0 0 0 0 0 0 0 
0 0 0 0 0 0 0 
0 0 0 0 0 0 0 
0 0 0 0 0 0 0 
0 0 0 0 0 0 0 
0 0 0 0 0 0 0 
0 0 0 0 0 0 0 
0 0 0 0 0 0 0 
0 0 0 0 0 0 0 
0 0 0 0 0 0 0 
0 0 0 0 0 0 0 
0 0 0 0 0 0 0 
0 0 0 0 0 0 0 
0 0 0 0 0 0 0 
0 0 0 0 0 0 0 
0 0 0 0 0 0 0 
0 0 0 0 0 0 0 
0 0 0 0 0 0 0 
0 0 0 0 0 0 0 
0 0 0 0 0 0 0 
0 0 0 0 0 0 0 
0 0 0 0 0 0 0 
0 0 0 0 0 0 0 
0 0 0 0 0 0 0 
0 0 0 0 0 0 0 
0 0 0 0 0 0 0 
0 0 0 0 0 0 0 
0 0 0 0 0 0 0 
0 0 0 0 0 0 0 
0 0 0 0 0 0 0 
-0.2296343903918971 -0.08651354069238773 0.1259069898441731 -0.05764282268947324 -0.003165202855559763 -0.05794487123263509 0.01931592179249978 
0.04214488011018724 -0.1092984180278432 -0.01256218037250160 -0.03353727809725635 -0.02764067891478099 -0.08791815076874694 -0.2186512891815421 
-0.02343061285007089 -0.2589910313100033 0.0006418783248756943 0.1016506021746059 -0.2020125448129637 -0.1450817412466263 3.469446951953614e-18 
-0.07686756129066859 -0.1327195470825073 0.04038888450205447 -0.05271988172034087 -0.1632118520913204 -0.07816988265008593 0.03375013271920433 
0.09197719640779344 -0.03788974114805841 -0.2616396594306577 0.07506435003308831 0.01828104137280058 -0.06783744440240669 -0.1860615533227888 
-0.1565506267096866 0.3825808868802865 -0.5905603713167398 0.02015274561360092 -0.06634211982193802 -0.03166447400475556 -0.1641973656792345 
-0.009659034731726877 -0.1466841534241948 0.4581503356785880 -0.3196134782467255 -0.08654042620261368 -0.06494432628235850 0 
-0.03310094348605924 -0.09611969799140490 -0.1504710754281509 0.4603090553028897 -0.1369800295828746 -0.05457193009595956 0 
-0.05783185496702750 0.4431303032670916 -0.2788277307229906 -0.4674155978813104 -0.1050269645561627 -0.06498388835383596 -0.06663529122020032 
0 0 0 0 0 0 0 
0 0 0 0 0 0 0 
0 0 0 0 0 0 0 
0 0 0 0 0 0 0 
0 0 0 0 0 0 0 
0 0 0 0 0 0 0 
0 0 0 0 0 0 0 
0 0 0 0 0 0 0 
0 0 0 0 0 0 0 
0 0 0 0 0 0 0 
0 0 0 0 0 0 0 
0 0 0 0 0 0 0 
0 0 0 0 0 0 0 
0 0 0 0 0 0 0 
0 0 0 0 0 0 0 
-0.1553423759317633 0.2646343803582404 0.06514060091562535 -0.5572115335773407 -0.1658467619841493 -0.1513472154706673 0.02768643159470537 
0.1641112670927179 -0.6953312783426294 0.3169216315804841 0.04348607375474783 -0.04491416268062228 -0.09061770119733113 -0.03240000975033283 
0.07464150686735105 0.1726507552656990 -0.1281953852112864 -0.1266031154511008 -0.2861605655119220 -0.05608193021117849 -0.09669490138600859 
-0.02091172750904855 0.3476755290776100 -0.2537108258659470 -0.1201409854870536 -0.1875991492101383 -0.03497950938340606 -0.1426507509267943 
-0.1866689517266876 -0.1840712410869750 -0.1035170517801301 0.2373376177595170 -0.1714961564476312 -0.1343765213859492 -0.1404189552829478 
-0.2955288078001783 -0.3489927941408348 -0.3486244071849692 0.5049216723698121 0.007261647784444844 -0.07594072854643030 -0.1270956852331502 
-0.03325385890154716 0.4009297093398643 -0.2169874913751273 -0.2555420348794969 0.07611637058460150 -0.1097731028424478 -0.07090557390753292 
-0.5344565536555702 0.4795898366894308 0.02374926639385382 -0.1969184574859364 -0.1773614102233648 -0.06054472697461535 -0.2947787388693918 
-0.3067934706301508 -0.4279682412875248 0.2283843017912586 0.3189206724772029 0.09207136261904662 -0.03639963510008547 -0.1180070787599041 
1.024430758609532 -0.5813086306913701 -0.6826337771151544 -0.4663302063717265 -0.1965482044984397 -0.2100569993939409 1.734723475976807e-18 
-0.1405915558480481 0.08093965013248679 -0.1038066196323091 0.1519943640133127 -0.2103516544778024 -0.05727726710974142 -0.1121102857944400 
-0.1212131358241711 -0.1919144150951783 0.01535162395577741 0.2022574186572779 -0.2012757509825371 -0.05377599837093993 0.09653872482974266 
-0.1253394892698841 0.03910491589071578 -0.04892785181850379 0.08367744549572292 -0.1033396597927017 -0.1556043105175924 -0.03668785900701913 
-0.2489895012908526 0.5590519448324196 -0.1010898724962720 -0.3673535422967692 0.02416653989038595 -0.07945777157049702 -0.1174342072910504 
-0.1512426668962759 -0.5421335257354494 -0.1917828017956285 0.5330461805930817 -0.2267461213717587 -0.2654120155958530 -0.1735904075020703 
-0.1724877018415369 0.5532816777419015 -0.1433694292748116 -0.5453284803385823 -0.3044119954373628 -0.1652688252515842 -0.02675638789990541 
-0.2673527866740261 0.2691094383208577 -0.4602751025259812 -0.1248898780441937 -0.1088179318783152 -0.1247561248752686 -0.06268618256883988 
0.1381302075026862 -0.3227625298563351 0.1264544046750711 -0.1365801277212182 -0.1326627287779774 -0.09767974331470528 -0.3194464669212476 
-0.4529529479091465 -0.04250493952902253 -0.6689729289213443 -0.2737523055109216 -0.7726387774654163 -0.6531167090374158 -0.5824794448920630 
-0.08376988397359894 0.1449189960540463 0.04762919607830410 -0.1519035255569351 0.04184381999067618 -0.02711659043191849 0.06726954929874625 
-0.007808814926011869 -0.2683008456571244 -0.1329094986092315 0.06320545671005758 0.1056878812167910 0.2207517995898168 -0.3529924256541824 
