solver_type L2R_L2LOSS_SVC_DUAL
nr_class 3
label 3 2 1
nr_feature 372
bias 1.000000000000000
w
0.4512371981986501 -0.3212159821739938 -0.1078994596055668 
0.1741175483011098 0.1211306213481010 2.341876692568690e-17 
0 0 0 
0 0 0 
0.2478880940206825 -0.2523738880717429 0 
0 0 0 
0 0 0 
0 0 0 
0 0 0 
0 0 0 
0 0 0 
0 0 0 
0 0 0 
0 0 0 
0 0 0 
0 0 0 
-0.6318262194054041 0 0.7688771349038233 
0.1384573458012569 -0.09462758667884658 -0.1804997156141251 
0.04797380905342772 0.09613502943976630 -0.2068185922389523 
-0.2464157489194891 -1.387778780781446e-17 0.1717295926535757 
0 0 0 
0 0 0 
0 0 0 
0 0 0 
0 0 0 
0 0 0 
0 0 0 
0.2273892989835032 -0.1898732271132012 -0.07722759158166566 
0 0 0 
0 0 0 
0 0 0 
0 0 0 
0 0 0 
0 0 0 
0 0 0 
-0.5119146517557049 -0.6389488498256367 1.426184155618173 
0 0 0 
0 0 0 
0 0 0 
0.1565999645477081 0 -0.1653301229468616 
0 0 0 
0 0 0 
-0.9212121536544872 1.499300646527768 -0.1737817111568632 
0 0 0 
0 0 0 
0 0 0 
0 0 0 
-0.1865683316980844 0.3422401803241011 -0.02399058812122634 
0 0 0 
0.3782151278044029 -0.6219471495910462 -0.1265640711781949 
0.1872221307973986 -0.008164019275258453 -0.3776446836937633 
0.2281462296621123 -0.005471122961267964 -0.009267032783871363 
0 0 0 
0.07840371887559261 0.2812994215747369 -0.5685858076098496 
-0.01603161289107782 0.1699124562542097 -0.06405689535473696 
0.1675642248050781 -0.09211252750749788 -0.2243571926736100 
0.03832496632550660 0.04813388040098089 -0.2047924634870446 
0.01703518998951165 0.03277421643011781 -0.1109477627455388 
0.3504942561267214 -0.8345416253412642 -0.1613504742028757 
0 0 0 
0 0 0 
-0.05841539191329714 0.1640160500939816 -0.1662078929919724 
-0.5059181512947699 0.5397189793451536 -0.2165023506904511 
0 0 0 
0 0 0 
0.1181741547452702 -0.1743027864875014 -0.1167487288258901 
0.08459375693211630 -0.09874852222477376 -0.06619259465449313 
0 0 0 
0 0 0 
0 0 0 
0 0 0 
0 0 0 
0 0 0 
0 0 0 
0 0 0 
0 0 0 
0 0 0 
0.1901243733199963 -0.08373088031905143 -0.08581939584604936 
0.1483768007564150 -0.03117270961603164 -0.2491428488795913 
-0.1948358695200581 0.2653896821610061 0.1242001375086579 
0.1325570213876058 -0.1090933246564380 -0.03360285247861540 
0 0 0 
0 0 0 
0 0 0 
0 0 0 
0 0 0 
0 0 0 
0 0 0 
-0.1145737925875440 -0.01645188399645775 0.5382021387954290 
0 0 0 
0 0 0 
0 0 0 
0 0 0 
0 0 0 
0 0 0 
0.005995768460939230 -0.0005350211296170776 -0.1459066384012263 
-0.3184918372119802 0.4298874171411221 0 
0 0 0 
0 0 0 
0 0 0 
0 0 0 
0 0 0 
0 0 0 
0.4244803943247054 -0.4057349213980279 -0.01441925233456291 
0 -0.09767584386845513 0 
0 0 0 
0 0 0 
0.2531627615376895 0 0 
0.5464939345852564 -0.6003039626915618 -0.02582195080814975 
0 0 0 
0.001081169503947866 -0.1020916008092141 0 
0 0 0 
-0.03590537506191412 -0.09771550049904983 0.2874447076410625 
-0.7342517185202506 0.6004779725374687 0 
0.1012012214744745 -0.2519704207816760 0.1211064412395559 
0.1697956350112136 -0.1858361402126586 0.04752190377842162 
-0.07680786798342829 0.2319914761451023 -0.3565281164709079 
-0.1027231171628867 -0.1430530907914013 0.4382416013032341 
0.1499724405294033 -0.1152309992022281 -0.2269058566674864 
0.1910140736555134 -0.1861834949796669 -0.2692417330361375 
0 0 0 
0 0 0 
-0.01212007651033915 -0.03704970385953983 0.1755306455497729 
0.3253194021082250 -0.3998935360621942 -0.03644953358566567 
0.1840431656360188 -0.2185953155287294 0.005719885097989747 
0.3600505543761892 -0.5764245585948458 -0.09588443423080104 
0.07866609822046600 -0.02710616832207318 -0.08695352687364137 
-0.3083103494782906 0.2729236327055637 0.1092372293822285 
-0.09006544430086141 0.1825814108798592 -0.2347653100276198 
-0.4119493040326204 0.3137959293503925 0 
-0.3257284028837852 0.4150162542551107 0 
8.197375335492858e-05 0 -0.07722759158166566 
0 0 0 
0 0 0 
0 0 0 
0.05763288483769716 0.1056886611198735 -0.1629977849272048 
-0.01096071332147707 0.1914584787632743 -0.2728935120131055 
-0.07116983837986260 0.2306676119171308 -0.3418104055385599 
-0.005474754408529736 0.05827392068679844 -0.1600612967928554 
0.4192820810029888 -0.6098919990552388 0.008276701924520628 
-0.2298314351158468 -0.3293457934505836 0.7318084556671358 
0.08459375693211630 -0.09874852222477376 0 
0 0 0 
0.1310284034213267 -0.01645188399645777 -0.1524528454846118 
0 0 0 
0 0 0 
0 0 0 
0.1416641678111529 -0.1773525095201088 0.1285149380883968 
0.2907761369488518 -0.3568461724592066 -0.1287067608920329 
0.5823886119043961 -0.4151990434504634 -0.5658196528581592 
0.6024974181788519 -0.6437965748479876 -0.02356614055241341 
-0.2550560929407926 0.06157390305404434 0.04545362185641851 
-0.1962464933646869 0.2194389975560648 0.08626578593545150 
0.3722047214261021 -0.5834113254067916 -0.2755265825762404 
-0.4447121260110720 0.5108716325992557 0.2095730914019596 
-0.2859756542243890 0.3821728842559050 0.1072965949738089 
0.4956999200609004 -0.1951731954581871 -0.9958626454579744 
0.2890790356680327 -0.3450729984364719 1.734723475976807e-18 
-0.1726857672652545 0.3178742437316933 -0.02648615791373346 
0.01162430139761354 -0.2855300010226883 0.1871606106194360 
-0.02367202593216128 -0.1020006498102387 0.09480293506112017 
-0.2589919928406309 0.1920948274950905 0.2826668109625036 
0.03404691387991471 -0.05054175273917012 0.04139516490946683 
-0.08894219846630487 0.1270736888958097 -0.01721282318710367 
0.05405583045841133 -0.1332982768993407 0.04197432127377423 
0.2557750132075052 -0.2243147941468139 -0.7431077571502540 
0.04005019628307428 -0.1740820311694800 0.3605272549778236 
0.3358108634979693 -0.3531183390721594 -0.2736053193721650 
-0.1490444957308803 0.1337086696263848 0.1886485429075845 
-0.07260482428136766 0.1556815565256220 0.02645249873116065 
-0.04194518484132798 0.01388110531075128 -0.2508937022133681 
-0.1450874905037680 0.1252407976410297 0.08949492191499758 
0.2446067764384364 -0.07831175008119261 -0.2299820544679283 
-0.08707583219543060 0.06391146282165865 0.1261504792639876 
0.3072383232982315 -0.3860958618337064 -0.3218550610784025 
0.06736153511075210 -0.3359199536110623 0.3836485900372396 
0.03000225766151928 0.1289446735125454 -0.2128864552757021 
-0.2043517400104608 0.1725415356680992 0.1675301059041941 
0.2009015188281833 -0.3847066339708324 -0.09101651470764881 
0.2237055801861999 -0.004280038831966475 -0.2080711044576838 
0.1548450259644908 -0.2519043891052780 -0.2847657685580437 
-0.05929039671433665 -0.02852625605421111 0.09228441406076994 
-0.02271207371754903 -0.2542645135066377 -0.1008250186924078 
0.5323754234956276 -0.2506656816388889 -0.2120545738017042 
-0.07527256809533327 0.06510692495976197 -0.1957281033858331 
0.3751003849684103 -0.4683495262399831 -0.4163232818191824 
0.3751003849684103 -0.4683495262399831 -0.4163232818191824 
-0.1263095729362645 0.08080753403711821 0.08032152796540072 
-0.1193026990992132 0.1959636455686478 -0.04216035262991640 
-0.1086922994475502 0.09298851540744754 0.1318933068424907 
0 0 0 
-0.6510885047296289 0.6145608221117608 0 
0 0 0 
0 0 0 
-1.734723475976807e-18 0 0 
-0.01768380835135668 -0.2470537411127107 0.2259820787036133 
0 0 0 
0 0 0 
-0.08600144615671129 0.2754017316757706 -0.1161748955700992 
0 0 0 
-0.8807635174062584 0.9113872737261082 -0.1767177553574591 
0.3526120165476479 -0.2477038151930595 -0.4188918104645971 
0 0 0 
0 0 0 
0 0 -0.02422487082472134 
0 0 0 
0 0 0 
0.6934738629345373 -0.4755728146381528 -0.3587711220873087 
0 0 0 
0.3068221573341833 -0.03216377350365839 -0.2307798374708630 
0.7116181782697206 -1.561251128379126e-17 -0.4982315817331238 
0.003572258879880016 0.008050538392640277 -0.06045274529474336 
-0.1807713273330923 -0.1169196110531686 0.3523983609984388 
-0.1935680116234777 0.3186103977139502 -0.1610635443061363 
0.05802703604831046 -0.2324946788823933 -0.06454062777678492 
0 0 0 
0 0 0 
0 0 0 
0 0 0 
0 0 0 
0 0 0 
0 0 0 
0.1757626524261200 -0.1825057472310359 -0.1588051459739457 
0 0 0 
0.4468452358113890 -0.4146035126967042 -0.01744747569406141 
0.1818627066700998 -0.1061227910751632 -0.1557848346973257 
0 0 0 
0 0 0 
-0.03824842448309889 -0.03426819182374494 0.07465237947752418 
0.06563415526800827 -0.2231731384032345 0.07332706139969280 
-0.1462554123398627 0.2734080266470918 -0.1648392100274217 
0 0 0 
0.1137685391849632 -0.1078772246707091 -0.2551258364916708 
0 0 -0.1215341215719389 
0 0 0 
0 0 0 
-0.06955134523047747 0.1568151149678301 -0.1856753073839481 
-0.1858047940512591 0.3228139002846086 -0.04389453322338798 
0 0 0 
0.2271259561469690 -0.2283938664424886 -0.05276105980018941 
0.1186181749741435 -0.05146678251220273 -0.1298081398539270 
0 0 0 
0 0 0 
0 0 0 
0 0 0 
0.02909401582554863 -0.3449572041772493 0.3989674845136671 
0 0 0 
-0.1462554123398627 0.2734080266470918 -0.1648392100274217 
0.1757626524261200 -0.1825057472310359 -0.1588051459739457 
0.1928156103700137 -0.2150096304888276 3.035766082959412e-17 
0.1731229861642339 -0.3962734936522556 -0.3920792518309509 
0.2271259561469690 -0.2283938664424886 -0.05276105980018941 
0.4468452358113890 -0.4146035126967042 -0.01744747569406141 
-0.03824842448309889 -0.03426819182374494 0.07465237947752418 
0.3645655788773974 -0.6680451937266196 5.204170427930421e-18 
0.3385814895310975 -0.3800421792638709 -0.2658374274573671 
0.1791719146344100 0 1.734723475976807e-18 
0 0 0 
0.1248060814272093 -0.4845613601241535 0.04890491363430760 
-1.126180054207031 1.119774057530032 8.673617379884035e-19 
-0.06955134523047747 0.1568151149678301 -0.1856753073839481 
0 0 -0.009300687653399160 
0.06563415526800827 -0.2231731384032345 0.07332706139969280 
0 0 0 
0.1137685391849632 -0.1078772246707091 -0.2551258364916708 
0 0 -0.1215341215719389 
0.2615938990028777 -0.1817178801952580 -0.1879083209314381 
-0.1858047940512591 0.3228139002846086 -0.04389453322338798 
0.2123279569412092 -0.2307273857873934 -0.2343153792357651 
-0.3073211931216269 0.6593320508356819 0.1409975771561864 
0.1186181749741435 -0.05146678251220273 -0.1298081398539270 
0 0 0 
0.1818627066700998 -0.1061227910751632 -0.1557848346973257 
-0.1183594858518413 0.2529739887278368 -0.07554935827692587 
0.05227073553161390 0 0 
0 0 0 
0 0 0 
0 0 0 
0 0 0 
0 0 0 
0 0 0 
-0.6078323007340590 0.5119600919381422 0.2681596275059965 
-0.05034810644037591 0.005707882194274634 0.2744011212474742 
-0.2152011537179522 -0.6322070661106207 0.4112237161483016 
0.1057420063545204 -0.02058605294597183 -0.2461656027106150 
0.1857238141994245 -0.03711384119126545 -0.1709206091227672 
0.05211093046927380 -0.004187462917169232 -0.5963965827509865 
0.2278640753372806 0.2346219084439411 -0.4243007890442036 
0.3312582691553019 -0.6322070661106205 -0.01941728557963699 
-0.2552155643746771 0.3304083598644295 0.01658354336742958 
-0.05056624357795638 -0.06760940588273112 0.3121351788906218 
0.2150514216854635 -0.1474318156387139 6.938893903907228e-18 
0.3042417520207927 -0.7792232056936695 -0.08392180054931096 
0.3612153372574157 -0.05611115067029163 -0.3625566530874373 
0.6689130940960792 -0.5130913266152380 -0.3500092964822658 
0.1330331531151288 -0.4128606954202304 0.1801298673725218 
-0.1157110991018274 0.5956907865137739 -0.5335848969929440 
-0.2452263583935421 -0.2330453541656001 0.5333225213688748 
0.4351062658002141 -0.1420060987641348 -0.9510229329197568 
0.2258408448944630 -0.08367857483088206 -0.3527202125903006 
-0.6453822127092077 0.4424866125016766 0.7531102976100297 
0.3535211938879278 -0.3271923680476876 -0.3420853306590655 
-0.1228306239407790 -0.2330453541656002 0.4660351060320319 
0.2011892764211632 -0.4384803327072177 0.1543547201367290 
0.08536844252612447 -0.05196350098739543 -0.1711757186289106 
0.1205999541783310 -0.3449572041772493 0.3950137989932672 
-0.4311845913571317 0.2827122934899640 0.1792469380655080 
-0.8077464381051005 0.2906442940600265 1.421431896825137 
-2.775557561562891e-17 -0.06099486545345745 -0.1352256596636185 
0.1075055061607881 -0.2040220449047105 0.1483872032994572 
0.2234006134929893 -0.2275986657390745 -0.4199691986624954 
-0.1319780523208632 0.3649102987339490 -0.3816633762164823 
0.3172125348011823 -0.1041696924477819 -0.1232362739022528 
-0.1769646360080570 0.2484952237331139 -0.01567874543712972 
-0.03724618521710103 0.2034087611898237 -0.08961783400800595 
0.1278991987587921 -0.002762976597238366 -0.0004810447769989058 
0.4866058518542597 -0.1525676183207354 -0.3955333270772770 
0 0 0 
0 0 0 
0 0 0 
-1.104263667331663 6.938893903907228e-18 1.496223033114022 
-0.06128587821078023 -0.2250294634112796 0.3955492177982740 
0.3108605593952575 -0.05173932057351439 -0.7033074124431589 
-0.1058688498812496 0.4941204588310665 -0.5605882892817953 
0.1489094211907813 -0.3448361664528969 0.01708418816287788 
-0.2523242027132465 0.08268818177523597 0.2917535168327304 
0.3525484750804925 -0.4097445366040816 -0.1225407952970450 
0.1700896959168290 -0.1395019654518543 0.04729585607610620 
-0.04821893323832251 0.1598933774258604 -0.1682401440515362 
0.02218771230681413 -0.09481145200656516 0.09538052771142293 
0.1103554689510697 -0.1765852792000636 -0.2147569045870303 
0 0 0 
0.2907761369488518 -0.3568461724592066 -0.1287067608920329 
0 0 0 
0.3966117653735000 -0.3344942546170540 -0.7080006554787341 
0.08219763979041762 -0.3572715655309466 0.1255148714256614 
0.08559910832421279 -0.1547865927615831 -0.004624811006215356 
0.1127403905254650 -0.1598246946040613 0.1972405499489245 
-0.1518672891118828 -0.01595243848616625 0.2852789097539930 
-0.7639670467500672 0.8197205537152177 0.4718135360249375 
-0.005574850513574278 -0.3069656178952943 0.1614756150501958 
-0.1724720551807418 0.1082943446121061 0.04717926781712242 
0.3208644073298755 -0.3009851679125209 -0.2445780937879143 
-0.02862499841047275 0.1780723514512757 -0.2160668860880141 
-0.06001181306289216 0.09874936692947446 -0.003215945362076050 
0.3816817566179759 -0.3270647372624827 -0.6646904134102747 
0.05081495478159875 0.1616483108808914 -0.2695557945368186 
-0.4950533116187017 0.5800686199917515 0.3723796233843640 
0.06702041624447141 0.02552229005937714 -0.1516773807658962 
0.2348048378943128 -0.6474190283734382 0.001787094902901832 
-0.3705157044917319 -0.1348190074016965 0.4284524418720597 
0.3210872791319490 -0.3450313225041340 -0.1120341570536508 
-0.04195099471189281 -0.1980114184780625 0.2383665886852594 
-0.2720379900596645 0.2093145404911664 0.4994507067044261 
-0.2954863628715883 0.2846827649643845 0.1071508545471736 
0.7076013453073868 -0.7779519157358439 -0.4545583961455320 
1.264943609495855 -1.398272780088960 -0.3868033588172963 
-0.1214055711815763 0.2162933803124079 -0.1309767827546990 
0.004687935437378612 0.1229181967088671 -0.3969596377689215 
0.2832142620534729 0.01998852241800775 -0.4015216747954552 
0.3238475930332874 -0.3146955406071867 -0.1758320294033370 
0.3675151567149402 -0.5001482685144539 -0.1454353758057302 
-0.01327260125800789 -0.2433871065041177 0.2347020818629956 
0.2663413526008053 -0.3632128541586728 0.04550425574894024 
-0.1093692693789968 0.1223841780587291 0.1175857329138883 
0 0 0 
0 0 0 
0.06665640292931096 -0.1569152101275570 -0.01914229785779870 
0.02019844845827785 -0.2496768930088287 0.1971697159634244 
0.1336773980060997 1.387778780781446e-17 -0.3587711220873089 
0 0 0 
0 0 0 
0 0 0 
