solver_type L2R_L2LOSS_SVC_DUAL
nr_class 10
label 4 9 6 7 10 1 5 2 8 3
nr_feature 233
bias 1.000000000000000
w
0.07590405005047374 0.1290289682152777 -0.2822583626262051 0.2351875143297649 0.01600555347612299 0.2016836264779669 -0.3578708211159831 0.1143323779181133 0.1428025281670923 -0.07770653634799421 
-0.7141126305116011 0.5195276578917474 0.4854506707731426 -0.03472045766795837 -0.1490245132457952 0 -0.4060109332929154 -0.2673791476921671 -0.1422535929848601 0 
0 0 0 0 0 0 0 0 0 0 
0 0 0 0 0 0 0 0 0 0 
0.5923035106956602 -0.06812889939757787 0.1131525381814447 -0.02489855707206901 -0.05720733937833121 -0.5489656721208862 -0.1184105177005303 -0.01106858282649130 1.734723475976807e-18 0 
-0.2576044298618634 0 0.6577119464107030 0 0 -0.3260613084616884 0 0 0 0 
0 0 0 0 0 0 0 0 0 0 
0 0 0 0 0 0 0 0 0 0 
0 0 0 0 0 0 0 0 0 0 
0 0 0 0 0 0 0 0 0 0 
0 0 0 0 0 0 0 0 0 0 
0 0 0 0 0 0 0 0 0 0 
-0.2518012881405954 -0.06383209533329978 -0.8060705974011730 0 1.168933603802458 0 0 0 0 0 
0 0 0 0 0 0 0 0 0 0 
0 0 0 0 0 0 0 0 0 0 
0 0 0 0 0 0 0 0 0 0 
0.4462219204081329 -0.02804359879740839 -0.4368813683920572 -0.2405660202820396 0.9040569237715030 -0.2857723746753566 -0.4706094290371655 -0.05522771407501728 -0.08129991436072860 0 
0.09453743048292763 0.06268692723846181 0.1050870620486934 0.1279240329720933 0.01355950094357549 -0.2246042024405047 -0.04048123088284080 0.1620684089944539 -0.1758970459491871 0.02330731123627501 
-0.09979055022591216 0.1468322592993377 0.1423010633437302 0.003297755013976828 -0.05050469564031883 0.02891180809902530 -0.1332954830790697 0.1438411625967456 -0.1776288923825599 0.05370394955006656 
-0.4749885899341660 -0.09272297648293228 0.1282778152535482 -0.04715576981674560 -6.938893903907228e-18 0.5260826905674727 9.540979117872439e-18 0.6475573156190477 -0.1080537727564749 0 
0 0 0 0 0 0 0 0 0 0 
0 0 0 0 0 0 0 0 0 0 
0 0 0 0 0 0 0 0 0 0 
0 0 0 0 0 0 0 0 0 0 
0 0 0 0 0 0 0 0 0 0 
0 0 0 0 0 0 0 0 0 0 
0 0 0 0 0 0 0 0 0 0 
-0.2140759960711915 -0.03356850127963620 0.2476261492409765 0 0.2592355797804440 -0.05887999059594873 -0.4133832666119329 -0.2890138788844747 -0.1310328650722239 0 
0 0 0 0 0 0 0 0 0 0 
0 0 0 0 0 0 0 0 0 0 
0 0 0 0 0 0 0 0 0 0 
0 0 0 0 0 0 0 0 0 0 
0 0 0 0 0 0 0 0 0 0 
0 0 0 0 0 0 0 0 0 0 
0 0 -0.6821906207292714 0 0 0 0.9024113314812094 -0.06535129066701623 0 0 
-0.01956999944137703 -0.1694743556735700 0.02182559747054003 -0.03655897492667518 -0.5100322021297163 0.1925411724488360 0.5255239443029129 -0.1916893725715185 -0.2506499364275269 0 
-0.07271339022065738 -0.09504001619373640 0.5040345499749915 -0.04234085623735611 0 0 0 0 -0.1020583240684488 0 
-0.1457650711864404 0 -0.2523481071266847 0 -0.007054909005341475 -0.1538953461055758 -0.6032975905893844 0.6428442660685619 0 0 
-0.1036635182006181 -0.03221219652826289 0.2899776692633538 -0.09631487044646228 -0.3711117192402353 -0.5915179765015790 0.4068809280607522 -0.2022163184589982 0.4507755811006470 0 
0 0 -0.6006746105177455 0 0 -0.08696329171006349 0.7927651456224861 -0.07245800111772416 0 0 
0 0 0.5065449277202455 0 0 -0.3066616217021750 -0.2665471127653190 -0.1875568164263315 0 0 
0 0 -0.9611809712879256 0 0 1.009148698270188 0 -0.1863915651176313 0 0 
-0.3628530195332152 -0.09776636011885927 0.3080077982265593 -0.03974379084730395 0 0.1525668484613767 -0.09452934976470598 -0.08842746298768658 -3.469446951953614e-18 0 
-0.3244709028786466 0 0.1562343110545908 0 0 0 -0.1768655501290513 0 0 0 
0 0 0 0 0 0 0 0 0 0 
0 0 0 0 0 0 0 0 0 0 
-0.1127016700783961 -0.0004679760610122054 0.2412566866928285 0 -0.1497258084039810 0.0002211706484608195 0.2798274714886888 -0.1872148449201389 -6.938893903907228e-18 -8.131516293641283e-19 
0.2555172885243153 0.1254081112813144 -0.01039722622049247 -0.3062185162168377 -0.01665780271388435 -0.3550345395326527 -0.2168893702983893 -0.1460454450389344 -0.1071864453272731 0 
0 0 0 0 0 0 0 0 0 0 
-0.1935808197657549 0 0.6295175776526594 0 -0.2460654310899807 0 -0.3262805748477126 -0.009840563622554910 0 0 
-0.1544422949647377 -0.07391581080265362 0.7688528348513256 -0.1972313413050218 -0.03719788734040708 -0.2396032643464852 -0.1593166306203595 -0.04392388259944077 0 0 
0.2382362503970806 -0.3282353876737649 -0.06975702072683831 0 -0.1075438196485032 0.4987813318819711 -0.1556996167741018 -1.734723475976807e-18 -0.02024121224893424 0 
0 0 0 0 0 0 0 0 0 0 
0.4882425842921355 -0.3832312153449023 -0.4104332821630420 0.3523397040189409 -0.1602312834805427 -0.003893887351607110 0.1933649776725447 0.004701724218385789 -0.1686049490545757 -0.05670608757217602 
0.4408859319407967 0.09260937156998520 -0.1692635583342156 -0.01881299353962233 -0.1328877252768286 0.04166789503728387 0.1740017352387897 -0.1773617664761556 0.1497684584625259 -0.003642051439377438 
0.2079017902420876 -0.01574009658414259 -0.04661510354232817 -0.1054339102891111 -0.2700988447195598 -0.09873907294555546 0.09339253750167177 0.01904190657443238 0.03008959889766756 -0.1650616431923322 
0.1769228049427549 0.1444967377524302 -0.1230656990813742 -0.2339540877645706 -0.5709211433274932 -0.1018970701826578 -0.07202147897543670 0.1327998143549908 0.2641607098519735 -0.08920187445451214 
-0.01554753151737745 0.1720168838300306 -0.2161156892577189 0.1874546302931874 -0.2932871978267138 0.2316647386128978 0.01845693925521624 -0.06219882641159364 0.07390503098828863 -0.1251772674057564 
0.1192221941368035 -0.4103281353295825 0.06676674811327946 -2.081668171172169e-17 -0.009592113641373030 -0.1864304947127457 0.03654974209627758 -0.1295843573160881 -0.1343975880266943 3.469446951953614e-18 
0 0 0 0 0 0 0 0 0 0 
0 0 0 0 0 0 0 0 0 0 
0.1873487469950988 -0.3001993287875461 0.1932003933829361 -0.04959614930427415 -0.6520712986567975 -0.5162250769150298 -0.09883290514795318 0.04519979090930477 0.1383988445101144 0.07772618026785072 
0.2033679140980697 0.2852932252722340 -0.2621750478526465 -0.1669656815237100 -0.3445990549623464 0.1380219702548278 -0.03690763562426865 -0.2754297359123876 -0.1818603923834246 0.3874439854891765 
0.2307077715569684 0.2967091838812775 -0.2401805717480712 -0.1343596907262002 -0.2133567572978267 -0.1213684092984856 -0.1020567611566993 -0.3078656258357794 -0.03817832337105324 8.673617379884035e-19 
0.2806443512880663 0.1754185492451501 -0.3120126870635667 0.1609237578929575 -0.1836946470881277 0.03489527415920633 -0.1220813816561238 -0.01555268752054791 -0.07830514654738277 -0.02011426016550617 
0.08438604766430088 0.04926239422877664 0.1017937090658251 0.07129518364094380 -0.07790516273048592 0.01305440583397645 0.01160025338055147 -0.2109583127520260 -0.04011423808310072 -0.1302423475373319 
0.3440279338813621 6.938893903907228e-18 0.1063212742972932 -0.1623754833571686 0 -0.09779839383341869 -0.05422595780881791 0 2.602085213965211e-18 0 
0 0 0 0 0 0 0 0 0 0 
0.1340965952372559 0.04059504717341413 -0.2299445735885902 0.3775215655411882 -0.4269599269948162 -0.1999761124073272 0.1439600654482309 -0.7778788168642085 0.3904021982300269 -0.1034711414563756 
-0.5014713635469360 0.4039434256987274 -0.3148312771729780 0.6252698953272032 -0.1919265528077906 0.1096627803918324 -0.3427890779076362 0.1108197407040590 -0.05713824990541254 -0.06162485961054205 
0 0 0.1323508674476614 0 0 -0.2426224134210966 0 -0.2313111957866348 0 0 
0.09660397704303161 0.03323513932167611 -0.1311917440802514 0.05777719405831611 -0.1312732523572998 -0.08334837203735454 0.009841025298507073 -0.03108388302535212 0.2560851525107664 -0.2198444828860178 
0.9428077401300047 0 -1.047895450426796 0 0 0 -0.06339332239612348 0 0 0 
-0.08788877720994190 -0.01509311592451526 0.1015694702643754 0.1190777156441241 -0.5747068824904580 -0.08787696201161263 0.1931141321607688 -0.1292159419950796 -0.3237065279835265 -0.05380803409976803 
0 0 0 0 0 0 0 0 0 0 
0 0 0 0 0 0 0 0 0 0 
0 0 0 0 0 0 0 0 0 0 
0 0 0 0 0 0 0 0 0 0 
0.01347320077263198 0.2304102668147253 0.06991668682873162 0.08033259588884319 -0.1679120441664148 -0.2533880519942446 -0.1650773538395859 -0.01963823464609612 0.06547001571333844 -0.1422260776671031 
-0.1509646745823040 0.01185377870007525 0.3852101306531936 -0.1240789071556981 -0.5275226690022363 -0.1403103159888175 -0.3382288962919773 0.05641211360558203 -0.1168559671265046 -0.08492376266041345 
-0.1371437718498847 -0.01761262551986232 0.1816870895939665 -0.09294751774550940 -0.1153599651717331 0.02849189955660265 -0.09573836693995316 -0.09783525825619312 -0.07525226685789002 -0.3903782366433086 
0.1612647725110001 -0.1334979837390311 0.2153232551736415 -0.5119740102631916 -0.5639444345706235 -0.09490221011013109 -0.05749182642347155 -0.1343241095144952 -0.1003475311426204 -0.007904108099082954 
0 0 0 0 0 0 0 0 0 0 
0 0 0 0 0 0 0 0 0 0 
0 0 0 0 0 0 0 0 0 0 
0 0 0 0 0 0 0 0 0 0 
-6.938893903907228e-18 -0.1829904697128932 0.2093544424156110 0 -0.6078014821168803 0.2827187239825727 -0.2087073021915958 -0.1143692931857364 -0.1577928098626243 0 
-0.09839153035681666 0.9024047074806874 -0.5977564022580187 -0.1320386032897167 0.5928923844820031 0.1526105299337319 0.2487831303200143 0.3252488631717101 -0.4308190006313130 0 
0.1016597819154077 -0.06146583362925887 0.1415945336814726 -0.1619120169391908 -0.4262655708578878 -0.1300495735992427 -0.2033236107293832 -0.4843295192811053 0.2547940947088475 0 
0 0 0 0 0 0 0 0 0 0 
0.04469133864552893 -0.2803097594729266 0.06902450230944250 -0.1251515945818205 0.3443537290459561 -0.1295503629188414 -0.7488865728184141 0.1331071450646046 -0.3368151287872039 0 
0 0 0 0 0 0 0 0 0 0 
0 0 0 0 0 0 0 0 0 0 
0 0 -0.8799430319920893 0 0 0.4977182528366022 0 -2.168404344971009e-19 0 0 
0 0 0 0 0 0 0 0 0 0 
0 0 0 0 0 0 0 0 0 0 
0 0 0 0 0 0 0 0 0 0 
0 0 0 0 0 0 0 0 0 0 
0 0 0 0 0 0 0 0 0 0 
0 0 0 0 0 0 0 0 0 0 
0 0 0 0 0 0 0 0 0 0 
0 0 0 0 0 0 0 0 0 0 
0 0 0 0 0 0 0 0 0 0 
0 0 0 0 0 0 0 0 0 0 
0 0 0 0 0 0 0 0 0 0 
0 0 0 0 0 0 0 0 0 0 
0 0 0 0 0 0 0 0 0 0 
0 0 0 0 0 0 0 0 0 0 
0 0 0 0 0 0 0 0 0 0 
0 0 0 0 0 0 0 0 0 0 
0 0 0 0 0 0 0 0 0 0 
0 0 0 0 0 0 0 0 0 0 
0 0 0 0 0 0 0 0 0 0 
0 0 0 0 0 0 0 0 0 0 
0 0 0 0 0 0 0 0 0 0 
0 0 0 0 0 0 0 0 0 0 
-0.1884753571723244 0 0.4820266733719290 0 0 -0.09030551366765115 0 -0.1884298708619805 0 0 
0 0 0 0 0 0 0 0 0 0 
0 0 0 0 0 0 0 0 0 0 
0 0 0 0 0 0 0 0 0 0 
0 0 0 0 0 0 0 0 0 0 
-0.4279406955792180 0.9829876862669188 -0.8910997327476012 0.4751047192106137 0 -0.1400475418176671 8.673617379884035e-19 0 -0.03016504667937074 0 
0.1694330288519757 0.05009110666057935 -0.2966163659830789 0.1942374276020368 -0.5155628181319684 0.5436874924044017 -0.3639009035011992 -0.6570650396038820 0.1467855297258854 -4.336808689942018e-19 
-0.3222830601883604 0.1224529636136354 0.03844898763631605 -0.1743063217122114 0.1671549752843092 0.04855628965950595 -0.003429351312850115 0.01387256223220284 -0.08201404930188078 0.02890358981192378 
-0.2672328503718701 -0.2250649695828129 -0.02470619099515204 -0.03583100348445344 0.2988842102414312 0.1489936104323471 0.09068326614006861 -0.01301593651287929 -0.02006378879563889 -0.1941503398400917 
-0.08647259603182876 0.07238529697631846 0.1823006673653928 0.1555575050958956 -0.05351925370726490 -0.5253989906234265 -0.1862616704493522 -0.1049551171417694 -0.2359828624438614 -0.2816868527305028 
-0.06929054702620417 0.2360487169608542 -0.1553055610727788 -0.03563660591575468 0.1199026552950702 0.1040616772210987 -0.08373700911634245 -0.1069597765587387 0.1208729165245559 0.06888499870941053 
-0.3156969131100307 -0.08200421043042574 0.08953806439463056 -0.2056493824957444 -0.004309693359698203 -0.6578494165616624 0.2465426783181745 0.2702618584771557 0.1285617846092126 -0.03201177402160021 
0.5611271970183203 -0.3918170073037750 -0.01388985343177365 -0.1572383533521688 -0.2494834678420694 -0.7647215560165522 -0.3555220321536284 0.1422733574582038 -0.3560299289504134 -0.03042382155494689 
0.06038811213713624 -0.1016974006772140 -0.3894729502776010 -0.06464234791937280 -0.1595805291565887 0.7688230443464463 -0.1184105177005303 -0.07558493963948941 -4.336808689942018e-18 0 
0 -0.01503931280362944 0.4703369892544345 0 -0.3882163776263987 0 0 -0.2323848771069030 0 0 
0.05767471115344536 -0.1153647812757048 0.1081235759920787 -2.602085213965211e-18 -0.5081857934636955 0.1918852086622343 -0.1781995674898876 -0.3992699920730127 -0.04314670283326937 0 
0 0 0 0 0 0 0 0 0 0 
0 0 0 0 0 0 0 0 0 0 
0 0 0 0 0 0 0 0 0 0 
-0.2477600324206835 0 0.3568172165301580 0 -0.2018469173866866 0.2401561454907809 -0.1978589959176262 -2.168404344971009e-19 0 0 
-0.1644327783550245 -0.08333498353290975 0.2919853824409308 0 1.734723475976807e-18 0.1519855267845002 -0.5354058261498955 -0.5845855750725009 -6.071532165918825e-18 -0.1259244457028759 
-0.06076761956789230 -0.07771914247760597 -0.1381752746996021 0.0004310618737137161 0.08425541156464657 0.2126724064462802 0.1243815865283489 -0.01793478834242273 0.1266568258040400 0.02917016020426787 
-0.0003455208995966501 -0.05299020581661310 -0.1276924502848185 -0.02345752071313515 0.3007358970903964 0.1961919250998807 0.1040598406095445 0.01461832275374239 -0.1379156715168364 -0.3559662961317592 
-0.02784326325350317 0.6994086161579258 -0.1284966349925425 0.1152403547422691 3.469446951953614e-18 -0.1827162708021412 -0.1041592347960988 -0.1169217568829556 -0.09983324517907066 0 
-0.1728192028424069 -0.02784386348771580 0.7203167105752424 3.469446951953614e-18 -0.1043696836052904 -0.6054928127307913 -0.2598899444753338 -0.3409363052618750 -0.2107142911217675 1.734723475976807e-18 
-0.04413465599416210 0.09322403979769092 -0.2881332991883915 0.1296195952868143 0.1279498990276653 0.1542550535595512 -0.2000225198024820 0.2354811341707672 0.2162356802583448 0.08608440558145594 
-0.06202425124430398 -0.4909804873706896 -0.06472990961686188 -0.3426273042982616 -0.1030807401408435 -0.02659131323858773 0.3269488685443405 0.1618167581585970 -0.2695109804162398 -0.1975207077870858 
-0.06113778586835392 -0.9609958286005181 0.4052504157410627 -0.1456072080738951 0.1666268136241133 -0.3300592034105163 0.1209830785769137 -0.1981292252359515 0.2505567657158049 0 
0 0 0 0 0 0 0 0 0 0 
-0.04595154780507462 -0.2406127013642661 0.2871709423134184 -0.2709136614351659 -0.1919265528077906 0.1799001254883931 -2.493664996716660e-17 0.2808981817846194 -0.01257227469150716 -0.06162485961054205 
0 0 0 0 0 0 0 0 0 0 
-0.1724312075548221 0.001092334745566778 -0.3042865442089592 0.04973457399610669 0.2072847691188627 0.3142749807290921 0.1740203621538277 0.1068786830011860 0.09559093731738291 -0.2681200428276411 
-0.3527295991348909 -0.2850185648816584 -0.6014136890912576 0.1280105270117193 0.09190151176763507 0.6877920292637857 0.4026204335344927 0.2012349181705267 0.04044514614904104 -0.1678118551126187 
-0.2016864611714265 -0.2699639891687240 0.2100569861862344 -0.2305009804893560 -0.3045764079612727 -0.3720657494880520 -0.3618704978515845 -0.2778768307218225 -0.2138129893881207 -0.2135966179624820 
-0.1800994852479660 -0.2301367153540297 0.09531674267931417 -0.2872455292944562 -0.4727768663736250 -0.3135843833919518 -0.2264637059127635 -0.2278860301434094 -0.2739896418031703 -0.2268875816633258 
-0.3054056070923829 -0.1569758401520822 0.2651285734926289 -0.2857781564600556 -0.1064369973161597 -0.01288529564393720 -0.2826552916053781 -0.05273866504794920 0.01057530282321089 0.1246022697262405 
-0.08364853990148000 -0.1602452991990536 0.02639212856547651 0.2480803584723739 -0.2845014431825758 -0.1391330428151601 0.01442979125368664 -0.07527493340522863 -0.2766089816784036 0 
0.01829404507488492 0.2568915823044549 0.03198919336048059 0.07016990668793768 -0.1001579995582252 -0.08241034292332941 -0.2462402061693929 -0.02700297031696625 -0.3960550455023285 -0.08542169319558770 
-0.08842377327909831 -0.06084283019235798 0.2557950638361941 -0.03299724604557836 -0.5655120505760101 -0.09563896960055171 -0.1199386437173457 -0.1891957338253394 -0.07041187237444690 1.734723475976807e-17 
-0.03108524346328813 -0.4125511778099061 0.05737185511170304 -0.2813683243031805 -0.1438765589269662 -0.2887776689298243 0.05864059304904436 0.05043445129198948 0.09183869775031680 -0.2060915205041664 
0.2079603708916672 0.03942824655942057 -0.4141939905812980 -0.08823562596106574 0.3910547680292923 -0.04270754247784054 0.1235973256412065 -0.1826320506828136 0.1158839107619365 -0.3429333366869994 
-0.09947719864969203 -0.005805386033229913 0.08289090508036094 -0.1476174221742422 0.03207700719574506 -0.02409727048936376 -0.1361677722161700 -0.02935295887892236 0.03697535702841994 0.06936008103470540 
-0.2413223374142105 -0.1404159730253661 0.2235408189296906 -0.01297641949448416 -0.1454725025109213 -0.01046702161179227 -0.2401970341789106 -0.07712506158752269 -0.2244324316099046 0.07106766712599845 
-0.02663908860117133 -0.05693276399226011 0.01422353115678730 -0.2674452850475704 -0.4665862756463927 -0.09641634089830564 0.2041051450223918 -0.06277249763453933 -0.2143849316250510 -0.2702951945617721 
-0.03185748000925649 0.05971786038161173 0.1211326748467586 -0.09257375628431128 -0.3198472953357822 -0.4441926596260782 -0.1596011815744993 -0.1808180893367815 0.1613277439249022 -8.673617379884035e-19 
-0.08284182041684850 -0.1814402220310751 -0.1205812754639334 -0.08648936683920133 -0.08897792781646077 0.2164986964640697 0.07046745274750328 -0.1195149926841544 -0.008537264893023812 0.03203094554249913 
0.04195573652646678 -0.1262599442933696 -0.1191051866999700 -0.1419190243251464 0.2141963606210675 -0.05285216066224284 0.06425020948927776 -0.0001530280114518576 -0.2036526542892470 -0.07835849301012984 
0.03924444269655524 -0.1151180249764375 0.1241243378801902 0.3466200500438492 -0.07857270929138961 -0.008533214318759720 -0.3547665483480283 -0.1097235199609330 0.02205370659653365 0 
-0.08032539920093087 0.06034836341414154 0.06203882821602230 -0.2629627078369467 0.1079070756449760 -0.2896874322269021 -0.1725922469220795 0.04434432835015086 -0.02017679929550278 -0.1949291247224028 
-0.0004339340588247719 0.1496162038765350 0.3093654285235448 -0.09854701121358853 -0.6414085982766000 -0.4130016259910427 -0.09862545251734874 -0.3473301124177632 -0.1444347319096420 -0.07340783161196554 
-0.02723108214799068 -0.3575555526237266 -0.1119472737792597 -0.08180799945931952 0.004231669180045469 0.1094223966234235 -0.1559511218140444 -0.09033354409308214 -0.1336853246693780 -0.09889370809539999 
-0.1356267476571656 -0.04681656229224431 -0.2651669378715966 -0.1631344747850811 0.2743775133267203 0.01702336958046190 -0.3824556413546675 -0.001728706018056803 0.2106921543558087 -3.469446951953614e-18 
-0.2184941825554120 -0.2453447934833157 0.3731225119928615 -0.1742570243258228 -0.4145538585650702 -0.3990942730928493 0.04869801192171364 -0.06637049833632977 -0.4203747289680793 -0.2681826599184425 
-0.3817859464193869 -0.5001007045227467 0.3053737288655462 -0.5177465097838123 -0.7773532743349209 -0.6856501328799962 -0.5883342037643513 -0.5057628608652195 -0.4878026311912931 -0.4404841996258064 
-0.1990955740883220 -0.2241357686529992 -0.1177944201135124 -0.1520549144704995 0.1962240561687156 -0.01681281564141095 0.1266593369587921 0.02311271594569793 0.1255575157672943 -0.08538074582014069 
0.09772814117230030 -0.1010286038021968 -0.2933145904180400 -0.3478297227640922 0.3114449828206981 -0.3536709831444885 -0.3123115579126032 0.1696730265572664 0.02571603224478733 -0.1321716201725811 
0.4444103022630567 0.1556173113240170 -0.5472674869400014 0.2006937667109872 -0.7098311111704406 0.09450584768524924 -0.02627136508264396 -0.01070106597136894 -0.3178725902591518 -0.1453234379631590 
-0.7248288157664247 -0.3305536433915736 1.263750226337098 -0.2185556392602059 -0.5751912021538753 -0.4096721817793568 -0.3764106177278926 -0.6878475373968246 -0.3212035889442240 -0.07760839566992644 
0.09145959067453908 0.01464306059368391 0.1231141674258257 0.04205951294287320 0.1127777354527413 -0.1909067963611641 -0.1644114438127548 -0.01057986555851910 -0.004210337090515687 -0.2207180051962179 
0.09605418516239243 0.2314044654451216 -0.1632196512109643 -0.3426576371055612 0.3125382425540523 -0.2025834458228463 0.08873503104195571 0.4397551169098677 -0.3581063880456091 -1.734723475976807e-18 
0 0 0 0 0 0 0 0 0 0 
0 0 0 0 0 0 0 0 0 0 
0 0 -0.5192786121768304 0 0 -0.3340235854278599 1.085214902356058 -0.3050389536013392 -0.1099799590118596 -0.01505652859338473 
0 0 0 0 0 0 0 0 0 0 
-0.4790343187284455 -0.2297000397420468 0.2026188255006214 -0.1309178186246175 -0.04647757955903136 0.5182371636697947 -0.1117825252313671 -0.2297578700936728 -0.1915799890694088 6.938893903907228e-18 
0.2096523827872471 -0.2934521173904900 0.009117027787510230 -0.2765849820073308 -0.6586762584085961 -0.2343035091665837 0.1898632149419414 -0.05175766425224639 -0.2852203316029316 -0.05670608757217594 
0.1689833378174447 -0.4960191986426203 0.1334187228241315 -0.2922285601740983 0.4155751767970708 -0.06394808702917885 0.1616044102168595 -0.1558968635213232 -0.3078047565041581 -0.05266928889313371 
-0.2823676979644034 -0.1953446137857435 -0.3295816089221201 -0.01144033206030619 -0.1716120026626161 0.5887713697856283 -0.5607874608765355 0.09088448879690494 -0.05382596614030927 0 
0.2055438978871114 -0.5643126071264755 0.6417149848179229 -5.204170427930421e-18 -0.2838916877838264 0.1361483101652996 -0.3470114214055365 -0.3426526806226888 -0.3885357864228949 2.602085213965211e-18 
1.734723475976807e-18 0 0.5585076621078540 0 0 -0.2122986343921285 -0.2132440059158512 -0.1941072421405428 -0.1600774723188275 -0.1777683544178632 
-0.5746539286182167 -0.06382939326471443 0.3817923756296320 -0.1567431458917542 -0.6202793116087859 0.1592248953666025 -0.4960433279341172 -0.2098290808669191 -0.5408508822419289 -0.04339722977784833 
-0.1975129807156404 0.5139748085322463 -0.4389348495996427 0.5906527197361493 0 -0.4159709303121983 -0.1898019018649490 0.2417492117347315 -0.01858735182977454 0 
-0.5728801452756563 -0.4579997110456823 -0.7808469205894975 -3.469446951953614e-18 -0.06569115048645421 -0.1202100557495712 0.2691563552619825 0.7626114511408353 -0.06466805047951957 -0.06743094052220783 
0 -0.2621980490060847 -0.03378673689514417 0 0 -0.2370959345741568 -0.2010208443462423 0.6759826472660035 0 0 
0 0 -0.06010008145113850 0 0 0.8211562335703294 -0.4639628394552443 -0.3949260698759862 -0.05437984414190767 0 
0 0 0.4173804302352974 0 0 -0.06671624842004419 0 -0.09144942605785095 0 0 
-0.01824258367877835 -0.3781767664142304 0.3907808935075936 -0.1983795039151593 -0.3319904304292857 -0.1164214144706658 -0.3988772127834961 -0.4570654171029854 0.2312246899983665 0 
0 0 0 0 0 0 0 0 0 0 
0.1145195878232248 -0.3891700134996871 0.4581465381605677 -0.05355780828287421 0.1775955950718710 -0.1719706664310704 -0.4302567320861863 -0.3564727355933572 -0.3247473612515707 0 
0 0 0 0 0 0 0 0 0 0 
-0.1067973464979175 -0.2329306857212284 0.1632799849227188 -0.1262472707972808 -0.5809619107680240 -0.09924211380888907 -0.6487260783044371 -0.01971962693321095 -0.003565773622264061 -0.1299466163864405 
-0.09826791378894462 0 0.1447952857925550 0 -0.2727348086601160 0 0 -0.02136709740184426 0 0 
-0.08988185023822800 0 -0.2985480726582286 0 -0.4282444094988495 0.7935573269313685 -0.09559543408074492 0 0 0 
0.2493346382370975 -0.08728156398029314 0.1195124150143750 -0.1352591900573863 -0.1147789690972749 -0.7988923756429491 -0.06889969036807975 0.1711123082469873 -0.3200149755663615 -0.007292244172324946 
-0.2914817780575071 -0.1568831903239272 0.9676243227173138 0 -0.2469162026806948 -0.5777070880845478 0 -0.2432455528334093 -0.1262115704310985 0 
-0.1315538000908950 -0.08808470693026356 -0.2463764209294211 -0.1997937251426665 -0.01082296907086154 -0.01653462904482844 0 0.3790460423977509 -0.03147483161939077 0 
0.3640463696877239 -0.3878871159338009 -0.8260914574275355 -0.06235964968636269 0.01605524465133446 0.4162720121477295 0.1262953931054212 0.2058798922848007 1.561251128379126e-17 -0.06240692598297559 
-0.2972321870363506 0.5856468547704953 -0.2324433472589305 -0.3848765583479162 0 -0.3671845578981532 -6.938893903907228e-18 0.9214104866200599 -0.1305520820097855 0 
0.5806998650276585 -0.6784957351458506 0.5960472711553917 -0.007809453228915703 -0.3907013410362523 2.168404344971009e-19 -0.2019870745166421 -0.3123953267612298 -0.3742950734730503 0 
0 0 0 0 0 0 0 0 0 0 
-0.1752917204455745 -0.2788716679877057 0.1460883184970671 -2.949029909160572e-17 -0.3414320792846937 0.1624969740409737 0.1760871908625328 -0.1281692969263724 -0.4030109143017306 0 
-0.1052720329460838 -0.03718455612512404 -0.1401243300434552 -0.2935577900348159 0.6878799063866246 0.1038959651867976 0.2052334865468549 -0.3910323398611171 0.08065347389172087 -3.469446951953614e-18 
1.561251128379126e-17 -0.1840383089589277 0.5767612445925390 0 -0.04257526053324572 0.2478687203136165 -0.3471037731209881 -0.4599109551758142 -0.3546397959375289 0 
0 0 0 0 0 0 0 0 0 0 
0 0 0 0 0 0 0 0 0 0 
0 0 0 0 0 0 0 0 0 0 
0 0 0 0 0 0 0 0 0 0 
0 0 0 0 0 0 0 0 0 0 
0 0 0 0 0 0 0 0 0 0 
0.1160225172458391 -0.9927324439315278 -0.05980712990365968 0.4801643109617827 0.5778735975346314 -0.3195095707506739 0.008100119318981077 -0.03887523276666860 0.4389895151425511 -0.1299466163864405 
-0.1928105887521209 -0.07506923711936570 0.4463296784352939 -0.05355780828287421 -0.6690085305472488 0.1061925464843653 -0.6978970711021080 -0.9810236249914190 -0.6681262762313256 1.734723475976807e-18 
0 -0.06451803614512593 0.02780665958633137 -3.469446951953614e-18 -0.2417282934371150 0.5758260097621101 0 -0.3984747808678116 0 2.168404344971009e-19 
-0.05142248113300799 -0.06451803614512590 -0.3682230466513207 0 -0.2417282934371150 0.04994894153600384 -0.1914866587277898 0.7066850910366598 -0.01837795174415546 0 
-0.04443772110161314 0.3356750095850304 -0.1173122140267037 0.1503758531169807 -0.5803034359546693 0.01585836365865445 0.008494370770484656 0.1599046311273458 -0.3447865329850499 -0.02541014035917211 
0 0 -0.7882655589741392 0 -0.1361318043629216 -0.2151022198723721 -0.4731974458547774 1.387778780781446e-17 1.419392717807661 0 
-0.06739313265846889 -0.2174350870412758 0.02745043124004666 -0.1337881681887493 -1.080923560570423 0.02478070616083906 -0.2207660060114534 0.2475821726104361 -0.3678405252676312 -0.1973775569086483 
-0.2828119437342000 -0.06451803614512587 -0.1682296896971414 -3.469446951953614e-18 1.232930001199361 -0.1398996594110449 -0.4382908573863397 -0.3984747808678118 -6.938893903907228e-18 2.168404344971009e-19 
-0.4631211745008396 0.3876576593238651 -0.5013692007206336 -0.2076031783715824 0.3427308645267163 -0.08673886564752739 0.2426756579724068 0.3679527512901563 0.4217226839779210 -0.01505652859338473 
0.02423841645905933 0.2218303711634157 -0.06339445971381659 0.1897005753285808 -0.4335626328547169 -0.03869558133756481 -0.3828457985383315 -0.02535119426090436 0.1094223201870912 -0.2172277049368429 
0 0 0 0 0 0 0 0 0 0 
0.1884483753225722 -0.1843377856282299 0.09388254155955719 -1.387778780781446e-17 6.938893903907228e-18 -0.03904771624456313 -0.1776834558064328 -0.2057353364463576 -0.04889220860136334 0 
-0.4247047680108544 -0.2224495573298707 0.01208927601710386 -0.03295801043932067 0.4516643373614214 0.04304655921850820 -0.2218778460932929 0.07167261535290710 0.1479733914386324 0 
0.2823242838268749 -0.2439084640584847 -0.5408378246643027 -0.1722198815879620 -1.387778780781446e-17 0.8873591332445038 -0.1445960010766536 0.1576834452557371 -0.1759212418527296 0 
0.3363536335799165 0.1689932627908549 -0.1409258384984075 0.01337372137836791 0.1931330275160865 0.02139786697780954 -0.1311707738299132 0.1388916463385274 -0.007389067696693611 -0.1968344147253688 
0.1936878072813882 0.08630090308592654 -0.06963940029181305 -0.2805337325871792 0.4515891584625700 0.3702009127399393 -0.1757630077930649 -0.2646206937851955 -0.1958058521334106 0.2045661097916704 
0.3241272086990761 -0.1661736717396703 -0.2984933162661814 -0.3482713228295769 0.1376329911753580 0.3323608514972821 -0.2823583303016902 0.1580860776001832 -0.07736381631244385 0.1541803425403233 
0.4214020167479700 -0.07827362275289520 -0.1402215608478974 -0.06288778031983783 0.3445897898236059 0.2426172611922288 -0.1355293644160535 -0.06916459932684002 -0.1715160283962162 0.2627865606536092 
-0.1435545828245847 -0.1045403385962873 0.02450784889613310 -0.1352591900573863 0.1927481841966052 0.7585348463674385 -0.4170403832254333 -0.08243752520258660 -0.1660928840966432 0 
