solver_type L2R_L2LOSS_SVC_DUAL
nr_class 10
label 6 11 1 7 5 8 2 14 13 12
nr_feature 278
bias 1.000000000000000
w
0.2070205501017736 0.03572429664098022 0.09062371008668424 -0.2247024454899110 -0.2357348859912196 0.3496949200036801 0.003873532324920301 -0.4098599994957579 -0.3300620238439959 -0.3264135642979005 
-0.2655801826198667 0 -0.07835312801703695 -0.1692919410755582 0 0 0.2915872617230591 0 0 0 
0 0 0 0 0 0 0 0 0 0 
0 0 0 0 0 0 0 0 0 0 
0.03164432709330058 -0.08708795157720059 -0.5007020174383637 0.9829734361824589 -0.6098743416303098 -0.3276786779406422 -0.1021823701785596 -0.004527752033595974 -0.09694946661009222 -0.07110115982380781 
0 0 0 0 0 0 0 0 0 0 
0 0 0 0 0 0 0 0 0 0 
0 0 0 0 0 0 0 0 0 0 
0 0 0 0 0 0 0 0 0 0 
0 0 0 0 0 0 0 0 0 0 
0 0 0 0 0 0 0 0 0 0 
0 0 0 0 0 0 0 0 0 0 
0 0 0 0 0 0 0 0 0 0 
0 0 0 0 0 0 0 0 0 0 
0 0 0 0 0 0 0 0 0 0 
0 0 0 0 0 0 0 0 0 0 
0 0 0 0 0 0 0 0 0 0 
0.1216469961320855 0.02405742312339646 -0.1730811068722188 0.02447825152718527 -0.4032309413915740 0.4069934979136718 0.1741832235273177 0.1455029598397080 -0.3283116119333287 0.1538743719962689 
0.1009858941114697 0.03542485945863827 0.1030061652387800 0.01431952044532228 -0.3966883826649407 0.3667959629094295 -0.02888688136188464 -0.4291173244583156 -0.2958365061085103 0.07894544662979755 
0.02365342969229002 0.3301137391519621 0.09922083019860112 -0.1002087744003355 -0.4309962487845996 1.561251128379126e-17 0.1359865908634178 -0.006561092523315689 -0.08365208110427193 -0.01944087590464256 
0 0 0 0 0 0 0 0 0 0 
0 0 0 0 0 0 0 0 0 0 
0 0 0 0 0 0 0 0 0 0 
0 0 0 0 0 0 0 0 0 0 
0 0 0 0 0 0 0 0 0 0 
0 0 0 0 0 0 0 0 0 0 
0 0 0 0 0 0 0 0 0 0 
0.1653661022477522 0 0.2397692995454851 0.09614447349341468 -0.1531318477440953 -0.1489661480891709 -0.4218982940301635 0 0 0 
0 0 0 0 0 0 0 0 0 0 
0 0 0 0 0 0 0 0 0 0 
0 0 0 0 0 0 0 0 0 0 
0 0 0 0 0 0 0 0 0 0 
0 0 0 0 0 0 0 0 0 0 
0 0 0 0 0 0 0 0 0 0 
0 0 0 0 0 0 0 0 0 0 
-0.2203608346362541 0 -0.02313078092428715 -0.05594054230655475 -0.09354850505482407 0.8531260749129813 -0.2258952557193902 -0.002637804502922517 0 0 
0 0 0 0 0 0 0 0 0 0 
0 0 0 0 0 0 0 0 0 0 
0 0 -0.2089830800219656 -0.1231419047954386 -0.05910015213236478 0 0.4886991445078266 0 0 0 
0 0 0 0 0 0 0 0 0 0 
-0.5514912987033642 0 -0.2268724346218547 0.6411219985902893 0 -0.02220667992676891 -0.02507645890862609 0 0 0 
0 0 0 0 0 0 0 0 0 0 
-0.3607703347218084 -0.09791714226591977 0.1111770235909932 0.2674551690619936 -0.1225134319715493 -0.2023687218542388 -0.08521806911369420 0 -0.07001676164789254 -0.005847721650421894 
-0.1089875250624467 -0.02250076079105314 0.6066032177178686 -0.3418012745113546 -0.3407656527314943 -0.2164267968523554 0.1507263282033097 0 0 0 
-0.09703208194569482 0 0 0 0 -0.9129508425609820 0.9332306838799915 0 0 0 
0 0 0 0 0 0 0 0 0 0 
-0.2329042715526725 -0.1535300474502225 0 -0.09280921534691551 0.9766113810024887 -0.07706328378521803 -0.3212621799858768 -0.01886819717307406 0 0 
-0.07349400897703424 -0.3513651714217256 -0.4345165955398411 -0.4163239308100000 1.176961463277973 -0.1730492569020116 -0.3434167952846837 -0.09669641223472106 -0.08514738183096240 0 
0 0 0 0 0 0 0 0 0 0 
0.5900991252996346 -0.1445930484802075 0.3704176564569796 -0.2663133612262696 0.2328931885699420 -0.09714950154724694 -0.7438418455411954 -0.08177604551578534 3.469446951953614e-18 -0.04790228513792832 
4.206704429243757e-17 0 0.1526144791367077 -0.2113055328401252 0.4356429549973581 0 -0.2926373815421345 0 -0.09656047959924283 -0.01360197391643979 
0.3705625587116342 0 -0.1678989758187176 -0.4119259368339220 0.4093317137850422 -0.2047281139334768 -0.1652408509423472 -0.1106836156971114 -0.06322806998716118 0 
0 0 0 0 0 0 0 0 0 0 
-0.09686932887827075 0.09410108243715250 -0.1208436525578388 0.1134526055583008 -0.1158391851741306 0.05282323035269258 0.1648869822932168 -0.2323702127672987 0.6332266550602975 -0.003078467058230990 
0.09855605735229561 -0.07160589139093236 -0.01388032841115963 -0.01781074204702332 -0.1465893612794522 -0.02218295562907098 0.1210115938209702 0.2041120762666329 0.1312272226281295 0.2001245577816093 
-0.004596796683183224 -0.2179379843587508 0.1260993557398944 0.06596004076290567 -0.2709829517045529 -0.1384725889618993 -0.05504480611411550 0.3354541984025692 0.2891111614512769 -0.01866262031102256 
0.04098362399703850 -0.2354050709243566 -0.006687719150696905 -0.1020768037094794 -0.2109329403904869 0.03351929663338361 0.2234231297779807 0.4046455325880340 -0.08346278859596046 -0.3366044497130038 
0.1037433267510231 0.01013748989975966 0.009798748897995124 -0.1817702115661283 -0.06023144631262469 0.04245343473762661 0.1255980760414579 0.08441688333209750 0.1290553439355750 -0.2292236658992091 
-0.03193201275291661 0.3910212705864090 -0.1559643418319018 0.08941728515224744 0.05320335471027046 0.08537305736461967 -0.01283282456608075 -0.3046091761487665 -0.1968667801598558 0.1975695566885408 
0 0 0 0 0 0 0 0 0 0 
0 0 0 0 0 0 0 0 0 0 
-0.2378451930389321 -0.2081847124599463 0.3960733913723517 0.1087120647255419 -0.1157691595873563 -0.1116865684886187 -0.09888602091159415 0.2435558208654362 -0.2172289349276743 -0.3727579416159525 
-0.2505301648969029 -0.1312639500523493 -0.02857657253013464 0.8309169407082699 -0.09398000566176062 -0.1334776913980231 0 -0.1720822338744237 0 0 
0 0 0 0 0 0 0 0 0 0 
0 0 0 0 0 0 0 0 0 0 
-0.2206742283139376 3.469446951953614e-18 -0.3147837316576522 -0.7628267009667342 0.2869764129419857 0.7621440849471303 -0.2603104393144793 8.239936510889834e-18 -1.040834085586084e-17 -7.773769707275398e-05 
-0.2567504268226715 0 -0.08869674061185676 -0.07821527839968250 -0.03723257993712488 0 0.1291682486915607 0 -2.168404344971009e-19 -8.673617379884035e-18 
0 0 0 0 0 0 0 0 0 0 
0 0 0 0 0 0 0 0 0 0 
0 0 0 0 0 0 0 0 0 0 
0 0 0 0 0 0 0 0 0 0 
0 0 0 0 0 0 0 0 0 0 
0 0 0 0 0 0 0 0 0 0 
-0.07144532738463352 -0.1329731840899776 -0.5938159242605481 -0.1117684882935472 0 -0.1470960903537384 1.095545381275714 0 0 0 
0 0 0 0 0 0 0 0 0 0 
0 0 0 0 0 0 0 0 0 0 
0 0 0 0 0 0 0 0 0 0 
0.1229209176371403 0 -0.8753421619221290 -0.008548909861490409 0.2397071223385155 -0.1074033174902290 0.5886490105567931 6.938893903907228e-18 0 -0.1166407081114835 
-0.04684772390701706 0.2328944547420293 -0.06227288170109601 0.1316935334367527 0.2583253947743000 -0.01814061694534646 -0.09485808928872072 0.3283765224415842 0.1803350472679901 -0.1864929494185123 
-0.007355662841446797 0.07546074927951962 -0.2708867541783199 0.1393316019769683 0.2240776595491364 -0.007680333359611572 0.1504921578637542 0.1884650603350266 -0.3468072563954404 -0.2409991471734689 
-0.03900561034754310 0 -0.1588446884284881 -0.09551559906217327 0.7716675504150267 -0.1050059625525329 -0.2489186874841065 0 0 -0.1072798559329605 
0 0 0 0 0 0 0 0 0 0 
0 0 0 0 0 0 0 0 0 0 
0 0 0 0 0 0 0 0 0 0 
0 0 0 0 0 0 0 0 0 0 
0 0 0 0 0 0 0 0 0 0 
0 0 0 0 0 0 0 0 0 0 
0 0 0 0 0 0 0 0 0 0 
-0.03236429882318556 0 0.6377531188134316 -0.2158375601984913 -0.2534703932595546 -0.01065895391160435 -0.4485925687840945 -0.07600000814998978 0 0 
0 0 0 0 0 0 0 0 0 0 
0 0 0 0 0 0 0 0 0 0 
0 0 0 0 0 0 0 0 0 0 
0 0 0 0 0 0 0 0 0 0 
0 0 0 0 0 0 0 0 0 0 
0 0 0 0 0 0 0 0 0 0 
0 0 0 0 0 0 0 0 0 0 
0 0 0 0 0 0 0 0 0 0 
0 0 0 0 0 0 0 0 0 0 
0 0 0 0 0 0 0 0 0 0 
0 0 0 0 0 0 0 0 0 0 
0 0 0 0 0 0 0 0 0 0 
-0.1117226498680040 0 0.9007332929833729 -0.1919792595103806 -0.1587938139896653 -0.05280242664737434 -0.1958535043331945 0 0 0 
0 0 0 0 0 0 0 0 0 0 
-0.3210970571676249 0 1.043184501343642 -0.1316979284282536 0 -0.1212294521033997 -0.7228667433157310 0 0 0 
-0.2100803272002098 0 0.3465438095412896 -0.1119805832831474 0.2814901719680902 0.2439564650566952 -0.3705232586361582 -0.2509755394396283 0 0 
0.3130827460465779 -0.08831638572229632 0.3296084845401222 -0.07274593358628073 -0.1006978446887191 -1.604619215278547e-17 -0.6305454390056437 0 0 0 
0 0 0 0 0 0 0 0 0 0 
-0.07218343586185093 -0.08490673645050285 -0.4214465047861293 0 -0.09082679962099126 0 0.7823174876908233 0 0 0 
0.8578124220301172 -0.01936061309018423 -0.6664125624295546 -1.301042606982605e-17 0 -0.1188024464842964 -0.1209577616696276 0 0 0 
0 0 0 0 0 0 0 0 0 0 
0.2310006149186472 -0.08068617654317994 0.6993714944520111 -0.7085919513578619 -1.152305116950207 -0.06072315554496058 -0.4202600983877068 -0.4494152012304619 0 0 
-0.07670079629384229 -0.1633779470894534 -0.5871640509571283 -0.02881241652288110 0 -0.009216661373563067 0.8026742390810921 0 0 0 
0.6785168029799019 -0.2184945734904308 0.1114534225604388 -0.1391996059004799 -0.2499962713171650 -0.2770796161757544 -0.5389264959198364 0 -0.05243580440015117 0 
-0.1612541967149835 -0.01247496225515609 -0.2969702599629533 0 0 -0.004653370834317957 0.5480093988147812 0 0 0 
-0.07351770997048396 0.3352359650082463 0.06713513926207035 0.1075856021416076 -0.1662095034626412 -0.05722224634549564 0.04333922364163425 -0.5427528912368095 -0.1582980650439644 -0.06798430619668627 
-0.03736014209951837 -0.01590123034930333 -0.1058400255283543 0.1634131817338464 -0.02285182806957897 0.08680473117544865 0.09144930442746547 0.07402790369941833 -0.1699094702064674 0.2003277832433349 
0.05065064617293787 0.2272151886535839 -0.2965973307784730 0.2533400657772931 0.08868383908846500 -0.005933953383272054 0.02367482042348379 0.2297086054741797 0.1134845711052040 -0.05102805123109691 
-0.08935812157828275 0.3318163860399461 0.2735782054121896 0.1819151394111843 -0.1388192452374981 -0.09996068330264535 -0.2596384462742368 -0.1378107758110686 0.1105972933559105 0.1401912503934480 
0.005006193180547932 -0.3059675975374377 -0.1244578147248049 0.1482130543175172 -0.1001280628619205 -0.02351769494079008 0.1126893787662990 0.007539549373757593 0.2200508095432429 0.3447327337179884 
-0.1326539548780161 -0.2020775819551734 -0.1149105304191795 0.1724991949575228 0.1646362549535215 0.02692186730130684 0.03290143576644683 0.03378720543135507 -0.2272617586446453 0.01664607940607452 
0 0 0 0 0 0 0 0 0 0 
0 0 0 0 0 0 0 0 0 0 
0.04542706415064304 -0.06986902862737837 0.08030195091024808 -0.04638480022142347 0.1565975541688514 -0.009348004610969853 -0.1464311609939785 -0.2845017094729878 0.1758430527808864 -0.03386211261046036 
0.1580819662638936 -0.04639947463284919 0.07513834351403476 0.05671817093791540 -0.07320005392632989 0.1164738637249001 -0.2872603475319218 -0.2098374881130528 -0.3911764483323617 -0.1598206010374847 
0.03320985761879100 0.02375522453058783 0.04542527174381206 0.07225179423621202 -0.1079561014134486 0.05604811828304879 -0.1717083989157195 -0.2724061553614962 -0.2037325658024405 0.2374052255444935 
-0.009939511274894352 -0.09828331695319507 0.2769237932071775 0.1436175154324915 0.01663547220240072 -0.2856526042945062 -0.4478801453775495 -0.1329520273389656 -0.008767121088296439 0.0006742415557627025 
-0.2020627500734534 0.05299619678440065 0.2930440911779334 0.3318351595194044 0.04866854056578003 -0.3656373573188574 -0.4337567683692580 0.06565374145205449 0.06855614899471899 -0.1221069925574519 
0.3972058668312461 -0.1837599823812096 -0.3130968484494316 0.2922780719468994 -0.5649153848715919 -0.2983830149199461 -0.1909367015371282 0.08753696802130692 -0.01235358211761163 -0.3264135642979006 
0.03489382015861528 -0.1947415843078055 -0.3310036711959595 0.4018970178230081 0.06919532390648558 -0.1452379965874070 -0.07923875114999979 -0.04696624176221036 -3.469446951953614e-18 -3.469446951953614e-18 
-0.2854073414169115 0 0.02864932393524220 0.09170586198493609 0.4205727792618425 -0.01710324389873570 -0.1545510626698127 -8.673617379884035e-19 1.734723475976807e-18 -0.07110115982380764 
-0.1940103843629287 -0.01492997040199974 0.1331619974759616 0 -0.02138494659618630 0.7359942899456883 -0.6659389985439059 -0.01460477901925820 0 0 
0.1653661022477522 0 0.2397692995454851 0.09614447349341468 -0.1531318477440953 -0.1489661480891709 -0.4218982940301635 0 0 0 
0 0 0 0 0 0 0 0 0 0 
0 0 0 0 0 0 0 0 0 0 
0 0 0 0 0 0 0 0 0 0 
-0.1349496680297938 0.02076329360851629 -0.007726572457588106 -0.03234526498211390 0.008754259051707174 -0.07829375109517324 0.1977746272237507 0.05389462117807884 -0.1701400527420112 -0.08342057129322097 
-0.2461659133735547 -0.03395622316670961 0.1088193117895403 -0.1101874589801953 -0.005219936654599914 -0.03401896748834821 0.1758782343734446 0.2069754469287549 -0.07211975419614874 -0.1383736496067144 
-0.1159326213006194 -0.006951325451592842 0.1500634987972770 -0.04582021311102646 -0.04200658190805520 -0.007500983186652623 0.04124402096149721 -0.4207139917733980 -0.3606153652641936 -0.1922453666410561 
-0.1749165959306610 -0.01345360411769190 -0.1216024344349818 -0.1596038167995720 -0.07135182203535112 0.1399744441807821 0.2672904908288797 -0.3851433560230918 0.08400110091254834 0.2469661238542170 
0.1470858258907966 -0.2965010981822432 -0.4586853430691848 -0.004163973218193387 0.3130279745848751 0.05228059018378740 0.2240696959113472 -0.06741362666930757 -0.02859949705618646 -4.336808689942018e-19 
0.3711305007866716 -0.1312639500523493 -0.4417887072664546 0.4204721346337290 -0.2145809547297801 -0.1389195977853033 -0.7707164613905478 0.2761416360294453 9.107298248878237e-18 -0.2742116492325458 
-0.2567504268226715 0 0.2410872906659361 -0.1291978800583566 -0.1006687636643841 -0.3553758411506683 0.4114736047325550 8.239936510889834e-18 -1.734723475976807e-18 -7.773769707277132e-05 
-0.06975788229448500 0 0.7180739386395274 -0.1191754378213646 0 -0.09513417029885032 -0.3871508024642574 -0.1113167036421175 0 0 
0.2905000960311100 0 -0.3898246572599562 -0.2400779258478095 -0.2534703932595546 0.1645241834854321 -0.1700908765019557 -0.07600000814998978 0 0 
0 0 0 0 0 0 0 0 0 0 
0 0 0 0 0 0 0 0 0 0 
0 0 0 0 0 0 0 0 0 0 
-0.05408024811859327 -0.05068612750327776 -0.005526262432227930 0.04445494389733460 0.05408964551266372 0.05521729169022434 -0.04608522943343442 0.08692317359265583 -0.04233968106811374 -0.002808113559095784 
-0.1650039873582770 0.04856399627329090 -0.1645906496696555 0.1829370135974360 0.8800500509047904 0.1101886517733376 -0.4736902287292165 0.05387014135109340 -0.05554151031574118 -0.09115831314517600 
-0.2083174236280884 -0.04558949448255710 -0.1445462539549861 0.005324654140956098 -0.06270382831239431 0.01516640901023587 0.2565514015025310 -0.4179334788025271 -0.2494801722735802 -0.2060182454621459 
0.3602101891561466 -0.06613960562416846 0.1956635050034473 -0.2501890033054384 -0.3184442516626981 -0.1126525033486203 -0.5137908987930943 -0.03779738060432961 -0.1735934139247146 -0.1743284298674089 
0.01094612086424492 0.3256486393246219 -0.3386299518693159 0.03661453554675551 0.1175903847875290 0.04223805105087126 -0.07585078520301275 -0.09372286383743430 0.3757812766462635 -0.02213605638243817 
-0.05977085100259107 0.01360642441236535 0.05617005520904216 -0.07719765407245406 0.06141673614071740 -0.03584808981120019 -0.02017421353536868 -0.04730014708991737 -0.6021787577799917 -0.1302942963521606 
-0.05306571467610947 -0.3645257833643787 0.1120886312191077 -0.1801187254156327 -0.1603462472164981 -0.04153974119350961 0.04576511363630481 0.2999580710551447 -0.3842009141244727 0.005209508497180510 
-0.04409364371399455 -0.3792495201876719 -0.1333877991170124 0.02921075752932497 0.08967563813558739 -0.1874311115366111 0.1663261202522133 -0.08924551082740297 0.2436874851068202 -0.07139020561149305 
-0.1956653620428236 0.05488643255971647 0.05105813891383010 0.01625559939159215 -0.09270465048738748 -0.03239710732615857 0.1309457958151521 -0.1375346720151609 0.2425109280036864 0.1575948745620806 
-0.1278767894893501 -0.1589180247590373 0.05615206962152827 0.004683237326473613 0.1528253799504151 -0.03608290819490138 -0.06427292662649088 -0.3952750153333030 -0.1404701631987320 -0.1481769215549069 
0.1492018045805790 -0.1001413745071246 -0.04537018943846841 -0.4890778955534686 -0.3833934535981703 -0.2054863449550867 0.2459961759301570 -0.09882087764259814 -0.1218916933780554 -0.1828659894285993 
-0.02750865412892161 -0.03671984655717876 -0.06253461879482520 0.06564843436553111 -0.05261108497448960 0.04276463002375001 -0.1698191899366655 0.1815840141295973 -0.004870631682578825 0.1779009344010636 
-0.005543094940374254 -0.02247826217886666 0.003390220218465946 0.08677854416186352 0.01788485310574811 -0.05836703357538169 -0.1212508959858043 -0.3105664469967647 -0.1216444599079928 -0.01244882587795760 
0.1216846138681716 -0.4531142737517389 -0.1714740348482642 0.01598248854036736 -0.005307376502982290 -0.04081730023562945 0.03156405846712045 -0.1901357218950922 -0.1041140451963572 -0.1286550425308689 
-0.1478082017448681 0.3165170509443832 -0.1265556657886143 -0.07913781992724882 -0.01224032124903651 0.06806814952746000 -0.02784154700892035 0.2832530012539055 -0.01247969099170049 -0.3491798181080698 
-0.1519063631884476 -0.006508176552508581 0.1448085444342934 -0.02497682509842007 -0.08267421534662665 -0.1225432857452050 0.09539685883531640 0.006385064362634435 -0.04200288399057314 0.2020628124829499 
-0.1745774555525251 0.03459555727239998 0.1410658852645306 -0.06395971462548769 -0.1377050699097890 -0.07609777099974399 -0.01522763007663838 -0.08264651706286186 0.1199537599712708 -0.06389250939069010 
-0.04428094058458999 -0.3436239199169939 0.07228714837916524 -0.08627067432402585 -0.1673289641613256 -0.04181574474657276 -0.01781186334497981 -0.05407287190671775 0.01815081967401032 -0.01465212572525839 
0.02355707086245102 0.09029229815435574 -0.1374608043146574 -0.02310590446347337 -0.2585131323230646 -0.1416032270049180 0.1558575316355948 -0.07980132463514009 -0.4423988923141363 -0.07529964997145826 
0.06591585610206932 -0.02613362804760329 -0.09829762313784501 -0.1665374044006271 0.2023076736527215 -0.04687264144210300 -0.01677639617240561 -0.1419040791091317 0.09702683276065452 0.04563769038896651 
-0.05800663839224340 0.07272671110593555 0.1261638954980669 0.001428557984636540 -0.07529088315748904 -0.07046188060749783 -0.1733608595475659 -0.1011886661050592 0.08423104500738726 0.05926685463858880 
0.03875446666667642 -0.002506980660169503 -0.1800395625276564 -0.007696368232586015 0.09010765804895404 0.03383017314983887 0.02599454056521496 -0.1769648249084792 -0.3651375663020067 0.1480044477867411 
-0.04111904414505284 -0.2867129452699961 -0.1253026137574863 -0.07395832812333180 -0.01909350076515844 -0.009443001503998405 0.03109721061549597 0.1130023016057623 -0.05929956714316893 -0.5404275583432823 
-0.1009905539011160 -0.1147474875379048 0.01057684131875316 0.008249393693963257 -0.2598209544304884 0.01970498668429084 0.06314264559408606 -0.1601732873035924 -0.1755319246046229 0.01098353086587945 
0.006555752366961041 -0.1365228064093927 0.1075446132417840 0.02688151481825514 -0.2439657206566392 -0.03621800734715835 -0.08497098782900797 -0.07733153834814119 -0.1093628122848343 -0.05790620469223481 
0.09522136086173583 -0.05196851398361151 0.001046262782036692 -0.1689642410493346 0.3879131645051078 -0.2226302221839012 -0.2412151904725066 0.4385361400280021 -0.2113016346557096 -0.1717053250142585 
-0.1164878891657640 -0.07139615883971210 -0.1366025671126067 0.008492172422391552 0.003593669860960576 0.04322257866057647 0.1248954495049944 -0.1943578617610161 0.1113454548794302 0.02188873948899556 
-0.02158578282501061 -0.1850615189409980 0.2515114933249252 -0.001619401117965982 0.05842994734261944 -0.2533233153984491 -0.3296791346928152 0.01408141387561620 -0.09231628004547518 -0.1639772396647639 
0.03469853919669781 -0.1366767820696830 -0.002375836251805579 0.05767851354559563 -0.2520951700235695 0.05990806209429166 -0.09254648684732492 -0.3883453290171922 -0.01343913633830840 0.2060161733811814 
-0.08716811157671980 0.2350103604192335 -0.4332844818989755 -0.3508177884978033 -0.05957115521313840 0.03687182433535600 0.5501462384172865 -0.1559855195952984 -0.05686723529646998 -0.2866625249811900 
0.08323633435074018 -0.1334187275409330 -0.3664221532312734 -0.2786483176502457 0.04591943299312334 0.03270364608486554 0.3221841390429963 0.03100640688903445 -0.3917811187995865 -0.4787274667700182 
-0.1110235925976034 -0.2091179512825450 0.1469796090651883 -0.07563637835761264 -0.1668486423320107 -0.01997443228870174 -0.1674997917295066 -0.1344992617994076 -0.1001330802411566 0.04884475959298273 
-0.1105975872951897 -0.05611152840688236 0.1206507410807975 0.05679640341547397 -0.06171590249136189 -0.3381039263352665 -0.2432509461113326 -0.1830491511897975 -0.1444595889207238 -0.06794451317568179 
-0.05137183950116167 -0.06271470013170816 -0.1027918715105963 -0.1226115435925203 -0.1828711067848945 -0.02708938061589140 0.07833913247255739 -0.2370339760214512 0.08890021961547781 0.05646436973632431 
0.1073846902587334 -0.2665699562035631 -0.1020783343464579 -0.07300760560181466 -0.09137173107707257 0.07373431484524977 -0.1871830835642395 -0.3751446467544734 0.3107311841635712 -0.1102057122182471 
-0.1720721940385146 0.2927570794269696 -0.09860481108446412 -0.1271863822017381 -0.05878188624354104 -0.1521057167272491 0.1882944416827717 -0.003935081559700992 -0.3661090587097313 -0.3289847603193917 
-0.1196354805936096 -0.1962157835971520 -0.1240056467904846 -0.2368066819139650 -0.2676458208084587 -0.2204492948458222 0.3600397889192194 -0.2637120642452920 -0.2282843758545647 0.2522562929583820 
-0.005433700669824603 -0.2913342469883306 0.1231051176255231 0.01690083353261852 0.05228321951392799 -0.05364339642717261 -0.3713786133630306 0.1192158104378399 -0.2638113179452676 -0.2544286710371466 
-0.1897566850432178 -0.4613629073620715 -0.2015836745958852 -0.4200998361848821 -0.3655162186151499 -0.3524640931549951 -0.01022746632528477 -0.5235759821215986 -0.5474735683459988 -0.4413628506164005 
-0.1897566850432178 -0.4613629073620715 -0.2015836745958852 -0.4200998361848821 -0.3655162186151499 -0.3524640931549951 -0.01022746632528477 -0.5235759821215986 -0.5474735683459988 -0.4413628506164005 
0.1480093921155295 -0.06904679589447645 -0.1240134998725371 -0.005482072566281567 0.2756635014409542 -0.01799231847110382 -0.1191973854208328 0.1714667665875805 -0.1169841335667596 -0.2715600507375626 
0.09363989811630880 -0.06510332727805763 -0.05042403236433409 -0.04115965110305104 -0.1025747914088490 -0.1053377538256644 0.07328729058799938 -0.0006543345685287346 -0.02318561879166540 0.06131962684020800 
0.01124350844291364 0.1975525820753483 0.06982114623926093 0.005583630156370130 -0.09214892410719344 0.02000506785121990 -0.1133199018951592 0.1238525889380263 -0.01943694181520327 -0.1479769284243236 
0.4120779547721613 -0.08776299008975495 0.2930425667307366 -0.1424554683452284 0.1387714289673838 -0.04853197076205696 -0.8526274158338539 -0.1562463065242270 -0.04040418921583771 0.04258650870980296 
0.1520614707431528 -0.01956748018218280 -0.6724500009448607 -0.1401017308973403 -0.2984732933657425 0.01074378278693743 0.3748158017111134 0.4638868478090630 0.7558093276580267 0.1805989860372448 
0.01805727027122922 0.1349373364495328 -0.1286840714597010 -0.1174461350589045 -0.1547084155625566 0.09161249511008268 -0.2918212585775391 -0.2139257627515257 0.8674423983487898 -0.09661242399078794 
-0.08489455704181988 -0.06882191731244860 0.1727867912843908 -0.08292621858779248 0.02214782856179757 0.2539615755105559 -0.1708112114834330 0.1770592137874288 -0.08996292689752614 -0.01483749038614199 
-0.3674246630642227 -0.03788155868230638 -0.1891113569061493 0.1835185651281946 -0.03316511219487898 0.09378506801782356 0.1123296232619676 -0.04122995320576899 0 -0.01382276132809457 
0.2101581631013925 0.2427677048642904 -0.1702628326670252 0.4095745056887977 0.3933108787354042 -0.1106104862868130 -0.7270895759212485 0.2054662477899636 -0.1886294378714877 -0.2688510026694726 
-0.02512088565911032 0.2494997884104430 0.07718526204896417 0.1209819776349557 0.2762294244806221 -0.1212877616506308 -0.2761781768164013 0.2440700350871030 0.2226169746003017 -0.2457262700259231 
0.003255504069262710 0.1047748293907918 -0.05428547476774559 -0.02508288602822415 0.6400302446926223 0.04858676332076017 -0.5111286282777836 0.1199604052350835 0.3009566889477954 0.1188340757807538 
0.3194057408898808 0 -0.9301476211702515 -0.02460172238895037 -0.5790770501505952 -0.1939446696088970 0.3528372199573621 -0.07086041960428506 1.734723475976807e-18 0.5105117020595230 
0.2417569691256686 0.2969519073406612 0.3110551102173369 -0.05391034063593308 0.3591260527300573 -0.05875496018022060 -0.7608603099377906 0.1828911034319369 -0.09768056651304538 -0.1812705399895329 
0.06362488218297789 -0.2981181856697749 -0.7896375868683978 -0.1163760124338097 0.2298457232935061 -0.4305836255876521 0.4419876550366281 0 -0.2108417511108894 0.5827458228197641 
6.782590061403925e-05 0.2174533271980760 0.1519255667179078 -0.02804071837601111 -0.03160335421764338 -0.06192482711484537 -0.01987186776817475 -0.3835581294533890 -0.2884165856037626 0.01842403467191649 
-0.01507811367608769 -0.1056063669906678 -0.3944794211416665 -0.2523375329150684 -0.5268409781135712 1.068679958906021 -0.4315007443653176 -0.08242435229932615 0.09159666582514511 -0.1390249069031672 
0 0 0 0 0 0 0 0 0 0 
0.05235432838173654 0 0.4040610512171851 -0.1344803249436198 0 -0.1167658363067000 -0.5677209858107868 -0.04699487098086361 5.204170427930421e-18 -1.040834085586084e-17 
-0.2528733520820062 -0.006659712617545922 0.9598918819413890 -0.3291673879395846 0 -0.05860479866922838 -0.6066587769403529 -0.05666681668297215 0 -0.09631390902846068 
-0.04472923339129001 0 -0.8156930535197442 -0.04357084961839422 0 0 1.041794923481606 0 0 0 
0.3647103815561600 -1.734723475976807e-17 0.08823278406375772 -0.4692658304870613 -0.3228035493537702 -0.3199996082138698 -0.4456655846859667 -3.469446951953614e-18 -0.2285929186633393 -0.1048812516097819 
0 0 0 0 0 0 0 0 0 0 
0.02411816524902896 -0.05379882716931207 -0.1750541500216928 0.3898183005954582 -3.469446951953614e-17 -0.1710332444259821 -0.09814058051581467 -0.1893556152159201 -8.673617379884035e-19 -0.06976722884986764 
-0.06953704869798695 -0.08068617654317996 -0.6200741660707014 1.024212678689031 -0.1190609025997442 -0.3099642548795580 -0.4679657028587776 0.3420770233295182 6.505213034913027e-19 -0.1487671913217777 
0.05457391470478223 -0.1100011174555666 -0.08731325313983522 0.05781969632053285 -0.06728626728238901 -0.04314082522278398 0.1212187264239432 0.07078460322363112 -0.1111578075793697 -0.1490614998406017 
0.1505340948076827 0.02966214087135099 0.2016881581591576 -0.004934355782749453 -0.2582433695795100 -0.0009939558417823057 -0.1565512812031771 -0.06936504357933168 0.02439587172693791 -0.04810519984076865 
-0.05445240768160315 -0.1464200307317989 -0.1219157263640007 0.09993711801179257 0.1422555841728063 0.1618110861438883 -0.02946457021353673 -0.1987774318462254 -0.08333154780172353 -0.2328673071795319 
-0.1357104574776001 -0.2137703022599911 0.4823997508324890 -0.1103663802705456 -0.4712863641041573 -0.3174859012644553 -0.1748704262320358 -0.7587419161938297 0.3597176323748265 -0.1717053250142583 
0 0 0 0 0 0 0 0 0 0 
0 0 0 0 0 0 0 0 0 0 
-0.2183305145266034 0 0.6843382616987659 0.3758884114429159 -0.5330204744563330 -0.05493045507607344 -0.5392648912112217 0 0 0 
-0.5043977216081567 -0.04585949466881711 0.2174591067561701 -0.2941747598634497 0.6891630563368759 -0.1997893146608178 0.08165857191477438 -0.01406048935214284 -0.01113106523288417 -0.1868624595221843 
-0.005461755199200940 -0.07624198915087532 -1.058547402677241 0.6918347261053869 0.3937276781491754 -0.1997516965464726 -0.2453037437656621 0 -0.1172714834243781 0 
0.04878175299593141 0.01898573622038830 -0.1009167502207641 0.06684798228030434 0.04893810175939919 0.03355397964787522 -0.04575705720447541 -0.02261916955621785 -0.4912896934875708 -0.03035448996562056 
0.09515173565992505 -0.2662633291307954 0.02018554302896286 0.1195706491908543 -0.1986732500636053 -0.01330971735853278 -0.2626608549918804 0.1732120686995959 -0.1416543874135742 0.2368891933479596 
0.3358821453461115 -0.05362515335998218 -0.02863095675800977 -0.05070342899603401 0.09827037543127141 0.1008963453788715 -0.3470956972336813 -0.3423366007461553 -0.05130193469259324 -0.4516376359635951 
0.2197618070957558 -0.1493413153711148 -0.1382401650934577 0.05075243561078737 0.02812154568782789 0.1261234667448614 -0.1546786828814293 0.1312538607804228 -0.1628322142435096 0.1247724276577716 
-0.06207397833512112 -0.2067212591188736 0.2820712488655624 -0.4950092133985393 0.4618801463236562 -0.04986495962101982 -0.4076105395679584 6.938893903907228e-18 -0.08279735024376518 0.2902852736194364 
-0.4125297046180418 0.04041313419208415 -0.1442524411677805 0.02046886306758182 0.002041855162540899 -0.7070747614522784 0.4784754193618291 -0.2936167843813786 0.1978372686532376 -0.2416259571712434 
-0.5233120646764935 0.4686903045857573 0.4913794489205632 -0.2042513354009957 -0.007265651299027832 -0.2874724368278839 -0.6318953134137913 0.7117550210205437 -0.1190367253168064 -0.2198750415118160 
-0.4004367322594167 -0.1233197521094836 0.3306252701363210 0.01329506320314779 -0.1177353893897181 0.04920560343321505 0.05315609064626494 -0.1672200940425517 -0.3998442791763217 -0.2781659701808802 
-0.05231962557041783 -0.1340119364861810 0.5109709811593075 0.1878992821701672 -0.03112855786831130 -0.1890283875587906 -0.6388995470831296 -0.01397901759541088 -0.1290934549835037 -0.1193394390921033 
0.3226748974989347 0 -0.1298590331204157 -0.07701423776694237 -0.4736339606296416 -0.2088620151470956 -0.4245798139310207 0 0 0 
0 0 0 0 0 0 0 0 0 0 
0.1213284897800606 0.1388529526587720 0.1274798719290566 -0.02636438315250429 -0.1664004608472881 0.08620334548632423 -0.2534244670690306 -0.04708220806891752 -0.4882227293006424 -0.006148669779500495 
-0.03812353733957020 -0.06062210352842008 0.4881848025915182 -0.1656006712440705 0.3296156958039143 -0.1292889658293672 -0.5141705724782267 0 -0.02232382252777085 0 
-0.2119434341974534 -0.1589453505706856 -0.05510080089601817 0.07781292219256447 0.09228415471020092 -0.02596422835443889 0.1914889446752784 -0.1829470517176296 -0.02241260713599078 -0.1078349549561780 
-0.4386983891238921 -0.2081847124599464 0.02985871205133481 -0.2703226495361926 -0.1153428464881517 -0.09893313099536807 0.5337735504584346 -0.06893035423284985 6.938893903907228e-18 -0.05514443066399028 
-0.2751267482891637 -0.1345825991169747 -0.02595880818956210 -0.02967228696494531 0.05583740252872720 -0.4408153892905160 0.2393306674267379 -0.1576959645839591 -0.1906253541951778 0.2106298757711427 
-0.08763453709242948 0 -0.4843323426083306 1.309206285928731 -0.6702144178777769 0 0 -0.1081658795834939 0 0 
0.2880119476817422 -0.05614595738039906 -0.2595846623458561 -0.5420675068326408 -0.8659670046128580 0.1822212518719096 0.4815909223626138 -0.01367699960440891 0 0 
0.1469729608881353 -0.08580460170848823 0.02789448610032744 -0.01942360049239291 -0.9127865009101027 -0.05731306173849626 0.06372568688206137 -0.1156932715539573 -3.469446951953614e-18 -0.1858065471625847 
0.3354709987842662 -0.07024948102569585 -0.3381755861071036 0.1312013244617665 0.1711980803272412 -0.1864641458235235 -0.1027136006213803 -0.08679725430079983 -0.05080776093379705 -3.469446951953614e-18 
-0.1580647970650240 -0.05046380625755387 0.3710905182132521 -0.2620142150038858 -0.1998908911205215 0.2841083165686926 -0.2238450084936297 -0.3345321245872589 -0.4490943796327984 -0.005514568578639426 
0.2207908422620778 -0.3961797917388076 0.05463860672969351 0.07706963564205580 -0.2281276431501365 0.03890390001521724 -0.2690913097262081 -0.1387537853151420 -0.1198321466857961 -0.1046072546166331 
-0.01305902749231177 -0.1567954951608000 -0.7856842315375363 -0.05313861747017207 0.1736244660079973 0.02702863494067463 0.6118731621985948 -0.08649287642288957 -0.006736337413348449 -0.1249802386118942 
0.04415623189711174 -0.1894703176780645 0.5294194895153170 -0.2801578762726349 -0.1785555984652331 -0.1135134870399092 -0.6014852780717690 0 0 8.673617379884035e-18 
0 0 0 0 0 0 0 0 0 0 
-0.6277480484797433 -0.2578679776427298 0.5530017665123736 -0.3332862106397206 -0.06263897781415550 -0.1715489233405705 -0.04187001886816246 -0.2043281786666679 -0.1103839686725305 -0.3027769169529466 
0.1194294189406085 -0.6129523617390896 -0.02462119056458595 -0.07944586867791736 -0.04290353960584320 0.08541073162182900 -0.007318433987589235 -0.3147824715044147 -0.3405712751453031 -0.3721558953674232 
-0.03098599491591900 -0.2014884052134826 -0.6199141313379193 -0.5654419051225428 0.5579994834747324 0.1883178957906402 0.2751494177654983 -0.02560585232923401 0 -0.003486748044791415 
0 0 0 0 0 0 0 0 0 0 
0 0 0 0 0 0 0 0 0 0 
0 0 0 0 0 0 0 0 0 0 
0 0 0 0 0 0 0 0 0 0 
0 0 0 0 0 0 0 0 0 0 
0 0 0 0 0 0 0 0 0 0 
-0.03742953388478159 0.2249913752058531 0.1211450879531488 0.06196655607962803 0.03615385489838276 -0.02118804364735709 -0.1303890340402392 -0.01479371832101074 -0.05680600370462054 -0.09989924842253889 
-0.09102374357375614 -0.1224724244487321 -0.02289383357796998 0.02203558051805889 -0.08211660471771244 -0.03782129742971191 0.1481049821195140 -0.1057845547002843 -0.1088101333312590 -0.1249802386118942 
-0.01881851284891610 -0.009186797083301296 -0.01736039754047204 0.1827124364477197 0.1228845613187799 0.3114211460912407 -0.5086875310760160 -0.3207215825002741 -0.006736337413348429 -0.1125633495004229 
-0.03659225613430918 -0.05407237265963055 -0.2534805343751561 0.007458590228859825 -0.3226061048416621 -0.005845871096284549 0.5906042918791780 -0.3207215825002740 -0.03289908086432571 -0.1125633495004229 
0.07219883806930077 -0.007750818834529039 0.02589797277923111 -0.004416233178407511 0.03857831148023930 -0.06869490392264606 -0.1582378853586033 0.1076989044569562 -0.6254187456148093 -0.03857889557757032 
-0.02229232604378990 0 -0.2225800155286190 -0.1481253461483006 0 -7.806255641895632e-18 0.1502269317136381 0 0 0 
0.1824364477279836 -0.4785369593068947 0.02053327501117244 -0.07730064207115511 0.04668760165776781 -0.2061122063938966 -0.1031650805567992 -0.1747351777373528 -0.3279479584927486 0.1809442037372837 
-0.1353899077112956 -0.009186797083301303 0.3979822661445706 -0.3776152663814432 0.3953304999288156 -0.2976056077646723 -0.01832357723689871 -0.3207215825002741 -0.02452643306671950 -0.1215905552263264 
-0.06673201757267315 -0.02653281591488418 0.01317936673528305 0.01129424263942819 -0.02225157845297368 -0.07487299339435072 0.04458623730831034 -0.1231592220248466 0.01847424913346064 -0.07198449229060298 
0.05903305791383403 0.09367301030778574 -0.1651207878377458 -0.01299958304720306 -0.04046263811166570 0.07766704415459383 0.1212496314920199 0.04933862349907113 -0.2772794963824559 0.1327004896586654 
0.4067728156706854 -0.008477440524344328 0.2596673604307070 0.2539116586003228 -0.7873380984864250 -0.3594691424912426 -0.4896219778715759 -0.002258820366505909 1.734723475976807e-18 2.602085213965211e-17 
-0.1703975657765300 -0.01053234726748924 0.5451999457061352 -0.3340945219734841 -0.2546168156246316 -0.2814198544716819 -0.1983438851270635 -0.2274343276889153 0 -0.02579887482410923 
-0.05049948673996460 -0.2329353716810568 -0.009270329999966881 0.01838386391756896 0.1961264946292057 0.3043498108622708 -0.3181486651021022 -0.2391856740349593 -0.02616274345097728 -0.2011300807394566 
-0.02470872188835732 -0.2285109633918285 -0.1775281454430538 -0.1715567350754671 -0.2496494957406991 -0.3523579928832707 0.4160206544296292 0.3641074096054891 0 -0.2254151823857858 
0.02677434487936485 -0.2156851024627792 -0.2973201243613209 -0.1526972917942530 0.7682263145274890 -0.1249028277290507 -0.2740373250192792 -0.08502289310228332 -0.4520997024624327 -0.06930741541615608 
-0.02378803564913368 -0.1761646029968896 -0.02332831278905480 0.2472592581029002 -0.8870893756722817 0.03647541877492263 -0.1094348901230131 -0.07245336629609145 -0.1988005502190598 -0.1938425957706926 
0.3451437410332496 -0.1951786111565080 -0.2624479603651777 -0.05460277102362402 0.5206189510824033 -0.3476167342843176 -0.6338571209726507 0.4825734683411374 -3.469446951953614e-18 0 
0 0 0 0 0 0 0 0 0 0 
0.01740755494852216 1.387778780781446e-17 0.06564770334950690 0.1795890793215225 -0.003573907554122324 0.03492540270287986 -0.1631335067283949 -0.5713764072117559 -0.1122461203286278 0.3650873157149541 
0 0 0 0 0 0 0 0 0 0 
-0.3418450995969677 -0.1654285549835541 0.1274269749307943 -0.2468397944461170 -0.6103636999285482 -0.1737737554434978 0.2174033293185579 3.469446951953614e-18 -0.02558629141908260 -0.04180098350351621 
0.2194976374685239 0.6647983359012378 -0.1119106794259288 0.2735194047687851 -0.8856370841316513 3.469446951953614e-18 -0.4412756480754813 -0.01894335378392254 -0.09642040873977815 8.673617379884035e-19 
0 0 0 0 0 0 0 0 0 0 
-0.03932466876797848 0.4527608098107282 -0.06986580964711646 -0.1446582623707505 -0.7041231781897467 0.1895037294543708 -0.4671148960870427 -4.336808689942018e-17 0.1540994417337503 0.2312435047542898 
0 0 0 0 0 0 0 0 0 0 
