solver_type L2R_L2LOSS_SVC_DUAL
nr_class 10
label 4 7 1 5 3 6 2 10 9 8
nr_feature 268
bias 1.000000000000000
w
0.2108406000744559 0.05588581822374473 0.1062829119350479 -0.2152895663982669 -0.2350897949359201 0.3053807147662305 -0.02297315576779368 -0.4785287978664088 -0.3374756060557721 -0.3078571611609000 
-0.2855946193280483 0 -0.04382392746426692 -0.1500037920869447 0 0 0.2942132462776044 -0.009826415607402918 0 0 
0 0 0 0 0 0 0 0 0 0 
0 0 0 0 0 0 0 0 0 0 
0.02978496738933117 -0.006274454358417472 -0.5213433198339987 0.9959613450263475 -0.5809405689771527 -0.3738693937558594 -0.08539773240152834 -0.02737084302243447 -0.1029183457133205 -0.09389625976878416 
0 0 0 0 0 0 0 0 0 0 
0 0 0 0 0 0 0 0 0 0 
0 0 0 0 0 0 0 0 0 0 
0 0 0 0 0 0 0 0 0 0 
0 0 0 0 0 0 0 0 0 0 
0 0 0 0 0 0 0 0 0 0 
0 0 0 0 0 0 0 0 0 0 
0 0 0 0 0 0 0 0 0 0 
0 0 0 0 0 0 0 0 0 0 
0 0 0 0 0 0 0 0 0 0 
0 0 0 0 0 0 0 0 0 0 
0 0 0 0 0 0 0 0 0 0 
0.1276559465659657 0.04434933854420179 -0.1474819139970857 0.03211092074085477 -0.3971634613580675 0.3629900750202076 0.1183037252564556 0.1016496051281961 -0.3419092620382326 0.1625515308597019 
0.1046556521067627 0.05219535272993001 0.1294497456070917 0.02488415761796860 -0.3882462648345472 0.3128983628259648 -0.07657827101005132 -0.3914323564248166 -0.3079925075355255 0.08850670122236970 
-0.001736077505385254 0.3634885973339699 0.1417559178916097 -0.1106460168335233 -0.4289106463402100 -7.806255641895632e-18 0.09535048099192092 -0.03798163777364234 -0.06687708139068378 -6.938893903907228e-18 
0 0 0 0 0 0 0 0 0 0 
0 0 0 0 0 0 0 0 0 0 
0 0 0 0 0 0 0 0 0 0 
0 0 0 0 0 0 0 0 0 0 
0 0 0 0 0 0 0 0 0 0 
0 0 0 0 0 0 0 0 0 0 
0 0 0 0 0 0 0 0 0 0 
0.1695118056569945 3.469446951953614e-18 0.2218263762505950 0.1066694053218237 -0.1465948059989915 -0.1642562402410046 -0.4170474044291172 0 0 0 
0 0 0 0 0 0 0 0 0 0 
0 0 0 0 0 0 0 0 0 0 
0 0 0 0 0 0 0 0 0 0 
0 0 0 0 0 0 0 0 0 0 
0 0 0 0 0 0 0 0 0 0 
0 0 0 0 0 0 0 0 0 0 
0 0 0 0 0 0 0 0 0 0 
-0.2266913596699487 0 0.08880239822156752 -0.09481824567447810 -0.06441805844428257 0.7932984300336156 -0.2002939181727435 -6.938893903907228e-18 0 0 
0 0 0 0 0 0 0 0 0 0 
0 0 0 0 0 0 0 0 0 0 
0 0 -0.1748719662400473 -0.1778932891467366 -0.01461915775867886 0 0.5301035690093280 0 0 0 
0 0 0 0 0 0 0 0 0 0 
-0.5749981698070996 0 -0.2683054992324080 0.6738585258316280 0 -0.06712105357309667 0.04712085166656574 0 0 0 
0 0 0 0 0 0 0 0 0 0 
-0.3854064806095054 -0.2220193310143903 0.01951127470664568 0.2810598429573556 -0.1538774033270153 -0.2118186634992380 0.1005032987279510 -3.469446951953614e-18 -0.06561436016914256 -0.07220202811686963 
-0.1049322075327995 -0.04421416499570399 0.6252220495303680 -0.3348577779920123 -0.3657675225901651 -0.2161587330318750 0.1654939835346502 0 0 -6.938893903907228e-18 
-0.1121953757577194 0 -0.1877306153191323 0 -0.1768230052021945 -0.2539057314026288 0.6897797735552514 0 0 0 
0 0 0 0 0 0 0 0 0 0 
-0.2567038533110548 -0.1599806810938476 0 -0.08032478388393506 0.8866438430178253 -0.09337645374097177 -0.3022108027641307 -0.1040994179526378 0 0 
-0.05546843785059585 -0.3435995580303332 -0.3967653621584751 -0.3935049123905907 1.188152521778238 -0.1649974274822865 -0.3447685645906011 -0.08913666915701972 -0.08558252527763556 0 
0 0 0 0 0 0 0 0 0 0 
0.6388498076198876 -0.2401720176811404 0.2849203674049486 -0.2677288443966838 0.3103170666302429 -0.1159701258797093 -0.7061775800139624 0 3.469446951953614e-18 -0.01886301711564316 
1.875669758399923e-17 0 0.1525040789462026 -0.2308325842164413 0.4504970826721619 -6.938893903907228e-18 -0.3152800148996118 0 -0.06570640052727059 0 
0.3798863661564582 -3.469446951953614e-18 -0.1759536136417252 -0.4133924680514673 0.3865484601757681 -0.2461091630884919 -0.1602365061715115 -0.04974437509340786 -0.03970323635416768 0 
0 0 0 0 0 0 0 0 0 0 
-0.08565657113444479 0.08580495350934790 -0.1032516824243002 0.1238543692124693 -0.1105798436354830 0.01035816016462504 0.1561561661795703 -0.1367802737894356 0.6402696574491338 -0.006057683583884729 
0.1012421901637815 -0.05703007125928788 0.002328694500577895 -0.04333233519003540 -0.1201813142212106 -0.06580419410032716 0.1243106172826529 0.1878570518290015 0.1477738799449355 0.2005329265968522 
-0.009387705023183243 -0.2432390629988943 0.1696418335463610 0.06019679990802719 -0.2419174314402188 -0.1840468907712634 -0.05618611520597677 0.3059078085190097 0.3014120948445274 -0.02199824021471810 
0.05109590537352636 -0.1903166862372449 0.002180030161911350 -0.1029266081384891 -0.1879053769727802 -0.002397643113159302 0.2127767403323381 0.4241317041039784 -0.07146673889609095 -0.3154622993914449 
0.1013295233645845 0.04650360981082450 0.02373629137039652 -0.1959025813123781 -0.03335122511349152 0.006692328709925198 0.1279116687178464 0.08433534064230035 0.1580239031396551 -0.2257622041762075 
-0.01324326137653181 0.4085276255772545 -0.1377906321810526 0.1051556212737073 0.04216999842958641 0.03078546972195099 -0.02008882327400371 -0.2863756822783471 -0.3210728959960230 0.1818614854544882 
0 0 0 0 0 0 0 0 0 0 
0 0 0 0 0 0 0 0 0 0 
-0.2414255598496047 -0.3022190272118805 0.4011959476691642 0.1283455207755012 -0.09594377638352926 -0.1080699817505863 -0.1076122577553333 0.1744513845013364 -0.3174429770650030 -0.3540294443287029 
-0.2410658225256333 -0.1298278391459700 -0.06408663533585637 0.7729472448026747 -0.1339042245159034 -0.1327659060028843 0 -0.1722043880082222 0 0 
0 0 0 0 0 0 0 0 0 0 
0 0 0 0 0 0 0 0 0 0 
-0.2199425188767838 -1.734723475976807e-18 -0.3061108539543629 -0.7686236322040041 0.2810733651510981 0.7720785954824885 -0.2329106691256622 -5.204170427930421e-18 -1.214306433183765e-17 -0.05813599543105144 
-0.1812925148916897 0 -0.1395172865880910 -0.08966880503159372 -0.1443203446163256 -3.469446951953614e-18 0.05650518720024986 0 0 0 
0 0 0 0 0 0 0 0 0 0 
0 0 0 0 0 0 0 0 0 0 
0 0 0 0 0 0 0 0 0 0 
0 0 0 0 0 0 0 0 0 0 
0 0 0 0 0 0 0 0 0 0 
0 0 0 0 0 0 0 0 0 0 
-0.06656624840938191 -0.1507548396337207 -0.5969889149410058 -0.1107928975257431 0 -0.1394506672544739 1.085116008029767 0 0 0 
0 0 0 0 0 0 0 0 0 0 
0 0 0 0 0 0 0 0 0 0 
0 0 0 0 0 0 0 0 0 0 
0.1114474125046048 6.938893903907228e-18 -0.8570157656727563 -0.004758808909902722 0.1217772560645538 -0.1014111865961118 0.5661680502394513 -4.336808689942018e-19 0 -0.1023442116357565 
-0.05274393345529082 0.2375353231170591 -0.03938493656451453 0.1270922349447952 0.2566483295802274 -0.008324813247905776 -0.08939858907901832 0.2824278948348720 0.1835263581736477 -0.1947264686395873 
-0.008700294670185904 0.08457371239964925 -0.2510700151967846 0.1298859855860976 0.2347951944547564 -0.0005314127721670354 0.1547330228191164 0.2164163650078172 -0.2813589108608344 -0.2588463625187404 
-0.04586014425675693 0 -0.1459360574076606 -0.09648318103896397 0.7872189148461373 -0.1076813616164311 -0.2432629752505158 0 0 -0.09604676829428684 
0 0 0 0 0 0 0 0 0 0 
0 0 0 0 0 0 0 0 0 0 
0 0 0 0 0 0 0 0 0 0 
0 0 0 0 0 0 0 0 0 0 
0 0 0 0 0 0 0 0 0 0 
0 0 0 0 0 0 0 0 0 0 
0 0 0 0 0 0 0 0 0 0 
-0.03214583319013517 0 0.6371059063891521 -0.2341714780131000 -0.2643599907198321 -0.02954424428605011 -0.4379088275158760 -0.06488672319390963 0 0 
0 0 0 0 0 0 0 0 0 0 
0 0 0 0 0 0 0 0 0 0 
0 0 0 0 0 0 0 0 0 0 
0 0 0 0 0 0 0 0 0 0 
0 0 0 0 0 0 0 0 0 0 
0 0 0 0 0 0 0 0 0 0 
0 0 0 0 0 0 0 0 0 0 
0 0 0 0 0 0 0 0 0 0 
0 0 0 0 0 0 0 0 0 0 
0 0 0 0 0 0 0 0 0 0 
0 0 0 0 0 0 0 0 0 0 
0 0 0 0 0 0 0 0 0 0 
-0.1187271936419347 0 0.9136674655659252 -0.1844696299318183 -0.1375823385567807 -0.05566852089888363 -0.1913289147639691 0 0 0 
0 0 0 0 0 0 0 0 0 0 
-0.3465690316055335 -6.505213034913027e-19 1.047332243632945 -0.1325848086941862 1.387778780781446e-17 -0.1206933278128520 -0.6528844855258749 0 0 0 
-0.2074509909888203 0 0.3338982460752088 -0.1017956642037162 0.3705003323106955 0.2323665500355418 -0.4506831412345607 -0.2338399306880410 0 0 
0.3018957653999443 -0.09347927828701916 0.3256465161838316 -0.04606676264264054 -0.06893043999909347 -0.01198364726089280 -0.6274009588672740 0 0 0 
0 0 0 0 0 0 0 0 0 0 
-0.06402419848031402 -0.01691875620624940 -0.4332438376408538 0 -0.06749333732497773 0 0.7501756277674182 0 0 0 
0.8510368624164348 -0.009355246538694115 -0.6864744205642339 -4.336808689942018e-18 0 -0.1184903089185050 -0.1013382471301446 0 0 0 
0 0 0 0 0 0 0 0 0 0 
0.2129213317292422 -0.1039149524612552 0.7106602887456587 -0.7204120173912222 -1.160214364949100 -0.06980979154856187 -0.4092378751673502 -0.3947429285248829 -6.938893903907228e-18 0 
-0.07261117792523110 -0.08525494751499711 -0.6047480826503393 -0.02016960416437890 0 0 0.7909371990713182 0 0 0 
0.6762144826826949 -0.2497498537459550 0.1018167720123370 -0.1361004269368526 -0.2441252940082774 -0.2839456554463571 -0.5243284449806850 5.204170427930421e-18 -0.05551826336092375 0 
-0.1567380128967231 0 -0.2906458229101481 0 0 -0.004649073835504069 0.5371773639500097 0 0 0 
-0.09230431688627641 0.3040743030515891 0.09046854364130227 0.1217484935058017 -0.1465175273947394 -0.05239568075680200 0.06358062382696415 -0.6766906301405810 -0.06889314589185097 -0.1074519592123709 
-0.03308966134252001 -0.002052900503083694 -0.1088270546252611 0.1793165793543091 -0.01566576295555965 0.1041629709469070 0.06667125264793715 0.1140872131611052 -0.1067465549288460 0.2233979767182308 
0.04856965070208132 0.2090368018025836 -0.2905042254196976 0.2626523876569867 0.09484515034569124 -0.005602512401679121 0.06165149815268033 0.2276461576195651 0.03407875810891881 -0.05007215980214663 
-0.08773037251980780 0.3147534525780069 0.2895184697529894 0.1852757033827932 -0.1260268311409789 -0.1044483319525793 -0.2633997997333205 -0.09587973088610949 0.1056880341608348 0.1788336271164350 
0.01057670846739648 -0.2386924910069910 -0.1291436681172449 0.1589677546625078 -0.09585470665538623 -0.009281045301944789 0.1015920626749813 0.08776700283955075 0.2307801391733934 0.3856341331216071 
-0.1408357419243472 -0.2178441926330667 -0.09676938449886364 0.1721629941948464 0.1720234880207382 0.01871118075883611 0.05217252258079632 0.02805335473442781 -0.2829528620849505 0.005141383511328661 
0 0 0 0 0 0 0 0 0 0 
0 0 0 0 0 0 0 0 0 0 
0.03977621092374468 -0.07279676217955795 0.07499508095130897 -0.04252854213232896 0.1633600427389741 -0.01124982502951480 -0.1367554567719412 -0.2633855435739857 0.1997927777918929 -0.02370131197389283 
0.1641795244614213 -0.01722860578348038 0.01635485566402635 0.06557514741065781 -0.08261824875612377 0.1399701758738468 -0.2635605195454860 -0.2062558771844294 -0.3654186790768336 -0.1582012963505665 
0.03660295514140754 0.03346526445982987 -0.01025425683491945 0.08296795451713056 -0.1155708651804767 0.06210310241729016 -0.1461973730214384 -0.2957828140237816 -0.1949177789973547 0.2559986075288188 
-0.006438559728724466 -0.1006483277423355 0.2367580072109369 0.1400381204383276 0.02569159932643465 -0.2677513487415083 -0.3919389294049959 -0.1229722618706890 0.02236321522885204 -0.0008024512391485968 
-0.2037171409800320 0.05524489119987387 0.2413779635848644 0.3324973409338094 0.04773731839365326 -0.3299343308971280 -0.3871118453756105 0.07684655638578229 0.1093904350106800 -0.1238876884044612 
0.3957864031583808 -0.2184109670319840 -0.3563216977603131 0.2797623709126734 -0.5533648485067831 -0.3128362036499028 -0.1222819784067094 0.08714628741024548 -0.1302566167409574 -0.3078571611608998 
0.05168975975423491 -0.1907915178521659 -0.3726624944374739 0.3874667151561669 0.08555808096404073 -0.1537438340684442 -0.03114613782900463 -0.02484609966155807 3.469446951953614e-18 0 
-0.2722435637173846 -0.006274454358417446 0.09829842137903623 0.08584595401861406 0.3869373133672591 -0.02173932516995256 -0.2593369811129955 0 0 -0.05665609056354122 
-0.1900268965724209 -0.005447014831309552 0.08904576300399936 -2.862293735361732e-17 -0.02983245205560017 0.7532681249845575 -0.6108330922199253 -0.02153074979864019 0 0 
0.1695118056569945 3.469446951953614e-18 0.2218263762505950 0.1066694053218237 -0.1465948059989915 -0.1642562402410046 -0.4170474044291172 0 0 0 
0 0 0 0 0 0 0 0 0 0 
0 0 0 0 0 0 0 0 0 0 
0 0 0 0 0 0 0 0 0 0 
-0.1180594038819831 -0.008059483894109296 -0.006141222863628452 -0.05071424078676860 -0.009748926896863772 -0.07915473958700249 0.1769961763694456 -0.0005063903905358627 -0.1486139140465481 -0.07414150356817156 
-0.2293713537202537 -0.03216212475046799 0.1008835132275582 -0.1189185436204872 -0.02640812967581821 -0.02888016155776316 0.1625805094254494 0.1201491175118414 -0.08312584503726658 -0.1425436355899838 
-0.09945147605201420 -0.03702482580748689 0.1607916168508985 -0.05507175526844697 -0.07073911118605913 -0.03141223760696796 0.04069307237385537 -0.4055531890507548 -0.3823639026434927 -0.2029522559490023 
-0.1598013676811398 -0.04220295263337618 -0.1189711160898986 -0.1680960195952446 -0.07968972207314123 0.1392847859449657 0.2517689615530067 -0.3734757339803791 0.05526423715169423 0.2454425186689671 
0.1635000843132796 -0.2008135057085790 -0.4667705345271620 -0.03242413158517334 0.3062379349338264 0.08155645976123468 0.1975286414012939 -0.03111379226876045 5.204170427930421e-18 -0.001612034024971644 
0.3793521605343040 -0.1298278391459700 -0.3802287499508494 0.5075980064776761 -0.1339042245159033 -0.1327659060028842 -0.8221316797121699 0.2480027479119760 0 -0.1947033435008214 
-0.1812925148916899 1.734723475976807e-18 0.2587415554836725 -0.1254754533624594 -0.1034447383127957 -0.3526280269973868 0.3866911408301971 -2.602085213965211e-17 -3.469446951953614e-18 -0.05813599543105144 
-0.2585240556787580 0 0.6337858310792195 -0.09544026516592272 0 -0.09478911216881500 -0.2620889304298196 -1.099528254973489e-05 0 0 
0.3064865726236867 0 -0.3712474556289723 -0.2691604149149833 -0.2643599907198321 0.1613607657772198 -0.1772526589801515 -0.06488672319390966 0 0 
0 0 0 0 0 0 0 0 0 0 
0 0 0 0 0 0 0 0 0 0 
0 0 0 0 0 0 0 0 0 0 
-0.05062837083984582 -0.05418736773852196 -0.01078629743415623 0.03526015876593740 0.06218565751848607 0.05377292024254424 -0.03882086633826787 0.09383237860912085 -0.05454957519511582 -0.0005295294945307057 
-0.1521128499498645 0.04704286482385274 -0.1839637175993194 0.1704393244712746 0.8680989654711042 0.1087992861042395 -0.4517136296542706 0.07683469472027116 -0.07366855505550120 -0.08418425970141990 
-0.2066388365358312 -0.04121789079147046 -0.1466091606634810 0.01977256947490763 -0.05906375359719947 0.01903110206933407 0.2530153570539102 -0.3567999083932864 -0.2636800539196170 -0.1979227909507169 
0.3878792064584585 -0.09370317212961835 0.1871486310965050 -0.3370439111030820 -0.3207055485582434 -0.1341910970512867 -0.5172133720049247 2.076247160309741e-17 -0.1912343328802098 -0.1881464172942187 
-0.001200370982685614 0.3169839043671371 -0.3363140197534834 0.06009193252758614 0.1271057315635239 0.04375597642849188 -0.08025253202648178 -0.09463937160307037 0.3818002637550995 -0.03770259957810787 
-0.06005706154097516 0.006516371070876536 0.05906203808621927 -0.06286904717998150 0.05825882081213107 -0.03815203627897584 -0.02683959235343957 -0.02549514196772053 -0.6022557247338476 -0.1169592570257639 
-0.06129486412702555 -0.3256869656252447 0.1187186478016225 -0.1624300899974324 -0.1741037047919428 -0.01872104785784510 0.02652066759145318 0.2569694229731161 -0.3684442768390931 0.01065145927253535 
-0.05484710759463926 -0.3507721989460138 -0.1240045852525732 0.04421375502026098 0.07912705699822742 -0.1745740520001341 0.1628541778008187 -0.1490738128414897 0.2457129387070298 -0.05585024988236369 
-0.2010023201118648 0.03778922011434469 0.05284188626602990 0.03056197343593192 -0.09267551087309120 -0.03457701774698971 0.1367005267697701 -0.1383561469106155 0.2392617613350260 0.1572836060635944 
-0.1374222482977375 -0.1921481823032761 0.06594628162546837 0.0005197310108868941 0.1573352875357599 -0.04179930348476015 -0.03639179537957588 -0.3991309089701693 -0.1783444691383831 -0.1524835766307220 
0.1743280076684112 -0.09755333966566870 -0.01486539418545940 -0.4969693191712232 -0.4667852200287613 -0.1864849217857372 0.1528926373666864 -0.1169054743126678 -0.1395620979467362 -0.1980507323261975 
-0.02792280213056724 -0.06060806458968954 -0.07507902827091753 0.07985459736645886 -0.04884495907258993 0.03652282259028837 -0.1832846462916072 0.1971911841670535 0.008445500912954276 0.1881140431034225 
-0.01194319312368642 -0.04293363383102662 -0.006619106740392428 0.08670974407566921 0.03041030715603486 -0.05167584600615003 -0.1074783309163699 -0.3440986544985504 -0.1067743355380025 0.004776780044723668 
0.1176251100920455 -0.3232235580937586 -0.1651090183168758 0.02305023421405347 0.01566270735210129 -0.04339941034322793 0.02642706621148650 -0.1610689384451154 -0.09280455187845252 -0.1098405331700951 
-0.1556316970972621 0.2925870337562163 -0.1312130647845610 -0.07956999282688620 -0.002251717949229740 0.07616652292885939 -0.008112232708810861 0.2956567840800143 -0.005974414364367292 -0.3699064968113544 
-0.1561945315457659 -0.02621098721278392 0.1377827682535771 -0.02129781249076973 -0.06758331343990658 -0.1267580363366687 0.1107325345492930 0.02096104923636089 -0.04382505662262590 0.2087442663951813 
-0.1777745258771074 0.03286445360026100 0.1421697318175728 -0.04562133735936118 -0.1774387352370700 -0.06898000615761156 -0.01706737854726987 -0.07677500988589375 0.1487614653090072 -0.05669560281129775 
-0.05359728164324439 -0.3466975820195660 0.08162048647857294 -0.1002849236285036 -0.1618012917629441 -0.03584801766370093 -0.007741773681828282 -0.1233193941170017 0.03492546176915590 0.01576283748641168 
0.06733727198589737 0.06819377978226175 -0.1798251028994869 -0.03289630011332276 -0.1193905868068677 -0.1577466893052338 0.09683243224597657 0.03989651276461895 -0.4209691853026138 -0.1078109294955753 
0.05864280714090830 -0.03897013836397289 -0.09661384724697335 -0.1680755938359606 0.1753431459293678 -0.05416215128297418 0.009509523665956922 -0.1445274098081349 0.1304985447898267 0.07077656941340978 
-0.07200116025948078 0.04861442868219580 0.1495677737776852 0.002068172829721114 -0.1039529609622500 -0.05282004567025811 -0.1817642639766298 -0.1449647082844235 0.1111334385432071 0.04926912097083686 
0.03185443479130318 0.03493044812045505 -0.1841886134792898 -0.005147246851308350 0.05209130596187921 0.03939878138827999 0.01666109264514163 -0.1732780965345683 -0.4032371244315381 0.1570137569305971 
-0.05162290057284036 -0.2490261217416235 -0.1018869908672416 -0.05774558886307326 -0.04690778556870653 -0.007270043745905078 0.03835560047976248 0.1155731471223329 -0.1599520252526598 -0.5569620018894228 
-0.1069915622630197 -0.1279499417211635 0.01645182928811164 0.003533840307425961 -0.2679697565131655 0.01002437932921414 0.08495153242385901 -0.1690940677999795 -0.2102519867972423 0.009057045117959740 
0.008736135933704130 -0.08862377443761756 0.1015940399824354 0.02710816801907770 -0.2563639230689268 -0.02628125511869779 -0.09436083734256412 -0.05960409979855202 -0.1091737245031931 -0.04290795854670475 
0.1096791576048243 -0.03005155312214185 0.004131744475416992 -0.1380625058497328 0.3235500953796650 -0.2344182951751329 -0.2525101585622187 0.3479996033024403 -0.2147651034380841 -0.1678458637408598 
-0.1174846337529844 -0.07464583978612081 -0.1389135148361168 0.01078419079394949 0.01183203028722604 0.04899597654660710 0.1092470053528498 -0.1348295819699159 0.09966476942362616 0.02946846842241855 
-0.02220609427472899 -0.1949185879075779 0.2483754019234380 -0.01068235059519214 0.06324042164105640 -0.2437214584430151 -0.3219398277860952 0.03075587283885235 -0.08828754726605627 -0.1636572802387177 
0.02897928329613596 -0.1253332682289187 0.009046534081814280 0.05511601816434206 -0.2181271989693833 0.06577632675119305 -0.1360303642729820 -0.3496665718961169 0.02608013164131084 0.2106804943614095 
-0.09787364097849698 0.1914322332635531 -0.4298425973342673 -0.3555001786616800 -0.03821857720305958 0.04219615367242548 0.5654278830182550 -0.1729561134197952 -0.06210596363597561 -0.3034411547705466 
0.09689540912555032 -0.09964806043093258 -0.3753533584916043 -0.2317765928094762 0.02877880006918450 0.06360678484757490 0.2802596227939658 -0.06806930035340912 -0.4092068158055954 -0.3112764581180960 
-0.1145550919588765 -0.2444599992565277 0.1403168526967603 -0.08224531803751418 -0.1935343717653832 -0.009457199592247719 -0.1622188360874210 -0.06301090674064270 -0.1314691390686237 -0.07379406160962454 
-0.1160100146314453 -0.04216450268171744 0.1439040990732547 0.08527115406420031 -0.06206774636520114 -0.3535906128371157 -0.2736892102757207 -0.1884281714445139 -0.1005567223934875 -0.02270528345312875 
-0.06349165696979786 -0.06381816957081270 -0.09802415569756893 -0.1789520610390064 -0.1552335903851863 -0.03798714485561436 0.1104336564002808 -0.1878865802045054 0.08239325269209259 -0.02087044621419220 
0.1011626567668140 -0.1714560607933478 -0.1140371391867042 -0.08532665647962617 -0.1647544644453319 0.1020447208249025 -0.2226891669824651 -0.3379175896173234 0.3757806631161286 -0.02631348204487527 
-0.1780610924603871 0.1553916353837595 -0.07298449509370630 -0.1243155523935489 -0.04068128174535520 -0.1824706374448831 0.2475203372471686 -0.03029762899568138 -0.4210737040592676 -0.3869925643832949 
-0.1201998024602938 -0.1428171508617182 -0.1285308160172174 -0.2319179948808032 -0.2471650278816490 -0.1963293333699064 0.2665474050689611 -0.2475241274949629 -0.2110260392395314 0.2827693383351191 
-6.311628070048575e-05 -0.2912091556686826 0.1263958878784625 0.03385738593217039 0.07054386562574909 -0.06067292244751555 -0.3365933425025683 0.1083443873648991 -0.3025203443929398 -0.2981095413019840 
-0.1971613544345703 -0.4500907319399878 -0.1891565624191666 -0.4077028178218158 -0.3820569084466040 -0.3374281724373690 -0.04521476716889637 -0.5073949587430862 -0.5588394245756030 -0.4286462493950396 
-0.1971613544345703 -0.4500907319399878 -0.1891565624191666 -0.4077028178218158 -0.3820569084466040 -0.3374281724373690 -0.04521476716889637 -0.5073949587430862 -0.5588394245756030 -0.4286462493950396 
0.1469791173391094 -0.06938871361537255 -0.1200653024985202 -0.005655949883096749 0.2638903350946802 -0.01200719470442191 -0.1263134171994371 0.1671478709799867 -0.1115559603715048 -0.2733935149588821 
0.1020591453131313 -0.06739480662694163 -0.05835320598881877 -0.04222974697262287 -0.1064172482751347 -0.09940628664185643 0.06789771753892844 -0.02638606113450928 -0.02524787086296937 0.07060150822335509 
0.02273800766393802 0.2171114739493718 0.06418202028722762 0.006669446510210664 -0.08498170802429189 0.01984056845195873 -0.1268331564895430 0.09960970316886425 0.01182194671567066 -0.1294756951683555 
0.4262094110787809 -0.08830867199328521 0.2958065364992579 -0.1485820454882114 0.06712712362780280 -0.04841639370576498 -0.8214112449563639 -0.1722115242245442 -0.1122493063860961 0.04267869417861472 
0.1344175848019088 -1.127570259384925e-17 -0.6807735659126230 -0.1455063845209964 -0.3172563339913939 0.02181217211262573 0.3774152799966459 0.4906294846489065 0 0.1908644091961250 
0.03882116248664689 0.1234410459827456 -0.01211134690111469 -0.1540205651014623 -0.1889387368714540 0.09308514168278079 -0.3596229789145901 -0.1831961013798623 0.8270694365013060 -0.2172924492880395 
-0.08314544791634530 -0.07955227661829183 0.1618751078458109 -0.06567091503728588 0.04320683919344318 0.2578602417920970 -0.1592578921707142 0.1444133757025405 -0.08321344530648449 -0.02221102811539245 
-0.3631265080501216 -0.05892088383961031 -0.2179965047620244 0.1615517822366731 0 0.08103646405710588 0.1456078472314002 -5.204170427930421e-18 0 -0.02359098342727974 
0.2507392070619164 0.2864049920053120 -0.2598106997853990 0.4534076279251372 0.3322282813515599 -0.1010179934235491 -0.8023422441354675 0.1780534436457830 -0.01854923402608154 -0.1975110094163263 
-0.01803837425261089 0.2345442770830063 0.04712384710131627 0.1124716924979056 0.2757587199622000 -0.1580333905435594 -0.2372400775768074 0.2295935214245125 0.2367176823110733 -0.2999812158958789 
0.01726147394757426 0.1333223272978065 -0.06485741407518211 -0.04002110985110577 0.6427793945167348 0.04670077928538007 -0.4876484142681117 0.1255594632230686 0.2875183231842048 0.1122989560684817 
0.4490813366741668 -0.02511108511178180 -0.9645182076542693 -0.04266880594278429 -0.6367046439367517 -0.1967625548669033 0.2045373319078137 -0.07618728171337526 0.9514495541136362 0.4772847259332217 
0.2956888505889592 0.2595280754258902 0.3262405206997743 -0.1122803655197868 0.3283627920742388 -0.04705029756578098 -0.7755676294335788 0.2136536010067864 -0.1138990931988049 -0.1903813396986262 
0.1345280419027473 -0.3297835241969557 -0.7811092238598405 -0.04017168029249540 0.2233958827844238 -0.4409763708540943 0.3556440221486084 0 -0.2039999080549359 0.6654349031885300 
0.02054433579106198 0.2101549443037474 0.09454896745230573 -0.04969081531820020 -0.06345186596241023 -0.07663909676456733 0.03892790116406596 -0.3297507044107642 -0.2813279983029615 0.09684777345563610 
0.02574287571220518 -0.1138088107750006 -0.4287417078614161 -0.2667707613652526 -0.1831811718080311 1.028867019879988 -0.4524358404956096 -0.07083265293713384 0.1013168776788255 0.1478636149743086 
0 0 0 0 0 0 0 0 0 0 
0.03825491747716520 0 0.3883015093713788 -0.1123776659073018 -2.602085213965211e-18 -0.1266619759560622 -0.5702637897982780 -0.05282843701750611 -3.469446951953614e-18 -1.734723475976807e-18 
0 0 0 0 0 0 0 0 0 0 
-0.05197642075813184 0 -0.8064649789543614 -0.03429765351533348 0 0 1.023210621960327 0 0 0 
0.3752821358875811 -0.01163664485613647 0.1082261601789761 -0.4790773535807742 -0.3739529621893229 -0.3371564613341024 -0.4516776322583848 8.673617379884035e-19 -0.2302110785045735 -0.1950917130656430 
0 0 0 0 0 0 0 0 0 0 
0.1356611314623200 -0.03959322333327460 -0.2379055057493201 0.4176284742312972 1.040834085586084e-17 -0.09320770294513323 -0.1837842124476241 -0.1920241472680370 0 -0.07303806095658247 
-0.05378263635282467 -0.06259816198505940 -0.6494487003691749 1.051396124566958 -0.1280365181164637 -0.2411192019343036 -0.4654507527125782 0.3513774029666245 0 -0.1629496079925547 
0.04474175676007434 -0.1663374615081195 -0.05948155051349700 0.07419018963097346 -0.05588135740601674 -0.05398606126111914 0.09675663980470872 0.06450238501968822 -0.1054817737501045 -0.1289276396960392 
0.1446251690973779 0.02050506439664283 0.2105215231417548 -0.01450734063772443 -0.2152266411546480 -0.0006484000058113600 -0.1646337426429141 -0.08392649890998977 0.04418229243978904 -0.04180985711751795 
-0.04781601125024530 -0.1324866445654576 -0.1112541340154426 0.1017070361405425 0.1093443691088511 0.1617854103028622 -0.04618340982211019 -0.1958520729879579 -0.01653143963245918 -0.1244097934822646 
-0.1357888985547248 -0.1848957665888531 0.4669248223636482 -0.1123196142793746 -0.4307088211277610 -0.3953155920305460 -0.1775135942288690 -0.6410288716432693 0.3466077125641053 -0.1697761981416048 
0 0 0 0 0 0 0 0 0 0 
0 0 0 0 0 0 0 0 0 0 
-0.3007727967216854 0 0.6143577054754895 0.3805162354265520 -0.4909743301906025 -0.05293752202396509 -0.4935192049671417 0 0 0 
-0.5149518796823065 -0.06445218875023930 0.2729811177248822 -0.2679424312504961 0.7076039133835879 -0.3011535782525490 0.05648007872062535 -0.03260993834600125 -0.005889366908539159 -0.1916776808551024 
-0.007400842969245432 -0.05568044544214371 -1.045278804315137 0.6304820194002189 0.4249271770566268 -0.2087484741249637 -0.2534430651620494 0 -0.006136410635790519 0 
0.05884767234735652 0.008777158598932987 -0.1226716260354587 0.06916566388284814 0.02421175721224612 0.02915841093581785 -0.01824181696140793 -0.03440780117716472 -0.4406116867716609 -0.03196804908749535 
0.1116910914471297 -0.4224232810831908 0.01819974255278485 0.1388172659203073 -0.1968919255742667 -0.01124967675458770 -0.2574292929646280 0.1076372975127752 -0.4423836621623304 0.2572103296170342 
0.3417190063111923 -0.1122711348114585 -0.06750255454935224 -0.03063182292213375 0.09090242880088700 0.08288420248864077 -0.3104502191723851 -0.3056611561638600 -3.469446951953614e-18 -0.4271482573704939 
0.1978016669964495 -0.2477910638652457 -0.1905884279274681 0.06604652738641097 -0.002294661714398627 0.2025785504688651 -0.1054049835495135 0.07540172330279787 -0.06264829853328200 0.1562950126577695 
-0.07810742016811874 -0.2130930275790036 0.2686313686048687 -0.5211995166805321 0.4059817940318359 -0.04506170909788848 -0.4017364032992969 -0.03811970777562360 -0.1022847974681914 0.2638362812942669 
-0.3574190044275122 -0.03579547154000396 -0.1726609187433824 0.04987464919664758 0.003883579633031204 -0.7118520644643881 0.4900245045483431 -0.2422897871300188 0.06385828080559224 -0.2337582925582259 
-0.5108282243334177 0.3734575766925105 0.4525146755961392 -0.1813375354799847 0.003328637395271353 -0.2974253773697266 -0.6056939956779488 0.5373405431550375 -0.1254209073676002 -0.2064470924081787 
-0.4670890311217701 -0.1390853470421905 0.3266221259390005 0.02317924952254455 -0.1234616771703886 0.003317282238848296 0.07498156784470547 -0.1989723124052276 -0.2162400031281734 -0.2075226030761670 
-0.04178141237528826 -0.06870597013534469 0.4899883305317868 0.2086895365723329 -0.06202688281481416 -0.1348371273411207 -0.6295450639105452 -0.1212471173168609 -0.1004761250316233 -0.1033650725420923 
0.1217843487797581 -0.2688140869382978 -0.2087391889231666 -0.03593998637723211 -0.3080776716272757 -0.1055652194013353 0 -3.469446951953614e-18 0 0 
0 0 0 0 0 0 0 0 0 0 
0.1068329123048533 0.06874658006693139 0.09564723243890907 -0.01080035577349345 -0.1490319894178554 0.1120006417692361 -0.1952283437050160 -0.06038405799780457 -0.5531327366572498 -0.001737551368732080 
-0.07325009508410271 -0.03830311014657074 0.4860081515080836 -0.1690767511208296 0.4159051852522145 -0.09742948829546790 -0.5175971441054028 0 -0.02472729879801541 0 
-0.2103363265560256 -0.1537312130346250 -0.07633211068571796 0.09539520135585930 0.09295903055120361 -0.02903717362618201 0.2152955032045968 -0.1390797474003663 -0.02469530879032510 -0.09364609559677632 
-0.4377051893496094 -0.1340977312181318 0.04741966883918788 -0.2888315069426025 -0.1884122734932596 -0.1076850553840968 0.5245676747570798 -0.1666705436469551 0 -0.04279119034147306 
-0.2468387693384617 -0.1427226024432171 -0.04392034217314262 -0.01214018010824687 0.05165615499954623 -0.4514160321249608 0.2638138257880017 -0.2952511192078719 -0.1767202235174907 0.2620365300386399 
-0.1033099319833102 0 -0.4625791068606018 1.306159317334119 -0.6521453188504102 0 0 -0.1010251446356648 0 0 
0.2680437449803641 -0.1304064079366488 -0.2984447153814073 -0.6040444279632093 -0.9066381546892155 0.2209368317914949 0.5205782377813214 0 0 0 
0.09995341799436704 -0.1434999203170650 0.09767958319761802 -0.02003645762230023 -0.8543069901121713 -0.1131079071071485 0.02986235976331274 -0.1248898996027357 8.673617379884035e-18 -0.1909756336338282 
0.3293227357017745 -0.06780943419998570 -0.3640996506087660 0.1525240576275745 0.1571469932314472 -0.1839694105489790 -0.1009657790112931 -0.09743614108780528 -0.04351275244802566 0 
-0.1670019530686799 -0.03773488686113020 0.3777450959184701 -0.2584379586751796 -0.2127147841658162 0.3183057116072802 -0.1917329424058225 -0.3379175896173233 -0.4410717270260945 -0.03724016920524288 
0.2201004774535403 -0.3405821575366587 0.06016339518761926 0.06213079998116616 -0.1846324554510709 0.01260917184335820 -0.2798194012879682 -0.1200830940917561 -0.1436849768207009 -0.1041763367631635 
-0.05636754559215193 -0.1338177275530489 -0.8146173956490571 -0.06688694447141179 0.2550268847330314 -0.07538573646987928 0.5764574816690399 -0.06643662482884696 -0.02894500230369167 -0.1327565680132261 
0.4067812549048593 -0.1833092631233457 0.4833064665262357 -0.8692454499870877 0.03512711817772964 -0.2374918068987393 -0.6020289770469537 0 0 1.040834085586084e-17 
0 0 0 0 0 0 0 0 0 0 
-0.6015047397632686 -0.2397597081634856 0.5074996806974743 -0.2633129384096363 -0.02077043487166537 -0.1435783641304858 -0.01183773598580248 -0.3321076864957697 -0.1810651724670872 -0.2917970907065711 
0.1283522730918529 -0.6301239684669948 -0.04029662711541061 -0.08086612248831003 -0.04084593435151876 0.06295185707314212 0.03044512416426155 -0.4026945388117866 -0.3580657304964539 -0.4873661345608595 
-0.03810511572916729 -0.1271865976044952 -0.6220059755673604 -0.6043331187596973 0.5769885014134384 0.2083194073237977 0.2830799644456634 -0.02675172406761078 1.734723475976807e-18 -0.003223253646458435 
0 0 0 0 0 0 0 0 0 0 
0 0 0 0 0 0 0 0 0 0 
0 0 0 0 0 0 0 0 0 0 
0 0 0 0 0 0 0 0 0 0 
0 0 0 0 0 0 0 0 0 0 
0 0 0 0 0 0 0 0 0 0 
0.1099469091802511 0.2046705581334343 -0.03205369038824749 0.03772032860914608 -0.04633250325980269 0.03414570299303682 -0.07570753792334015 -0.05930931192106854 -0.005313765179681525 -0.1208609554777140 
-0.1069146100135217 -0.2759824754034543 -0.1287162084110832 0.07634927103444127 -0.1259925177050090 0.1234968952629179 0.1500755603871201 -0.07236495452012971 -0.5566302206460269 -0.1327565680132260 
-0.07059833106202829 -0.2837387013262434 0.1556008454989764 0.07286815594361244 0.1681242034964554 0.2068881652717705 -0.1714529970468939 -0.2570218599033070 -0.02363123712401017 -0.1192623280205537 
-0.02515384558386416 -0.2837387013262433 -0.1226871869028055 -0.04946933291882381 -0.2874278894316696 0.09468805434850475 0.3697520993992781 -0.2570218599033068 -0.02363123712401018 -0.1192623280205537 
0.02577498954112767 -0.01068697774746900 0.07518814197814061 -0.02349978705524479 0.07488888902256510 -0.09987311304907712 -0.1286965894313683 0.09545463091810885 -0.4569417003169928 -0.03123203359012551 
-0.5344795120687310 -0.1833092631233457 0.4752915872422059 1.010132929167113 -0.2640438311026779 -0.2374918068987393 -0.2549390578132036 0 0 3.577867169202165e-18 
0.1619442018989372 -0.3830281152542995 0.08476233909715646 -0.1073988154273439 0.07546647339251089 -0.2052259710243528 -0.1211768289916333 0.02401205765279835 -0.2736393423342853 0.1765421336599878 
-0.1060362721914803 0.5824333979368442 0.09382457573989766 -0.4954938687946723 0.3044758978175792 -0.3403266915563041 -0.03161456510877300 0.2142947868644342 -0.02363123712401016 -0.1192623280205538 
-0.05184876054527408 0.1209952029168220 0.08614858986170800 -0.03655726662721461 0.01845233145023107 -0.1994555587425428 -0.005477754899686324 -0.04339751754810359 0.1040922710852481 -0.05500194855905276 
0.07048713298923535 0.1588497162359503 -0.1943092127777104 -0.002795314018354604 -0.04258494504591374 0.07853223674203748 0.08563704693072352 0.05122141255286299 -0.1741028833775243 0.1310865949268189 
0.4202335880325847 -0.02564842103150093 0.2655974342421744 0.2069076439796268 -0.8022218511441674 -0.2784568237916074 -0.4468214676668459 -0.01835169565580244 6.938893903907228e-18 5.204170427930421e-18 
-0.5301799237216309 -0.02676350379657263 0.3428388804360503 -0.3271349330334482 0.2582221506480207 -0.2576487164833167 -0.07799291293663270 -0.1171358987082712 0 0 
-0.02761320789923815 -0.3071171970848688 0.1744554138915775 0.04057723311633966 0.1122665517570203 0.1575767595914690 -0.3359924646617913 -0.2429451541463840 3.469446951953614e-18 -0.2082388414327506 
-0.1517694631545038 -0.2915986729087097 0.01318204973941725 -0.1794385305774326 -0.3693691085598707 -0.2866395412127279 0.3859565303881936 -0.2570218599033068 0 -0.2629763621412288 
0.03281909144975100 -0.1964612845044687 -0.2947761774027141 -0.1519060165530933 0.7679334391133472 -0.1369723212096219 -0.2784463414751532 -0.1088688498276505 -0.4497062322882564 -0.05982076528418926 
