solver_type L2R_L2LOSS_SVC_DUAL
nr_class 10
label 3 2 6 4 1 10 7 8 5 9
nr_feature 233
bias 1.000000000000000
w
-0.07767346732118184 0.1145273043894751 -0.2819313025646213 0.07567343777990397 0.2017618473654649 0.01608914135295645 0.2350273692325702 0.1431892222506073 -0.3579086375824256 0.1289705241004325 
0 -0.2670317962474155 0.4849867167769740 -0.7139252731483876 0 -0.1490873578706243 -0.03497521481488314 -0.1423537151525108 -0.4059512245945728 0.5196101145584270 
0 0 0 0 0 0 0 0 0 0 
0 0 0 0 0 0 0 0 0 0 
0 -0.01122417201637033 0.1132892581329268 0.5922501055740070 -0.5487933207927390 -0.05726505041669502 -0.02490404255747160 -3.469446951953614e-18 -0.1184324456170211 -0.06801702524141812 
0 0 0.6577213951200607 -0.2578462875267151 -0.3260242778639523 0 0 0 0 0 
0 0 0 0 0 0 0 0 0 0 
0 0 0 0 0 0 0 0 0 0 
0 0 0 0 0 0 0 0 0 0 
0 0 0 0 0 0 0 0 0 0 
0 0 0 0 0 0 0 0 0 0 
0 0 0 0 0 0 0 0 0 0 
0 0 -0.8059648176444862 -0.2519426864785611 0 1.168998665017661 0 0 0 -0.06386452188340784 
0 0 0 0 0 0 0 0 0 0 
0 0 0 0 0 0 0 0 0 0 
0 0 0 0 0 0 0 0 0 0 
0 -0.05522261945958289 -0.4366020522832400 0.4461953090615078 -0.2858335349367600 0.9041217401179750 -0.2404358688071838 -0.08116880345650287 -0.4705268388241628 -0.02776481409683851 
0.02312711518165218 0.1621805197891004 0.1052800323129828 0.09415121222102182 -0.2244443233261908 0.01365009199150640 0.1279546149718872 -0.1757159885787599 -0.04056935633495142 0.06258247686591542 
0.05357652410653817 0.1438485050598929 0.1426377726904898 -0.09941307939610625 0.02881129414057548 -0.05052028418597240 0.003325973688404242 -0.1777369159833489 -0.1334478992565589 0.1465748995208250 
0 0.6475980561073751 0.1280534794007151 -0.4749071741619989 0.5259886660671108 -1.387778780781446e-17 -0.04747127380798782 -0.1082996825138051 6.938893903907228e-18 -0.09270856210173488 
0 0 0 0 0 0 0 0 0 0 
0 0 0 0 0 0 0 0 0 0 
0 0 0 0 0 0 0 0 0 0 
0 0 0 0 0 0 0 0 0 0 
0 0 0 0 0 0 0 0 0 0 
0 0 0 0 0 0 0 0 0 0 
0 0 0 0 0 0 0 0 0 0 
1.734723475976807e-18 -0.2890252608765737 0.2475353554582823 -0.2140295591287425 -0.05883305483411092 0.2591687179279502 3.469446951953614e-18 -0.1312677467769577 -0.4132626157007948 -0.03384751432927701 
0 0 0 0 0 0 0 0 0 0 
0 0 0 0 0 0 0 0 0 0 
0 0 0 0 0 0 0 0 0 0 
0 0 0 0 0 0 0 0 0 0 
0 0 0 0 0 0 0 0 0 0 
0 0 0 0 0 0 0 0 0 0 
0 -0.06542257181076684 -0.6823046045476427 0 0 0 0 0 0.9024805872757221 0 
0 -0.1917543649383627 0.02174204226917492 -0.01899575332697971 0.1922989596860313 -0.5100334705612783 -0.03617211558961285 -0.2505531455155202 0.5255711179601139 -0.1691348642591314 
0 0 0.5039836835489239 -0.07299449358954246 0 0 -0.04231046539199348 -0.1021437468766660 0 -0.09508623182120185 
0 0.6428648304962840 -0.2526539414354350 -0.1460120713811068 -0.1537255832892103 -0.007311084236372001 0 3.469446951953614e-18 -0.6032157273873165 0 
0 -0.2020845805902033 0.2899060587445148 -0.1041143972091647 -0.5917655837776349 -0.3710914181933769 -0.09604383470941441 0.4507344922483595 0.4068689163694508 -0.03240681579087873 
0 -0.07242771913874636 -0.6003459090944994 0 -0.08715573190760398 0 0 0 0.7928233418345461 0 
0 -0.1875406508066533 0.5064046285263756 0 -0.3066406683602288 0 0 0 -0.2666259730909737 0 
0 -0.1864473163628662 -0.9610922839433971 0 1.008781347810018 0 0 0 0 0 
0 -0.08825373942996684 0.3079734013084833 -0.3628244810056902 0.1527060256280823 0 -0.03981083630011476 3.469446951953614e-18 -0.09452931993687960 -0.09800847904160057 
0 0 0.1559937238260648 -0.3242895848041580 0 0 0 0 -0.1767593619770060 0 
0 0 0 0 0 0 0 0 0 0 
0 0 0 0 0 0 0 0 0 0 
0 -0.1872262330979164 0.2415150039173969 -0.1125706962088204 0.0003590818726831868 -0.1496239619385678 4.336808689942018e-19 0 0.2798553142612264 -0.0006408515550639186 
0 -0.1459280495716542 -0.01094347584735858 0.2557711294187439 -0.3551815031704522 -0.01653062113219736 -0.3063998820523411 -0.1068797711947289 -0.2169352847817602 0.1256149313477653 
0 0 0 0 0 0 0 0 0 0 
0 -0.01004165215835864 0.6294403425444755 -0.1933471416097451 0 -0.2462191940352984 0 0 -0.3263913321035488 0 
0 -0.04417233581955339 0.7687196469102557 -0.1544683881040265 -0.2394863535009217 -0.03711829728042534 -0.1967146997849172 0 -0.1593475857026192 -0.07387142385070239 
0 -4.336808689942018e-19 -0.07000296959083774 0.2382013574045941 0.4985827144585667 -0.1074926421922437 3.469446951953614e-18 -0.02030260001509972 -0.1557712741808978 -0.3280806067166062 
0 0 0 0 0 0 0 0 0 0 
-0.05691566584230389 0.004755811179518905 -0.4101887083196147 0.4880008624744047 -0.003813740824057353 -0.1602059868118153 0.3520391456149272 -0.1688015208016044 0.1934116372707317 -0.3833568147733735 
-0.003515134151669135 -0.1775029688929650 -0.1689502407967319 0.4410434387578645 0.04191417385598055 -0.1328964221156866 -0.01885335440535366 0.1499808240612170 0.1739554042264558 0.09268779325577037 
-0.1649632535035251 0.01902099318116902 -0.04625606011016911 0.2080803493686687 -0.09846620965769070 -0.2701998863501420 -0.1054524451483236 0.02983434096189011 0.09316011015604954 -0.01553244070050598 
-0.08911524877927808 0.1327270507546202 -0.1230953628098203 0.1768662692225118 -0.1018849358440366 -0.5709274210750691 -0.2338737022742622 0.2639044722790845 -0.07184601167116651 0.1445364247448706 
-0.1251778943226704 -0.06221214599412227 -0.2164919762008903 -0.01557222130456591 0.2315587758372174 -0.2933772026930209 0.1875510841411054 0.07426203468491539 0.01860434881482730 0.1721981685223522 
-1.734723475976807e-17 -0.1298064524615307 0.06712011536544676 0.1190468869858831 -0.1863878559554774 -0.009493526558818504 -2.602085213965211e-18 -0.1344778065861118 0.03640684783307479 -0.4105970583844308 
0 0 0 0 0 0 0 0 0 0 
0 0 0 0 0 0 0 0 0 0 
0.07767029707073275 0.04537709661818615 0.1931447216476332 0.1874462689952006 -0.5162201445573336 -0.6518508811275470 -0.04924857900143464 0.1384893483329749 -0.09880837553984778 -0.3000183536116821 
0.3874461637598602 -0.2754015994088918 -0.2621113783652990 0.2033128498379112 0.1381033814426290 -0.3447657162250697 -0.1665507516410015 -0.1818394056695586 -0.03697331976102783 0.2854451974352867 
0 -0.3079011816862297 -0.2399190070070139 0.2305116309321880 -0.1212815403793182 -0.2133025381655858 -0.1346849799919828 -0.03832222372520893 -0.1020930143126347 0.2970655051146366 
-0.01977899688794604 -0.01580692502250284 -0.3122330647862284 0.2807445776171198 0.03460994928801645 -0.1838464487728742 0.1614290034459942 -0.07858356393269883 -0.1218439508888266 0.1756467611156856 
-0.1301022008916393 -0.2107851406399733 0.1015360472549175 0.08420537378567455 0.01288788185689562 -0.07805752960999236 0.07160850966085278 -0.04039770137047132 0.01158331828737877 0.04937469182197646 
0 1.387778780781446e-17 0.1062038755523664 0.3444860877078066 -0.09812496525957860 0 -0.1624530784478868 0 -0.05422076170223862 6.938893903907228e-18 
0 0 0 0 0 0 0 0 0 0 
-0.1032635371529133 -0.7780628756692884 -0.2299881886185236 0.1342074047906927 -0.2000140686187302 -0.4269903586333373 0.3776320453809138 0.3904136022713408 0.1437863469765188 0.04074864590551265 
-0.06146489542606929 0.1107028222955919 -0.3147177184125681 -0.5017189734590839 0.1097215878000603 -0.1918869823779630 0.6257690847790047 -0.05699981681730176 -0.3427468923021950 0.4039751035688105 
0 -0.2312735327249244 0.1320919958783930 0 -0.2428963607006026 0 0 0 0 0 
-0.2197303335727685 -0.03116286647970526 -0.1308277444051459 0.09647563810346130 -0.08370000891861702 -0.1312931413662035 0.05793108106578149 0.2559931297149759 0.009856869909917990 0.03347287777486419 
0 0 -1.047976882486583 0.9429525590194386 0 0 0 0 -0.06358538162159744 0 
-0.05388828722056417 -0.1290396666594962 0.1016707425555670 -0.08749442664427670 -0.08791995279134643 -0.5748055362026606 0.1189374500861689 -0.3235406145466833 0.1932085910596696 -0.01541131160715719 
0 0 0 0 0 0 0 0 0 0 
0 0 0 0 0 0 0 0 0 0 
0 0 0 0 0 0 0 0 0 0 
0 0 0 0 0 0 0 0 0 0 
-0.1422303117579530 -0.01970983317522778 0.07008305440225045 0.01352450437791397 -0.2536372405385657 -0.1677808455137721 0.08071631823638967 0.06499971828932158 -0.1648166758467528 0.2305501136936945 
-0.08464672368811749 0.05637687894891200 0.3855104354439676 -0.1507990215917484 -0.1398998511260369 -0.5275002596074430 -0.1236456285250424 -0.1168194780509921 -0.3383615300803207 0.01189194303081607 
-0.3906415541673418 -0.09769312693116218 0.1815353862651861 -0.1373855212863448 0.02849872677573212 -0.1153250490848243 -0.09270113074676396 -0.07496925135841905 -0.09567921794352499 -0.01707652248004943 
-0.008051976422429314 -0.1342311932786529 0.2152099253834210 0.1617597040001660 -0.09510860214679216 -0.5640656879810091 -0.5119167020014825 -0.1003986279513998 -0.05763904848948047 -0.1337802954993798 
0 0 0 0 0 0 0 0 0 0 
0 0 0 0 0 0 0 0 0 0 
0 0 0 0 0 0 0 0 0 0 
0 0 0 0 0 0 0 0 0 0 
0 -0.1143195104797077 0.2092376827970065 -1.040834085586084e-17 0.2825769726341482 -0.6076903840562453 0 -0.1578547053177139 -0.2087187304419680 -0.1827569919106023 
0 0.3252474271036630 -0.5977911611401451 -0.09812123967290708 0.1527245700267116 0.5927175065434256 -0.1320794332629675 -0.4304022784822592 0.2488251442584364 0.9023462258248358 
0 -0.4846638312712492 0.1418063036062084 0.1018676925296487 -0.1300286342197616 -0.4262154266511180 -0.1621513563953409 0.2546848897914399 -0.2032828450010884 -0.06115855011329514 
0 0 0 0 0 0 0 0 0 0 
0 0.1333111257650574 0.06887880616063405 0.04462354951417057 -0.1297170659368956 0.3443762130546114 -0.1252152555301449 -0.3365214053579231 -0.7487839274992490 -0.2802599219041583 
0 0 0 0 0 0 0 0 0 0 
0 0 0 0 0 0 0 0 0 0 
0 0 -0.8797651247252012 0 0.4980053868624195 0 0 0 0 0 
0 0 0 0 0 0 0 0 0 0 
0 0 0 0 0 0 0 0 0 0 
0 0 0 0 0 0 0 0 0 0 
0 0 0 0 0 0 0 0 0 0 
0 0 0 0 0 0 0 0 0 0 
0 0 0 0 0 0 0 0 0 0 
0 0 0 0 0 0 0 0 0 0 
0 0 0 0 0 0 0 0 0 0 
0 0 0 0 0 0 0 0 0 0 
0 0 0 0 0 0 0 0 0 0 
0 0 0 0 0 0 0 0 0 0 
0 0 0 0 0 0 0 0 0 0 
0 0 0 0 0 0 0 0 0 0 
0 0 0 0 0 0 0 0 0 0 
0 0 0 0 0 0 0 0 0 0 
0 0 0 0 0 0 0 0 0 0 
0 0 0 0 0 0 0 0 0 0 
0 0 0 0 0 0 0 0 0 0 
0 0 0 0 0 0 0 0 0 0 
0 0 0 0 0 0 0 0 0 0 
0 0 0 0 0 0 0 0 0 0 
0 0 0 0 0 0 0 0 0 0 
0 -0.1883544579391193 0.4821541096163782 -0.1887659237903501 -0.09016095095524525 0 0 0 1.734723475976807e-18 0 
0 0 0 0 0 0 0 0 0 0 
0 0 0 0 0 0 0 0 0 0 
0 0 0 0 0 0 0 0 0 0 
0 0 0 0 0 0 0 0 0 0 
0 0 -0.8910054711922458 -0.4279307971255875 -0.1400108770385509 0 0.4750053824922251 -0.03012717038058186 0 0.9826580221681076 
-3.469446951953614e-18 -0.6572276937401889 -0.2966555951003011 0.1691575971672940 0.5436451649377512 -0.5155237654987063 0.1939019240070624 0.1467227515282429 -0.3639721820600934 0.05013354552472447 
0.02891277572904537 0.01359270788253586 0.03895934030256202 -0.3222598881688089 0.04867038849030123 0.1667722932925615 -0.1739886896900186 -0.08201468494810774 -0.003393886505212884 0.1222877439832128 
-0.1945300969243545 -0.01314060556273149 -0.02464235481579360 -0.2673051200932053 0.1488875727373605 0.2990324349327209 -0.03552166321968285 -0.02005834661859933 0.09066386344937666 -0.2247940747929893 
-0.2817154514872003 -0.1048600173348269 0.1819480091945147 -0.08630582356792067 -0.5254297695781169 -0.05332756267096453 0.1549587230355960 -0.2361073072654421 -0.1863470566591750 0.07233485429620924 
0.06920816639605686 -0.1067416067568851 -0.1552787607038113 -0.06941112617195824 0.1041622421895491 0.1198503146798710 -0.03560690092824000 0.1208722052900281 -0.08373269499703999 0.2359560703323462 
-0.03198400019092315 0.2701003987676718 0.08975590752003462 -0.3157611074739847 -0.6576980272641602 -0.004260006033417151 -0.2055477295446974 0.1285820934898773 0.2465285570759526 -0.08188290989973866 
-0.03054841815506218 0.1425386107433859 -0.01407439814886678 0.5610602996833904 -0.7648914092989756 -0.2494293147463570 -0.1570984087903390 -0.3559721641597213 -0.3556637717069002 -0.3918513527373479 
0 -0.07546468437373606 -0.3896414283047553 0.06044405972345973 0.7686114661751604 -0.1595962212348000 -0.06471487885758640 -1.864827736675068e-17 -0.1184324456170211 -0.1018645395706952 
0 -0.2324217069519920 0.4702067205155455 0 0 -0.3881092891035625 0 0 0 -0.01485303148371130 
0 -0.3994046551295929 0.1082459161053667 0.05756577595382661 0.1920137452295455 -0.5082981203556030 -1.734723475976807e-18 -0.04309785275357374 -0.1780058277804382 -0.1154754517570987 
0 0 0 0 0 0 0 0 0 0 
0 0 0 0 0 0 0 0 0 0 
0 0 0 0 0 0 0 0 0 0 
0 0 0.3566780919498365 -0.2476976438597809 0.2403529885325396 -0.2017674040869197 0 0 -0.1977099349818348 1.734723475976807e-18 
-0.1261759092514046 -0.5844753564816274 0.2918323620162033 -0.1643706990339141 0.1518373460435457 1.734723475976807e-18 0 -4.770489558936220e-18 -0.5354211346711147 -0.08350312952146176 
0.02920176141824764 -0.01806356191503267 -0.1382134519125381 -0.06082767156351194 0.2125255201511396 0.08419238836807660 0.0002609995069018310 0.1265644213735076 0.1242264985049757 -0.07765989778907145 
-0.3555241037095164 0.01479645307906121 -0.1276560624984158 -0.0004135156119583525 0.1960739581991561 0.3005739482824414 -0.02328501449123840 -0.1383155453815974 0.1040717043498915 -0.05311954101381816 
0 -0.1167410799554672 -0.1283860725538777 -0.02806905244139658 -0.1825100045319525 0 0.1152259344476088 -0.1002350775901134 -0.1042516715407518 0.6992729369113089 
3.469446951953614e-18 -0.3407138796903803 0.7207166525235775 -0.1729764666139005 -0.6055114653826573 -0.1042404303126488 0 -0.2109859456632869 -0.2601147423188692 -0.02772951514196873 
0.08592726499799251 0.2356676361986102 -0.2887017139941608 -0.04401024556823664 0.1545525622952958 0.1279010217048741 0.1299965357446208 0.2159913934871685 -0.2000712929884318 0.09310209026969883 
-0.1976039403455407 0.1619006101137887 -0.06447607683264553 -0.06250253331067257 -0.02662441228473792 -0.1031949106533079 -0.3426273064489261 -0.2695634700012415 0.3268230668545517 -0.4904280854954746 
0 -0.1981786006209119 0.4056838100474426 -0.06061658691729818 -0.3300192096491945 0.1665020798923081 -0.1458093635234268 0.2506126637997652 0.1211092783662488 -0.9613842981162788 
0 0 0 0 0 0 0 0 0 0 
-0.06146489542606929 0.2809460962639033 0.2869435143758883 -0.04589899437637041 0.1798453261578068 -0.1918869823779631 -0.2707578747594327 -0.01242368765336096 5.204170427930421e-18 -0.2402475035902957 
0 0 0 0 0 0 0 0 0 0 
-0.2681769402221613 0.1070833654743389 -0.3047225342475536 -0.1725386392798097 0.3140272753585832 0.2071430188255876 0.04995240966357654 0.09585497633119139 0.1740189899602803 0.0007463806863374943 
-0.1679515646771015 0.2010794821665912 -0.6007132828428830 -0.3528726843163269 0.6876659998763860 0.09190928068753000 0.1281002195624779 0.04049013264081915 0.4025206159058972 -0.2849925560345056 
-0.2138418876988196 -0.2779022419536233 0.2098116674716160 -0.2019078782308723 -0.3719877799206454 -0.3045244818322837 -0.2304036458171296 -0.2138186065062841 -0.3619027415505140 -0.2701395131044790 
-0.2268151369336185 -0.2278993167625510 0.09566728419318124 -0.1800650518843293 -0.3136860113986944 -0.4728409894072693 -0.2871159021778360 -0.2739774504592523 -0.2264805211899535 -0.2300031785253252 
0.1245601704031251 -0.05299232699988520 0.2654554278045909 -0.3053976220743364 -0.01310359462423640 -0.1063220858232367 -0.2859341790664249 0.01054546849120365 -0.2829115431450194 -0.1570806253449002 
0 -0.07549986671353584 0.02654705505063729 -0.08415671400651502 -0.1388477411432488 -0.2844561623294623 0.2482528701247862 -0.2765266335272597 0.01447649828202631 -0.1600527090661298 
-0.08554303988269908 -0.02707067920407776 0.03189718188914791 0.01871417661954680 -0.08248737774215860 -0.1003940085369724 0.07029249004891010 -0.3963103597100173 -0.2463755125940246 0.2570017789002321 
4.163336342344337e-17 -0.1888680012774187 0.2556969350531257 -0.08878272488825262 -0.09577889965745856 -0.5656206021351081 -0.03312423289050800 -0.07034834364046381 -0.1196879559338072 -0.06059609313439433 
-0.2062853088854775 0.05048161804436926 0.05746167551262747 -0.03120805090391877 -0.2888484646527182 -0.1438784503808066 -0.2808997776458777 0.09184891172505302 0.05855905376751439 -0.4125019333178849 
-0.3429402236555109 -0.1826530204092601 -0.4144897728028154 0.2084659886423257 -0.04267262617525899 0.3911373422020785 -0.08821194398929053 0.1161486986402329 0.1237292565963558 0.03918966031192082 
0.06955137738812424 -0.02919928215636311 0.08291044915747922 -0.09960798350404818 -0.02393508732425684 0.03216849576395103 -0.1478947745765597 0.03684620105571017 -0.1361730597135035 -0.006102769978655784 
0.07098779345091012 -0.07701395628272117 0.2237450350690732 -0.2415669425170963 -0.01059228820802415 -0.1456160960395987 -0.01282172001626662 -0.2238726532729432 -0.2400736570401865 -0.1405493052085709 
-0.2706243493411146 -0.06276747505749011 0.01381635660670363 -0.02641196774880937 -0.09612653249108927 -0.4665921387292260 -0.2678902832273090 -0.2148111013483250 0.2040842057935616 -0.05682681470110299 
5.204170427930421e-18 -0.1808804249211354 0.1210966594412342 -0.03126660096726307 -0.4441181610687531 -0.3198925630691736 -0.09240934921135528 0.1611363729607706 -0.1595640419717206 0.05953995313166637 
0.03205680585131667 -0.1196073019261899 -0.1207434601359648 -0.08318638102100703 0.2161629313231298 -0.08902410521137924 -0.08637423307940771 -0.008773508921341726 0.07037609188453313 -0.1813802491707954 
-0.07801844987069714 -4.658597714745760e-05 -0.1191385917691877 0.04166886054372453 -0.05275692433172689 0.2144283049420600 -0.1417891091685197 -0.2033544650987481 0.06419922483635841 -0.1262311383277348 
-1.387778780781446e-17 -0.1098478981771596 0.1243152921636334 0.03936324994778281 -0.008311747841312297 -0.07868742614249373 0.3468115662061048 0.02196551446000258 -0.3547337701120532 -0.1149821678283510 
-0.1950588247228526 0.04436208362567266 0.06238766028931070 -0.08057314835253730 -0.2899310687015655 0.1080185530102558 -0.2630464194982153 -0.02008621574495394 -0.1726713161309519 0.06028703047507527 
-0.07368584943939852 -0.3473856097486407 0.3091061603596776 -0.0003464717286563602 -0.4132914183929729 -0.6413251855753420 -0.09838443534808476 -0.1443462142905008 -0.09859510579936283 0.1497670172988705 
-0.09891284009054410 -0.09041389747313995 -0.1118449106041237 -0.02742322566089140 0.1093309292248299 0.004297940779020389 -0.08218435562657171 -0.1336849722772260 -0.1560171873097230 -0.3577949637255476 
-3.469446951953614e-18 -0.001739112923138643 -0.2650343180204532 -0.1359333745476092 0.01720438393815029 0.2742965661601841 -0.1629107349939535 0.2105656500630966 -0.3826066507987182 -0.04678122427577762 
-0.2680583351024949 -0.06626293857125319 0.3732520199297028 -0.2182698581780435 -0.3989176860893492 -0.4146347926034114 -0.1740400220263594 -0.4203305204609136 0.04883568116734521 -0.2453335209273632 
-0.4406570246324371 -0.5058015587161900 0.3054789516648018 -0.3819729301152037 -0.6856737913193238 -0.7773654712395525 -0.5175195479949823 -0.4877960569655536 -0.5883832627404537 -0.5001426916298112 
-0.08540365561187575 0.02290294086417151 -0.1177556142347341 -0.1989042638441215 -0.01697514296103452 0.1961515490762220 -0.1520504615197451 0.1257804599837325 0.1265902007871639 -0.2243769773915111 
-0.1324098670757066 0.1696734981718630 -0.2935334237289345 0.09729359244020602 -0.3537974934503984 0.3115309775092084 -0.3476590639972100 0.02551632633971573 -0.3122990116209576 -0.1009223849171341 
-0.1451577749151312 -0.01057401436057100 -0.5468945895058606 0.4445576667314234 0.09471116120340749 -0.7098561395316995 0.2006158565338861 -0.3178743944051924 -0.02639464625109739 0.1558679599797345 
-0.07768572702972469 -0.6878039833916366 1.263662579134329 -0.7249199254427113 -0.4096123161113112 -0.5751918582932849 -0.2184258790118964 -0.3212184488837955 -0.3762798056555647 -0.3307112893009028 
-0.2203097899493632 -0.01034288639606606 0.1230992029829996 0.09120155027598957 -0.1908710824035430 0.1128605882628107 0.04158251185492420 -0.003891401738514494 -0.1643631435328617 0.01494669569890653 
6.938893903907228e-18 0.4398375204347905 -0.1631651606873458 0.09621884990506060 -0.2025143738191229 0.3124978351212649 -0.3429100658617933 -0.3585570551897335 0.08873993181502869 0.2312156420716518 
0 0 0 0 0 0 0 0 0 0 
0 0 0 0 0 0 0 0 0 0 
-0.01527737923784515 -0.3050732353427493 -0.5190358765765928 0 -0.3339292942348761 0 0 -0.1103415263039822 1.085216210771628 0 
0 0 0 0 0 0 0 0 0 0 
0 -0.2297666879299326 0.2024490633139642 -0.4788702064523611 0.5183671654815185 -0.04653365565185123 -0.1307051452203387 -0.1913101357893978 -0.1118404930544222 -0.2299335650757139 
-0.05691566584230391 -0.05174112382898821 0.008720923484177245 0.2096423612516322 -0.2343480880901075 -0.6585995120722317 -0.2766589201279028 -0.2854438348968745 0.1897060039635102 -0.2934768801235216 
-0.05260604658278859 -0.1558231348357418 0.1335014351551144 0.1691875154657958 -0.06425950245046994 0.4157635168460792 -0.2921102641064727 -0.3079555499536869 0.1616528839330110 -0.4960996485524277 
0 0.09074462706889878 -0.3300199406333235 -0.2825688486596618 0.5889190870578206 -0.1716881763637185 -0.01179790407093444 -0.05375635857364536 -0.5607399483605524 -0.1953119845456663 
0 -0.3429125486038258 0.6416980376887015 0.2057403395312014 0.1363550033104101 -0.2838613137837855 -1.951563910473908e-18 -0.3883584522392162 -0.3470549032949573 -0.5643306794339622 
-0.1779927321450336 -0.1941558473387607 0.5587080344677993 4.336808689942018e-19 -0.2119717098112935 0 0 -0.1603000157378303 -0.2131837679426100 0 
-0.04412706384852784 -0.2099277291866873 0.3816946139216926 -0.5745769513764669 0.1594157029239705 -0.6202841520602571 -0.1569573037006492 -0.5405815321138687 -0.4960452525930593 -0.06369809937913877 
0 0.2418223211170862 -0.4389296393370293 -0.1975474062389510 -0.4159358463373323 3.469446951953614e-18 0.5904780700869607 -0.01849331757199906 -0.1897564513677846 0.5141290391724055 
-0.06704228205674789 0.7626850112500960 -0.7806730066815384 -0.5729062536570126 -0.1203147543123983 -0.06573717204176376 2.949029909160572e-17 -0.06446963262915936 0.2693560580656705 -0.4583403682116845 
0 0.6764183256338925 -0.03321252745169634 0 -0.2373801099707653 0 0 0 -0.2007304810846426 -0.2621011249146111 
0 -0.3946822517519469 -0.05981807685985808 0 0.8210541761698350 0 0 -0.05427150940993737 -0.4639915550366309 0 
0 -0.09127275330713240 0.4172126514558969 0 -0.06673085038032878 0 0 0 0 0 
0 -0.4573178554108776 0.3908274905855381 -0.01837691823716075 -0.1163531605654741 -0.3320778495628868 -0.1982347445276791 0.2311448183481272 -0.3988596150724190 -0.3781479370081836 
0 0 0 0 0 0 0 0 0 0 
0 -0.3563418874107930 0.4585129624709200 0.1145982200891869 -0.1720873363388472 0.1773820611467580 -0.05377747431348501 -0.3244446882656160 -0.4299988896948319 -0.3890696632460819 
0 0 0 0 0 0 0 0 0 0 
-0.1301658741493492 -0.01951879036010159 0.1637138661284950 -0.1064003477840753 -0.09914611841232390 -0.5811163589822925 -0.1261813996212542 -0.003613896611493729 -0.6487446429274653 -0.2327455586993039 
0 -0.02128191794734319 0.1445614385796627 -0.09824584166971460 0 -0.2727576515127099 0 0 0 0 
0 1.734723475976807e-18 -0.2984573321864964 -0.08964896525469142 0.7937994050575130 -0.4280750298195659 0 0 -0.09551884079342214 0 
-0.006794607835194563 0.1710046970556145 0.1197739987697379 0.2492829851238665 -0.7987764165293276 -0.1145762331350918 -0.1352077858595358 -0.3201345111090497 -0.06892998388122623 -0.08716733870883928 
0 -0.2432465472601295 0.9673703252306475 -0.2915139752456359 -0.5777452369916651 -0.2470975896102239 0 -0.1260603090610585 -8.673617379884035e-19 -0.1569843402628810 
0 0.3789598666323891 -0.2463035670305055 -0.1314804803073266 -0.01658601139234072 -0.01080628374137928 -0.1997736046433480 -0.03163300371002456 2.775557561562891e-17 -0.08839581348294391 
-0.06214062708924249 0.2058640716950694 -0.8256578029463789 0.3640642831682380 0.4163164309616579 0.01607047429070987 -0.06219026833600835 -5.204170427930421e-18 0.1262425736460004 -0.3875111588159707 
0 0.9213232159546478 -0.2325193768029414 -0.2970228032884770 -0.3669970256685562 3.469446951953614e-18 -0.3848732348781022 -0.1305828511699305 6.938893903907228e-18 0.5854426125908080 
0 -0.3122589240881987 0.5958482355413925 0.5805297713103648 -1.084202172485504e-17 -0.3906292530541374 -0.007873961629875054 -0.3740962551295213 -0.2019855433615814 -0.6784995189988258 
0 0 0 0 0 0 0 0 0 0 
-3.469446951953614e-18 -0.1280595721460519 0.1460779577050752 -0.1756689673348728 0.1623790561690733 -0.3413673538206477 -2.168404344971009e-18 -0.4030829053257208 0.1761290619243584 -0.2791462262271017 
-3.469446951953614e-18 -0.3910443745836406 -0.1398483894504612 -0.1053554964782377 0.1039630213463388 0.6877638210443822 -0.2933626804237412 0.08088680560829690 0.2049584136998007 -0.03711298567539135 
0 -0.4600572326883743 0.5768602043349548 0 0.2477855630584274 -0.04274677571768636 0 -0.3543252863016193 -0.3469697390872306 -0.1838000127154061 
0 0 0 0 0 0 0 0 0 0 
0 0 0 0 0 0 0 0 0 0 
0 0 0 0 0 0 0 0 0 0 
0 0 0 0 0 0 0 0 0 0 
0 0 0 0 0 0 0 0 0 0 
0 0 0 0 0 0 0 0 0 0 
-0.1301658741493492 -0.03876009777311026 -0.05942940499687439 0.1160442920582321 -0.3192946419666807 0.5777791530395863 0.4804363010547540 0.4390802200411480 0.007966980198822051 -0.9928770850975246 
5.204170427930421e-18 -0.9808730202757330 0.4462076864950941 -0.1924693600925594 0.1060684328316711 -0.6690641973467193 -0.05377747431348502 -0.6680588836714334 -0.6979414355352348 -0.07506116338665597 
0 -0.3983172136763399 0.02747724296217845 6.938893903907228e-18 0.5756066816348956 -0.2416496179570341 0 0 0 -0.06441961854343148 
0 0.7066427320815867 -0.3683658411844341 -0.05198137389240965 0.04976890025860380 -0.2416496179570341 0 -0.01838825791743800 -0.1913514449335356 -0.06441961854343150 
-0.02527303768521138 0.1600173008335524 -0.1177284260154208 -0.04455815774278520 0.01595375620737503 -0.5801919320440738 0.1503609817358188 -0.3449582224812650 0.008403147193395858 0.3357390922888838 
0 0 -0.7886341462950344 -6.938893903907228e-18 -0.2149523889867669 -0.1364171565838536 0 1.419544151892708 -0.4731675950750484 0 
-0.1972081562060971 0.2476682985437016 0.02720388153550488 -0.06731553906794027 0.02489306047522799 -1.080926123405127 -0.1335754269156802 -0.3679454592815897 -0.2206498386336221 -0.2169689597180141 
0 -0.3983172136763398 -0.1679639507216174 -0.2827610277987216 -0.1402978595629464 1.232839671973644 3.469446951953614e-18 -7.806255641895632e-18 -0.4381717968708300 -0.06441961854343150 
-0.01527737923784515 0.3677542918946152 -0.5017861052265543 -0.4629184152914682 -0.08682843252794692 0.3427735903867916 -0.2076475662732231 0.4220477623780047 0.2424738324051523 0.3875771897577962 
-0.2173514996559484 -0.02540061454042681 -0.06332885485569313 0.02491403064380985 -0.03902327926784205 -0.4334359484885488 0.1898656097739412 0.1090044448523111 -0.3829346116649856 0.2220490926609952 
0 0 0 0 0 0 0 0 0 0 
0 -0.2056512237704554 0.09391949973025138 0.1883810876909917 -0.03879516860051331 0 0 -0.04895972966280045 -0.1777739687319053 -0.1844418568643538 
6.938893903907228e-18 0.07175821499093063 0.01224777032244845 -0.4248320273621103 0.04303139425013684 0.4516523806013001 -0.03304812698377618 0.1478026139966916 -0.2219767140516188 -0.2221989826299849 
0 0.1575188944515583 -0.5409913248841779 0.2826300202589211 0.8872198305516985 -2.081668171172169e-17 -0.1721791116875379 -0.1759752732161918 -0.1445598116934182 -0.2439124269833622 
-0.1971373890948407 0.1389561644436093 -0.1407827313130321 0.3370431229660388 0.02144655533511517 0.1930631033526274 0.01318023041953307 -0.006994103793001924 -0.1313016443817199 0.1692227937203228 
0.2043513433035363 -0.2647756945840725 -0.06918828220564649 0.1932121866079211 0.3700226143277785 0.4516947063331966 -0.2808211237264069 -0.1960234369345100 -0.1755609090019016 0.08644096210126630 
0.1542410668423541 0.1581192733338986 -0.2986528289091196 0.3240252148297316 0.3324007504353893 0.1376743954293024 -0.3483554747783900 -0.07737910724948967 -0.2822566413279795 -0.1658466262790712 
0.2629236527953148 -0.06901037528060414 -0.1395919899648046 0.4215808928497216 0.2427605667776298 0.3446023370672629 -0.06268198154310056 -0.1715690268840509 -0.1355327916799328 -0.07868100585916087 
1.734723475976807e-18 -0.08226566032546780 0.02427202723844159 -0.1429572218274375 0.7583859886846293 0.1926044063399492 -0.1352077858595357 -0.1662677477003812 -0.4170819561486111 -0.1046259419467779 
