solver_type L2R_L2LOSS_SVC_DUAL
nr_class 7
label 6 4 2 1 10 5 8
nr_feature 166
bias 1.000000000000000
w
0.1554130488125823 0.05934466197688081 -0.1168636011482791 0.04526873816709735 -0.03965216123965767 -0.04305686405540070 -0.07603846593841897 
0 0 0 0 0 0 0 
0 0 0 0 0 0 0 
0 0 0 0 0 0 0 
-0.1249134650007293 -0.03823965962643661 -0.03287454467490868 1.492628763472405 0 -1.250128040703564 -0.05457088042434270 
0.4583176608111872 -0.08635880875355217 -0.009851290007280071 -0.1467037777231172 0 -0.3195187927763776 -0.06502195371563013 
0 0 0 0 0 0 0 
0 0 0 0 0 0 0 
0 0 0 0 0 0 0 
0 0 0 0 0 0 0 
0 0 0 0 0 0 0 
0 0 0 0 0 0 0 
-0.2255610196261833 0 -0.03982361575115098 0 0 0.3219995842075158 0 
0 0 0 0 0 0 0 
0 0 0 0 0 0 0 
0 0 0 0 0 0 0 
0 0 0 0 0 0 0 
0.1156977053880905 0.2329670831503817 -0.2717797317003481 0.1657564987372912 -0.1661032302246067 -0.06985764488342852 0.001377092920020235 
0.08757792601672379 0.2907817290968149 -0.4012296720924393 0.2436742205624427 -0.1888199311832647 -0.09394141677464216 -0.07130354064895389 
0.3626449889739269 0 -0.4032852571234120 0.3044503219396674 -3.469446951953614e-18 -0.3431350033260460 -0.02482328794716700 
0 0 0 0 0 0 0 
0 0 0 0 0 0 0 
0 0 0 0 0 0 0 
0 0 0 0 0 0 0 
0 0 0 0 0 0 0 
0 0 0 0 0 0 0 
0 0 0 0 0 0 0 
1.148701168516709 -0.1049278300427408 -0.3448489175516520 -0.4241062022943983 -0.06664860947785084 -0.5484150304765248 -0.06508507319032514 
0 0 0 0 0 0 0 
0 0 0 0 0 0 0 
0 0 0 0 0 0 0 
0 0 0 0 0 0 0 
0 0 0 0 0 0 0 
0 0 0 0 0 0 0 
-0.1422755148129651 -0.1998304569768364 -8.673617379884035e-19 -4.163336342344337e-17 0 0.3551790211638694 -0.06743478314750934 
-0.01201980446395584 -2.255140518769849e-17 0 0.3992309528343503 0 -0.1823330747836341 -0.05302496410054347 
-0.09694806058142260 -0.06437659988572736 0 0 -0.01214601178903112 0 0 
-0.3131634197582485 -0.2091013122903162 0.08598631994321548 -0.1036404272130509 -6.938893903907228e-18 0.2340137416753511 0.1216815050064253 
-0.1397411755933058 -0.06681018199877564 -1.301042606982605e-18 -0.2438814002435844 0.6021036828283857 0.08168108435161908 -0.1345698022431714 
-0.3861755498965232 -0.1175523377003154 -3.041187093821840e-17 -3.729655473350135e-17 3.469446951953614e-18 0.4274869075079206 0.01210488012167822 
0 0 0 0 0 0 0 
0 0 0 0 0 0 0 
-0.1489289404085983 -0.1446215440806160 -0.01220835662907975 -0.3392010287052045 0 0.6883806315910017 0 
-0.3042494961114061 -0.1564820145917279 -0.1919927787410757 0.1972118796359100 0 -0.4507236926164094 0.5501975900251868 
-0.1384502299748706 -0.1870526070927979 1.041572585282982 -0.3800580270738002 0 -0.4869952340557017 -0.02313565089515851 
0 0 0 0 0 0 0 
-0.2590243839445181 0.02161279653938428 -0.09314528247205320 -0.4883439065469440 0 0.4376235876339349 -0.06979250833628811 
-0.2868327648379313 -8.673617379884035e-18 0 0.2638293749878600 -0.03019068884580827 0.1541641861096317 -0.02202779667918822 
0 0 0 0 0 0 0 
0.3174026715392930 -0.1920918185478606 -0.1514311586664706 -0.2300693990622553 0 0.1420876414188091 -0.1796336699727471 
-0.1995666963391849 0 0 0.9858754854485489 -0.1643116997869142 -0.6030848730995197 0 
-0.04438014901490611 0.3473911080900548 -0.09969165984158311 -0.5920071751523894 1.019150042136374e-17 -0.09419517939900040 -0.07351433431007344 
-0.1848000821781584 -0.1093636327985718 0 -0.2012845223800126 -0.05011549083430911 0.4881674540652289 0 
-0.1001111180079791 -0.04698646591407719 0.1264577099421519 -0.2461376433487734 -0.1612703116446799 0.3908092771332902 -0.1104834093574475 
-0.2372637453693067 -0.02082499082958777 0.1216575596594316 0.1478168942192055 -0.2066506881748903 0.02895008308949171 -0.03697242338257376 
0.1409409591392717 0.1248468055898211 -0.06560361175731177 -0.2832895987345728 -0.1069989918293597 0.1297262349048955 0.005478641079607888 
0.04179575209098164 -0.1400685682631820 0.2586330068956071 -0.3505323183501221 0.1101672217146038 -0.02819402196530851 0.004613758152483107 
-0.05171708485796028 -0.06503208244268008 0.04103321516182699 -0.02279731788550802 -0.008172235747283242 0.1275964799611355 -0.1872891181465083 
-0.1014017799013312 0.09999083279721083 0.1066664008604914 -0.2362039206188781 -0.09333277632512830 0.2325863612429093 -0.03400678038637222 
0 0 0 0 0 0 0 
0 0 0 0 0 0 0 
0 0 0 0 0 0 0 
0 0 0 0 0 0 0 
0 0 0 0 0 0 0 
0 0 0 0 0 0 0 
0 0 0 0 0 0 0 
0 0 0 0 0 0 0 
0 0 0 0 0 0 0 
0 0 0 0 0 0 0 
0 0 0 0 0 0 0 
0 0 0 0 0 0 0 
0 0 0 0 0 0 0 
0 0 0 0 0 0 0 
0 0 0 0 0 0 0 
0 0 0 0 0 0 0 
0 0 0 0 0 0 0 
0 0 0 0 0 0 0 
0 0 0 0 0 0 0 
0 0 0 0 0 0 0 
0 0 0 0 0 0 0 
0 0 0 0 0 0 0 
0 0 0 0 0 0 0 
0 0 0 0 0 0 0 
0 0 0 0 0 0 0 
0 0 0 0 0 0 0 
0 0 0 0 0 0 0 
0 0 0 0 0 0 0 
0 0 0 0 0 0 0 
0 0 0 0 0 0 0 
0 0 0 0 0 0 0 
0 0 0 0 0 0 0 
0 0 0 0 0 0 0 
0 0 0 0 0 0 0 
0 0 0 0 0 0 0 
0 0 0 0 0 0 0 
0 0 0 0 0 0 0 
0 0 0 0 0 0 0 
0 0 0 0 0 0 0 
0 0 0 0 0 0 0 
0 0 0 0 0 0 0 
0 0 0 0 0 0 0 
0 0 0 0 0 0 0 
0 0 0 0 0 0 0 
0 0 0 0 0 0 0 
0 0 0 0 0 0 0 
0 0 0 0 0 0 0 
0 0 0 0 0 0 0 
0 0 0 0 0 0 0 
0 0 0 0 0 0 0 
0 0 0 0 0 0 0 
0 0 0 0 0 0 0 
0 0 0 0 0 0 0 
0 0 0 0 0 0 0 
0 0 0 0 0 0 0 
0 0 0 0 0 0 0 
0 0 0 0 0 0 0 
0 0 0 0 0 0 0 
0 0 0 0 0 0 0 
0 0 0 0 0 0 0 
0 0 0 0 0 0 0 
0 0 0 0 0 0 0 
0 0 0 0 0 0 0 
0.1260645220161672 -0.003064374614317884 -0.2294385776413725 -0.08635147089883745 0.01952164388289584 -0.05730566899760883 -0.05787968127091898 
-0.01324780698252904 -0.02792083935603799 0.04198741044955429 -0.1092080329010088 -0.2185749114368213 -0.03348736512072737 -0.08788392943480508 
0.001136739204236431 -0.2019614589963299 -0.02346799015036919 -0.2593228633247298 0 0.1020578406573899 -0.1453303602785488 
0.04068428425808906 -0.1633562501353203 -0.07672550144226109 -0.1328038161740150 0.03351066331528087 -0.05311421618203022 -0.07832898036886810 
-0.2619751046899324 0.01818779176244120 0.09238422951479328 -0.03797741731876370 -0.1858922768900071 0.07500296808342496 -0.06792759667546740 
-0.5908221071899373 -0.06628514965660018 -0.1568475935358587 0.3824918828575791 -0.1640584319532920 0.02031116627241239 -0.03124652015811007 
0.4583176608111872 -0.08635880875355217 -0.009851290007280071 -0.1467037777231172 0 -0.3195187927763776 -0.06502195371563013 
-0.1504923538318813 -0.1370989748027937 -0.03287454467490868 -0.09591644786714437 0 0.4601294226554606 -0.05457088042434270 
-0.2786984329861194 -0.1049278300427408 -0.05778882292363614 0.4432784080222095 -0.06664860947785084 -0.4672019474508993 -0.06508507319032514 
0 0 0 0 0 0 0 
0 0 0 0 0 0 0 
0 0 0 0 0 0 0 
0 0 0 0 0 0 0 
0 0 0 0 0 0 0 
0 0 0 0 0 0 0 
0 0 0 0 0 0 0 
0 0 0 0 0 0 0 
0 0 0 0 0 0 0 
0 0 0 0 0 0 0 
0 0 0 0 0 0 0 
0 0 0 0 0 0 0 
0 0 0 0 0 0 0 
0 0 0 0 0 0 0 
0 0 0 0 0 0 0 
0.06512456217941740 -0.1660006332251238 -0.1561173976350367 0.2644188950750726 0.02748197677734923 -0.5572589062952684 -0.1512045043200971 
0.3164498073295959 -0.04503846249775032 0.1644967338306172 -0.6954629473765300 -0.03236697873576210 0.04338763407819582 -0.09104099307889499 
-0.1289643898124893 -0.2863894700115627 0.07541301918506262 0.1726983051281916 -0.09688184772583043 -0.1267928124905274 -0.05598915480204782 
-0.2533788808577262 -0.1877697619990613 -0.02083454105489072 0.3476268707790199 -0.1423351410290561 -0.1201226981586406 -0.03460631488423797 
-0.1033251657733743 -0.1712668342083192 -0.1870001408073198 -0.1843386048721892 -0.1398474712111036 0.2374357861345822 -0.1342635416981429 
-0.3481401989062000 0.007906168444061301 -0.2956555706831237 -0.3487089960339144 -0.1275424916799445 0.5048535882672299 -0.07605378466516796 
-0.2167983335499453 0.07577309890250482 -0.03292478324664905 0.4012529419725200 -0.07064996895544669 -0.2546291843945246 -0.1101166820684288 
0.02282551562899763 -0.1776707395507520 -0.5346187476912823 0.4795030881606546 -0.2945289702080182 -0.1966637920549894 -0.06037250649346907 
0.2283682604990235 0.09184925858465764 -0.3064771609357012 -0.4279337579613115 -0.1176883769872755 0.3201650739127412 -0.03642498825483603 
-0.6823399345443304 -0.1967720647649289 1.024268029539917 -0.5815449008323614 3.469446951953614e-18 -0.4670891334242328 -0.2102203266580990 
-0.1033481674602573 -0.2105858578221568 -0.1410075107381966 0.08093983373288549 -0.1125125961233112 0.1516405470650891 -0.05732398210302839 
0.01525475358262145 -0.2009885010399080 -0.1211490235810850 -0.1916386388338667 0.09664800267839206 0.2025295384612461 -0.05357278652026344 
-0.04858273445544223 -0.1029911436539390 -0.1248588758486437 0.03900979891770692 -0.03683216919603381 0.08370719288830497 -0.1557123662758091 
-0.1012102926413337 0.02437315365177568 -0.2487793911563383 0.5591510414884640 -0.1172278127235491 -0.3674160197071077 -0.07964801921151231 
-0.1917918803678007 -0.2270901203131419 -0.1509420678989490 -0.5419625655843600 -0.1736855954207219 0.5332612627036164 -0.2654413057532399 
-0.1429957722127289 -0.3044318406032812 -0.1723239479904689 0.5535032207880687 -0.02656972098972712 -0.5449750975759693 -0.1653994929414862 
-0.4600410464898962 -0.1089679304946501 -0.2674430283939236 0.2689663661427806 -0.06281454541065509 -0.1248280838233017 -0.1248057742970158 
0.1257960996797050 -0.1322960031841775 0.1380863638720013 -0.3230205566743273 -0.3190720607386896 -0.1365846741632962 -0.09762840252527394 
-0.6690325993907141 -0.7727858945952392 -0.4526226804113384 -0.04251353532783268 -0.5821419225597981 -0.2731265928589524 -0.6532749755170114 
0.04751329496817262 0.04159265589390000 -0.08313813831772430 0.1453708307669667 0.06689441575507953 -0.1515077624515740 -0.02745168654639589 
-0.1325789708431291 0.1054907050567390 -0.007322380872814865 -0.2682061234715856 -0.3528953624934147 0.06164053538114910 0.2204963398187743 
